FANN_FLO_2.1
num_layers=3
learning_rate=0.700000
connection_rate=1.000000
network_type=0
learning_momentum=0.000000
training_algorithm=2
train_error_function=1
train_stop_function=0
cascade_output_change_fraction=0.010000
quickprop_decay=-0.000100
quickprop_mu=1.750000
rprop_increase_factor=1.200000
rprop_decrease_factor=0.500000
rprop_delta_min=0.000000
rprop_delta_max=50.000000
rprop_delta_zero=0.100000
cascade_output_stagnation_epochs=12
cascade_candidate_change_fraction=0.010000
cascade_candidate_stagnation_epochs=12
cascade_max_out_epochs=150
cascade_min_out_epochs=50
cascade_max_cand_epochs=150
cascade_min_cand_epochs=50
cascade_num_candidate_groups=2
bit_fail_limit=3.49999999999999977796e-01
cascade_candidate_limit=1.00000000000000000000e+03
cascade_weight_multiplier=4.00000000000000022204e-01
cascade_activation_functions_count=10
cascade_activation_functions=3 5 7 8 10 11 14 15 16 17 
cascade_activation_steepnesses_count=4
cascade_activation_steepnesses=2.50000000000000000000e-01 5.00000000000000000000e-01 7.50000000000000000000e-01 1.00000000000000000000e+00 
layer_sizes=161 108 2 
scale_included=0
neurons (num_inputs, activation_function, activation_steepness)=(0, 0, 0.00000000000000000000e+00) (0, 0, 0.00000000000000000000e+00) (0, 0, 0.00000000000000000000e+00) (0, 0, 0.00000000000000000000e+00) (0, 0, 0.00000000000000000000e+00) (0, 0, 0.00000000000000000000e+00) (0, 0, 0.00000000000000000000e+00) (0, 0, 0.00000000000000000000e+00) (0, 0, 0.00000000000000000000e+00) (0, 0, 0.00000000000000000000e+00) (0, 0, 0.00000000000000000000e+00) (0, 0, 0.00000000000000000000e+00) (0, 0, 0.00000000000000000000e+00) (0, 0, 0.00000000000000000000e+00) (0, 0, 0.00000000000000000000e+00) (0, 0, 0.00000000000000000000e+00) (0, 0, 0.00000000000000000000e+00) (0, 0, 0.00000000000000000000e+00) (0, 0, 0.00000000000000000000e+00) (0, 0, 0.00000000000000000000e+00) (0, 0, 0.00000000000000000000e+00) (0, 0, 0.00000000000000000000e+00) (0, 0, 0.00000000000000000000e+00) (0, 0, 0.00000000000000000000e+00) (0, 0, 0.00000000000000000000e+00) (0, 0, 0.00000000000000000000e+00) (0, 0, 0.00000000000000000000e+00) (0, 0, 0.00000000000000000000e+00) (0, 0, 0.00000000000000000000e+00) (0, 0, 0.00000000000000000000e+00) (0, 0, 0.00000000000000000000e+00) (0, 0, 0.00000000000000000000e+00) (0, 0, 0.00000000000000000000e+00) (0, 0, 0.00000000000000000000e+00) (0, 0, 0.00000000000000000000e+00) (0, 0, 0.00000000000000000000e+00) (0, 0, 0.00000000000000000000e+00) (0, 0, 0.00000000000000000000e+00) (0, 0, 0.00000000000000000000e+00) (0, 0, 0.00000000000000000000e+00) (0, 0, 0.00000000000000000000e+00) (0, 0, 0.00000000000000000000e+00) (0, 0, 0.00000000000000000000e+00) (0, 0, 0.00000000000000000000e+00) (0, 0, 0.00000000000000000000e+00) (0, 0, 0.00000000000000000000e+00) (0, 0, 0.00000000000000000000e+00) (0, 0, 0.00000000000000000000e+00) (0, 0, 0.00000000000000000000e+00) (0, 0, 0.00000000000000000000e+00) (0, 0, 0.00000000000000000000e+00) (0, 0, 0.00000000000000000000e+00) (0, 0, 0.00000000000000000000e+00) (0, 0, 0.00000000000000000000e+00) (0, 0, 0.00000000000000000000e+00) (0, 0, 0.00000000000000000000e+00) (0, 0, 0.00000000000000000000e+00) (0, 0, 0.00000000000000000000e+00) (0, 0, 0.00000000000000000000e+00) (0, 0, 0.00000000000000000000e+00) (0, 0, 0.00000000000000000000e+00) (0, 0, 0.00000000000000000000e+00) (0, 0, 0.00000000000000000000e+00) (0, 0, 0.00000000000000000000e+00) (0, 0, 0.00000000000000000000e+00) (0, 0, 0.00000000000000000000e+00) (0, 0, 0.00000000000000000000e+00) (0, 0, 0.00000000000000000000e+00) (0, 0, 0.00000000000000000000e+00) (0, 0, 0.00000000000000000000e+00) (0, 0, 0.00000000000000000000e+00) (0, 0, 0.00000000000000000000e+00) (0, 0, 0.00000000000000000000e+00) (0, 0, 0.00000000000000000000e+00) (0, 0, 0.00000000000000000000e+00) (0, 0, 0.00000000000000000000e+00) (0, 0, 0.00000000000000000000e+00) (0, 0, 0.00000000000000000000e+00) (0, 0, 0.00000000000000000000e+00) (0, 0, 0.00000000000000000000e+00) (0, 0, 0.00000000000000000000e+00) (0, 0, 0.00000000000000000000e+00) (0, 0, 0.00000000000000000000e+00) (0, 0, 0.00000000000000000000e+00) (0, 0, 0.00000000000000000000e+00) (0, 0, 0.00000000000000000000e+00) (0, 0, 0.00000000000000000000e+00) (0, 0, 0.00000000000000000000e+00) (0, 0, 0.00000000000000000000e+00) (0, 0, 0.00000000000000000000e+00) (0, 0, 0.00000000000000000000e+00) (0, 0, 0.00000000000000000000e+00) (0, 0, 0.00000000000000000000e+00) (0, 0, 0.00000000000000000000e+00) (0, 0, 0.00000000000000000000e+00) (0, 0, 0.00000000000000000000e+00) (0, 0, 0.00000000000000000000e+00) (0, 0, 0.00000000000000000000e+00) (0, 0, 0.00000000000000000000e+00) (0, 0, 0.00000000000000000000e+00) (0, 0, 0.00000000000000000000e+00) (0, 0, 0.00000000000000000000e+00) (0, 0, 0.00000000000000000000e+00) (0, 0, 0.00000000000000000000e+00) (0, 0, 0.00000000000000000000e+00) (0, 0, 0.00000000000000000000e+00) (0, 0, 0.00000000000000000000e+00) (0, 0, 0.00000000000000000000e+00) (0, 0, 0.00000000000000000000e+00) (0, 0, 0.00000000000000000000e+00) (0, 0, 0.00000000000000000000e+00) (0, 0, 0.00000000000000000000e+00) (0, 0, 0.00000000000000000000e+00) (0, 0, 0.00000000000000000000e+00) (0, 0, 0.00000000000000000000e+00) (0, 0, 0.00000000000000000000e+00) (0, 0, 0.00000000000000000000e+00) (0, 0, 0.00000000000000000000e+00) (0, 0, 0.00000000000000000000e+00) (0, 0, 0.00000000000000000000e+00) (0, 0, 0.00000000000000000000e+00) (0, 0, 0.00000000000000000000e+00) (0, 0, 0.00000000000000000000e+00) (0, 0, 0.00000000000000000000e+00) (0, 0, 0.00000000000000000000e+00) (0, 0, 0.00000000000000000000e+00) (0, 0, 0.00000000000000000000e+00) (0, 0, 0.00000000000000000000e+00) (0, 0, 0.00000000000000000000e+00) (0, 0, 0.00000000000000000000e+00) (0, 0, 0.00000000000000000000e+00) (0, 0, 0.00000000000000000000e+00) (0, 0, 0.00000000000000000000e+00) (0, 0, 0.00000000000000000000e+00) (0, 0, 0.00000000000000000000e+00) (0, 0, 0.00000000000000000000e+00) (0, 0, 0.00000000000000000000e+00) (0, 0, 0.00000000000000000000e+00) (0, 0, 0.00000000000000000000e+00) (0, 0, 0.00000000000000000000e+00) (0, 0, 0.00000000000000000000e+00) (0, 0, 0.00000000000000000000e+00) (0, 0, 0.00000000000000000000e+00) (0, 0, 0.00000000000000000000e+00) (0, 0, 0.00000000000000000000e+00) (0, 0, 0.00000000000000000000e+00) (0, 0, 0.00000000000000000000e+00) (0, 0, 0.00000000000000000000e+00) (0, 0, 0.00000000000000000000e+00) (0, 0, 0.00000000000000000000e+00) (0, 0, 0.00000000000000000000e+00) (0, 0, 0.00000000000000000000e+00) (0, 0, 0.00000000000000000000e+00) (0, 0, 0.00000000000000000000e+00) (0, 0, 0.00000000000000000000e+00) (0, 0, 0.00000000000000000000e+00) (0, 0, 0.00000000000000000000e+00) (0, 0, 0.00000000000000000000e+00) (0, 0, 0.00000000000000000000e+00) (0, 0, 0.00000000000000000000e+00) (0, 0, 0.00000000000000000000e+00) (161, 5, 5.00000000000000000000e-01) (161, 5, 5.00000000000000000000e-01) (161, 5, 5.00000000000000000000e-01) (161, 5, 5.00000000000000000000e-01) (161, 5, 5.00000000000000000000e-01) (161, 5, 5.00000000000000000000e-01) (161, 5, 5.00000000000000000000e-01) (161, 5, 5.00000000000000000000e-01) (161, 5, 5.00000000000000000000e-01) (161, 5, 5.00000000000000000000e-01) (161, 5, 5.00000000000000000000e-01) (161, 5, 5.00000000000000000000e-01) (161, 5, 5.00000000000000000000e-01) (161, 5, 5.00000000000000000000e-01) (161, 5, 5.00000000000000000000e-01) (161, 5, 5.00000000000000000000e-01) (161, 5, 5.00000000000000000000e-01) (161, 5, 5.00000000000000000000e-01) (161, 5, 5.00000000000000000000e-01) (161, 5, 5.00000000000000000000e-01) (161, 5, 5.00000000000000000000e-01) (161, 5, 5.00000000000000000000e-01) (161, 5, 5.00000000000000000000e-01) (161, 5, 5.00000000000000000000e-01) (161, 5, 5.00000000000000000000e-01) (161, 5, 5.00000000000000000000e-01) (161, 5, 5.00000000000000000000e-01) (161, 5, 5.00000000000000000000e-01) (161, 5, 5.00000000000000000000e-01) (161, 5, 5.00000000000000000000e-01) (161, 5, 5.00000000000000000000e-01) (161, 5, 5.00000000000000000000e-01) (161, 5, 5.00000000000000000000e-01) (161, 5, 5.00000000000000000000e-01) (161, 5, 5.00000000000000000000e-01) (161, 5, 5.00000000000000000000e-01) (161, 5, 5.00000000000000000000e-01) (161, 5, 5.00000000000000000000e-01) (161, 5, 5.00000000000000000000e-01) (161, 5, 5.00000000000000000000e-01) (161, 5, 5.00000000000000000000e-01) (161, 5, 5.00000000000000000000e-01) (161, 5, 5.00000000000000000000e-01) (161, 5, 5.00000000000000000000e-01) (161, 5, 5.00000000000000000000e-01) (161, 5, 5.00000000000000000000e-01) (161, 5, 5.00000000000000000000e-01) (161, 5, 5.00000000000000000000e-01) (161, 5, 5.00000000000000000000e-01) (161, 5, 5.00000000000000000000e-01) (161, 5, 5.00000000000000000000e-01) (161, 5, 5.00000000000000000000e-01) (161, 5, 5.00000000000000000000e-01) (161, 5, 5.00000000000000000000e-01) (161, 5, 5.00000000000000000000e-01) (161, 5, 5.00000000000000000000e-01) (161, 5, 5.00000000000000000000e-01) (161, 5, 5.00000000000000000000e-01) (161, 5, 5.00000000000000000000e-01) (161, 5, 5.00000000000000000000e-01) (161, 5, 5.00000000000000000000e-01) (161, 5, 5.00000000000000000000e-01) (161, 5, 5.00000000000000000000e-01) (161, 5, 5.00000000000000000000e-01) (161, 5, 5.00000000000000000000e-01) (161, 5, 5.00000000000000000000e-01) (161, 5, 5.00000000000000000000e-01) (161, 5, 5.00000000000000000000e-01) (161, 5, 5.00000000000000000000e-01) (161, 5, 5.00000000000000000000e-01) (161, 5, 5.00000000000000000000e-01) (161, 5, 5.00000000000000000000e-01) (161, 5, 5.00000000000000000000e-01) (161, 5, 5.00000000000000000000e-01) (161, 5, 5.00000000000000000000e-01) (161, 5, 5.00000000000000000000e-01) (161, 5, 5.00000000000000000000e-01) (161, 5, 5.00000000000000000000e-01) (161, 5, 5.00000000000000000000e-01) (161, 5, 5.00000000000000000000e-01) (161, 5, 5.00000000000000000000e-01) (161, 5, 5.00000000000000000000e-01) (161, 5, 5.00000000000000000000e-01) (161, 5, 5.00000000000000000000e-01) (161, 5, 5.00000000000000000000e-01) (161, 5, 5.00000000000000000000e-01) (161, 5, 5.00000000000000000000e-01) (161, 5, 5.00000000000000000000e-01) (161, 5, 5.00000000000000000000e-01) (161, 5, 5.00000000000000000000e-01) (161, 5, 5.00000000000000000000e-01) (161, 5, 5.00000000000000000000e-01) (161, 5, 5.00000000000000000000e-01) (161, 5, 5.00000000000000000000e-01) (161, 5, 5.00000000000000000000e-01) (161, 5, 5.00000000000000000000e-01) (161, 5, 5.00000000000000000000e-01) (161, 5, 5.00000000000000000000e-01) (161, 5, 5.00000000000000000000e-01) (161, 5, 5.00000000000000000000e-01) (161, 5, 5.00000000000000000000e-01) (161, 5, 5.00000000000000000000e-01) (161, 5, 5.00000000000000000000e-01) (161, 5, 5.00000000000000000000e-01) (161, 5, 5.00000000000000000000e-01) (161, 5, 5.00000000000000000000e-01) (161, 5, 5.00000000000000000000e-01) (0, 5, 0.00000000000000000000e+00) (108, 5, 5.00000000000000000000e-01) (0, 5, 0.00000000000000000000e+00) 
connections (connected_to_neuron, weight)=(0, 1.50000000000000000000e+03) (1, 1.50000000000000000000e+03) (2, 1.50000000000000000000e+03) (3, 1.50000000000000000000e+03) (4, 1.50000000000000000000e+03) (5, 1.50000000000000000000e+03) (6, 1.50000000000000000000e+03) (7, 1.50000000000000000000e+03) (8, 1.50000000000000000000e+03) (9, 1.50000000000000000000e+03) (10, 1.50000000000000000000e+03) (11, 1.50000000000000000000e+03) (12, 1.50000000000000000000e+03) (13, 1.50000000000000000000e+03) (14, 1.50000000000000000000e+03) (15, 1.50000000000000000000e+03) (16, 1.50000000000000000000e+03) (17, 1.50000000000000000000e+03) (18, 1.50000000000000000000e+03) (19, 1.50000000000000000000e+03) (20, 1.50000000000000000000e+03) (21, 1.50000000000000000000e+03) (22, 8.36858627019033574079e-01) (23, 8.54973856923685104903e-01) (24, -1.52379924166306568445e+00) (25, 4.51941991130542342070e-01) (26, 9.42615389119751512226e-01) (27, 7.20702858237477039793e-01) (28, -1.22675424348034800559e+00) (29, 1.50000000000000000000e+03) (30, 1.50000000000000000000e+03) (31, 9.00397468839474690583e-01) (32, 9.21355380445829319491e-01) (33, 5.77142707939146348828e-01) (34, 5.78724696120308634839e-01) (35, 6.53908920137694638086e-01) (36, 5.79330500264368053465e-01) (37, 9.29803359686582120425e-01) (38, 1.07834954562691054392e+00) (39, 1.50000000000000000000e+03) (40, 1.50000000000000000000e+03) (41, 2.24439238818601705105e+00) (42, 2.20049403241063101788e+00) (43, 1.11006967064354289398e+00) (44, 6.00502388418427290873e-01) (45, 5.91860554431219432203e-01) (46, 2.63732057162677380191e+00) (47, 1.99003537897767746045e+00) (48, 1.55113684619203717752e+00) (49, 1.50000000000000000000e+03) (50, 1.50000000000000000000e+03) (51, 2.61818532368906708996e+00) (52, 2.66965061917973844885e+00) (53, -4.52126826620937727341e-01) (54, 5.12972525747082186420e-01) (55, 4.89467478477407402782e-01) (56, 1.60012770477195465091e+00) (57, 2.80052182846466468646e+00) (58, 2.32554664173508740532e+00) (59, 1.50000000000000000000e+03) (60, 1.50000000000000000000e+03) (61, 1.51719224728011536918e+00) (62, 2.07762535308786056021e+00) (63, 8.60198295711253391183e-01) (64, 4.55766500852369249586e-01) (65, 4.76646584968280551120e-01) (66, 1.15685297279996390785e+00) (67, 1.76519763846097954563e+00) (68, 1.40476593656594372916e+00) (69, 1.50000000000000000000e+03) (70, 1.50000000000000000000e+03) (71, 1.58428943239429154133e+00) (72, 1.52637111640680522839e+00) (73, 9.93794803217330269263e-01) (74, 9.74393426556652619830e-01) (75, 1.10605824711403100125e+00) (76, 1.07908765532459050007e+00) (77, 1.31944491222482729320e+00) (78, 1.41924721429417055596e+00) (79, 1.50000000000000000000e+03) (80, 1.50000000000000000000e+03) (81, 7.32198331797248247454e-01) (82, 9.45331830765766323310e-01) (83, 3.64355424607592404129e-01) (84, 5.47087652342211350209e-01) (85, 5.12420637336291284747e-01) (86, 9.77114293654289478575e-01) (87, 1.24869587416233596144e+00) (88, 9.54474933985707485462e-01) (89, 1.50000000000000000000e+03) (90, 1.50000000000000000000e+03) (91, 1.96506548611491260736e+00) (92, 1.42823084865199789739e+00) (93, 9.18746370700139758370e-01) (94, 1.16411501997193966851e+00) (95, 9.45451863166631767399e-01) (96, 2.07385018257294806432e+00) (97, 5.76964204498391808329e+00) (98, 3.56064008419487976198e+00) (99, 1.50000000000000000000e+03) (100, 1.50000000000000000000e+03) (101, 1.41553805196110316089e+00) (102, 2.41087224475054062722e+00) (103, 1.06683596970692429196e+00) (104, 5.07913991882526616450e-01) (105, 5.45454723377956085528e-01) (106, 1.64392136660586696273e+00) (107, 2.09494340236790543841e+00) (108, 2.66269280689296428122e+00) (109, 1.50000000000000000000e+03) (110, 1.50000000000000000000e+03) (111, 1.37521080310568155625e+00) (112, 2.12414193064919576415e+00) (113, 6.34257504654087922447e-01) (114, 2.85443112544391308649e-01) (115, 5.91010421344909775421e-01) (116, 1.05199512664261307648e+00) (117, 1.26348410108013919917e+00) (118, 1.42416416764860365163e+00) (119, 1.50000000000000000000e+03) (120, 1.50000000000000000000e+03) (121, 1.87148887754208570477e+00) (122, 9.02698358033913628162e-01) (123, 6.14409154305247340311e-01) (124, 5.73445694357806345920e-01) (125, 6.97172372336736678733e-01) (126, 5.77677921193717858195e-01) (127, 7.71395892021458084997e-01) (128, 7.08995341381121413349e-01) (129, 1.50000000000000000000e+03) (130, 1.50000000000000000000e+03) (131, 4.77296970397891873183e-01) (132, 6.31141908338186286009e-01) (133, 1.35194914085035833295e+00) (134, 7.73086995051903813625e-01) (135, 5.34934823365571299192e-01) (136, 6.56382809020406021716e-01) (137, 4.42655503083637102968e-01) (138, 3.18074865896193104131e-01) (139, 1.50000000000000000000e+03) (140, 1.50000000000000000000e+03) (141, 7.51253586309428400547e-01) (142, 1.26899936454680672959e+00) (143, 1.09559040180244582352e+00) (144, 1.15941486916341918167e+00) (145, 1.14141559264459746537e+00) (146, 1.12879962882795470414e+00) (147, 7.41517477978043904052e-01) (148, 3.09533196815589550788e-01) (149, 1.50000000000000000000e+03) (150, 1.50000000000000000000e+03) (151, 1.50000000000000000000e+03) (152, 1.50000000000000000000e+03) (153, 1.50000000000000000000e+03) (154, 1.50000000000000000000e+03) (155, 1.50000000000000000000e+03) (156, 1.50000000000000000000e+03) (157, 1.50000000000000000000e+03) (158, 1.50000000000000000000e+03) (159, 1.50000000000000000000e+03) (160, 5.74308743815215572148e-01) (0, 1.50000000000000000000e+03) (1, 1.50000000000000000000e+03) (2, 1.50000000000000000000e+03) (3, 1.50000000000000000000e+03) (4, 1.50000000000000000000e+03) (5, 1.50000000000000000000e+03) (6, 1.50000000000000000000e+03) (7, 1.50000000000000000000e+03) (8, 1.50000000000000000000e+03) (9, 1.50000000000000000000e+03) (10, 1.50000000000000000000e+03) (11, 1.50000000000000000000e+03) (12, 1.50000000000000000000e+03) (13, 1.50000000000000000000e+03) (14, 1.50000000000000000000e+03) (15, 1.50000000000000000000e+03) (16, 1.50000000000000000000e+03) (17, 1.50000000000000000000e+03) (18, 1.50000000000000000000e+03) (19, 1.50000000000000000000e+03) (20, 1.50000000000000000000e+03) (21, 1.50000000000000000000e+03) (22, -6.95592971663459347376e-01) (23, -6.93188185017093227991e-01) (24, 7.56637054072213932621e-01) (25, 6.30105926960918827362e-01) (26, -1.05923012014744575282e+01) (27, -3.72742455666463745612e-01) (28, 1.17505412928629748848e+00) (29, 1.50000000000000000000e+03) (30, 1.50000000000000000000e+03) (31, -8.90096632257763864526e-02) (32, 7.86169157024682707657e-01) (33, -1.34889226689398489256e+00) (34, -2.34564567004514695769e-01) (35, -7.43445334086463571754e-02) (36, -1.56301676077693674216e+00) (37, -1.97968179493330675989e+00) (38, -5.88495552662852805526e-01) (39, 1.50000000000000000000e+03) (40, 1.50000000000000000000e+03) (41, 7.31819763979780352203e-02) (42, -1.62673531178572972067e-01) (43, -2.73305927770996714976e-01) (44, 8.39398881349110309591e-02) (45, -1.77036816555611625779e-01) (46, -2.23250576961327507064e+00) (47, -4.30806989567993348089e-01) (48, 1.51160524918579408649e+00) (49, 1.50000000000000000000e+03) (50, 1.50000000000000000000e+03) (51, -4.38778857111594922102e-01) (52, -8.60716170404895342116e-01) (53, -4.36849210741282856230e-01) (54, -2.74842360151680231706e-01) (55, -2.13460725852646859835e-01) (56, 6.58628061413459864326e-01) (57, -1.97693054423914205131e+00) (58, -3.03234922206959867097e+00) (59, 1.50000000000000000000e+03) (60, 1.50000000000000000000e+03) (61, 2.87693842188438186902e-01) (62, 7.70651518025379789201e-01) (63, -5.96266322117074087927e-01) (64, -1.25175264304615813105e-01) (65, -1.18654994969602925470e-01) (66, 2.87963656537127354884e-01) (67, -1.35248836869602012678e-01) (68, 3.65882624540070366947e-01) (69, 1.50000000000000000000e+03) (70, 1.50000000000000000000e+03) (71, -3.67293516121737217972e-02) (72, -2.27065159669482020954e-02) (73, -1.83564467807710504643e-02) (74, -9.95046255135252494251e-02) (75, -4.46352915732624200285e-01) (76, 3.32585285457426360622e+00) (77, -1.60034068226937338519e-02) (78, -3.18533612548961564404e-01) (79, 1.50000000000000000000e+03) (80, 1.50000000000000000000e+03) (81, -5.83979041897929596061e-01) (82, -4.16807259004228380928e-01) (83, 3.41784454202601839512e-01) (84, -1.00764831841403890156e-01) (85, -1.26127528290620703755e-02) (86, 1.07902879241624560791e-01) (87, -4.29258158626226959953e-01) (88, -5.10953729347951135509e-01) (89, 1.50000000000000000000e+03) (90, 1.50000000000000000000e+03) (91, -2.65921840306912946050e-02) (92, -2.96755175386403356741e-02) (93, 2.02109839174445596321e-02) (94, -7.62606016460613544972e-02) (95, -6.08444141053965104060e-02) (96, -3.16294502125841758833e-02) (97, -4.24777046770455496416e-02) (98, -6.40933602813687497424e-02) (99, 1.50000000000000000000e+03) (100, 1.50000000000000000000e+03) (101, -2.42478913556481767699e-01) (102, -8.47816129014801522779e-01) (103, -5.27234354257502119134e-02) (104, -9.06641464867173757503e-02) (105, -1.03135665430356668337e-01) (106, -4.25081850352979767615e-02) (107, -3.37210524875400097233e-02) (108, -3.87041165066472958589e-01) (109, 1.50000000000000000000e+03) (110, 1.50000000000000000000e+03) (111, 1.44222491571966825868e-02) (112, 8.71241385666807754973e-02) (113, -1.12802405056227322833e-01) (114, 3.37549587087222269233e+00) (115, 4.46847354996652124104e-01) (116, 7.62787599204618471660e-02) (117, 1.62448188342662436234e+00) (118, 3.80282446345921343323e-01) (119, 1.50000000000000000000e+03) (120, 1.50000000000000000000e+03) (121, -2.23159264228492221216e-01) (122, 2.77495319398141759848e-01) (123, 4.50360781322075506838e-02) (124, -4.91573263520058770237e-02) (125, -4.88060215022235871496e-02) (126, -8.02473758857228658403e-02) (127, 9.49974630606495312746e-02) (128, 1.77950542304388198422e-01) (129, 1.50000000000000000000e+03) (130, 1.50000000000000000000e+03) (131, -2.01133746905138938166e-01) (132, -4.65445573405103285580e-01) (133, -1.70940404104444354516e+01) (134, -4.24235261512907868564e+00) (135, -2.60510059340741539913e+00) (136, 2.00724101342190958119e-01) (137, -1.19612885298739382578e-01) (138, -3.45456239005216048099e-01) (139, 1.50000000000000000000e+03) (140, 1.50000000000000000000e+03) (141, -5.38477986310079259624e-01) (142, -3.36812305325797256561e-01) (143, -1.43068493604145280385e-01) (144, -1.89424694776020252629e-01) (145, -9.37826049322713767298e-02) (146, -1.74349011182270308140e-01) (147, -1.40169499580010481488e+00) (148, 3.60904936561886879876e-01) (149, 1.50000000000000000000e+03) (150, 1.50000000000000000000e+03) (151, 1.50000000000000000000e+03) (152, 1.50000000000000000000e+03) (153, 1.50000000000000000000e+03) (154, 1.50000000000000000000e+03) (155, 1.50000000000000000000e+03) (156, 1.50000000000000000000e+03) (157, 1.50000000000000000000e+03) (158, 1.50000000000000000000e+03) (159, 1.50000000000000000000e+03) (160, -3.60616734149544829191e-02) (0, 1.50000000000000000000e+03) (1, 1.50000000000000000000e+03) (2, 1.50000000000000000000e+03) (3, 1.50000000000000000000e+03) (4, 1.50000000000000000000e+03) (5, 1.50000000000000000000e+03) (6, 1.50000000000000000000e+03) (7, 1.50000000000000000000e+03) (8, 1.50000000000000000000e+03) (9, 1.50000000000000000000e+03) (10, 1.50000000000000000000e+03) (11, 1.50000000000000000000e+03) (12, 1.50000000000000000000e+03) (13, 1.50000000000000000000e+03) (14, 1.50000000000000000000e+03) (15, 1.50000000000000000000e+03) (16, 1.50000000000000000000e+03) (17, 1.50000000000000000000e+03) (18, 1.50000000000000000000e+03) (19, 1.50000000000000000000e+03) (20, 1.50000000000000000000e+03) (21, 1.50000000000000000000e+03) (22, -5.75762646417602108606e-01) (23, -5.29662797372325355738e-01) (24, 9.82168158213588049499e-01) (25, 6.94424773872110767670e-01) (26, -1.06415199529645736476e+01) (27, -3.21668233936231451331e-01) (28, 1.00756755851078905195e+00) (29, 1.50000000000000000000e+03) (30, 1.50000000000000000000e+03) (31, -1.06491689645613410442e-01) (32, 7.83844347764212079355e-03) (33, -3.42751370688267165132e-01) (34, -3.76289231128686285643e-01) (35, -6.12769823455300621795e-01) (36, -7.43736896677269387901e-01) (37, -4.70999609410835740064e-01) (38, -2.35692716782310601742e-01) (39, 1.50000000000000000000e+03) (40, 1.50000000000000000000e+03) (41, 1.21250949213860641229e-02) (42, -1.02111112375072199399e+00) (43, -5.14414715534916799911e-01) (44, -8.24669390414725922422e-02) (45, -6.54684908964023981603e-01) (46, -1.19762271703424416636e+00) (47, -7.37708776734940729902e-01) (48, 5.96454280371919026704e-02) (49, 1.50000000000000000000e+03) (50, 1.50000000000000000000e+03) (51, -1.76638086040221997663e+00) (52, -1.42790813701823471327e+00) (53, -3.47899885002690090197e-01) (54, -2.05234325528286326579e-01) (55, 1.36897558867665214422e+00) (56, -1.06005382374506740284e+00) (57, -1.76899112575286610038e+00) (58, 3.68722241566407715752e+00) (59, 1.50000000000000000000e+03) (60, 1.50000000000000000000e+03) (61, 4.70413802714641837710e-01) (62, 3.62557638574216967164e-01) (63, -1.77507333225869978754e-01) (64, -7.22972780771712897341e-02) (65, -1.48301097405269005636e-01) (66, -3.41634814194789193653e-02) (67, -4.20518550793487155826e-01) (68, 2.20418642399664271858e-01) (69, 1.50000000000000000000e+03) (70, 1.50000000000000000000e+03) (71, -5.98956722993240486819e-02) (72, 3.14188180840670683303e-01) (73, -7.41622442011028865094e-02) (74, -1.40281349922724424273e-01) (75, -1.76610799926714823194e+00) (76, 1.60266225703220771548e-01) (77, -1.13683920453509446080e-01) (78, -1.49444983302932904445e-01) (79, 1.50000000000000000000e+03) (80, 1.50000000000000000000e+03) (81, -2.41964588482520698287e-01) (82, -7.06849437712128193800e-03) (83, -2.51861664824967690368e-01) (84, -2.13245914738221867268e-02) (85, -1.49092843837758448622e-01) (86, -9.93238598013219259331e-02) (87, -2.37511468488959598400e-01) (88, -5.49908026309305908441e-01) (89, 1.50000000000000000000e+03) (90, 1.50000000000000000000e+03) (91, -6.24740551356628356916e-02) (92, -6.71815823698898306748e-02) (93, 1.12487325447387959132e-01) (94, -6.38897026786165667112e-01) (95, -1.17927313608625031205e-01) (96, -6.03983243721687990124e-01) (97, 9.30055916693502265913e-02) (98, 1.26204897629275447635e-01) (99, 1.50000000000000000000e+03) (100, 1.50000000000000000000e+03) (101, -3.69518748646527825374e-02) (102, -1.89824210357740288946e-02) (103, -1.63466103026143477761e-02) (104, -8.48052655809305333534e-01) (105, -3.98393483112416180170e-01) (106, -9.84194484254915097354e-02) (107, 4.33716072894042015129e-02) (108, -1.53358716447828061918e-02) (109, 1.50000000000000000000e+03) (110, 1.50000000000000000000e+03) (111, -3.16088935376732615978e+00) (112, 2.48833488766355859223e-01) (113, -1.07920287590079586049e-01) (114, 8.83447500892886178336e-02) (115, 6.87408433109786137782e-02) (116, 1.52140395490070967632e-01) (117, 1.93393848855938077502e-01) (118, -2.13270642257194532887e-02) (119, 1.50000000000000000000e+03) (120, 1.50000000000000000000e+03) (121, -2.93150575804007940128e-01) (122, -1.61911795583642263707e-02) (123, -1.93530828262632348391e-01) (124, -6.49136147676465102840e-02) (125, -2.28538921753600965392e-01) (126, 2.99507745629014818234e-02) (127, -3.82222920253999842721e-01) (128, -2.59796527232000529217e-01) (129, 1.50000000000000000000e+03) (130, 1.50000000000000000000e+03) (131, 1.58285048680131823495e-02) (132, -3.04888806469890250028e-01) (133, -1.71886388006064301237e+01) (134, -4.42623666376755320329e+00) (135, 2.10127032244793632287e+00) (136, -4.84892982650675929968e-02) (137, 6.76161046983320395548e-03) (138, 5.27170648911554295957e-01) (139, 1.50000000000000000000e+03) (140, 1.50000000000000000000e+03) (141, -5.40272413943364782085e-01) (142, 3.56696160462438432992e-02) (143, 6.95316450451415601908e-02) (144, 9.06620206092399461006e-02) (145, 2.50187063370762262371e-02) (146, 8.79520581816238267159e-02) (147, -1.05412676794040927053e-01) (148, 1.89145897398290963043e-01) (149, 1.50000000000000000000e+03) (150, 1.50000000000000000000e+03) (151, 1.50000000000000000000e+03) (152, 1.50000000000000000000e+03) (153, 1.50000000000000000000e+03) (154, 1.50000000000000000000e+03) (155, 1.50000000000000000000e+03) (156, 1.50000000000000000000e+03) (157, 1.50000000000000000000e+03) (158, 1.50000000000000000000e+03) (159, 1.50000000000000000000e+03) (160, -1.82757079238552749834e-01) (0, 1.50000000000000000000e+03) (1, 1.50000000000000000000e+03) (2, 1.50000000000000000000e+03) (3, 1.50000000000000000000e+03) (4, 1.50000000000000000000e+03) (5, 1.50000000000000000000e+03) (6, 1.50000000000000000000e+03) (7, 1.50000000000000000000e+03) (8, 1.50000000000000000000e+03) (9, 1.50000000000000000000e+03) (10, 1.50000000000000000000e+03) (11, 1.50000000000000000000e+03) (12, 1.50000000000000000000e+03) (13, 1.50000000000000000000e+03) (14, 1.50000000000000000000e+03) (15, 1.50000000000000000000e+03) (16, 1.50000000000000000000e+03) (17, 1.50000000000000000000e+03) (18, 1.50000000000000000000e+03) (19, 1.50000000000000000000e+03) (20, 1.50000000000000000000e+03) (21, 1.50000000000000000000e+03) (22, 3.10956495600445748106e-01) (23, 2.33997265594696718383e-01) (24, 1.58920964052819213563e+00) (25, 7.72983082487059047772e-01) (26, -1.16628301814021240190e+00) (27, 3.66147090442517197939e-01) (28, 3.96161057887074763428e+00) (29, 1.50000000000000000000e+03) (30, 1.50000000000000000000e+03) (31, 4.35489269571024129046e-01) (32, 4.86569445811017575743e-01) (33, 3.87117236319960256186e-01) (34, 3.54714835515472559635e-01) (35, 3.65259317974075459201e-01) (36, 3.73110480572893699058e-01) (37, 4.07830345517387116150e-01) (38, 3.55900833048029330286e-01) (39, 1.50000000000000000000e+03) (40, 1.50000000000000000000e+03) (41, 4.11160719975598443199e-01) (42, 2.58788847621211848260e-01) (43, 1.46058003333633196208e-01) (44, 4.76470760208071553166e-01) (45, 2.48518959505204556359e-01) (46, 2.31595891805277370734e-01) (47, 2.99820900122091726914e-01) (48, 4.71959848769353332298e-02) (49, 1.50000000000000000000e+03) (50, 1.50000000000000000000e+03) (51, -1.87655159591535725117e-01) (52, 3.32335295281998677197e-01) (53, 2.86803339636804432988e-01) (54, 3.81525034378508709487e-01) (55, 4.03022645495310138930e-01) (56, 4.02678150123458922227e-01) (57, 2.22350949736443231908e-01) (58, 4.82259757271391809041e-01) (59, 1.50000000000000000000e+03) (60, 1.50000000000000000000e+03) (61, 1.62190241337071966443e-01) (62, -2.63103776814168389964e-02) (63, 3.66953707701936804320e-01) (64, 5.18054604517213967974e-01) (65, 5.02543182540046928786e-01) (66, 1.68512763604900667191e-01) (67, -1.01039876206492369032e-02) (68, 2.92042122088957190051e-01) (69, 1.50000000000000000000e+03) (70, 1.50000000000000000000e+03) (71, 4.39502477122343040983e-02) (72, 1.02758362462258806547e-01) (73, 5.60003578197127316329e-01) (74, 5.03152394114883882992e-01) (75, 2.09654124940727409898e-01) (76, 4.99816136292034585153e-01) (77, 4.11541063228364256688e-01) (78, 4.07195682056678942562e-01) (79, 1.50000000000000000000e+03) (80, 1.50000000000000000000e+03) (81, 2.90864975128392821979e-01) (82, 2.66577159923028494948e-01) (83, 3.78370898310769243622e+00) (84, 5.02291381881920129260e-01) (85, 4.60180606852071183432e-01) (86, 3.44787857215429538460e-01) (87, 3.61184636639168332728e-01) (88, 2.21609301346855414039e-01) (89, 1.50000000000000000000e+03) (90, 1.50000000000000000000e+03) (91, 4.00158650115484265664e-02) (92, 1.59283504635278405637e-01) (93, 2.13192224539667407601e-01) (94, 3.79113126629816721280e-01) (95, 3.61641400978425675561e-01) (96, -7.57699475600794314367e-02) (97, -4.70067578412257602860e-01) (98, -3.98985011959074487020e-01) (99, 1.50000000000000000000e+03) (100, 1.50000000000000000000e+03) (101, 1.28195766119615257861e-02) (102, -1.51061420862980522184e-01) (103, 4.17742287354935348809e-01) (104, 5.43331491513765474366e-01) (105, 4.31297946399545939489e-01) (106, 1.82727484440512649710e-01) (107, -6.31715392558818561453e-02) (108, -2.12195866684356138077e-01) (109, 1.50000000000000000000e+03) (110, 1.50000000000000000000e+03) (111, 1.72148025522542102994e-01) (112, -4.63985661130063981039e-02) (113, 5.30932910160678450673e-01) (114, 4.32973527586846818060e-01) (115, 3.37565439123576394032e-01) (116, 1.45242377618939266792e-01) (117, 1.41895755438544435290e-01) (118, 1.19464450652604831093e-01) (119, 1.50000000000000000000e+03) (120, 1.50000000000000000000e+03) (121, 8.47858288580929375655e-02) (122, 3.27362191714685613064e-01) (123, 4.30513154819029519871e-01) (124, 3.72177115022237436914e-01) (125, 3.60072003374308169388e-01) (126, 3.46255984523929638552e-01) (127, 1.89217386593962283436e-01) (128, 4.66391776541739966344e-01) (129, 1.50000000000000000000e+03) (130, 1.50000000000000000000e+03) (131, 6.98325889274918121252e-01) (132, 3.99319367268990033093e-01) (133, 4.15905757687631771891e-01) (134, -1.17537244739075408262e+00) (135, 1.13697693858066634087e-01) (136, 6.14769476017052896033e-01) (137, 6.71882692504954359691e-01) (138, 7.37685081842567536015e-01) (139, 1.50000000000000000000e+03) (140, 1.50000000000000000000e+03) (141, 3.66699768885328347690e-01) (142, 3.39319596139751489261e-01) (143, 4.38856464370431464950e-01) (144, 4.07325696691217042922e-01) (145, 4.10920668884458162307e-01) (146, 4.32777356847466987411e-01) (147, 5.64758350454873991886e-01) (148, 1.29730826875408733478e+00) (149, 1.50000000000000000000e+03) (150, 1.50000000000000000000e+03) (151, 1.50000000000000000000e+03) (152, 1.50000000000000000000e+03) (153, 1.50000000000000000000e+03) (154, 1.50000000000000000000e+03) (155, 1.50000000000000000000e+03) (156, 1.50000000000000000000e+03) (157, 1.50000000000000000000e+03) (158, 1.50000000000000000000e+03) (159, 1.50000000000000000000e+03) (160, 4.78174527080282130154e-01) (0, 1.50000000000000000000e+03) (1, 1.50000000000000000000e+03) (2, 1.50000000000000000000e+03) (3, 1.50000000000000000000e+03) (4, 1.50000000000000000000e+03) (5, 1.50000000000000000000e+03) (6, 1.50000000000000000000e+03) (7, 1.50000000000000000000e+03) (8, 1.50000000000000000000e+03) (9, 1.50000000000000000000e+03) (10, 1.50000000000000000000e+03) (11, 1.50000000000000000000e+03) (12, 1.50000000000000000000e+03) (13, 1.50000000000000000000e+03) (14, 1.50000000000000000000e+03) (15, 1.50000000000000000000e+03) (16, 1.50000000000000000000e+03) (17, 1.50000000000000000000e+03) (18, 1.50000000000000000000e+03) (19, 1.50000000000000000000e+03) (20, 1.50000000000000000000e+03) (21, 1.50000000000000000000e+03) (22, -4.09119733852837508259e-01) (23, -4.26966422481034335590e-01) (24, 1.62754213076832932039e+00) (25, 3.27439209463939340239e-01) (26, 4.83582998176609712981e-01) (27, -3.89978373208780926262e-01) (28, 2.90520333022955989932e+00) (29, 1.50000000000000000000e+03) (30, 1.50000000000000000000e+03) (31, 4.27786687296629553057e-01) (32, 1.20528575526302389465e-01) (33, 1.52120875411336630573e-02) (34, -6.17388565396383703909e-02) (35, 1.30943650342736140658e-03) (36, 1.00915599284887982923e-01) (37, -1.17842040711009315990e-01) (38, -2.35412196258109440716e-01) (39, 1.50000000000000000000e+03) (40, 1.50000000000000000000e+03) (41, 3.77825220898955926874e-01) (42, 1.46322593708605203089e-01) (43, -1.89205311417145055630e-01) (44, -1.14089979425899601395e-01) (45, 2.60582356704586425022e-02) (46, 4.10120843378069532825e-01) (47, -5.06075073140616338296e-02) (48, -7.53010895284740022770e-02) (49, 1.50000000000000000000e+03) (50, 1.50000000000000000000e+03) (51, 1.53102297203084547483e-01) (52, 3.91247730885622091446e-01) (53, -8.55462601312228926309e-02) (54, -1.27619686979342700228e-01) (55, -4.21003072802344446846e-01) (56, 8.48929349967144752931e-01) (57, 2.33499557786073203003e-01) (58, 4.00659400879388102878e-02) (59, 1.50000000000000000000e+03) (60, 1.50000000000000000000e+03) (61, -2.61596114303751181573e-01) (62, -1.79496809719371852587e+00) (63, 5.55771799660621845796e-01) (64, -3.87554731731762636127e-02) (65, 1.16210726196879620548e-02) (66, 7.93118797413259746243e-01) (67, -3.55862815013294087052e+00) (68, -1.93856282341618801901e+00) (69, 1.50000000000000000000e+03) (70, 1.50000000000000000000e+03) (71, -8.46400561735049239420e-02) (72, -5.68747590255776480639e-01) (73, 2.03302783361744648927e-01) (74, -5.56946299842683220649e-02) (75, -1.27106972029211146014e-01) (76, 6.99039710374108835822e-01) (77, -1.25275805905418563535e-01) (78, -4.25338029238454318204e-01) (79, 1.50000000000000000000e+03) (80, 1.50000000000000000000e+03) (81, 5.46674850122300590161e-02) (82, -2.22243484563694228273e-02) (83, 7.08602933358502551364e-01) (84, -2.61556086201211068776e-01) (85, -1.97484841069415995030e-01) (86, 8.15812551850693346012e-01) (87, 4.04660363621988650173e-02) (88, -2.11976524035291236103e+00) (89, 1.50000000000000000000e+03) (90, 1.50000000000000000000e+03) (91, -5.11566870260573347551e-01) (92, 2.24600542008487735757e+00) (93, 2.87806225010012739496e-01) (94, -9.38288203121741409829e-02) (95, -8.03027364447149866189e-02) (96, 7.91596825836521911235e-01) (97, -5.48970671052270597912e-01) (98, -4.20464511121770279090e+00) (99, 1.50000000000000000000e+03) (100, 1.50000000000000000000e+03) (101, 3.72559486053877286782e-01) (102, -1.20148584154917886790e-01) (103, -1.67931971951473940630e-01) (104, -8.64005790548873775503e-02) (105, 3.40361239107190918785e-02) (106, 7.53565287681057571767e-01) (107, 3.48522510187496969980e-01) (108, -1.81697925004825799888e+00) (109, 1.50000000000000000000e+03) (110, 1.50000000000000000000e+03) (111, 9.09324863925762005845e-02) (112, -1.34873012328617747357e+00) (113, 1.20470283059365707717e-02) (114, -6.38883141890305844557e-02) (115, 1.00752516292968330447e-01) (116, 1.35593131794322918626e-01) (117, -2.74580830474407233677e-01) (118, -2.51288126283295509822e+00) (119, 1.50000000000000000000e+03) (120, 1.50000000000000000000e+03) (121, 1.04937110019843474196e-01) (122, 3.60306410870357862741e-01) (123, 8.96838154996290604082e-02) (124, -1.05630067807453639772e-01) (125, -9.41263018601324469303e-02) (126, -1.04098690925401513030e-01) (127, 6.20086719211003223329e-02) (128, 4.13177250147160624039e+00) (129, 1.50000000000000000000e+03) (130, 1.50000000000000000000e+03) (131, 8.51579825313982796686e-01) (132, -2.80198947447544890327e-03) (133, -2.80552154611124315853e-01) (134, 3.96653356511747975932e-02) (135, -1.90628830655872161899e-04) (136, -1.37487688980059169497e-01) (137, 3.40206455188447887128e-02) (138, 4.67189301707790161089e-01) (139, 1.50000000000000000000e+03) (140, 1.50000000000000000000e+03) (141, -1.01909906418903251080e+00) (142, 3.16942046113728392864e-01) (143, 3.42055973606555541178e-01) (144, 3.91036686497180430155e-01) (145, 2.96151434081046660562e-01) (146, 3.33108221190421660562e-01) (147, -1.73817819669804835003e-01) (148, 8.88519399333915549377e-01) (149, 1.50000000000000000000e+03) (150, 1.50000000000000000000e+03) (151, 1.50000000000000000000e+03) (152, 1.50000000000000000000e+03) (153, 1.50000000000000000000e+03) (154, 1.50000000000000000000e+03) (155, 1.50000000000000000000e+03) (156, 1.50000000000000000000e+03) (157, 1.50000000000000000000e+03) (158, 1.50000000000000000000e+03) (159, 1.50000000000000000000e+03) (160, -1.05336534785400157133e-01) (0, 1.50000000000000000000e+03) (1, 1.50000000000000000000e+03) (2, 1.50000000000000000000e+03) (3, 1.50000000000000000000e+03) (4, 1.50000000000000000000e+03) (5, 1.50000000000000000000e+03) (6, 1.50000000000000000000e+03) (7, 1.50000000000000000000e+03) (8, 1.50000000000000000000e+03) (9, 1.50000000000000000000e+03) (10, 1.50000000000000000000e+03) (11, 1.50000000000000000000e+03) (12, 1.50000000000000000000e+03) (13, 1.50000000000000000000e+03) (14, 1.50000000000000000000e+03) (15, 1.50000000000000000000e+03) (16, 1.50000000000000000000e+03) (17, 1.50000000000000000000e+03) (18, 1.50000000000000000000e+03) (19, 1.50000000000000000000e+03) (20, 1.50000000000000000000e+03) (21, 1.50000000000000000000e+03) (22, 2.16120066838955710020e-01) (23, 1.88098824369406586454e-01) (24, 1.46208560665987929994e+00) (25, 7.16940604998541286541e-01) (26, -1.19036748930634606047e+00) (27, 3.28561638243534959170e-01) (28, 3.86346604762074630202e+00) (29, 1.50000000000000000000e+03) (30, 1.50000000000000000000e+03) (31, 5.17630385832495099052e-01) (32, 4.58401721201642575743e-01) (33, 3.42013822203053208248e-01) (34, 5.10651096772764989673e-01) (35, 3.64492123528447176106e-01) (36, 4.10084676247085333500e-01) (37, 4.34058442746783901267e-01) (38, 3.98301953114672091516e-01) (39, 1.50000000000000000000e+03) (40, 1.50000000000000000000e+03) (41, 2.80020584746963729916e-01) (42, 3.54516388173831187292e-01) (43, 1.26438585098977457344e-01) (44, 4.56366377501381537130e-01) (45, 2.72679227471385676740e-01) (46, 1.82983391735942635403e-01) (47, 3.84342394927904562607e-01) (48, 1.09067319787326380554e-01) (49, 1.50000000000000000000e+03) (50, 1.50000000000000000000e+03) (51, -2.15401747583250174900e-01) (52, 1.19330995490968067019e-01) (53, 1.77813869406076269231e-01) (54, 4.43702712655667463881e-01) (55, 5.29862070295209930393e-01) (56, 2.70183775508586410119e-01) (57, 3.02426409601025847351e-01) (58, 3.70229735425097794543e-01) (59, 1.50000000000000000000e+03) (60, 1.50000000000000000000e+03) (61, -1.61850102541326312799e-02) (62, 3.42242858169848757077e-02) (63, 2.25736665941246750222e-01) (64, 5.70740148411981507159e-01) (65, 6.06827849018662934810e-01) (66, 2.20392646417400833725e-01) (67, 8.16501680134709556524e-02) (68, 2.21741826139966374809e-01) (69, 1.50000000000000000000e+03) (70, 1.50000000000000000000e+03) (71, 1.17902325239856192729e-01) (72, 1.35286574934914555213e-01) (73, 4.75445471238278516424e-01) (74, 5.18790529235459096924e-01) (75, 1.40325895519641169473e-01) (76, 3.79288925996293047049e-01) (77, 2.12478391167824604002e-01) (78, 2.80663294100347349147e-01) (79, 1.50000000000000000000e+03) (80, 1.50000000000000000000e+03) (81, 4.48396865115479936748e-01) (82, 3.06544965101586408540e-01) (83, 3.89059984777796907807e+00) (84, 4.22966147201322251181e-01) (85, 4.11236436719810471985e-01) (86, 2.87745180167811642757e-01) (87, 3.13309090894940023286e-01) (88, 2.81185715872372787860e-01) (89, 1.50000000000000000000e+03) (90, 1.50000000000000000000e+03) (91, -6.56115749045874940837e-02) (92, 1.92266912013475177456e-01) (93, 2.37209558524042407601e-01) (94, 1.10768129017998595565e-01) (95, 4.96175968323689028927e-02) (96, 9.34134579010069410199e-02) (97, -6.20079479151106505164e-01) (98, -5.39370680743192498774e-01) (99, 1.50000000000000000000e+03) (100, 1.50000000000000000000e+03) (101, 1.62533673901050529365e-01) (102, -7.41869391348082551918e-02) (103, 3.76248893529290973081e-01) (104, 4.64720510840948841658e-01) (105, 5.22791670356904214501e-01) (106, 5.30974361236787387175e-02) (107, -8.96324459290124969657e-02) (108, -2.06173644066979244727e-01) (109, 1.50000000000000000000e+03) (110, 1.50000000000000000000e+03) (111, 1.16437197443976292455e-01) (112, 6.19454443187646003333e-02) (113, 5.56353190666690200494e-01) (114, 6.03512439368897535275e-01) (115, 5.26815329597840498188e-01) (116, 4.03680110586330520572e-01) (117, 1.24194960534312379141e-01) (118, 8.11893056583448263774e-02) (119, 1.50000000000000000000e+03) (120, 1.50000000000000000000e+03) (121, 4.43622418934867673856e-02) (122, 2.63507214226163188897e-01) (123, 3.69809215470275010063e-01) (124, 3.65722718753144437898e-01) (125, 4.94430644739618063710e-01) (126, 5.14697594383352718950e-01) (127, 2.24396842000051999211e-01) (128, 5.99588801006332494659e-01) (129, 1.50000000000000000000e+03) (130, 1.50000000000000000000e+03) (131, 5.71681993165110036159e-01) (132, 5.16210880638141578203e-01) (133, 3.01696809807557919658e-01) (134, 2.96590477327818957676e-01) (135, 2.10447248288181870679e-01) (136, 5.36320095789619810667e-01) (137, 4.54975517229016301890e-01) (138, 5.99178365802027101950e-01) (139, 1.50000000000000000000e+03) (140, 1.50000000000000000000e+03) (141, 4.50867249354078569734e-01) (142, 4.05457297412715911289e-01) (143, 3.63661144419850923537e-01) (144, 4.25953623398484748641e-01) (145, 4.87800550206842042922e-01) (146, 4.68110617741288648208e-01) (147, 4.68060356878361560895e-01) (148, 1.33778678884943591498e+00) (149, 1.50000000000000000000e+03) (150, 1.50000000000000000000e+03) (151, 1.50000000000000000000e+03) (152, 1.50000000000000000000e+03) (153, 1.50000000000000000000e+03) (154, 1.50000000000000000000e+03) (155, 1.50000000000000000000e+03) (156, 1.50000000000000000000e+03) (157, 1.50000000000000000000e+03) (158, 1.50000000000000000000e+03) (159, 1.50000000000000000000e+03) (160, 4.37664026322511112710e-01) (0, 1.50000000000000000000e+03) (1, 1.50000000000000000000e+03) (2, 1.50000000000000000000e+03) (3, 1.50000000000000000000e+03) (4, 1.50000000000000000000e+03) (5, 1.50000000000000000000e+03) (6, 1.50000000000000000000e+03) (7, 1.50000000000000000000e+03) (8, 1.50000000000000000000e+03) (9, 1.50000000000000000000e+03) (10, 1.50000000000000000000e+03) (11, 1.50000000000000000000e+03) (12, 1.50000000000000000000e+03) (13, 1.50000000000000000000e+03) (14, 1.50000000000000000000e+03) (15, 1.50000000000000000000e+03) (16, 1.50000000000000000000e+03) (17, 1.50000000000000000000e+03) (18, 1.50000000000000000000e+03) (19, 1.50000000000000000000e+03) (20, 1.50000000000000000000e+03) (21, 1.50000000000000000000e+03) (22, -3.76797135848353947907e-01) (23, -2.23550058830339265503e-01) (24, 9.26622045028556495794e-01) (25, 1.65774933542689545396e-01) (26, -2.04031782061265209993e-01) (27, -2.34993940806316359282e-01) (28, 3.41100654647347489856e+00) (29, 1.50000000000000000000e+03) (30, 1.50000000000000000000e+03) (31, -3.69156028728324647759e-01) (32, -1.57273032889263392198e-01) (33, -1.82964499439163014172e-01) (34, -1.15010511752407373898e+00) (35, -1.21041337781947977437e-01) (36, -2.90693195254347280798e-01) (37, -3.38549384351007565108e-01) (38, -3.48493050621260569422e-01) (39, 1.50000000000000000000e+03) (40, 1.50000000000000000000e+03) (41, -1.27230305804987176010e+00) (42, -1.23308931963844936597e+00) (43, -2.27084596597958793263e-01) (44, -1.55547690482086636843e-01) (45, -3.65630895864663851835e-01) (46, -1.73454700588099919312e-01) (47, -1.14789184576846192698e+00) (48, -6.17401334268991575094e-01) (49, 1.50000000000000000000e+03) (50, 1.50000000000000000000e+03) (51, -1.57847958425493839485e+00) (52, -1.18272082479150975054e+00) (53, -2.98315330493010566482e-01) (54, -1.87743700684687597757e-01) (55, -2.57011857867889825791e-01) (56, -9.34523942069676594180e-02) (57, -1.52743128572396580367e+00) (58, 2.51684571747061269775e-01) (59, 1.50000000000000000000e+03) (60, 1.50000000000000000000e+03) (61, -5.79378808656543564659e-01) (62, -1.05378416567147858984e+00) (63, -2.50499885589050841350e-01) (64, -1.64736767804875977594e-01) (65, -1.22609769388177664018e-01) (66, -3.91891614484946415597e-01) (67, -8.67554724228650098183e-01) (68, -3.44373842248221428974e-01) (69, 1.50000000000000000000e+03) (70, 1.50000000000000000000e+03) (71, -5.02334802931397317316e-01) (72, -5.12131130316309413075e-01) (73, -3.46783830669823045501e-01) (74, -3.03997821838119353099e-01) (75, -3.81643167386510051564e-01) (76, -3.27506127867055130132e-01) (77, -2.96939453031893951795e-01) (78, -5.46490951206282549180e-01) (79, 1.50000000000000000000e+03) (80, 1.50000000000000000000e+03) (81, -2.57986013832664340395e-01) (82, -1.20248988129246114909e+00) (83, 6.63975830193594740436e-01) (84, -1.26867077376717513060e-01) (85, -1.90677916126852947665e-01) (86, -5.16057090813065277857e-01) (87, -1.50579107614025442530e+00) (88, -3.24889410404707756896e-01) (89, 1.50000000000000000000e+03) (90, 1.50000000000000000000e+03) (91, -1.14847495529459897590e+00) (92, -5.13048124654395754085e-01) (93, -4.09081147456979543620e-01) (94, -5.63955820123071105421e-01) (95, -3.00768159622558428623e-01) (96, -9.66159957815349912380e-01) (97, -1.82337500347322745142e+00) (98, 7.87855547546246315349e-01) (99, 1.50000000000000000000e+03) (100, 1.50000000000000000000e+03) (101, -4.89083980985013822007e-01) (102, -1.44151609918202883165e+00) (103, -3.93393256642179667271e-01) (104, -4.89674502144365822454e-02) (105, -1.87495567267625451446e-01) (106, -6.62463014707996622477e-01) (107, -1.04083964518686000744e+00) (108, -1.34772095816893222597e+00) (109, 1.50000000000000000000e+03) (110, 1.50000000000000000000e+03) (111, -5.24317655547234640068e-01) (112, -1.04119159012985740276e+00) (113, 2.22351542680490066317e-01) (114, 1.63890728764282123109e-01) (115, -2.36166506285761301775e-01) (116, -3.40281168523037136353e-01) (117, -4.56754335066230199303e-01) (118, -3.97874881212444575507e-01) (119, 1.50000000000000000000e+03) (120, 1.50000000000000000000e+03) (121, -9.23112387785212096247e-01) (122, -1.52289566597830772210e-01) (123, -7.81945249845782397458e-02) (124, -1.61853276652491273602e-01) (125, -2.70246690093967678603e-01) (126, -2.41520313857031931892e-01) (127, -2.61157353285598969883e-01) (128, 6.30338590520613473167e-01) (129, 1.50000000000000000000e+03) (130, 1.50000000000000000000e+03) (131, 1.17764180140832695753e-02) (132, -7.27793759873945567129e-01) (133, -3.08120816817585607694e+00) (134, -9.53543971005762935889e-01) (135, -1.37447827089828367164e+00) (136, -1.41172079302084252372e-01) (137, -2.51937251835509558318e-02) (138, 1.70665332165722272162e-01) (139, 1.50000000000000000000e+03) (140, 1.50000000000000000000e+03) (141, 8.01216183745334792343e-02) (142, -3.71269362319840423581e-01) (143, -2.08450699898694663537e-01) (144, -1.32730479094480047220e-01) (145, -1.47385026070569552514e-01) (146, -1.89517589959596305382e-01) (147, 1.41655492518138626662e-02) (148, 8.53503548292700808808e-01) (149, 1.50000000000000000000e+03) (150, 1.50000000000000000000e+03) (151, 1.50000000000000000000e+03) (152, 1.50000000000000000000e+03) (153, 1.50000000000000000000e+03) (154, 1.50000000000000000000e+03) (155, 1.50000000000000000000e+03) (156, 1.50000000000000000000e+03) (157, 1.50000000000000000000e+03) (158, 1.50000000000000000000e+03) (159, 1.50000000000000000000e+03) (160, -1.81313651743401305083e-01) (0, 1.50000000000000000000e+03) (1, 1.50000000000000000000e+03) (2, 1.50000000000000000000e+03) (3, 1.50000000000000000000e+03) (4, 1.50000000000000000000e+03) (5, 1.50000000000000000000e+03) (6, 1.50000000000000000000e+03) (7, 1.50000000000000000000e+03) (8, 1.50000000000000000000e+03) (9, 1.50000000000000000000e+03) (10, 1.50000000000000000000e+03) (11, 1.50000000000000000000e+03) (12, 1.50000000000000000000e+03) (13, 1.50000000000000000000e+03) (14, 1.50000000000000000000e+03) (15, 1.50000000000000000000e+03) (16, 1.50000000000000000000e+03) (17, 1.50000000000000000000e+03) (18, 1.50000000000000000000e+03) (19, 1.50000000000000000000e+03) (20, 1.50000000000000000000e+03) (21, 1.50000000000000000000e+03) (22, 7.81542461929426446332e-01) (23, 7.92016093251810437970e-01) (24, -1.50517131123050762476e+00) (25, 3.77595068792533405944e-01) (26, 9.08655419241554795917e-01) (27, 6.30816386608334500607e-01) (28, -1.19340463261523188621e+00) (29, 1.50000000000000000000e+03) (30, 1.50000000000000000000e+03) (31, 1.02450636449894849633e+00) (32, 8.41863191455713200106e-01) (33, 6.61017224128244706982e-01) (34, 5.19142175844002018437e-01) (35, 5.71859349160006802393e-01) (36, 5.61862237800559882750e-01) (37, 1.01104115265534533208e+00) (38, 1.13418450954464389291e+00) (39, 1.50000000000000000000e+03) (40, 1.50000000000000000000e+03) (41, 2.13438872682169922257e+00) (42, 2.27051967760706885358e+00) (43, 9.73387547697739718977e-01) (44, 6.09968947113266768412e-01) (45, 6.06301474635143500258e-01) (46, 2.64216066249763104068e+00) (47, 2.00100949560107954639e+00) (48, 1.63166664028898389383e+00) (49, 1.50000000000000000000e+03) (50, 1.50000000000000000000e+03) (51, 2.68346852532395097057e+00) (52, 2.60471531495524732946e+00) (53, -5.05856077648061619456e-01) (54, 4.87056996168167222194e-01) (55, 6.26656196200283344133e-01) (56, 7.47025862153323005899e-01) (57, 2.75516050331989692523e+00) (58, 2.50687599637890912163e+00) (59, 1.50000000000000000000e+03) (60, 1.50000000000000000000e+03) (61, 1.44025743282699036918e+00) (62, 2.00530479868240929520e+00) (63, 9.12841117976878391183e-01) (64, 5.11973777733106705234e-01) (65, 6.02018897931271501633e-01) (66, 1.18948846786660644703e+00) (67, 1.86885975677667626194e+00) (68, 1.30555328635627843070e+00) (69, 1.50000000000000000000e+03) (70, 1.50000000000000000000e+03) (71, 1.43419177912452378010e+00) (72, 1.47899563110578746716e+00) (73, 9.18477420404830269263e-01) (74, 8.84036972303455903521e-01) (75, 1.13203481557449570083e+00) (76, 1.01857130162800557649e+00) (77, 1.30237336710077333812e+00) (78, 1.40545937100717943657e+00) (79, 1.50000000000000000000e+03) (80, 1.50000000000000000000e+03) (81, 8.25289149129515786640e-01) (82, 8.89222216095489681464e-01) (83, 3.47277792359190762284e-01) (84, 6.02312264697443366934e-01) (85, 4.91522198346184047146e-01) (86, 1.03523807593142302963e+00) (87, 2.54793936997034586867e+00) (88, 9.99555491451260769153e-01) (89, 1.50000000000000000000e+03) (90, 1.50000000000000000000e+03) (91, 2.12514239488212641760e+00) (92, 1.39765223537074789739e+00) (93, 1.02141970756368261064e+00) (94, 1.24369876169643078789e+00) (95, 9.82677202728332588322e-01) (96, 2.11791756538544762023e+00) (97, 5.71909272410731972514e+00) (98, 3.72057660912249499319e+00) (99, 1.50000000000000000000e+03) (100, 1.50000000000000000000e+03) (101, 1.40467989617411204151e+00) (102, 2.55808293960003085843e+00) (103, 1.04823245855227265011e+00) (104, 4.94016282334057699188e-01) (105, 4.98378308107399414784e-01) (106, 1.64530686167250972396e+00) (107, 2.22875687669523125933e+00) (108, 2.59195916282472316183e+00) (109, 1.50000000000000000000e+03) (110, 1.50000000000000000000e+03) (111, 1.46828942011222185471e+00) (112, 2.09157356903902158507e+00) (113, 5.47080988001980905722e-01) (114, 3.36065672628257372523e-01) (115, 4.68433506617239925340e-01) (116, 1.04207080427589815486e+00) (117, 1.39542380281611233528e+00) (118, 1.31412998125558111440e+00) (119, 1.50000000000000000000e+03) (120, 1.50000000000000000000e+03) (121, 1.94438316018111234662e+00) (122, 7.32214955126065270008e-01) (123, 5.55961886445073605323e-01) (124, 6.34370984346323996128e-01) (125, 6.29972665305486678733e-01) (126, 6.15415961283324874920e-01) (127, 9.01016250369350846228e-01) (128, 6.37810043117094549459e-01) (129, 1.50000000000000000000e+03) (130, 1.50000000000000000000e+03) (131, 3.83693456263007992568e-01) (132, 6.10475405922052405394e-01) (133, 1.39383756783967527326e+00) (134, 7.81290114091439336086e-01) (135, 4.53179572793238394368e-01) (136, 5.25437983311542899933e-01) (137, 4.64457257915904864198e-01) (138, 3.22121499735800342901e-01) (139, 1.50000000000000000000e+03) (140, 1.50000000000000000000e+03) (141, 6.88240893232102579624e-01) (142, 1.34012363510516374632e+00) (143, 1.14344197175302642044e+00) (144, 1.00962848624982126644e+00) (145, 1.17715167662897224332e+00) (146, 1.05942707172432060148e+00) (147, 7.45210104931168904052e-01) (148, 2.84502677002290427222e-01) (149, 1.50000000000000000000e+03) (150, 1.50000000000000000000e+03) (151, 1.50000000000000000000e+03) (152, 1.50000000000000000000e+03) (153, 1.50000000000000000000e+03) (154, 1.50000000000000000000e+03) (155, 1.50000000000000000000e+03) (156, 1.50000000000000000000e+03) (157, 1.50000000000000000000e+03) (158, 1.50000000000000000000e+03) (159, 1.50000000000000000000e+03) (160, 5.54490624110492436039e-01) (0, 1.50000000000000000000e+03) (1, 1.50000000000000000000e+03) (2, 1.50000000000000000000e+03) (3, 1.50000000000000000000e+03) (4, 1.50000000000000000000e+03) (5, 1.50000000000000000000e+03) (6, 1.50000000000000000000e+03) (7, 1.50000000000000000000e+03) (8, 1.50000000000000000000e+03) (9, 1.50000000000000000000e+03) (10, 1.50000000000000000000e+03) (11, 1.50000000000000000000e+03) (12, 1.50000000000000000000e+03) (13, 1.50000000000000000000e+03) (14, 1.50000000000000000000e+03) (15, 1.50000000000000000000e+03) (16, 1.50000000000000000000e+03) (17, 1.50000000000000000000e+03) (18, 1.50000000000000000000e+03) (19, 1.50000000000000000000e+03) (20, 1.50000000000000000000e+03) (21, 1.50000000000000000000e+03) (22, -3.24581186449979408604e-01) (23, -3.79036757326577766758e-01) (24, 1.00074121707356278321e+00) (25, 1.58310334678372521822e-01) (26, -1.80514940828488679170e-01) (27, -2.98739143515625582559e-01) (28, 3.54256783322093049549e+00) (29, 1.50000000000000000000e+03) (30, 1.50000000000000000000e+03) (31, -3.15670922051507707451e-01) (32, -3.33853849396593294063e-01) (33, -9.15230407483111352285e-02) (34, -1.74926755276660267358e-01) (35, -2.30099564258226696456e-01) (36, -2.84593714237530159838e-01) (37, -2.94984503980388390598e-01) (38, -2.90401851159761303922e-01) (39, 1.50000000000000000000e+03) (40, 1.50000000000000000000e+03) (41, -1.20546390538584335950e+00) (42, -1.21660982745094936597e+00) (43, -4.26727483151731645794e-01) (44, -2.05109408773664930736e-01) (45, -4.62482244645111617576e-01) (46, -9.84145893374946845178e-01) (47, -1.11371825656868050913e+00) (48, -6.61480928583089933248e-01) (49, 1.50000000000000000000e+03) (50, 1.50000000000000000000e+03) (51, -1.49221859494658115608e+00) (52, -1.16683948011549198931e+00) (53, 3.19301551153948537376e-01) (54, -2.61031393350409868237e-01) (55, -3.67476442921870372071e-01) (56, -8.52026778828291614376e-02) (57, -1.60585535575441662459e+00) (58, 4.42895512227304000152e-01) (59, 1.50000000000000000000e+03) (60, 1.50000000000000000000e+03) (61, -6.20974271366208863121e-01) (62, -1.00116575523317963281e+00) (63, -1.65136110097337474034e-01) (64, -2.28267748410832249650e-01) (65, -2.56765790024816482895e-02) (66, -3.33133072543303654367e-01) (67, -8.72736610484391217568e-01) (68, -3.44239567884703667744e-01) (69, 1.50000000000000000000e+03) (70, 1.50000000000000000000e+03) (71, -5.09366049951165078546e-01) (72, -6.35696796693853816151e-01) (73, -3.19786847762051351651e-01) (74, -2.18365497619377901817e-01) (75, -3.30221334818586564896e-01) (76, -3.60910671862912368901e-01) (77, -3.09012195017214996717e-01) (78, -5.36468974079684191025e-01) (79, 1.50000000000000000000e+03) (80, 1.50000000000000000000e+03) (81, -4.17145368558944962256e-01) (82, -4.77806536562614736496e-01) (83, 6.08465689672473719618e-01) (84, -9.35158616938923381579e-02) (85, -1.88809216155745945853e-01) (86, -1.16523785314140271296e+00) (87, -5.76499158586752602496e-01) (88, -4.43703317162271626550e-01) (89, 1.50000000000000000000e+03) (90, 1.50000000000000000000e+03) (91, -1.03890464577483143671e+00) (92, -4.33793974263749992915e-01) (93, -3.20555755341863479746e-01) (94, -7.15162779662623648846e-01) (95, -3.80620717814243558763e-01) (96, -9.17545455862224468291e-01) (97, -1.87643286778158469019e+00) (98, 7.71168534337380195964e-01) (99, 1.50000000000000000000e+03) (100, 1.50000000000000000000e+03) (101, -6.05752689607485850232e-01) (102, -1.31293333103980547349e+00) (103, -4.31875930108385319706e-01) (104, -3.57555655579286577050e-02) (105, -4.38609114050611953450e-02) (106, -7.98992560939028040323e-01) (107, -1.00836894206185978540e+00) (108, -1.48465944069189670351e+00) (109, 1.50000000000000000000e+03) (110, 1.50000000000000000000e+03) (111, -5.39594750686261281913e-01) (112, -1.16831561654758919744e+00) (113, 2.50928214757674905577e-01) (114, -3.36376634984874717249e-02) (115, -2.10262471272550321988e-01) (116, -8.36138246354463543497e-01) (117, -5.08560978671468766343e-01) (118, -4.22209595029087336737e-01) (119, 1.50000000000000000000e+03) (120, 1.50000000000000000000e+03) (121, -8.48435866662756499323e-01) (122, -2.51404558322312010610e-01) (123, -7.23007373589100443834e-02) (124, -2.85023691549326718686e-01) (125, -1.96395524199254878361e-01) (126, -2.50430651680724092323e-01) (127, -2.04852421644977716886e-01) (128, 5.48191372233622242760e-01) (129, 1.50000000000000000000e+03) (130, 1.50000000000000000000e+03) (131, 1.05825491769823337718e-01) (132, -2.40710523499279571702e-01) (133, -3.19587491324249839408e+00) (134, -1.12331354969593100179e+00) (135, -9.65015681157451177263e-01) (136, -9.92726089687855500765e-02) (137, -1.50608805065734152606e-01) (138, 1.89545562911229925618e-01) (139, 1.50000000000000000000e+03) (140, 1.50000000000000000000e+03) (141, 6.41555772657035738166e-03) (142, -3.84703198720349304196e-01) (143, -1.25247577878927318640e-01) (144, -1.28818134519551791284e-01) (145, -2.66385267230956845896e-01) (146, -2.70688245746581790385e-01) (147, 5.20561772320466756292e-02) (148, 9.16992322294299277985e-01) (149, 1.50000000000000000000e+03) (150, 1.50000000000000000000e+03) (151, 1.50000000000000000000e+03) (152, 1.50000000000000000000e+03) (153, 1.50000000000000000000e+03) (154, 1.50000000000000000000e+03) (155, 1.50000000000000000000e+03) (156, 1.50000000000000000000e+03) (157, 1.50000000000000000000e+03) (158, 1.50000000000000000000e+03) (159, 1.50000000000000000000e+03) (160, -2.99550598861767269909e-01) (0, 1.50000000000000000000e+03) (1, 1.50000000000000000000e+03) (2, 1.50000000000000000000e+03) (3, 1.50000000000000000000e+03) (4, 1.50000000000000000000e+03) (5, 1.50000000000000000000e+03) (6, 1.50000000000000000000e+03) (7, 1.50000000000000000000e+03) (8, 1.50000000000000000000e+03) (9, 1.50000000000000000000e+03) (10, 1.50000000000000000000e+03) (11, 1.50000000000000000000e+03) (12, 1.50000000000000000000e+03) (13, 1.50000000000000000000e+03) (14, 1.50000000000000000000e+03) (15, 1.50000000000000000000e+03) (16, 1.50000000000000000000e+03) (17, 1.50000000000000000000e+03) (18, 1.50000000000000000000e+03) (19, 1.50000000000000000000e+03) (20, 1.50000000000000000000e+03) (21, 1.50000000000000000000e+03) (22, 1.82752142446732407377e-01) (23, 1.64905468719696884916e-01) (24, 1.57921161458500192154e+00) (25, 7.43240655316782405926e-01) (26, -1.10327031388701546355e+00) (27, 3.32156610436776078554e-01) (28, 3.96931932208535753759e+00) (29, 1.50000000000000000000e+03) (30, 1.50000000000000000000e+03) (31, 5.76932149605452582186e-01) (32, 5.98288204751695085193e-01) (33, 5.18897557880689364040e-01) (34, 3.64441383701191057298e-01) (35, 3.99427088858571144314e-01) (36, 3.43257651680053454957e-01) (37, 4.55591641401435543113e-01) (38, 2.88652294911547091516e-01) (39, 1.50000000000000000000e+03) (40, 1.50000000000000000000e+03) (41, 3.47623122319348443199e-01) (42, 1.85992219742062286914e-01) (43, 1.70574830734689167344e-02) (44, 3.56912275051595617725e-01) (45, 3.93407749132457407182e-01) (46, 2.56212932347449517945e-01) (47, 2.68589213649195968081e-01) (48, 1.04697211540523110740e-01) (49, 1.50000000000000000000e+03) (50, 1.50000000000000000000e+03) (51, -1.13759891449312255940e-01) (52, 1.88524263105972200716e-01) (53, 2.61590727110008747225e-01) (54, 4.97567647047710948094e-01) (55, 5.31491720888013996493e-01) (56, 3.26421569967452529504e-01) (57, 2.85080221175007253454e-01) (58, 3.63906487277133317004e-01) (59, 1.50000000000000000000e+03) (60, 1.50000000000000000000e+03) (61, -2.48575635636994023148e-02) (62, -7.13336367248254832329e-02) (63, 3.41337255604044098600e-01) (64, 4.76149966276339875471e-01) (65, 5.03552486974548352272e-01) (66, 2.22106286539623776211e-01) (67, 9.99362993358539342115e-02) (68, 1.60395392083207355416e-01) (69, 1.50000000000000000000e+03) (70, 1.50000000000000000000e+03) (71, 1.39955505781410138866e-01) (72, 7.52284831875091319908e-02) (73, 5.77855442117647943867e-01) (74, 5.63442931889432063741e-01) (75, 2.25395085777137932359e-01) (76, 3.93951675462308192888e-01) (77, 4.92181085637421855683e-01) (78, 4.56000012555098310774e-01) (79, 1.50000000000000000000e+03) (80, 1.50000000000000000000e+03) (81, 4.40277116914480570742e-01) (82, 3.37344482567098868930e-01) (83, 3.83253100608218355561e+00) (84, 3.71653894322179489951e-01) (85, 3.43961417504044741911e-01) (86, 4.34998596646445800928e-01) (87, 3.53683374584251863926e-01) (88, 3.05321650467163363540e-01) (89, 1.50000000000000000000e+03) (90, 1.50000000000000000000e+03) (91, -6.66758777420662501756e-02) (92, 7.00913480237405767115e-02) (93, 3.10506679154792575304e-01) (94, 7.07476860501478517496e-04) (95, 2.27187179890724871845e-01) (96, 6.02347410030428104255e-02) (97, -8.46312143078704393062e-01) (98, -5.42588830612249939378e-01) (99, 1.50000000000000000000e+03) (100, 1.50000000000000000000e+03) (101, 1.37607198065740926607e-01) (102, -1.22778954634018264147e-01) (103, 3.48822514765251834312e-01) (104, 4.78475535972651300209e-01) (105, 4.85457960400196175677e-01) (106, 1.38731104433550439525e-01) (107, -8.34173871286204016151e-02) (108, -2.80793340587423945198e-01) (109, 1.50000000000000000000e+03) (110, 1.50000000000000000000e+03) (111, 5.26833007548471315973e-02) (112, 1.00625721856483999611e-02) (113, 5.60757589652476462483e-01) (114, 5.86465694199830189781e-01) (115, 3.48397356377509348491e-01) (116, 3.81075277323295769083e-01) (117, 2.54979490892770360722e-02) (118, 2.59221160643791324885e-02) (119, 1.50000000000000000000e+03) (120, 1.50000000000000000000e+03) (121, 1.27509328995009330043e-01) (122, 1.72533205349071350199e-01) (123, 4.66875019343718611342e-01) (124, 4.51556461967751676667e-01) (125, 5.19203291186550286440e-01) (126, 5.39631384640235634009e-01) (127, 1.91065818185463948131e-01) (128, 4.97618301289220799077e-01) (129, 1.50000000000000000000e+03) (130, 1.50000000000000000000e+03) (131, 6.45558944054935635037e-01) (132, 4.16812734982833055231e-01) (133, 2.81454351118839707357e-01) (134, 4.18892718951220599521e-01) (135, 1.39906223824051323401e-01) (136, 5.39835711848923094358e-01) (137, 4.29877856508667943736e-01) (138, 6.38796291684366357444e-01) (139, 1.50000000000000000000e+03) (140, 1.50000000000000000000e+03) (141, 5.18030336781681088887e-01) (142, 4.21137223092876378239e-01) (143, 3.34217791005315401076e-01) (144, 4.54023700698556464950e-01) (145, 4.06648207946958162307e-01) (146, 4.35615491613091987411e-01) (147, 3.93823293351254377637e-01) (148, 1.27454215547283689070e+00) (149, 1.50000000000000000000e+03) (150, 1.50000000000000000000e+03) (151, 1.50000000000000000000e+03) (152, 1.50000000000000000000e+03) (153, 1.50000000000000000000e+03) (154, 1.50000000000000000000e+03) (155, 1.50000000000000000000e+03) (156, 1.50000000000000000000e+03) (157, 1.50000000000000000000e+03) (158, 1.50000000000000000000e+03) (159, 1.50000000000000000000e+03) (160, 4.14793853850055738164e-01) (0, 1.50000000000000000000e+03) (1, 1.50000000000000000000e+03) (2, 1.50000000000000000000e+03) (3, 1.50000000000000000000e+03) (4, 1.50000000000000000000e+03) (5, 1.50000000000000000000e+03) (6, 1.50000000000000000000e+03) (7, 1.50000000000000000000e+03) (8, 1.50000000000000000000e+03) (9, 1.50000000000000000000e+03) (10, 1.50000000000000000000e+03) (11, 1.50000000000000000000e+03) (12, 1.50000000000000000000e+03) (13, 1.50000000000000000000e+03) (14, 1.50000000000000000000e+03) (15, 1.50000000000000000000e+03) (16, 1.50000000000000000000e+03) (17, 1.50000000000000000000e+03) (18, 1.50000000000000000000e+03) (19, 1.50000000000000000000e+03) (20, 1.50000000000000000000e+03) (21, 1.50000000000000000000e+03) (22, 3.25678172307713509337e-01) (23, 2.12018499868607351866e-01) (24, 1.51330631052993735963e+00) (25, 7.52060235394907405926e-01) (26, -1.23523443490089523955e+00) (27, 3.01083606429436601015e-01) (28, 3.87379929882881191006e+00) (29, 1.50000000000000000000e+03) (30, 1.50000000000000000000e+03) (31, 5.23324961440269631474e-01) (32, 5.11825796447491154773e-01) (33, 3.39808910852550938309e-01) (34, 4.55700348261652066206e-01) (35, 4.31615562387463014282e-01) (36, 4.62897660928024090587e-01) (37, 4.13651287853385618565e-01) (38, 3.32164259292288210901e-01) (39, 1.50000000000000000000e+03) (40, 1.50000000000000000000e+03) (41, 3.11453690215714562584e-01) (42, 3.55645538564456187292e-01) (43, 1.24943223770852415710e-01) (44, 4.89648817659843915706e-01) (45, 2.73173279085136111455e-01) (46, 5.69802981563969010437e-02) (47, 3.04135657830927275125e-01) (48, 4.55419336326764317979e-02) (49, 1.50000000000000000000e+03) (50, 1.50000000000000000000e+03) (51, -1.43899054585794550221e-01) (52, 1.73143403730972256227e-01) (53, 1.23490707297702548284e-01) (54, 4.58649052600602291641e-01) (55, 4.75589574011824667288e-01) (56, 3.38770122825805153344e-01) (57, 2.56918606041715458232e-01) (58, 5.42977533689104174819e-01) (59, 1.50000000000000000000e+03) (60, 1.50000000000000000000e+03) (61, 5.69234437857927683124e-02) (62, -1.16717714904494423989e-02) (63, 3.14872405893579510039e-01) (64, 3.95528626895598756086e-01) (65, 4.32745596248462816025e-01) (66, 5.05669724484195670655e-02) (67, 2.58229706277880687038e-02) (68, 1.74662827399249598326e-01) (69, 1.50000000000000000000e+03) (70, 1.50000000000000000000e+03) (71, 1.75134357418975372678e-02) (72, 1.17096321537331793383e-01) (73, 4.13581359166764805924e-01) (74, 4.51053709848988404474e-01) (75, 9.55993300394087225369e-02) (76, 4.76551708110389771189e-01) (77, 5.24060004949699287380e-01) (78, 4.07861020494522108493e-01) (79, 1.50000000000000000000e+03) (80, 1.50000000000000000000e+03) (81, 4.05328380485266093203e-01) (82, 4.44127290680101705078e-01) (83, 1.09347078625459959156e+00) (84, 4.03424078531388619062e-01) (85, 5.41974413555373235596e-01) (86, 3.97895907414410554548e-01) (87, 3.52123667168500409375e-01) (88, 2.70452069136244976910e-01) (89, 1.50000000000000000000e+03) (90, 1.50000000000000000000e+03) (91, -8.23130855183745319126e-02) (92, 1.84495646388856709974e-01) (93, 2.48708583451658526986e-01) (94, 2.56597247058374000606e-01) (95, 4.67818168476680451562e-01) (96, -1.82380059452302484280e-01) (97, -9.25285525790114915523e-01) (98, -5.11808802060432888048e-01) (99, 1.50000000000000000000e+03) (100, 1.50000000000000000000e+03) (101, 7.17408550859111593390e-02) (102, -2.42384100403862351447e-01) (103, 1.55694719117488639126e-01) (104, 4.81354373392052781178e-01) (105, 4.59690968354225182324e-01) (106, 7.77002812601284148508e-02) (107, -1.36070159770574378166e-01) (108, -1.78303800566612741241e-01) (109, 1.50000000000000000000e+03) (110, 1.50000000000000000000e+03) (111, 1.36515095314801049309e-01) (112, -1.42084575700494875061e-01) (113, 5.06017500287547439264e-01) (114, 5.12460197745503220901e-01) (115, 3.73720844195750356853e-01) (116, 2.98725218095981681632e-01) (117, 1.58054100687968435146e-01) (118, 3.59196776383613261552e-02) (119, 1.50000000000000000000e+03) (120, 1.50000000000000000000e+03) (121, 4.84077664950111757891e-02) (122, 2.06169685918910827738e-01) (123, 4.96225235565617039946e-01) (124, 5.16638252057341262891e-01) (125, 5.38601784337499389643e-01) (126, 4.77452820011453227256e-01) (127, 3.91669948322436567434e-01) (128, 5.48655895965237228040e-01) (129, 1.50000000000000000000e+03) (130, 1.50000000000000000000e+03) (131, 5.67726912059877797390e-01) (132, 5.05080188597731627453e-01) (133, 4.25543883325418148544e-01) (134, 3.24527414335509745147e-01) (135, 1.13570961157163627386e-01) (136, 3.69881152102406352000e-01) (137, 5.51687783694858602246e-01) (138, 6.20735987459875238059e-01) (139, 1.50000000000000000000e+03) (140, 1.50000000000000000000e+03) (141, 5.07916814371288216634e-01) (142, 3.58344258813224847415e-01) (143, 4.88252219303788759230e-01) (144, 3.36280774816217042922e-01) (145, 3.02857924743833162307e-01) (146, 4.89802506312074059647e-01) (147, 3.87463433050236616406e-01) (148, 1.37099600842436419867e+00) (149, 1.50000000000000000000e+03) (150, 1.50000000000000000000e+03) (151, 1.50000000000000000000e+03) (152, 1.50000000000000000000e+03) (153, 1.50000000000000000000e+03) (154, 1.50000000000000000000e+03) (155, 1.50000000000000000000e+03) (156, 1.50000000000000000000e+03) (157, 1.50000000000000000000e+03) (158, 1.50000000000000000000e+03) (159, 1.50000000000000000000e+03) (160, 4.59537827815664934317e-01) (0, 1.50000000000000000000e+03) (1, 1.50000000000000000000e+03) (2, 1.50000000000000000000e+03) (3, 1.50000000000000000000e+03) (4, 1.50000000000000000000e+03) (5, 1.50000000000000000000e+03) (6, 1.50000000000000000000e+03) (7, 1.50000000000000000000e+03) (8, 1.50000000000000000000e+03) (9, 1.50000000000000000000e+03) (10, 1.50000000000000000000e+03) (11, 1.50000000000000000000e+03) (12, 1.50000000000000000000e+03) (13, 1.50000000000000000000e+03) (14, 1.50000000000000000000e+03) (15, 1.50000000000000000000e+03) (16, 1.50000000000000000000e+03) (17, 1.50000000000000000000e+03) (18, 1.50000000000000000000e+03) (19, 1.50000000000000000000e+03) (20, 1.50000000000000000000e+03) (21, 1.50000000000000000000e+03) (22, 3.44684514003498809753e-01) (23, 2.80499952631695748106e-01) (24, 1.54182193627499541932e+00) (25, 8.33316341890764533673e-01) (26, -1.08536260500373016313e+00) (27, 2.88461536861994660708e-01) (28, 3.84710862574574585793e+00) (29, 1.50000000000000000000e+03) (30, 1.50000000000000000000e+03) (31, 5.59482189492881087922e-01) (32, 6.02548446737016130115e-01) (33, 4.98214875052379990716e-01) (34, 5.06301906099132503769e-01) (35, 3.61522247450157652171e-01) (36, 3.82147724351466877568e-01) (37, 4.01340130316783616493e-01) (38, 4.15507765151663210901e-01) (39, 1.50000000000000000000e+03) (40, 1.50000000000000000000e+03) (41, 3.28299393340714562584e-01) (42, 3.13659460540545664831e-01) (43, 1.15857888762817603373e-02) (44, 5.04552794204822241397e-01) (45, 3.94188192852511998243e-01) (46, 3.41233743339931019922e-02) (47, 2.75845862909052108591e-01) (48, -3.78565053574399998371e-02) (49, 1.50000000000000000000e+03) (50, 1.50000000000000000000e+03) (51, -2.63235050917729751507e-01) (52, 2.68669525287739741071e-01) (53, 5.83019046824821210451e-02) (54, 4.45977180153731611600e-01) (55, 5.26191855950550957388e-01) (56, 3.40379695503154389158e-01) (57, 1.96377456115432447170e-01) (58, 4.96444336524588525350e-01) (59, 1.50000000000000000000e+03) (60, 1.50000000000000000000e+03) (61, 8.82640233083355763011e-02) (62, -5.81874831735321382253e-02) (63, 3.29948089487329621061e-01) (64, 4.81015560526798779950e-01) (65, 4.62860852361502039809e-01) (66, 5.15572001788845296621e-02) (67, 8.00886283693889172719e-03) (68, 1.05732307635822572744e-01) (69, 1.50000000000000000000e+03) (70, 1.50000000000000000000e+03) (71, 7.22642639699505040518e-02) (72, -3.58188815838551347093e-02) (73, 4.15349888383435394967e-01) (74, 6.17936038538069110082e-01) (75, 2.32519491584685822350e-01) (76, 4.83346349952300191610e-01) (77, 3.87019768371383965366e-01) (78, 3.62570825308862587644e-01) (79, 1.50000000000000000000e+03) (80, 1.50000000000000000000e+03) (81, 4.48109086851232907289e-01) (82, 4.23448975874434530020e-01) (83, 6.67970879385207161327e-01) (84, 5.08594187084023152678e-01) (85, 4.55420452516803853094e-01) (86, 3.94299826717541712640e-01) (87, 3.85384157299162699584e-01) (88, 2.91057807030884352351e-01) (89, 1.50000000000000000000e+03) (90, 1.50000000000000000000e+03) (91, 7.02859123643731209530e-02) (92, 1.31599511397306218052e-01) (93, 2.44832851029783526986e-01) (94, 1.49830629017998845365e-01) (95, 1.71213893521116350405e-01) (96, 1.45011028952669613484e-02) (97, -6.20726028488493564161e-01) (98, -5.33764390932436327830e-01) (99, 1.50000000000000000000e+03) (100, 1.50000000000000000000e+03) (101, 3.71262674070067036358e-02) (102, -1.13487847235508643173e-01) (103, 3.15793578714246681027e-01) (104, 4.06218313575323841658e-01) (105, 5.31757728849564736961e-01) (106, -1.57868434552460232267e-02) (107, -1.33044020344181168625e-01) (108, -2.14551945074060057550e-01) (109, 1.50000000000000000000e+03) (110, 1.50000000000000000000e+03) (111, 1.92081621332577889838e-01) (112, -1.08112962813532845208e-01) (113, 5.36491181175208331489e-01) (114, 4.25646327393103818260e-01) (115, 4.25828558507247378895e-01) (116, 4.01132596334545288297e-01) (117, 6.68675772504672139007e-02) (118, 1.80047952706819364144e-01) (119, 1.50000000000000000000e+03) (120, 1.50000000000000000000e+03) (121, 8.14350258205144977852e-02) (122, 3.36107394816797411252e-01) (123, 4.60731706082000258551e-01) (124, 3.97205088828013308522e-01) (125, 4.88788415586810354174e-01) (126, 4.05966945395398848273e-01) (127, 1.85441660147989739738e-01) (128, 4.46682680310796387246e-01) (129, 1.50000000000000000000e+03) (130, 1.50000000000000000000e+03) (131, 7.60243737214433168425e-01) (132, 4.51288157416478874495e-01) (133, 3.93209574925903193598e-01) (134, -4.89599654952268148467e-01) (135, 2.42561164669897993962e-01) (136, 6.25014689747623308769e-01) (137, 5.86472042718063524269e-01) (138, 6.41560752704999126550e-01) (139, 1.50000000000000000000e+03) (140, 1.50000000000000000000e+03) (141, 3.73297667785837228305e-01) (142, 3.06049333957992608646e-01) (143, 3.42378188415708162307e-01) (144, 3.95790052159967042922e-01) (145, 4.17976331456842042922e-01) (146, 4.85700946792306464950e-01) (147, 4.09509328507504377637e-01) (148, 1.27514639755924741316e+00) (149, 1.50000000000000000000e+03) (150, 1.50000000000000000000e+03) (151, 1.50000000000000000000e+03) (152, 1.50000000000000000000e+03) (153, 1.50000000000000000000e+03) (154, 1.50000000000000000000e+03) (155, 1.50000000000000000000e+03) (156, 1.50000000000000000000e+03) (157, 1.50000000000000000000e+03) (158, 1.50000000000000000000e+03) (159, 1.50000000000000000000e+03) (160, 5.35581292194071245660e-01) (0, 1.50000000000000000000e+03) (1, 1.50000000000000000000e+03) (2, 1.50000000000000000000e+03) (3, 1.50000000000000000000e+03) (4, 1.50000000000000000000e+03) (5, 1.50000000000000000000e+03) (6, 1.50000000000000000000e+03) (7, 1.50000000000000000000e+03) (8, 1.50000000000000000000e+03) (9, 1.50000000000000000000e+03) (10, 1.50000000000000000000e+03) (11, 1.50000000000000000000e+03) (12, 1.50000000000000000000e+03) (13, 1.50000000000000000000e+03) (14, 1.50000000000000000000e+03) (15, 1.50000000000000000000e+03) (16, 1.50000000000000000000e+03) (17, 1.50000000000000000000e+03) (18, 1.50000000000000000000e+03) (19, 1.50000000000000000000e+03) (20, 1.50000000000000000000e+03) (21, 1.50000000000000000000e+03) (22, 3.14296146948605470417e-01) (23, 2.35243408103249923569e-01) (24, -1.51900786247843089249e+00) (25, -1.97074010905379876091e-01) (26, 3.34091568772802727239e+00) (27, -2.54527418573588348760e-01) (28, -1.39296232854459978157e+00) (29, 1.50000000000000000000e+03) (30, 1.50000000000000000000e+03) (31, -2.36810667537481300826e+00) (32, -1.29044417956496390576e-02) (33, -1.83733243084216762986e-01) (34, 1.38328023099200420054e-01) (35, -6.14419412462987452050e-02) (36, 2.52127869498182145824e-02) (37, 7.66855131443061055485e-01) (38, 9.30203003522656168833e-01) (39, 1.50000000000000000000e+03) (40, 1.50000000000000000000e+03) (41, 6.59559004369763335340e-01) (42, 4.64601401019715462559e-02) (43, 1.40960167644433059797e-01) (44, 7.47895544450452032237e-02) (45, -1.24244835374800896566e-01) (46, 7.30828710762960603864e-02) (47, 7.45272685580940646988e-02) (48, 2.76286968261939547276e+00) (49, 1.50000000000000000000e+03) (50, 1.50000000000000000000e+03) (51, 4.54369307726054882934e-01) (52, 5.92835227382803919838e-01) (53, 8.13920180729980180523e-01) (54, -1.10048997607977011581e-02) (55, 7.89962519562267678763e-02) (56, -2.57599769925260035919e+00) (57, 4.42830029500053234948e-01) (58, 3.25089433726302223793e-01) (59, 1.50000000000000000000e+03) (60, 1.50000000000000000000e+03) (61, 4.29072499857233169429e-01) (62, 4.91385537613513556643e-01) (63, 3.64289824804569528638e+00) (64, 1.49634160403566196518e-01) (65, 4.16642259508914411525e-02) (66, 2.28727532792062732137e-01) (67, 3.13227498257402536819e-01) (68, 5.58342008337404993590e-01) (69, 1.50000000000000000000e+03) (70, 1.50000000000000000000e+03) (71, 3.48351774014621695663e-01) (72, 2.85101846191810115450e-01) (73, 9.91603382973578299786e-03) (74, 3.55433438628159001360e-02) (75, 5.12906238575684292336e-01) (76, 2.43819534136263975019e-03) (77, -6.51916129194637511413e-02) (78, -6.57710756612414348954e-02) (79, 1.50000000000000000000e+03) (80, 1.50000000000000000000e+03) (81, 9.04072817484166901814e-01) (82, 7.93639142301151401249e-01) (83, -6.97716018176059576961e-02) (84, 3.48086823771603520727e-02) (85, 2.85281325608035263297e-02) (86, -5.49633939643388649832e-02) (87, 3.77308247654912443103e-01) (88, 1.73274418638526395142e+00) (89, 1.50000000000000000000e+03) (90, 1.50000000000000000000e+03) (91, 1.48207085671912208724e-01) (92, -1.40939312929162452459e-01) (93, 4.15970833503458981006e-01) (94, 3.91896979726146788003e-02) (95, -4.69137858466446219796e-02) (96, 4.37515288667080115559e-01) (97, 2.87256106326906512916e-01) (98, 3.50164583079782654185e-01) (99, 1.50000000000000000000e+03) (100, 1.50000000000000000000e+03) (101, 1.37241369914846506051e-01) (102, 6.18161298230194611314e-01) (103, -1.09241114470847375251e-02) (104, -3.33558253784445399998e-03) (105, 9.26619746026825230611e-02) (106, -2.55554883310125158236e-01) (107, 1.08579636334436790968e-01) (108, 4.21786443415824774394e-01) (109, 1.50000000000000000000e+03) (110, 1.50000000000000000000e+03) (111, -2.84699433119299460948e-01) (112, 2.20845270625260409192e-01) (113, 7.75818814063612277598e-02) (114, -1.09798380350152235962e+00) (115, -2.01023800650681122582e-01) (116, 6.88741051686664884635e-02) (117, 8.28274256647757112226e-01) (118, 4.82289665800863576184e-01) (119, 1.50000000000000000000e+03) (120, 1.50000000000000000000e+03) (121, 2.19260404401982994527e-01) (122, 4.84052714106830372920e-01) (123, 2.96442901937122235689e-02) (124, 3.94817446036902844342e-02) (125, 9.60130697876257765966e-02) (126, -2.21515723420474763827e-01) (127, 2.18430493419431576152e-01) (128, -1.44392474567875239710e-01) (129, 1.50000000000000000000e+03) (130, 1.50000000000000000000e+03) (131, -5.67041213373823335675e-02) (132, 2.73734989480082346880e-01) (133, 2.75113023288155178481e-01) (134, 3.66549900600723010946e-01) (135, 3.61831880042365772177e-01) (136, -1.70061164668374759090e-01) (137, 2.94917788811827619178e-02) (138, 2.14134416396096344259e-02) (139, 1.50000000000000000000e+03) (140, 1.50000000000000000000e+03) (141, -7.99719658887316359186e-02) (142, -3.36792786846406122514e-01) (143, -4.42352273907810678022e-01) (144, -3.51538063433319614148e-01) (145, -2.78478973951488850691e-01) (146, -3.91320777532011443434e-01) (147, 8.65066608332406783433e-01) (148, -4.45001685279736158840e-01) (149, 1.50000000000000000000e+03) (150, 1.50000000000000000000e+03) (151, 1.50000000000000000000e+03) (152, 1.50000000000000000000e+03) (153, 1.50000000000000000000e+03) (154, 1.50000000000000000000e+03) (155, 1.50000000000000000000e+03) (156, 1.50000000000000000000e+03) (157, 1.50000000000000000000e+03) (158, 1.50000000000000000000e+03) (159, 1.50000000000000000000e+03) (160, 5.78669654567756028274e-02) (0, 1.50000000000000000000e+03) (1, 1.50000000000000000000e+03) (2, 1.50000000000000000000e+03) (3, 1.50000000000000000000e+03) (4, 1.50000000000000000000e+03) (5, 1.50000000000000000000e+03) (6, 1.50000000000000000000e+03) (7, 1.50000000000000000000e+03) (8, 1.50000000000000000000e+03) (9, 1.50000000000000000000e+03) (10, 1.50000000000000000000e+03) (11, 1.50000000000000000000e+03) (12, 1.50000000000000000000e+03) (13, 1.50000000000000000000e+03) (14, 1.50000000000000000000e+03) (15, 1.50000000000000000000e+03) (16, 1.50000000000000000000e+03) (17, 1.50000000000000000000e+03) (18, 1.50000000000000000000e+03) (19, 1.50000000000000000000e+03) (20, 1.50000000000000000000e+03) (21, 1.50000000000000000000e+03) (22, 9.30095937666997940596e-01) (23, 8.39989726064310215925e-01) (24, -1.45907756048544956506e+00) (25, 4.56556254903506819609e-01) (26, 8.58093901764519273456e-01) (27, 7.09264875916691517332e-01) (28, -1.26624399329938830405e+00) (29, 1.50000000000000000000e+03) (30, 1.50000000000000000000e+03) (31, 8.98438241813965809968e-01) (32, 8.42125645607820438876e-01) (33, 5.00073619122520574010e-01) (34, 5.64247160038040873609e-01) (35, 5.04214089958495037536e-01) (36, 6.98336843450269473266e-01) (37, 9.91461071550099881655e-01) (38, 1.05209222438839278269e+00) (39, 1.50000000000000000000e+03) (40, 1.50000000000000000000e+03) (41, 2.10780181052402548758e+00) (42, 2.24455531319762213727e+00) (43, 9.91685883071141471845e-01) (44, 6.64101021230927290873e-01) (45, 7.25979204539794920059e-01) (46, 2.60935426601325604068e+00) (47, 9.62807627474823513047e-01) (48, 1.66483313823476941629e+00) (49, 1.50000000000000000000e+03) (50, 1.50000000000000000000e+03) (51, 2.67833546272286149303e+00) (52, 2.57790867731047956823e+00) (53, -4.70852415538669910600e-01) (54, 6.34505729617131364328e-01) (55, 6.78316361390980060442e-01) (56, 7.55973614569456664469e-01) (57, 2.69886166625420020893e+00) (58, 2.37721290150071240532e+00) (59, 1.50000000000000000000e+03) (60, 1.50000000000000000000e+03) (61, 1.40447252146267342887e+00) (62, 1.96926963721700376553e+00) (63, 8.71178521810744510567e-01) (64, 6.25908100924736587878e-01) (65, 4.74461523394298312351e-01) (66, 1.18625971406144592457e+00) (67, 1.86572254080472954563e+00) (68, 1.26498321725184559305e+00) (69, 1.50000000000000000000e+03) (70, 1.50000000000000000000e+03) (71, 1.51232899062612213825e+00) (72, 1.52867213881719798962e+00) (73, 1.01704919774860536030e+00) (74, 9.46146345813339784137e-01) (75, 1.17047474505981674575e+00) (76, 1.13423292644704631904e+00) (77, 1.34663607433420229320e+00) (78, 1.44642006287643831719e+00) (79, 1.50000000000000000000e+03) (80, 1.50000000000000000000e+03) (81, 7.56575770968324068377e-01) (82, 9.46723435308498562080e-01) (83, 3.87713583374815762284e-01) (84, 5.41197759764086350209e-01) (85, 5.97198476818112888864e-01) (86, 1.04242802031790526840e+00) (87, 1.23083698148312148390e+00) (88, 9.62745197657582485462e-01) (89, 1.50000000000000000000e+03) (90, 1.50000000000000000000e+03) (91, 1.99807330159514484613e+00) (92, 1.48526210014211401678e+00) (93, 9.61055945482988116524e-01) (94, 1.25238406741103780462e+00) (95, 9.68944292572082588322e-01) (96, 2.03680794475471360627e+00) (97, 5.78541963287454308329e+00) (98, 3.68440716956828140383e+00) (99, 1.50000000000000000000e+03) (100, 1.50000000000000000000e+03) (101, 1.43610079759184428028e+00) (102, 2.56646917900947757474e+00) (103, 1.17893314363613921358e+00) (104, 6.42697922959040157664e-01) (105, 6.04774789502155463161e-01) (106, 1.74437302229176860457e+00) (107, 2.05005814324624902056e+00) (108, 2.65286004471120540060e+00) (109, 1.50000000000000000000e+03) (110, 1.50000000000000000000e+03) (111, 1.51040367792472185471e+00) (112, 2.08299812958589658507e+00) (113, 5.13090511721535746936e-01) (114, 3.36535644076440432215e-01) (115, 6.13550692627105820343e-01) (116, 1.04121631208839615645e+00) (117, 1.27244406499787143794e+00) (118, 1.32589755863552305470e+00) (119, 1.50000000000000000000e+03) (120, 1.50000000000000000000e+03) (121, 1.83058921710378652570e+00) (122, 7.95892929171341911854e-01) (123, 5.08787816414629778805e-01) (124, 6.12068736762457876743e-01) (125, 5.85062994356504550986e-01) (126, 6.95585646468280471844e-01) (127, 7.94284071889917786535e-01) (128, 6.46318345388460668843e-01) (129, 1.50000000000000000000e+03) (130, 1.50000000000000000000e+03) (131, 4.78487163395347470107e-01) (132, 5.24696603288771101781e-01) (133, 1.47083342489963064814e+00) (134, 8.45041334794564336086e-01) (135, 4.51505859346765403561e-01) (136, 5.54563956893808773785e-01) (137, 5.68760237921638545089e-01) (138, 2.84755776334491839119e-01) (139, 1.50000000000000000000e+03) (140, 1.50000000000000000000e+03) (141, 7.82454762654776758701e-01) (142, 1.36693027274993128550e+00) (143, 1.04229450634517784025e+00) (144, 1.05237751117744560148e+00) (145, 1.19951496681966895963e+00) (146, 1.03484821728267450958e+00) (147, 8.08399797726445656920e-01) (148, 3.75579341628888507820e-01) (149, 1.50000000000000000000e+03) (150, 1.50000000000000000000e+03) (151, 1.50000000000000000000e+03) (152, 1.50000000000000000000e+03) (153, 1.50000000000000000000e+03) (154, 1.50000000000000000000e+03) (155, 1.50000000000000000000e+03) (156, 1.50000000000000000000e+03) (157, 1.50000000000000000000e+03) (158, 1.50000000000000000000e+03) (159, 1.50000000000000000000e+03) (160, 4.80619778971485001051e-01) (0, 1.50000000000000000000e+03) (1, 1.50000000000000000000e+03) (2, 1.50000000000000000000e+03) (3, 1.50000000000000000000e+03) (4, 1.50000000000000000000e+03) (5, 1.50000000000000000000e+03) (6, 1.50000000000000000000e+03) (7, 1.50000000000000000000e+03) (8, 1.50000000000000000000e+03) (9, 1.50000000000000000000e+03) (10, 1.50000000000000000000e+03) (11, 1.50000000000000000000e+03) (12, 1.50000000000000000000e+03) (13, 1.50000000000000000000e+03) (14, 1.50000000000000000000e+03) (15, 1.50000000000000000000e+03) (16, 1.50000000000000000000e+03) (17, 1.50000000000000000000e+03) (18, 1.50000000000000000000e+03) (19, 1.50000000000000000000e+03) (20, 1.50000000000000000000e+03) (21, 1.50000000000000000000e+03) (22, 3.08808061080677986876e-01) (23, 2.72077093618615095671e-01) (24, 1.62077702036045989686e+00) (25, 8.18686217917871772443e-01) (26, -1.15804937407197128252e+00) (27, 3.05929799325802720400e-01) (28, 3.94735886988637263428e+00) (29, 1.50000000000000000000e+03) (30, 1.50000000000000000000e+03) (31, 4.45090102629381367816e-01) (32, 5.95700305185998368884e-01) (33, 4.05606742212021309513e-01) (34, 5.16849906946939219310e-01) (35, 4.66789820253326381838e-01) (36, 3.88856653373683691655e-01) (37, 3.91471114307309797642e-01) (38, 2.76768752969904441308e-01) (39, 1.50000000000000000000e+03) (40, 1.50000000000000000000e+03) (41, 3.57097486176500389377e-01) (42, 2.50042506750348059175e-01) (43, 1.36543070972428542964e-01) (44, 4.94214790522212232826e-01) (45, 3.86298348255795620521e-01) (46, -6.66969736425725937684e-03) (47, 2.72824622674676386946e-01) (48, 1.45712836540523499318e-01) (49, 1.50000000000000000000e+03) (50, 1.50000000000000000000e+03) (51, -1.22976200043062089406e-01) (52, -2.68453058991144855039e-01) (53, 8.14776895327915806622e-02) (54, 4.70738962905729085850e-01) (55, 4.89870966274474239910e-01) (56, 3.09581726650729804895e-01) (57, 3.06341434212541730009e-01) (58, 4.15084465792758094960e-01) (59, 1.50000000000000000000e+03) (60, 1.50000000000000000000e+03) (61, 1.07813594286023384239e-01) (62, 1.01114282089547563581e-01) (63, 3.36900002724901337370e-01) (64, 4.89261408646057660565e-01) (65, 6.00441703844445395788e-01) (66, 1.09223218784114894930e-01) (67, 6.69153367859787184813e-02) (68, 1.91767462395707438683e-01) (69, 1.50000000000000000000e+03) (70, 1.50000000000000000000e+03) (71, 1.97764502326900314111e-02) (72, -1.74190682627388855608e-02) (73, 6.00398951042681927603e-01) (74, 2.77572390204365526678e-01) (75, 1.75336196194058907549e-01) (76, 2.64852078006150792877e-01) (77, 4.11730901897097378850e-01) (78, 3.46046391552316645601e-01) (79, 1.50000000000000000000e+03) (80, 1.50000000000000000000e+03) (81, 3.53412679878729263372e-01) (82, 4.24956323458205220689e-01) (83, 1.79643124239114393426e+00) (84, 4.67981897710721628236e-01) (85, 4.99733058366451321497e-01) (86, 3.83459888338662346907e-01) (87, 2.47611197235452745735e-01) (88, 4.13515650645506549488e-01) (89, 1.50000000000000000000e+03) (90, 1.50000000000000000000e+03) (91, 3.21454665914412546224e-02) (92, 1.52111873775903461148e-01) (93, 1.44259125031381302273e-01) (94, 2.67890793702810952118e-03) (95, 2.40376868215653488603e-01) (96, 7.69217616624891520338e-02) (97, -5.50798354775173026887e-01) (98, -5.11094798367614955303e-01) (99, 1.50000000000000000000e+03) (100, 1.50000000000000000000e+03) (101, 4.20582992989252529847e-02) (102, -1.83747507618876537716e-01) (103, 4.07169992754448817340e-01) (104, 5.74076609804324400343e-01) (105, 4.52318739017249893397e-01) (106, 5.91038706525431264960e-02) (107, -2.96067957992170449621e-01) (108, -2.68026739892154863831e-01) (109, 1.50000000000000000000e+03) (110, 1.50000000000000000000e+03) (111, 1.14703320235842579078e-01) (112, -4.77470197472685126128e-02) (113, 5.56065160254931689643e-01) (114, 5.15255972932613381943e-01) (115, 4.17074111209776998699e-01) (116, 3.02835477193920288297e-01) (117, 9.50597174124583610411e-02) (118, 1.50403180296426602913e-01) (119, 1.50000000000000000000e+03) (120, 1.50000000000000000000e+03) (121, 1.60468519169853496287e-01) (122, 3.08227670230310668575e-01) (123, 5.30795542105142459377e-01) (124, 5.48815983452109024121e-01) (125, 3.91438391902918125798e-01) (126, 4.42103306978256282989e-01) (127, 1.93832945245111909482e-01) (128, 4.72476505353139453192e-01) (129, 1.50000000000000000000e+03) (130, 1.50000000000000000000e+03) (131, 6.97714061670908658463e-01) (132, 3.81194551283505378425e-01) (133, 3.73579035697625239099e-01) (134, 2.87295852163208575991e-01) (135, 2.38253374750047791641e-01) (136, 4.50356011867231287304e-01) (137, 5.29635611847540044295e-01) (138, 6.27309920795425468576e-01) (139, 1.50000000000000000000e+03) (140, 1.50000000000000000000e+03) (141, 4.34570862635328347690e-01) (142, 3.38727558104358728031e-01) (143, 3.14900164052190401076e-01) (144, 4.06465102478208162307e-01) (145, 4.81355246647538703719e-01) (146, 4.68757581456841931900e-01) (147, 4.62316942714772083356e-01) (148, 1.24603873750408689070e+00) (149, 1.50000000000000000000e+03) (150, 1.50000000000000000000e+03) (151, 1.50000000000000000000e+03) (152, 1.50000000000000000000e+03) (153, 1.50000000000000000000e+03) (154, 1.50000000000000000000e+03) (155, 1.50000000000000000000e+03) (156, 1.50000000000000000000e+03) (157, 1.50000000000000000000e+03) (158, 1.50000000000000000000e+03) (159, 1.50000000000000000000e+03) (160, 5.16071305589833939642e-01) (0, 1.50000000000000000000e+03) (1, 1.50000000000000000000e+03) (2, 1.50000000000000000000e+03) (3, 1.50000000000000000000e+03) (4, 1.50000000000000000000e+03) (5, 1.50000000000000000000e+03) (6, 1.50000000000000000000e+03) (7, 1.50000000000000000000e+03) (8, 1.50000000000000000000e+03) (9, 1.50000000000000000000e+03) (10, 1.50000000000000000000e+03) (11, 1.50000000000000000000e+03) (12, 1.50000000000000000000e+03) (13, 1.50000000000000000000e+03) (14, 1.50000000000000000000e+03) (15, 1.50000000000000000000e+03) (16, 1.50000000000000000000e+03) (17, 1.50000000000000000000e+03) (18, 1.50000000000000000000e+03) (19, 1.50000000000000000000e+03) (20, 1.50000000000000000000e+03) (21, 1.50000000000000000000e+03) (22, 2.73096385198338453826e-01) (23, 2.90955277877552986876e-01) (24, 1.62529971649788818056e+00) (25, 7.32461844487858226849e-01) (26, -1.11393926217974770232e+00) (27, 4.14871458657124436709e-01) (28, 4.00405443546770545282e+00) (29, 1.50000000000000000000e+03) (30, 1.50000000000000000000e+03) (31, 4.62771984414774129046e-01) (32, 5.80728378377641130115e-01) (33, 3.56451642834782034264e-01) (34, 3.86130579827413722427e-01) (35, 4.77114021445609937100e-01) (36, 4.55348716133178454957e-01) (37, 5.28107509051925494425e-01) (38, 4.53099326826734927209e-01) (39, 1.50000000000000000000e+03) (40, 1.50000000000000000000e+03) (41, 3.54558130685538250293e-02) (42, 2.76098416443598948522e-01) (43, 1.17252794083351874477e-01) (44, 4.76483933012474658586e-01) (45, 4.62710456893897614794e-01) (46, -1.13887622316661968336e-01) (47, 3.64451028565332846298e-01) (48, -1.97473700277161212657e-02) (49, 1.50000000000000000000e+03) (50, 1.50000000000000000000e+03) (51, -1.00808234273294661243e-01) (52, 1.69001408627450389055e-01) (53, 3.03350978036026786011e-01) (54, 4.78347682305050425633e-01) (55, 4.70311170764945107869e-01) (56, 3.53433355891601130860e-01) (57, 2.77798724054148515883e-01) (58, 4.47494133761508039449e-01) (59, 1.50000000000000000000e+03) (60, 1.50000000000000000000e+03) (61, 1.37935216102914426362e-01) (62, 4.70396391165806351808e-03) (63, 3.61997655994669043089e-01) (64, 4.75147436076812201833e-01) (65, 5.06159054667397967364e-01) (66, 8.40843923068257254050e-02) (67, 1.27682879876987842582e-01) (68, 1.95893437468091347053e-01) (69, 1.50000000000000000000e+03) (70, 1.50000000000000000000e+03) (71, 5.94865664149823933360e-02) (72, 1.16212415004669750163e-01) (73, 5.80842542685916285450e-01) (74, 4.87333004488814225397e-01) (75, 1.31878628404524828044e-01) (76, 3.94075637491951014102e-01) (77, 4.16211342238665349402e-01) (78, 3.60790710974754347262e-01) (79, 1.50000000000000000000e+03) (80, 1.50000000000000000000e+03) (81, 3.46533588441198692198e-01) (82, 4.57471148653422365893e-01) (83, 1.83777645499972019927e+00) (84, 4.48627651153962747621e-01) (85, 5.26072699893802009363e-01) (86, 4.03518216258616946313e-01) (87, 3.65520170629555385400e-01) (88, 2.31359677451560608041e-01) (89, 1.50000000000000000000e+03) (90, 1.50000000000000000000e+03) (91, -1.02051424231352896865e-01) (92, 1.93589485886613676957e-01) (93, 1.40358977056890071866e-01) (94, 1.79400100833392889266e-01) (95, 9.23849278365096726606e-02) (96, 4.26383173770982712436e-02) (97, -8.72720914439101269622e-01) (98, -5.17002433746312939356e-01) (99, 1.50000000000000000000e+03) (100, 1.50000000000000000000e+03) (101, 1.41275152252166774636e-01) (102, -4.93110757585136852410e-02) (103, 1.91223285805787762692e-01) (104, 4.81415408548302781178e-01) (105, 4.21153365482568764477e-01) (106, -3.62035318039684445024e-02) (107, -1.72187358674594559460e-01) (108, -2.31854784961633475504e-01) (109, 1.50000000000000000000e+03) (110, 1.50000000000000000000e+03) (111, 1.68682127184679037102e-01) (112, -6.85150469691404584438e-02) (113, 5.97973072654261472714e-01) (114, 5.61508610550862208299e-01) (115, 4.06911877448888681386e-01) (116, 3.29639524736606681632e-01) (117, 1.05338039215075007782e-01) (118, 1.43110366450505926972e-01) (119, 1.50000000000000000000e+03) (120, 1.50000000000000000000e+03) (121, 7.67924553024023227171e-03) (122, 3.28569190969293767335e-01) (123, 3.89961140565859842866e-01) (124, 4.96664927558531699159e-01) (125, 5.03248097910894420792e-01) (126, 4.90344143730157555616e-01) (127, 1.31580242208317238495e-01) (128, 4.74677278421553827670e-01) (129, 1.50000000000000000000e+03) (130, 1.50000000000000000000e+03) (131, 6.18793254323690256058e-01) (132, 5.02631608443296684641e-01) (133, 4.25216466967679618261e-01) (134, -3.11519561718889670399e-01) (135, 2.11924470553050969812e-01) (136, 6.24083816452621120696e-01) (137, 5.63108793398768958660e-01) (138, 6.10438067601160150311e-01) (139, 1.50000000000000000000e+03) (140, 1.50000000000000000000e+03) (141, 4.00006654396011296360e-01) (142, 4.33222184030376433750e-01) (143, 4.42469742640199226180e-01) (144, 3.40095472081842042922e-01) (145, 3.82948253794850923537e-01) (146, 4.02156021937074281691e-01) (147, 4.10772756986937437329e-01) (148, 1.26518546303947965193e+00) (149, 1.50000000000000000000e+03) (150, 1.50000000000000000000e+03) (151, 1.50000000000000000000e+03) (152, 1.50000000000000000000e+03) (153, 1.50000000000000000000e+03) (154, 1.50000000000000000000e+03) (155, 1.50000000000000000000e+03) (156, 1.50000000000000000000e+03) (157, 1.50000000000000000000e+03) (158, 1.50000000000000000000e+03) (159, 1.50000000000000000000e+03) (160, 3.81206939099648922653e-01) (0, 1.50000000000000000000e+03) (1, 1.50000000000000000000e+03) (2, 1.50000000000000000000e+03) (3, 1.50000000000000000000e+03) (4, 1.50000000000000000000e+03) (5, 1.50000000000000000000e+03) (6, 1.50000000000000000000e+03) (7, 1.50000000000000000000e+03) (8, 1.50000000000000000000e+03) (9, 1.50000000000000000000e+03) (10, 1.50000000000000000000e+03) (11, 1.50000000000000000000e+03) (12, 1.50000000000000000000e+03) (13, 1.50000000000000000000e+03) (14, 1.50000000000000000000e+03) (15, 1.50000000000000000000e+03) (16, 1.50000000000000000000e+03) (17, 1.50000000000000000000e+03) (18, 1.50000000000000000000e+03) (19, 1.50000000000000000000e+03) (20, 1.50000000000000000000e+03) (21, 1.50000000000000000000e+03) (22, 1.98859321671223526762e-01) (23, 1.77356640594696884916e-01) (24, 1.47336490651511153871e+00) (25, 8.71438891543817706342e-01) (26, -1.09532964899958717986e+00) (27, 2.97226187534668839785e-01) (28, 3.90793626097437396538e+00) (29, 1.50000000000000000000e+03) (30, 1.50000000000000000000e+03) (31, 5.91459689722767079090e-01) (32, 5.46949936615416243413e-01) (33, 4.42287052364576993568e-01) (34, 4.00670421408083454740e-01) (35, 4.44360718322253489543e-01) (36, 4.98127169564781480116e-01) (37, 5.27336950980670238209e-01) (38, 6.35346010254059095912e-02) (39, 1.50000000000000000000e+03) (40, 1.50000000000000000000e+03) (41, 3.12180108201360329012e-01) (42, 2.67297005197069004190e-01) (43, 1.58755924586064488258e-02) (44, 4.47261158004240322317e-01) (45, 2.91992505985503192356e-01) (46, 6.65161982906811444227e-02) (47, 3.61072314305954489289e-01) (48, 3.56560680058561133010e-02) (49, 1.50000000000000000000e+03) (50, 1.50000000000000000000e+03) (51, -3.04034815274469405466e-01) (52, 1.56005125258354637729e-01) (53, 2.19523267415405232139e-01) (54, 3.51673075990696193394e-01) (55, 4.49544887692664096868e-01) (56, 3.67612520411372323270e-01) (57, 1.00032141071468932969e-01) (58, -2.43820301802037198158e+00) (59, 1.50000000000000000000e+03) (60, 1.50000000000000000000e+03) (61, 9.36789874956089202440e-02) (62, -8.45540304282817040127e-02) (63, 3.63411548396249228787e-01) (64, 5.36293845260261359265e-01) (65, 5.66706714929634536304e-01) (66, -3.48033259972060304843e-01) (67, 8.51971545415410452806e-02) (68, 2.04562530927614089071e-01) (69, 1.50000000000000000000e+03) (70, 1.50000000000000000000e+03) (71, -1.08990880393118813596e-01) (72, -3.96136293912600911948e-02) (73, 1.56605171823333971792e-01) (74, 2.88407233845379917803e-01) (75, 1.84756579237451146192e-01) (76, 5.54259599698290264524e-02) (77, 1.31369906279615478173e-01) (78, 6.92435080770083533075e-02) (79, 1.50000000000000000000e+03) (80, 1.50000000000000000000e+03) (81, 3.31028320945824239274e-01) (82, 3.25353689341950913505e-01) (83, 