FANN_FLO_2.1
num_layers=3
learning_rate=0.700000
connection_rate=1.000000
network_type=0
learning_momentum=0.000000
training_algorithm=2
train_error_function=1
train_stop_function=0
cascade_output_change_fraction=0.010000
quickprop_decay=-0.000100
quickprop_mu=1.750000
rprop_increase_factor=1.200000
rprop_decrease_factor=0.500000
rprop_delta_min=0.000000
rprop_delta_max=50.000000
rprop_delta_zero=0.100000
cascade_output_stagnation_epochs=12
cascade_candidate_change_fraction=0.010000
cascade_candidate_stagnation_epochs=12
cascade_max_out_epochs=150
cascade_min_out_epochs=50
cascade_max_cand_epochs=150
cascade_min_cand_epochs=50
cascade_num_candidate_groups=2
bit_fail_limit=3.49999999999999977796e-01
cascade_candidate_limit=1.00000000000000000000e+03
cascade_weight_multiplier=4.00000000000000022204e-01
cascade_activation_functions_count=10
cascade_activation_functions=3 5 7 8 10 11 14 15 16 17 
cascade_activation_steepnesses_count=4
cascade_activation_steepnesses=2.50000000000000000000e-01 5.00000000000000000000e-01 7.50000000000000000000e-01 1.00000000000000000000e+00 
layer_sizes=161 108 2 
scale_included=0
neurons (num_inputs, activation_function, activation_steepness)=(0, 0, 0.00000000000000000000e+00) (0, 0, 0.00000000000000000000e+00) (0, 0, 0.00000000000000000000e+00) (0, 0, 0.00000000000000000000e+00) (0, 0, 0.00000000000000000000e+00) (0, 0, 0.00000000000000000000e+00) (0, 0, 0.00000000000000000000e+00) (0, 0, 0.00000000000000000000e+00) (0, 0, 0.00000000000000000000e+00) (0, 0, 0.00000000000000000000e+00) (0, 0, 0.00000000000000000000e+00) (0, 0, 0.00000000000000000000e+00) (0, 0, 0.00000000000000000000e+00) (0, 0, 0.00000000000000000000e+00) (0, 0, 0.00000000000000000000e+00) (0, 0, 0.00000000000000000000e+00) (0, 0, 0.00000000000000000000e+00) (0, 0, 0.00000000000000000000e+00) (0, 0, 0.00000000000000000000e+00) (0, 0, 0.00000000000000000000e+00) (0, 0, 0.00000000000000000000e+00) (0, 0, 0.00000000000000000000e+00) (0, 0, 0.00000000000000000000e+00) (0, 0, 0.00000000000000000000e+00) (0, 0, 0.00000000000000000000e+00) (0, 0, 0.00000000000000000000e+00) (0, 0, 0.00000000000000000000e+00) (0, 0, 0.00000000000000000000e+00) (0, 0, 0.00000000000000000000e+00) (0, 0, 0.00000000000000000000e+00) (0, 0, 0.00000000000000000000e+00) (0, 0, 0.00000000000000000000e+00) (0, 0, 0.00000000000000000000e+00) (0, 0, 0.00000000000000000000e+00) (0, 0, 0.00000000000000000000e+00) (0, 0, 0.00000000000000000000e+00) (0, 0, 0.00000000000000000000e+00) (0, 0, 0.00000000000000000000e+00) (0, 0, 0.00000000000000000000e+00) (0, 0, 0.00000000000000000000e+00) (0, 0, 0.00000000000000000000e+00) (0, 0, 0.00000000000000000000e+00) (0, 0, 0.00000000000000000000e+00) (0, 0, 0.00000000000000000000e+00) (0, 0, 0.00000000000000000000e+00) (0, 0, 0.00000000000000000000e+00) (0, 0, 0.00000000000000000000e+00) (0, 0, 0.00000000000000000000e+00) (0, 0, 0.00000000000000000000e+00) (0, 0, 0.00000000000000000000e+00) (0, 0, 0.00000000000000000000e+00) (0, 0, 0.00000000000000000000e+00) (0, 0, 0.00000000000000000000e+00) (0, 0, 0.00000000000000000000e+00) (0, 0, 0.00000000000000000000e+00) (0, 0, 0.00000000000000000000e+00) (0, 0, 0.00000000000000000000e+00) (0, 0, 0.00000000000000000000e+00) (0, 0, 0.00000000000000000000e+00) (0, 0, 0.00000000000000000000e+00) (0, 0, 0.00000000000000000000e+00) (0, 0, 0.00000000000000000000e+00) (0, 0, 0.00000000000000000000e+00) (0, 0, 0.00000000000000000000e+00) (0, 0, 0.00000000000000000000e+00) (0, 0, 0.00000000000000000000e+00) (0, 0, 0.00000000000000000000e+00) (0, 0, 0.00000000000000000000e+00) (0, 0, 0.00000000000000000000e+00) (0, 0, 0.00000000000000000000e+00) (0, 0, 0.00000000000000000000e+00) (0, 0, 0.00000000000000000000e+00) (0, 0, 0.00000000000000000000e+00) (0, 0, 0.00000000000000000000e+00) (0, 0, 0.00000000000000000000e+00) (0, 0, 0.00000000000000000000e+00) (0, 0, 0.00000000000000000000e+00) (0, 0, 0.00000000000000000000e+00) (0, 0, 0.00000000000000000000e+00) (0, 0, 0.00000000000000000000e+00) (0, 0, 0.00000000000000000000e+00) (0, 0, 0.00000000000000000000e+00) (0, 0, 0.00000000000000000000e+00) (0, 0, 0.00000000000000000000e+00) (0, 0, 0.00000000000000000000e+00) (0, 0, 0.00000000000000000000e+00) (0, 0, 0.00000000000000000000e+00) (0, 0, 0.00000000000000000000e+00) (0, 0, 0.00000000000000000000e+00) (0, 0, 0.00000000000000000000e+00) (0, 0, 0.00000000000000000000e+00) (0, 0, 0.00000000000000000000e+00) (0, 0, 0.00000000000000000000e+00) (0, 0, 0.00000000000000000000e+00) (0, 0, 0.00000000000000000000e+00) (0, 0, 0.00000000000000000000e+00) (0, 0, 0.00000000000000000000e+00) (0, 0, 0.00000000000000000000e+00) (0, 0, 0.00000000000000000000e+00) (0, 0, 0.00000000000000000000e+00) (0, 0, 0.00000000000000000000e+00) (0, 0, 0.00000000000000000000e+00) (0, 0, 0.00000000000000000000e+00) (0, 0, 0.00000000000000000000e+00) (0, 0, 0.00000000000000000000e+00) (0, 0, 0.00000000000000000000e+00) (0, 0, 0.00000000000000000000e+00) (0, 0, 0.00000000000000000000e+00) (0, 0, 0.00000000000000000000e+00) (0, 0, 0.00000000000000000000e+00) (0, 0, 0.00000000000000000000e+00) (0, 0, 0.00000000000000000000e+00) (0, 0, 0.00000000000000000000e+00) (0, 0, 0.00000000000000000000e+00) (0, 0, 0.00000000000000000000e+00) (0, 0, 0.00000000000000000000e+00) (0, 0, 0.00000000000000000000e+00) (0, 0, 0.00000000000000000000e+00) (0, 0, 0.00000000000000000000e+00) (0, 0, 0.00000000000000000000e+00) (0, 0, 0.00000000000000000000e+00) (0, 0, 0.00000000000000000000e+00) (0, 0, 0.00000000000000000000e+00) (0, 0, 0.00000000000000000000e+00) (0, 0, 0.00000000000000000000e+00) (0, 0, 0.00000000000000000000e+00) (0, 0, 0.00000000000000000000e+00) (0, 0, 0.00000000000000000000e+00) (0, 0, 0.00000000000000000000e+00) (0, 0, 0.00000000000000000000e+00) (0, 0, 0.00000000000000000000e+00) (0, 0, 0.00000000000000000000e+00) (0, 0, 0.00000000000000000000e+00) (0, 0, 0.00000000000000000000e+00) (0, 0, 0.00000000000000000000e+00) (0, 0, 0.00000000000000000000e+00) (0, 0, 0.00000000000000000000e+00) (0, 0, 0.00000000000000000000e+00) (0, 0, 0.00000000000000000000e+00) (0, 0, 0.00000000000000000000e+00) (0, 0, 0.00000000000000000000e+00) (0, 0, 0.00000000000000000000e+00) (0, 0, 0.00000000000000000000e+00) (0, 0, 0.00000000000000000000e+00) (0, 0, 0.00000000000000000000e+00) (0, 0, 0.00000000000000000000e+00) (0, 0, 0.00000000000000000000e+00) (0, 0, 0.00000000000000000000e+00) (0, 0, 0.00000000000000000000e+00) (0, 0, 0.00000000000000000000e+00) (0, 0, 0.00000000000000000000e+00) (0, 0, 0.00000000000000000000e+00) (0, 0, 0.00000000000000000000e+00) (0, 0, 0.00000000000000000000e+00) (0, 0, 0.00000000000000000000e+00) (0, 0, 0.00000000000000000000e+00) (0, 0, 0.00000000000000000000e+00) (0, 0, 0.00000000000000000000e+00) (0, 0, 0.00000000000000000000e+00) (0, 0, 0.00000000000000000000e+00) (0, 0, 0.00000000000000000000e+00) (161, 5, 5.00000000000000000000e-01) (161, 5, 5.00000000000000000000e-01) (161, 5, 5.00000000000000000000e-01) (161, 5, 5.00000000000000000000e-01) (161, 5, 5.00000000000000000000e-01) (161, 5, 5.00000000000000000000e-01) (161, 5, 5.00000000000000000000e-01) (161, 5, 5.00000000000000000000e-01) (161, 5, 5.00000000000000000000e-01) (161, 5, 5.00000000000000000000e-01) (161, 5, 5.00000000000000000000e-01) (161, 5, 5.00000000000000000000e-01) (161, 5, 5.00000000000000000000e-01) (161, 5, 5.00000000000000000000e-01) (161, 5, 5.00000000000000000000e-01) (161, 5, 5.00000000000000000000e-01) (161, 5, 5.00000000000000000000e-01) (161, 5, 5.00000000000000000000e-01) (161, 5, 5.00000000000000000000e-01) (161, 5, 5.00000000000000000000e-01) (161, 5, 5.00000000000000000000e-01) (161, 5, 5.00000000000000000000e-01) (161, 5, 5.00000000000000000000e-01) (161, 5, 5.00000000000000000000e-01) (161, 5, 5.00000000000000000000e-01) (161, 5, 5.00000000000000000000e-01) (161, 5, 5.00000000000000000000e-01) (161, 5, 5.00000000000000000000e-01) (161, 5, 5.00000000000000000000e-01) (161, 5, 5.00000000000000000000e-01) (161, 5, 5.00000000000000000000e-01) (161, 5, 5.00000000000000000000e-01) (161, 5, 5.00000000000000000000e-01) (161, 5, 5.00000000000000000000e-01) (161, 5, 5.00000000000000000000e-01) (161, 5, 5.00000000000000000000e-01) (161, 5, 5.00000000000000000000e-01) (161, 5, 5.00000000000000000000e-01) (161, 5, 5.00000000000000000000e-01) (161, 5, 5.00000000000000000000e-01) (161, 5, 5.00000000000000000000e-01) (161, 5, 5.00000000000000000000e-01) (161, 5, 5.00000000000000000000e-01) (161, 5, 5.00000000000000000000e-01) (161, 5, 5.00000000000000000000e-01) (161, 5, 5.00000000000000000000e-01) (161, 5, 5.00000000000000000000e-01) (161, 5, 5.00000000000000000000e-01) (161, 5, 5.00000000000000000000e-01) (161, 5, 5.00000000000000000000e-01) (161, 5, 5.00000000000000000000e-01) (161, 5, 5.00000000000000000000e-01) (161, 5, 5.00000000000000000000e-01) (161, 5, 5.00000000000000000000e-01) (161, 5, 5.00000000000000000000e-01) (161, 5, 5.00000000000000000000e-01) (161, 5, 5.00000000000000000000e-01) (161, 5, 5.00000000000000000000e-01) (161, 5, 5.00000000000000000000e-01) (161, 5, 5.00000000000000000000e-01) (161, 5, 5.00000000000000000000e-01) (161, 5, 5.00000000000000000000e-01) (161, 5, 5.00000000000000000000e-01) (161, 5, 5.00000000000000000000e-01) (161, 5, 5.00000000000000000000e-01) (161, 5, 5.00000000000000000000e-01) (161, 5, 5.00000000000000000000e-01) (161, 5, 5.00000000000000000000e-01) (161, 5, 5.00000000000000000000e-01) (161, 5, 5.00000000000000000000e-01) (161, 5, 5.00000000000000000000e-01) (161, 5, 5.00000000000000000000e-01) (161, 5, 5.00000000000000000000e-01) (161, 5, 5.00000000000000000000e-01) (161, 5, 5.00000000000000000000e-01) (161, 5, 5.00000000000000000000e-01) (161, 5, 5.00000000000000000000e-01) (161, 5, 5.00000000000000000000e-01) (161, 5, 5.00000000000000000000e-01) (161, 5, 5.00000000000000000000e-01) (161, 5, 5.00000000000000000000e-01) (161, 5, 5.00000000000000000000e-01) (161, 5, 5.00000000000000000000e-01) (161, 5, 5.00000000000000000000e-01) (161, 5, 5.00000000000000000000e-01) (161, 5, 5.00000000000000000000e-01) (161, 5, 5.00000000000000000000e-01) (161, 5, 5.00000000000000000000e-01) (161, 5, 5.00000000000000000000e-01) (161, 5, 5.00000000000000000000e-01) (161, 5, 5.00000000000000000000e-01) (161, 5, 5.00000000000000000000e-01) (161, 5, 5.00000000000000000000e-01) (161, 5, 5.00000000000000000000e-01) (161, 5, 5.00000000000000000000e-01) (161, 5, 5.00000000000000000000e-01) (161, 5, 5.00000000000000000000e-01) (161, 5, 5.00000000000000000000e-01) (161, 5, 5.00000000000000000000e-01) (161, 5, 5.00000000000000000000e-01) (161, 5, 5.00000000000000000000e-01) (161, 5, 5.00000000000000000000e-01) (161, 5, 5.00000000000000000000e-01) (161, 5, 5.00000000000000000000e-01) (161, 5, 5.00000000000000000000e-01) (161, 5, 5.00000000000000000000e-01) (161, 5, 5.00000000000000000000e-01) (0, 5, 0.00000000000000000000e+00) (108, 5, 5.00000000000000000000e-01) (0, 5, 0.00000000000000000000e+00) 
connections (connected_to_neuron, weight)=(0, 1.50000000000000000000e+03) (1, 1.50000000000000000000e+03) (2, 1.50000000000000000000e+03) (3, 1.50000000000000000000e+03) (4, 1.50000000000000000000e+03) (5, 1.50000000000000000000e+03) (6, 1.50000000000000000000e+03) (7, 1.50000000000000000000e+03) (8, 1.50000000000000000000e+03) (9, 1.50000000000000000000e+03) (10, 1.50000000000000000000e+03) (11, 1.50000000000000000000e+03) (12, 1.50000000000000000000e+03) (13, 1.50000000000000000000e+03) (14, 1.50000000000000000000e+03) (15, 1.50000000000000000000e+03) (16, 1.50000000000000000000e+03) (17, 1.50000000000000000000e+03) (18, 1.50000000000000000000e+03) (19, 1.50000000000000000000e+03) (20, 1.50000000000000000000e+03) (21, 1.50000000000000000000e+03) (22, 2.69834431377076133796e-01) (23, 1.85856165853166305224e-01) (24, 4.03995190084227129290e-01) (25, 4.98336504763737309087e-01) (26, 4.14601175456546955367e-01) (27, 9.77017821740130409935e-01) (28, -1.05215402450192896389e-01) (29, 1.50000000000000000000e+03) (30, 1.50000000000000000000e+03) (31, 3.38761436120334047395e-01) (32, 7.17017669154650875291e-03) (33, 1.66340755380191862578e+00) (34, 1.16842990538738485118e-02) (35, 8.03161894189922787035e-01) (36, 5.73132474327838481454e-02) (37, 1.73322982903374750441e-01) (38, 2.92069644680384099544e-01) (39, 1.50000000000000000000e+03) (40, 1.50000000000000000000e+03) (41, 4.43811940738372379123e-01) (42, 4.86958554694308543009e-01) (43, 3.30814565634104118530e+00) (44, 6.85582502098925683498e-01) (45, 7.97201246661960793993e-01) (46, 3.42718100013783388835e-01) (47, 1.98482097703049087389e-01) (48, 1.48149403557617104221e-01) (49, 1.50000000000000000000e+03) (50, 1.50000000000000000000e+03) (51, 3.49597723494299128522e-01) (52, 3.82975278812140940143e-01) (53, 1.70376613422624911820e+00) (54, 9.66954666122312178622e-02) (55, 8.88483194357540084773e-01) (56, 1.37281168400596831347e+00) (57, 1.33359135244218884875e-01) (58, -4.21559016053485655084e-02) (59, 1.50000000000000000000e+03) (60, 1.50000000000000000000e+03) (61, 4.23855418182660415027e+00) (62, 1.17897438752332217593e-01) (63, -1.08990186076221920453e-01) (64, 1.09870060000516481247e-01) (65, -9.03636117440270031365e-02) (66, 1.49262896405387424092e-01) (67, -3.21231260287720560287e-02) (68, 1.55798523768973318226e+00) (69, 1.50000000000000000000e+03) (70, 1.50000000000000000000e+03) (71, 2.63665994071561060608e+00) (72, -5.82026840633577680073e-01) (73, 9.54351371248386287638e-02) (74, 2.72912003771561793852e-02) (75, 3.69948209352852636078e-02) (76, -2.34089272019895766608e-01) (77, -7.15210578421740517108e-02) (78, 1.26439729025231084591e+00) (79, 1.50000000000000000000e+03) (80, 1.50000000000000000000e+03) (81, -5.80648393586865527172e-02) (82, -1.36195120826297588756e+00) (83, 7.63854811587553084173e-01) (84, 1.80157163893341326633e-01) (85, 1.28180286532109088959e+00) (86, 6.03866769842211562058e-02) (87, 8.98397610251110145807e-02) (88, -2.85621502754460188100e+00) (89, 1.50000000000000000000e+03) (90, 1.50000000000000000000e+03) (91, 6.94436557965586592767e-02) (92, -8.57281102743374413822e-03) (93, -2.09287536972265819646e-01) (94, 1.99448142263998345891e-02) (95, -7.89785840895831092734e-02) (96, 6.86960903896604701407e-03) (97, 1.29469274549632556992e-01) (98, 7.18666820924628163558e-02) (99, 1.50000000000000000000e+03) (100, 1.50000000000000000000e+03) (101, -1.37259848074864798662e-01) (102, 1.74921237548216951252e-01) (103, -5.23344366130918503544e-01) (104, -2.93563657438072334038e-01) (105, 7.66856927434276386402e-02) (106, 1.38956218661808045267e-01) (107, 4.38313191590703643552e-01) (108, -1.66063637428315834244e-02) (109, 1.50000000000000000000e+03) (110, 1.50000000000000000000e+03) (111, 2.45444540518345366564e+00) (112, -2.03183186807522550565e-02) (113, -1.47316240984951968285e-01) (114, -1.46523382804073687424e+00) (115, -3.95523251567880679280e-02) (116, -6.80306332877285840910e-02) (117, -3.39738054276512366214e-02) (118, -1.08013828747833184885e+00) (119, 1.50000000000000000000e+03) (120, 1.50000000000000000000e+03) (121, 2.86098666097310716516e-01) (122, 2.01769009203353333337e-01) (123, -2.18612223584344310401e-02) (124, -1.98127346780891423761e-02) (125, -2.94652179503745656475e-02) (126, -7.83343588633093057538e-02) (127, 7.22443809902136302448e-01) (128, -5.40843300900101353612e-01) (129, 1.50000000000000000000e+03) (130, 1.50000000000000000000e+03) (131, 2.79511745022346901057e-02) (132, 1.08176121663793381455e-01) (133, -9.41433032347625320391e-01) (134, -2.33119196575152942685e+00) (135, 9.60420724153892430008e-02) (136, 4.15091046118158280009e-01) (137, 1.79177506269986963616e-01) (138, -1.08818257879241889197e-02) (139, 1.50000000000000000000e+03) (140, 1.50000000000000000000e+03) (141, 6.54334064132379045198e-01) (142, -1.55829811627143988151e-01) (143, 1.14067897738082055237e-01) (144, 1.60460725964170825009e-01) (145, 1.88475855232336952927e-01) (146, 7.62261008630803482689e-02) (147, 6.25383613337724297843e-01) (148, 9.48145917265567961252e-01) (149, 1.50000000000000000000e+03) (150, 1.50000000000000000000e+03) (151, 1.50000000000000000000e+03) (152, 1.50000000000000000000e+03) (153, 1.50000000000000000000e+03) (154, 1.50000000000000000000e+03) (155, 1.50000000000000000000e+03) (156, 1.50000000000000000000e+03) (157, 1.50000000000000000000e+03) (158, 1.50000000000000000000e+03) (159, 1.50000000000000000000e+03) (160, -2.44695474972337553843e-02) (0, 1.50000000000000000000e+03) (1, 1.50000000000000000000e+03) (2, 1.50000000000000000000e+03) (3, 1.50000000000000000000e+03) (4, 1.50000000000000000000e+03) (5, 1.50000000000000000000e+03) (6, 1.50000000000000000000e+03) (7, 1.50000000000000000000e+03) (8, 1.50000000000000000000e+03) (9, 1.50000000000000000000e+03) (10, 1.50000000000000000000e+03) (11, 1.50000000000000000000e+03) (12, 1.50000000000000000000e+03) (13, 1.50000000000000000000e+03) (14, 1.50000000000000000000e+03) (15, 1.50000000000000000000e+03) (16, 1.50000000000000000000e+03) (17, 1.50000000000000000000e+03) (18, 1.50000000000000000000e+03) (19, 1.50000000000000000000e+03) (20, 1.50000000000000000000e+03) (21, 1.50000000000000000000e+03) (22, 2.30610426272570834261e-01) (23, 1.71272050346552323630e-01) (24, 5.20591643837089002034e-01) (25, 5.08388622396678480087e-01) (26, 6.23122513549734913241e-01) (27, 9.38844953426572481625e-01) (28, -3.22132925049259888350e-01) (29, 1.50000000000000000000e+03) (30, 1.50000000000000000000e+03) (31, -4.46996391036088916437e-02) (32, -1.79518637952397128177e-02) (33, 1.91516330956320757206e-01) (34, -9.13777483307292442971e-02) (35, -1.61524220102265747556e-01) (36, -1.99018770127134293768e-02) (37, -3.26090816046805329065e-02) (38, -1.02109976107699368386e-01) (39, 1.50000000000000000000e+03) (40, 1.50000000000000000000e+03) (41, -1.58772937602390168399e-01) (42, -3.92442986392560824727e-02) (43, 9.48305786436766939840e-02) (44, 2.04484671154359226586e-01) (45, 1.28744852910897766840e-01) (46, -9.39729128192355878113e-02) (47, 2.82313696423132955149e-02) (48, 2.91638537318503587858e-01) (49, 1.50000000000000000000e+03) (50, 1.50000000000000000000e+03) (51, 1.09548782405913661120e-01) (52, -6.13811690909057960930e-02) (53, 3.49885097084290039304e-02) (54, 3.14603061384571627834e-02) (55, 2.93405019538435472837e-02) (56, -1.54604317185280504265e-01) (57, -6.74961023323095987703e-02) (58, 3.45387094439763675524e-01) (59, 1.50000000000000000000e+03) (60, 1.50000000000000000000e+03) (61, -2.20115006150174208344e-01) (62, -9.34136729755092182215e-02) (63, -9.82692837570654287305e-01) (64, -1.85804909180528693424e-01) (65, -2.72109768329387491370e-01) (66, 3.01893897417412460094e-01) (67, -4.36115605040054490904e-02) (68, -9.50101869386803937756e-02) (69, 1.50000000000000000000e+03) (70, 1.50000000000000000000e+03) (71, -6.45430368973283347112e-02) (72, -1.19150998996275708786e-01) (73, -2.18599520611754166710e-01) (74, -8.59835424715148372021e-02) (75, -7.81991056507281012689e-02) (76, -7.11948868178082644453e-02) (77, -7.86697162974015484771e-02) (78, -6.75981385417660507464e-02) (79, 1.50000000000000000000e+03) (80, 1.50000000000000000000e+03) (81, -1.05134916155176685870e-01) (82, -1.04126471324303235266e-01) (83, -9.70438923127141389591e-02) (84, -1.15753169589921198201e-01) (85, -1.98042066594749072150e-01) (86, 5.23175991184410618673e-03) (87, -3.48431480551521441380e-02) (88, 9.76568711305843134562e-02) (89, 1.50000000000000000000e+03) (90, 1.50000000000000000000e+03) (91, -2.51610882847334883794e-02) (92, -1.33303733290483172880e-01) (93, -8.47013209981321568698e-02) (94, 8.25719004631672859329e-02) (95, -3.74268411488933722131e-02) (96, -1.79777486021390126014e-01) (97, -7.45346377555334421716e-02) (98, -2.69760603890814187888e-01) (99, 1.50000000000000000000e+03) (100, 1.50000000000000000000e+03) (101, -1.12487807344719525915e-01) (102, -5.80217225467190289567e-03) (103, 7.66257532348000730549e-02) (104, -1.50210923101205096053e-01) (105, -5.49748271977566344004e-02) (106, -1.98144934355835633522e-01) (107, -8.87671210509322905491e-02) (108, -1.14414852242669146110e-01) (109, 1.50000000000000000000e+03) (110, 1.50000000000000000000e+03) (111, -4.51832351155444164603e-02) (112, -1.52116025988296821314e-01) (113, -1.29988922007444662743e-01) (114, -4.58202130220641434821e-01) (115, -3.93108588187421129079e-02) (116, -1.62569370296154702693e-01) (117, -1.27547183732162922043e-01) (118, 5.03942230021154277675e-02) (119, 1.50000000000000000000e+03) (120, 1.50000000000000000000e+03) (121, 5.11067683318660800906e-02) (122, -1.53004891105993828804e-01) (123, -2.36377186460170640725e-01) (124, -9.46659577046800176925e-02) (125, 7.10419992699354851950e-02) (126, -1.51137738074849843108e-03) (127, -1.81449274007597693981e-01) (128, -1.25591838714915526865e+00) (129, 1.50000000000000000000e+03) (130, 1.50000000000000000000e+03) (131, -1.84395679629329650728e-01) (132, 2.92782559398552411078e-01) (133, 3.86144066295898646946e-01) (134, 2.12426737740186777348e-01) (135, 1.71330212498184947245e-01) (136, 3.49555543148570568857e-01) (137, 3.21838172254477403178e-02) (138, -1.25284404842164326377e-01) (139, 1.50000000000000000000e+03) (140, 1.50000000000000000000e+03) (141, 9.54749639046744480453e-01) (142, -9.75269918047469014377e-02) (143, 2.47953679162759260679e-01) (144, 2.49583329755563076979e-01) (145, 2.60478105146188854135e-01) (146, 2.97941472131515006083e-01) (147, 3.03551360546988509281e-02) (148, 1.37510966847006588232e+00) (149, 1.50000000000000000000e+03) (150, 1.50000000000000000000e+03) (151, 1.50000000000000000000e+03) (152, 1.50000000000000000000e+03) (153, 1.50000000000000000000e+03) (154, 1.50000000000000000000e+03) (155, 1.50000000000000000000e+03) (156, 1.50000000000000000000e+03) (157, 1.50000000000000000000e+03) (158, 1.50000000000000000000e+03) (159, 1.50000000000000000000e+03) (160, 2.00500565357912885478e-01) (0, 1.50000000000000000000e+03) (1, 1.50000000000000000000e+03) (2, 1.50000000000000000000e+03) (3, 1.50000000000000000000e+03) (4, 1.50000000000000000000e+03) (5, 1.50000000000000000000e+03) (6, 1.50000000000000000000e+03) (7, 1.50000000000000000000e+03) (8, 1.50000000000000000000e+03) (9, 1.50000000000000000000e+03) (10, 1.50000000000000000000e+03) (11, 1.50000000000000000000e+03) (12, 1.50000000000000000000e+03) (13, 1.50000000000000000000e+03) (14, 1.50000000000000000000e+03) (15, 1.50000000000000000000e+03) (16, 1.50000000000000000000e+03) (17, 1.50000000000000000000e+03) (18, 1.50000000000000000000e+03) (19, 1.50000000000000000000e+03) (20, 1.50000000000000000000e+03) (21, 1.50000000000000000000e+03) (22, 4.16253748005429802248e-01) (23, 3.01324545061389337253e-01) (24, 2.69723063065800017224e-01) (25, 1.43899590430816015640e-01) (26, -4.60374132528128421349e-01) (27, -1.72709587647684015277e-01) (28, 8.05725317255564954522e-01) (29, 1.50000000000000000000e+03) (30, 1.50000000000000000000e+03) (31, -2.00412242862333639382e-01) (32, -4.31525616466540473670e-01) (33, -1.72892702160804295763e-01) (34, -8.02291658593305527514e-03) (35, 6.41623737347075673298e-02) (36, 5.66942229801274955037e-02) (37, 2.87360796639943363862e-02) (38, -1.22444579179145904280e-01) (39, 1.50000000000000000000e+03) (40, 1.50000000000000000000e+03) (41, 2.01578973285447965447e-02) (42, 5.68825104785389973339e-02) (43, -3.41959718305061943777e-01) (44, 1.54339102300536379353e-01) (45, -3.15385498349580808974e-02) (46, 5.95785295734865938400e-01) (47, 5.79279991399743385272e-02) (48, -5.21891488056381636085e-01) (49, 1.50000000000000000000e+03) (50, 1.50000000000000000000e+03) (51, -1.65839933931164779102e-01) (52, -1.57006797440713517788e-02) (53, -6.80340257934525127759e-01) (54, 6.28861665632416636657e-03) (55, 4.17013818332418462198e-01) (56, -3.77967514719962871528e-01) (57, 2.46828593864744250813e-03) (58, 3.55398662720410929428e-01) (59, 1.50000000000000000000e+03) (60, 1.50000000000000000000e+03) (61, 5.08792152227630356531e-02) (62, 7.54462391449978869717e-03) (63, -5.02241673252157960761e-01) (64, 5.58715202599990301557e-02) (65, 2.43967448201290321164e-01) (66, -2.61135032679193579419e-01) (67, -3.28785707404459559555e-01) (68, -1.01559413406734078134e-02) (69, 1.50000000000000000000e+03) (70, 1.50000000000000000000e+03) (71, -1.64853129759665734122e-01) (72, -5.00158689531138463125e-03) (73, -2.06782960019372324956e-01) (74, -7.40023980499729394644e-02) (75, -7.15791993783965602161e-02) (76, -4.38457832864299623665e-02) (77, -6.12163753540273733456e-02) (78, -8.92053836648379228080e-01) (79, 1.50000000000000000000e+03) (80, 1.50000000000000000000e+03) (81, -3.45428861436376133387e-01) (82, -2.37443918049307034490e-01) (83, -1.66555017650597686485e-01) (84, -7.73992137478517333582e-02) (85, -1.15904884329259535991e-01) (86, -1.25528486913410342041e-01) (87, -2.25495343963210470584e-01) (88, -9.31844907212571404997e-01) (89, 1.50000000000000000000e+03) (90, 1.50000000000000000000e+03) (91, 8.22181457800351747633e-03) (92, 1.62265631227644507861e-01) (93, -3.42438681472587269639e-01) (94, -2.07866588146688562044e-02) (95, -1.48829804101801133065e-01) (96, 5.64269467455679393786e-02) (97, -9.34976976515141007529e-03) (98, 9.30975675234112509671e-02) (99, 1.50000000000000000000e+03) (100, 1.50000000000000000000e+03) (101, -1.33152577504327632868e-02) (102, 4.25744828278909956398e-02) (103, -1.23868214301636345165e-01) (104, -1.18454754123487504720e-03) (105, 2.09195336558180670916e-02) (106, -2.10606499017916781735e-01) (107, -3.82182962164593770238e-02) (108, 4.25566654432568552968e-02) (109, 1.50000000000000000000e+03) (110, 1.50000000000000000000e+03) (111, 1.12964799415200475852e-01) (112, 7.47947144413460135448e-02) (113, -1.88022750313764364094e-01) (114, 2.73532640827073514345e-01) (115, 1.96930265837436974108e-01) (116, -5.85582323311277241906e-02) (117, -1.52080633452503287233e-03) (118, 5.24560034290111054656e-02) (119, 1.50000000000000000000e+03) (120, 1.50000000000000000000e+03) (121, -2.98708145251743613369e-02) (122, -6.53889821421304695548e-01) (123, -1.78215532740958648716e+00) (124, 8.14736736234680375413e-02) (125, -6.18958551819647692649e-02) (126, -3.30767868463777481303e-01) (127, 1.69462045326143617707e-02) (128, -8.86343800554694784266e-03) (129, 1.50000000000000000000e+03) (130, 1.50000000000000000000e+03) (131, 4.73484746381378718283e-01) (132, -1.07553613867448083496e+00) (133, -2.60211428484036400022e+00) (134, -6.80373652721573796143e-01) (135, -1.39734208327420073026e+00) (136, -1.04320080361626210674e-01) (137, -1.19808365383989506858e-01) (138, 1.53253243484424900300e-01) (139, 1.50000000000000000000e+03) (140, 1.50000000000000000000e+03) (141, 4.58403831392225125096e-01) (142, 1.90505478267265326853e-01) (143, -4.64576989513491162009e-03) (144, -9.35984081040048543354e-02) (145, 8.48927968730269627562e-02) (146, 4.95595508803677448073e-02) (147, 2.34516033487712688421e-01) (148, 6.33963041918327863122e-02) (149, 1.50000000000000000000e+03) (150, 1.50000000000000000000e+03) (151, 1.50000000000000000000e+03) (152, 1.50000000000000000000e+03) (153, 1.50000000000000000000e+03) (154, 1.50000000000000000000e+03) (155, 1.50000000000000000000e+03) (156, 1.50000000000000000000e+03) (157, 1.50000000000000000000e+03) (158, 1.50000000000000000000e+03) (159, 1.50000000000000000000e+03) (160, -2.32772075139287742962e-01) (0, 1.50000000000000000000e+03) (1, 1.50000000000000000000e+03) (2, 1.50000000000000000000e+03) (3, 1.50000000000000000000e+03) (4, 1.50000000000000000000e+03) (5, 1.50000000000000000000e+03) (6, 1.50000000000000000000e+03) (7, 1.50000000000000000000e+03) (8, 1.50000000000000000000e+03) (9, 1.50000000000000000000e+03) (10, 1.50000000000000000000e+03) (11, 1.50000000000000000000e+03) (12, 1.50000000000000000000e+03) (13, 1.50000000000000000000e+03) (14, 1.50000000000000000000e+03) (15, 1.50000000000000000000e+03) (16, 1.50000000000000000000e+03) (17, 1.50000000000000000000e+03) (18, 1.50000000000000000000e+03) (19, 1.50000000000000000000e+03) (20, 1.50000000000000000000e+03) (21, 1.50000000000000000000e+03) (22, 5.39197584049158143427e-02) (23, 2.13911216463267606080e-01) (24, 3.62131037206720463040e-01) (25, 4.76088820689437586253e-01) (26, 6.07674509542395102635e-01) (27, 9.94882924523707856679e-01) (28, -3.38844350085451828658e-01) (29, 1.50000000000000000000e+03) (30, 1.50000000000000000000e+03) (31, -4.65431210028185299299e-03) (32, -9.46482865496745505440e-03) (33, 3.73949067417536140656e-01) (34, 1.87630958394150199053e-01) (35, -1.66967582774310452365e-01) (36, -3.75836548882894153079e-02) (37, 4.74255921254053067204e-02) (38, -1.09628189000297859845e-01) (39, 1.50000000000000000000e+03) (40, 1.50000000000000000000e+03) (41, -1.62306233823329482124e-01) (42, -6.32187444812859072885e-02) (43, 1.42891346117331979881e-01) (44, 2.71680378063970974500e-02) (45, -1.29121064172673771786e-01) (46, -7.99698396366825686732e-02) (47, -9.25609457503620974839e-02) (48, 1.81174569535700408229e-01) (49, 1.50000000000000000000e+03) (50, 1.50000000000000000000e+03) (51, 9.33129560439282523809e-02) (52, 4.25762109485406173293e-02) (53, 4.07460328361913190487e-02) (54, 1.04454016692112953112e-03) (55, 4.13854557177830595371e-01) (56, -1.84531161669980153794e-01) (57, -4.32347921990441294571e-02) (58, 5.35111388261635054220e-02) (59, 1.50000000000000000000e+03) (60, 1.50000000000000000000e+03) (61, -1.03477333481135233550e-01) (62, -1.57573150853504068136e-01) (63, -9.60718849450632683684e-01) (64, -1.66557201589540987419e-01) (65, -2.87780218924552294926e-03) (66, 3.37426422132031611500e-01) (67, -6.33724503145372264346e-02) (68, -1.16012578208853300854e-01) (69, 1.50000000000000000000e+03) (70, 1.50000000000000000000e+03) (71, -1.45679103129984638398e-01) (72, -9.34738737927556934126e-02) (73, -1.30114174256661746520e-01) (74, 3.00548001352613190773e-02) (75, 4.66928183119232273479e-02) (76, -1.38021397233443421371e-01) (77, -7.06313891995083292796e-02) (78, -3.47002645573674314838e-02) (79, 1.50000000000000000000e+03) (80, 1.50000000000000000000e+03) (81, -1.79767130301705241324e-02) (82, -1.31105285907431895476e-01) (83, -7.47324231817147327517e-02) (84, -1.22168951021314475813e-01) (85, -1.97887886733411034416e-04) (86, -1.00624552720119414539e-01) (87, -4.82643549170439015161e-02) (88, -2.06922986606851259939e-03) (89, 1.50000000000000000000e+03) (90, 1.50000000000000000000e+03) (91, -2.67585549318602039515e-02) (92, -1.41527487963497067280e-01) (93, -6.83356150195072037379e-02) (94, 9.31934293976085098565e-02) (95, -2.96864068856217896974e-02) (96, -4.92695557364386249599e-02) (97, -6.74755161785774298933e-02) (98, -7.27437903175430361502e-02) (99, 1.50000000000000000000e+03) (100, 1.50000000000000000000e+03) (101, -7.19131006669930655795e-02) (102, -1.39230779868731835425e-01) (103, 2.92417314763043112436e-01) (104, 3.81430753597425745149e-02) (105, 4.47431445199039865002e-02) (106, -4.81394353873293781576e-02) (107, -1.36350514573259196105e-01) (108, -9.67583939778373508522e-02) (109, 1.50000000000000000000e+03) (110, 1.50000000000000000000e+03) (111, -1.24932370661307823312e+00) (112, -1.09496108079202139618e-01) (113, -1.41463168375546011202e-01) (114, -5.92323814667753523189e-01) (115, -2.34290547843319998944e-02) (116, -1.38503739022351163301e-01) (117, -5.35164511301293027712e-02) (118, 1.35845736097346209137e-01) (119, 1.50000000000000000000e+03) (120, 1.50000000000000000000e+03) (121, -1.89778029213022642920e-03) (122, -3.70393621497264249887e-02) (123, -4.56662989725698381660e-02) (124, -2.22713746290750941315e-01) (125, -5.56395874994822514648e-02) (126, -7.46253925427394909642e-02) (127, -2.92521359094662980471e-01) (128, -2.25412210621178665804e+00) (129, 1.50000000000000000000e+03) (130, 1.50000000000000000000e+03) (131, -1.23074188397304922632e-02) (132, 1.94571997302784099881e-01) (133, 1.32842371474572756851e-01) (134, 2.04855298918014627763e-01) (135, 2.61354845235798709246e-02) (136, 2.32594406855379631782e-01) (137, 1.00337331325084065659e-02) (138, -1.26876406878356856600e-01) (139, 1.50000000000000000000e+03) (140, 1.50000000000000000000e+03) (141, 8.96595346642092838607e-01) (142, -1.20190816413764237081e-01) (143, 1.31315722977235371793e-01) (144, 1.23515434478834645882e-01) (145, 2.02281303619453900478e-01) (146, 1.32231250320985288527e-01) (147, 6.40783142758469814737e-01) (148, 1.34725932369295842150e+00) (149, 1.50000000000000000000e+03) (150, 1.50000000000000000000e+03) (151, 1.50000000000000000000e+03) (152, 1.50000000000000000000e+03) (153, 1.50000000000000000000e+03) (154, 1.50000000000000000000e+03) (155, 1.50000000000000000000e+03) (156, 1.50000000000000000000e+03) (157, 1.50000000000000000000e+03) (158, 1.50000000000000000000e+03) (159, 1.50000000000000000000e+03) (160, 1.41092586377157047650e-01) (0, 1.50000000000000000000e+03) (1, 1.50000000000000000000e+03) (2, 1.50000000000000000000e+03) (3, 1.50000000000000000000e+03) (4, 1.50000000000000000000e+03) (5, 1.50000000000000000000e+03) (6, 1.50000000000000000000e+03) (7, 1.50000000000000000000e+03) (8, 1.50000000000000000000e+03) (9, 1.50000000000000000000e+03) (10, 1.50000000000000000000e+03) (11, 1.50000000000000000000e+03) (12, 1.50000000000000000000e+03) (13, 1.50000000000000000000e+03) (14, 1.50000000000000000000e+03) (15, 1.50000000000000000000e+03) (16, 1.50000000000000000000e+03) (17, 1.50000000000000000000e+03) (18, 1.50000000000000000000e+03) (19, 1.50000000000000000000e+03) (20, 1.50000000000000000000e+03) (21, 1.50000000000000000000e+03) (22, 4.94882778941034107145e-01) (23, 6.67233856139972325572e-01) (24, 7.48368875782401632435e-01) (25, 8.77822984092910929554e-01) (26, 1.16597799622336806280e+00) (27, 1.37951553229530454736e+00) (28, 2.26879081561352613505e-01) (29, 1.50000000000000000000e+03) (30, 1.50000000000000000000e+03) (31, -1.58890133781488684939e+00) (32, 4.40324450601043915210e-01) (33, 6.06521127993367326070e-01) (34, 5.13175393086672815279e-01) (35, 6.23401509619819993446e-01) (36, 5.83889793331370032803e-01) (37, 6.48400064742198467549e-01) (38, 4.86190010301017327965e-01) (39, 1.50000000000000000000e+03) (40, 1.50000000000000000000e+03) (41, -1.74861298447108648446e+00) (42, 5.77330433549580468444e-01) (43, 5.90902063160263280039e-01) (44, 4.25728640711102834793e-01) (45, 1.03865490556805606381e+00) (46, 5.77369123771340309048e-01) (47, 6.30047399059334822802e-01) (48, 4.49542819301815888000e-01) (49, 1.50000000000000000000e+03) (50, 1.50000000000000000000e+03) (51, 6.89841951365590233536e-01) (52, 8.86639326501541757963e-01) (53, 6.79993563611433704530e-01) (54, 6.31056638884721743388e-01) (55, 6.98988877702633959466e-01) (56, 6.06825713556189527687e-01) (57, 6.15838491006890142998e-01) (58, -5.38268972533325662511e+00) (59, 1.50000000000000000000e+03) (60, 1.50000000000000000000e+03) (61, 4.71791265317686281389e-01) (62, 4.83558783138772818599e-01) (63, 3.65887557151233847041e-02) (64, 4.47103147442059645211e-01) (65, 4.92940915454904315940e-01) (66, 6.35306921220947673490e-01) (67, 4.48011528229998512440e-01) (68, -1.37943545830888925074e+00) (69, 1.50000000000000000000e+03) (70, 1.50000000000000000000e+03) (71, 4.93562077800972553998e-01) (72, 4.75692492003338796014e-01) (73, 5.10840089027414845368e-01) (74, 4.94177207335846635505e-01) (75, 4.95910814483745909786e-01) (76, 4.26800110536342092171e-01) (77, 5.23247221018072972143e-01) (78, 1.32437853059903187791e-01) (79, 1.50000000000000000000e+03) (80, 1.50000000000000000000e+03) (81, 5.29492967728269592342e-01) (82, 5.42038066823539610439e-01) (83, 6.38091913291457868418e-01) (84, 5.66786348107523152429e-01) (85, 6.57854362385852042827e-01) (86, 5.74103760808864715948e-01) (87, 4.70433316385243716073e-01) (88, 2.96594715322673674329e-01) (89, 1.50000000000000000000e+03) (90, 1.50000000000000000000e+03) (91, 4.29374521502493167180e-01) (92, 3.76951138911569283430e-01) (93, 4.67983877959275762493e-01) (94, 5.88951413275034973971e-01) (95, 4.50544641054879457798e-01) (96, 6.86591504756838499901e-01) (97, 4.89000674060641571383e-01) (98, 5.93870377917225411579e-01) (99, 1.50000000000000000000e+03) (100, 1.50000000000000000000e+03) (101, 4.57991741342562097561e-01) (102, 4.54308240974739152573e-01) (103, 5.45526313095770154504e-01) (104, -4.52443068847437590563e+00) (105, 4.99760189565246426557e-01) (106, 6.20183862375650818421e-01) (107, 5.94620241317343367626e-01) (108, 5.37886842301234624486e-01) (109, 1.50000000000000000000e+03) (110, 1.50000000000000000000e+03) (111, -8.46838349411428020774e-02) (112, 5.50002253991401790501e-01) (113, -2.39371449099117089565e-01) (114, -6.06223948197439965746e-01) (115, 5.45851592970781784864e-01) (116, 4.38981037750100278050e-01) (117, 4.21579712317662613774e-01) (118, -3.30497962404722400720e+00) (119, 1.50000000000000000000e+03) (120, 1.50000000000000000000e+03) (121, 4.47926457989012316574e-01) (122, 5.18929168295112819287e-01) (123, 5.17105796171027920494e-01) (124, 5.98453977703490513917e-01) (125, 4.92488101866984717692e-01) (126, 4.24241910880353345625e-01) (127, 4.91069468014428800462e-01) (128, -9.91932242636394123636e-01) (129, 1.50000000000000000000e+03) (130, 1.50000000000000000000e+03) (131, 8.78492688033489371735e-02) (132, 5.18191849257112258087e-01) (133, 8.12929021333868462307e-01) (134, 6.86516726628973894542e-01) (135, 5.00958068164156777868e-01) (136, 3.41705441533049492087e-02) (137, 4.55217263004371930357e-01) (138, 2.24668288458078568848e-01) (139, 1.50000000000000000000e+03) (140, 1.50000000000000000000e+03) (141, 1.34603458668049280611e+00) (142, 9.07850191552438290366e-01) (143, 7.43103888048532112975e-01) (144, 6.81830693199040993591e-01) (145, 7.27210331870916104613e-01) (146, 6.96918584569099053283e-01) (147, 1.16647299895154077376e+00) (148, 1.77205257210795408263e+00) (149, 1.50000000000000000000e+03) (150, 1.50000000000000000000e+03) (151, 1.50000000000000000000e+03) (152, 1.50000000000000000000e+03) (153, 1.50000000000000000000e+03) (154, 1.50000000000000000000e+03) (155, 1.50000000000000000000e+03) (156, 1.50000000000000000000e+03) (157, 1.50000000000000000000e+03) (158, 1.50000000000000000000e+03) (159, 1.50000000000000000000e+03) (160, 7.08568336992031033716e-01) (0, 1.50000000000000000000e+03) (1, 1.50000000000000000000e+03) (2, 1.50000000000000000000e+03) (3, 1.50000000000000000000e+03) (4, 1.50000000000000000000e+03) (5, 1.50000000000000000000e+03) (6, 1.50000000000000000000e+03) (7, 1.50000000000000000000e+03) (8, 1.50000000000000000000e+03) (9, 1.50000000000000000000e+03) (10, 1.50000000000000000000e+03) (11, 1.50000000000000000000e+03) (12, 1.50000000000000000000e+03) (13, 1.50000000000000000000e+03) (14, 1.50000000000000000000e+03) (15, 1.50000000000000000000e+03) (16, 1.50000000000000000000e+03) (17, 1.50000000000000000000e+03) (18, 1.50000000000000000000e+03) (19, 1.50000000000000000000e+03) (20, 1.50000000000000000000e+03) (21, 1.50000000000000000000e+03) (22, 6.56027795492007848033e-01) (23, 5.42850306002725324639e-01) (24, 7.64189185302169393665e-01) (25, 8.42904772692402048939e-01) (26, 1.11152242534677436758e+00) (27, 1.48524672899683118921e+00) (28, 1.88341482414986466365e-01) (29, 1.50000000000000000000e+03) (30, 1.50000000000000000000e+03) (31, -1.90332318653136534081e+00) (32, 4.55115888330965112640e-01) (33, 5.91170786196492326070e-01) (34, 6.07810402852297593235e-01) (35, 5.92847304440605515907e-01) (36, 6.18154931540236152188e-01) (37, 5.07870154058051914703e-01) (38, 5.94528873915280087203e-01) (39, 1.50000000000000000000e+03) (40, 1.50000000000000000000e+03) (41, -1.67923332179717044177e+00) (42, 7.08696407051978005676e-01) (43, 7.66154863472415570413e-01) (44, 4.69753301894410391082e-01) (45, 1.21613293589203830258e+00) (46, 7.11860098018795683927e-01) (47, 5.38934107378521987108e-01) (48, 4.01532325760651287450e-01) (49, 1.50000000000000000000e+03) (50, 1.50000000000000000000e+03) (51, 7.94840733642697250261e-01) (52, 8.48828039754086161039e-01) (53, 6.72736474592611988221e-01) (54, 7.48971612575278222756e-01) (55, 6.07954652376959892024e-01) (56, 6.23195346932787885841e-01) (57, 5.02422959192791784844e-01) (58, -5.06770109673689450602e+00) (59, 1.50000000000000000000e+03) (60, 1.50000000000000000000e+03) (61, 4.37020300977977671497e-01) (62, 5.89372872555684934603e-01) (63, 3.25906546455792478501e-01) (64, 3.99722748242356262782e-01) (65, 5.33577805084732292862e-01) (66, 7.37058636165786706940e-01) (67, 6.73510219809443144712e-01) (68, -1.40479867060600382977e+00) (69, 1.50000000000000000000e+03) (70, 1.50000000000000000000e+03) (71, 5.47488278016906360079e-01) (72, 4.23334379536316363080e-01) (73, 5.26365963383593649105e-01) (74, 6.22520618081219945239e-01) (75, 5.31512756117393569966e-01) (76, 2.16100230584459795935e+00) (77, 6.03915581391307187964e-01) (78, -2.13646718858575668243e-01) (79, 1.50000000000000000000e+03) (80, 1.50000000000000000000e+03) (81, 4.30668853250892713636e-01) (82, 4.22754492540012905000e-01) (83, 5.28947558547215868074e-01) (84, 5.72954039611027865497e-01) (85, 6.00548460143191520366e-01) (86, 5.78469041339038314575e-01) (87, 4.94246677105552978393e-01) (88, -1.98947803931737665639e-01) (89, 1.50000000000000000000e+03) (90, 1.50000000000000000000e+03) (91, 5.37514527293716293244e-01) (92, 4.29457592330447501805e-01) (93, 5.26864638602413726254e-01) (94, 5.59957093270363248649e-01) (95, 4.94556092141225422942e-01) (96, 7.38739943746954397241e-01) (97, 4.22635058657227169476e-01) (98, 6.36031161598407224211e-01) (99, 1.50000000000000000000e+03) (100, 1.50000000000000000000e+03) (101, 5.00579989321302432081e-01) (102, 5.00448261106186120806e-01) (103, 8.55903258678727407727e-01) (104, -4.40182339975912206853e+00) (105, 4.10647018334481306301e-01) (106, 6.50111650348942360367e-01) (107, 5.69788463858164173637e-01) (108, 4.90814970577132136942e-01) (109, 1.50000000000000000000e+03) (110, 1.50000000000000000000e+03) (111, 3.56752483600016934151e-01) (112, 5.97042045933044551731e-01) (113, 2.06591151092136882106e-01) (114, -6.15769848125056085131e-01) (115, 5.43621499289442255964e-01) (116, 6.08616240571464128806e-01) (117, 4.53870854005959611932e-01) (118, -3.87326574605349360780e+00) (119, 1.50000000000000000000e+03) (120, 1.50000000000000000000e+03) (121, 4.46363959479128435959e-01) (122, 4.64028041523024958881e-01) (123, 6.36610987578314468927e-01) (124, 5.80968109137513843976e-01) (125, 7.53770084261382478097e-01) (126, 7.02808607119086437010e-01) (127, 5.43765420748624994651e-01) (128, -3.21702761756234911772e+00) (129, 1.50000000000000000000e+03) (130, 1.50000000000000000000e+03) (131, 1.37508327283728637447e-01) (132, 5.18257729208331130444e-01) (133, 9.17946744016108540087e-01) (134, 6.18357528727423666481e-01) (135, 5.33840800915809876592e-01) (136, 2.16765548847208666672e-01) (137, 5.10659506494559045642e-01) (138, 2.89918466796842910771e-01) (139, 1.50000000000000000000e+03) (140, 1.50000000000000000000e+03) (141, 1.37680851693209271858e+00) (142, 9.61970061619080940574e-01) (143, 6.67090702964665882568e-01) (144, 7.73761850013139462767e-01) (145, 7.90888313366773121338e-01) (146, 7.94001106335523121338e-01) (147, 1.19122275853623005304e+00) (148, 1.70868587586943587731e+00) (149, 1.50000000000000000000e+03) (150, 1.50000000000000000000e+03) (151, 1.50000000000000000000e+03) (152, 1.50000000000000000000e+03) (153, 1.50000000000000000000e+03) (154, 1.50000000000000000000e+03) (155, 1.50000000000000000000e+03) (156, 1.50000000000000000000e+03) (157, 1.50000000000000000000e+03) (158, 1.50000000000000000000e+03) (159, 1.50000000000000000000e+03) (160, 6.50822600202251355661e-01) (0, 1.50000000000000000000e+03) (1, 1.50000000000000000000e+03) (2, 1.50000000000000000000e+03) (3, 1.50000000000000000000e+03) (4, 1.50000000000000000000e+03) (5, 1.50000000000000000000e+03) (6, 1.50000000000000000000e+03) (7, 1.50000000000000000000e+03) (8, 1.50000000000000000000e+03) (9, 1.50000000000000000000e+03) (10, 1.50000000000000000000e+03) (11, 1.50000000000000000000e+03) (12, 1.50000000000000000000e+03) (13, 1.50000000000000000000e+03) (14, 1.50000000000000000000e+03) (15, 1.50000000000000000000e+03) (16, 1.50000000000000000000e+03) (17, 1.50000000000000000000e+03) (18, 1.50000000000000000000e+03) (19, 1.50000000000000000000e+03) (20, 1.50000000000000000000e+03) (21, 1.50000000000000000000e+03) (22, 5.49149134872783495354e-01) (23, 5.06143765269149614738e-01) (24, 6.74382062356383871204e-01) (25, 8.28006092541893168324e-01) (26, 1.16142476760665447344e+00) (27, 1.36322524760206342798e+00) (28, 2.41600758268625454006e-01) (29, 1.50000000000000000000e+03) (30, 1.50000000000000000000e+03) (31, -1.37178207060961221408e+00) (32, 5.09605454970191273922e-01) (33, 5.85360238576434266378e-01) (34, 6.03519628387690354465e-01) (35, 5.10993057883846635292e-01) (36, 5.27487203205570853726e-01) (37, 5.51860753631225109395e-01) (38, 5.13130926034567780292e-01) (39, 1.50000000000000000000e+03) (40, 1.50000000000000000000e+03) (41, -2.68384041037702480992e+00) (42, 6.82408553334174050597e-01) (43, 5.59786341249071339732e-01) (44, 4.47164619627024861881e-01) (45, 1.07641736121027919992e+00) (46, 5.81794172599465309048e-01) (47, 4.74725123003569449143e-01) (48, 3.08191492001787914479e-01) (49, 1.50000000000000000000e+03) (50, 1.50000000000000000000e+03) (51, 7.09458652074456463943e-01) (52, 8.14190588582211161039e-01) (53, 6.53962069470808704530e-01) (54, 6.80276713203951111097e-01) (55, 8.10902934987227319574e-01) (56, 6.61006618779082288917e-01) (57, 4.64959577306384652662e-01) (58, -4.66090821650050202152e+00) (59, 1.50000000000000000000e+03) (60, 1.50000000000000000000e+03) (61, 5.95070069441032134527e-01) (62, 4.27211129869085715072e-01) (63, 1.38816540408364663683e-01) (64, 3.19973018998818192760e-01) (65, 3.98336423267502737211e-01) (66, 7.59012978888679579192e-01) (67, 5.21473440802271093197e-01) (68, -1.28870587705279127100e+00) (69, 1.50000000000000000000e+03) (70, 1.50000000000000000000e+03) (71, 5.38410706143112038902e-01) (72, 5.34665069980235441172e-01) (73, 5.01440674964914845368e-01) (74, 5.94140589222317938578e-01) (75, 4.68928474687587082403e-01) (76, 5.58507868247641536819e-01) (77, 5.69371485615965733373e-01) (78, 4.20539331167302243841e-02) (79, 1.50000000000000000000e+03) (80, 1.50000000000000000000e+03) (81, 4.83429738286657639801e-01) (82, 4.77816870946982497070e-01) (83, 6.78591349148726208362e-01) (84, 5.04194795373148152429e-01) (85, 6.33721067565066520366e-01) (86, 5.59778812617221954717e-01) (87, 5.40935027604733220663e-01) (88, 3.00336165930450316175e-01) (89, 1.50000000000000000000e+03) (90, 1.50000000000000000000e+03) (91, 4.41203137763975405949e-01) (92, 4.80619344351538912985e-01) (93, 5.61636226924598913612e-01) (94, 6.27855215908320496432e-01) (95, 5.72901823259491571605e-01) (96, 8.06434041504293874780e-01) (97, 4.56444520226853833744e-01) (98, 5.47562992949421456501e-01) (99, 1.50000000000000000000e+03) (100, 1.50000000000000000000e+03) (101, 5.89968070132655508786e-01) (102, 5.56890032554359093453e-01) (103, 5.70928912483451123094e-01) (104, -4.58862980150808219548e+00) (105, 3.65202074410852117747e-01) (106, 5.75023956226740295961e-01) (107, 4.95718757716738289698e-01) (108, 4.68087039103916413563e-01) (109, 1.50000000000000000000e+03) (110, 1.50000000000000000000e+03) (111, 4.90848073217128144652e-01) (112, 4.26119192880540342827e-01) (113, -2.39670522854858208950e-01) (114, -3.67616552653867223466e-01) (115, 5.03291775537424546094e-01) (116, 4.44428950630370078745e-01) (117, 5.43106817887390347366e-01) (118, -3.56265991612942878319e+00) (119, 1.50000000000000000000e+03) (120, 1.50000000000000000000e+03) (121, 6.04255806672259532242e-01) (122, 5.29500454377380580517e-01) (123, 5.29727876914340756187e-01) (124, 5.79777682870422195194e-01) (125, 4.45283517983796284234e-01) (126, 4.45201385026719465010e-01) (127, 5.13756232612304852836e-01) (128, -1.61185374677279624755e+00) (129, 1.50000000000000000000e+03) (130, 1.50000000000000000000e+03) (131, -6.75817279674838233827e-03) (132, 4.69424499819668661349e-01) (133, 8.58647279587358314146e-01) (134, 6.58620852504590015286e-01) (135, 6.36754509315195504904e-01) (136, 9.30877834616627986009e-02) (137, 3.73295879265840901962e-01) (138, 2.04425240266603497341e-01) (139, 1.50000000000000000000e+03) (140, 1.50000000000000000000e+03) (141, 1.52578312183674436042e+00) (142, 8.85132901925839932211e-01) (143, 8.47815800620915771546e-01) (144, 6.99610233469607933898e-01) (145, 7.53296759142282112975e-01) (146, 7.54749398841264351745e-01) (147, 1.26144370580187303865e+00) (148, 1.85142880026169853735e+00) (149, 1.50000000000000000000e+03) (150, 1.50000000000000000000e+03) (151, 1.50000000000000000000e+03) (152, 1.50000000000000000000e+03) (153, 1.50000000000000000000e+03) (154, 1.50000000000000000000e+03) (155, 1.50000000000000000000e+03) (156, 1.50000000000000000000e+03) (157, 1.50000000000000000000e+03) (158, 1.50000000000000000000e+03) (159, 1.50000000000000000000e+03) (160, 6.78624121324687967771e-01) (0, 1.50000000000000000000e+03) (1, 1.50000000000000000000e+03) (2, 1.50000000000000000000e+03) (3, 1.50000000000000000000e+03) (4, 1.50000000000000000000e+03) (5, 1.50000000000000000000e+03) (6, 1.50000000000000000000e+03) (7, 1.50000000000000000000e+03) (8, 1.50000000000000000000e+03) (9, 1.50000000000000000000e+03) (10, 1.50000000000000000000e+03) (11, 1.50000000000000000000e+03) (12, 1.50000000000000000000e+03) (13, 1.50000000000000000000e+03) (14, 1.50000000000000000000e+03) (15, 1.50000000000000000000e+03) (16, 1.50000000000000000000e+03) (17, 1.50000000000000000000e+03) (18, 1.50000000000000000000e+03) (19, 1.50000000000000000000e+03) (20, 1.50000000000000000000e+03) (21, 1.50000000000000000000e+03) (22, 2.05140467490374872606e-01) (23, 2.34974439944445834261e-01) (24, 3.67855272632497565244e-01) (25, 4.46279248886821355846e-01) (26, 5.72914988058019547523e-01) (27, 9.79668800209701373660e-01) (28, -2.46937608823984161566e-01) (29, 1.50000000000000000000e+03) (30, 1.50000000000000000000e+03) (31, -7.83307837125546274626e-02) (32, -5.51703903726260408424e-02) (33, -1.87567280359299398684e-01) (34, -1.91395320965698535753e-02) (35, -9.93277870281293884247e-02) (36, -5.41408863792820563288e-02) (37, -7.07815777422941549979e-02) (38, 3.49025497188732714005e-02) (39, 1.50000000000000000000e+03) (40, 1.50000000000000000000e+03) (41, 1.75768359378726768405e+00) (42, -9.46951236454079969818e-02) (43, -3.91051484332375909325e-02) (44, 2.55273076745690941092e-01) (45, 5.38907348428134702623e-01) (46, -2.57962298846079992123e-03) (47, -1.75123953167380858043e-01) (48, -4.71901334555062579312e+00) (49, 1.50000000000000000000e+03) (50, 1.50000000000000000000e+03) (51, -3.06341153769963625564e-01) (52, -5.51781951315248181400e-02) (53, -4.85591612873118028126e-02) (54, 1.93220341196786105087e-01) (55, 1.85549006331252874791e-01) (56, 4.45342593282393506282e-01) (57, -5.71615485666623554528e-03) (58, -7.78487974591745707231e-02) (59, 1.50000000000000000000e+03) (60, 1.50000000000000000000e+03) (61, -1.20500056346400694074e-01) (62, -6.24194173769189314394e-02) (63, -1.16124380548230071719e-01) (64, -1.02709034609680324723e-01) (65, -4.09828288812933316798e-01) (66, -1.94286439771579305669e-01) (67, -2.00124818797638603929e-01) (68, 3.78657497969408396443e-01) (69, 1.50000000000000000000e+03) (70, 1.50000000000000000000e+03) (71, 2.46988738059641416145e-01) (72, -1.39444538762803882381e-01) (73, -8.11406627751188047615e-02) (74, -1.17103461375761719321e-01) (75, -4.11617167960346003186e-02) (76, -6.65504787595739277783e-02) (77, -2.43409077421762043425e-01) (78, 5.30135721672104098801e-01) (79, 1.50000000000000000000e+03) (80, 1.50000000000000000000e+03) (81, 6.75637817878767255042e-03) (82, -1.42284379863747291028e-04) (83, -1.11639800992490767495e-01) (84, 1.88413818044818465181e-01) (85, 2.17992630138505227855e-01) (86, -9.58596815017747627685e-02) (87, 1.96741418658591987745e-01) (88, 7.45049891521632701163e-01) (89, 1.50000000000000000000e+03) (90, 1.50000000000000000000e+03) (91, -8.76414836259207796765e-02) (92, -6.49337906815413423711e-02) (93, -1.14661991202190019501e-01) (94, 1.03428152952429866507e-01) (95, 7.47279552690281734240e-02) (96, 5.91994554187464605555e-01) (97, -1.43765193951380126913e-01) (98, -3.99480304060563853885e-02) (99, 1.50000000000000000000e+03) (100, 1.50000000000000000000e+03) (101, -3.20280597312029916002e-02) (102, -2.72251746347975595586e-02) (103, 1.05509737332693087630e+00) (104, 2.31318854506763593726e-01) (105, 3.15313120562306203887e-01) (106, 4.65233832405167399560e-02) (107, -2.92879723562986709132e-03) (108, -5.07078744731167332938e-02) (109, 1.50000000000000000000e+03) (110, 1.50000000000000000000e+03) (111, -1.49346557072711771941e-01) (112, -9.53361219193710612840e-02) (113, -1.90767622225449379192e-01) (114, -1.95134923221499057000e-01) (115, -5.91962916381837747637e-02) (116, -9.97075883845489202573e-02) (117, -4.37030452658798085341e-01) (118, -2.37004207278553513660e+00) (119, 1.50000000000000000000e+03) (120, 1.50000000000000000000e+03) (121, 2.26769110221055648913e-02) (122, -1.59422866452947425975e-01) (123, -1.71548633402938632830e-01) (124, -7.01064700934969781132e-02) (125, -6.62191890164352536807e-02) (126, 9.26516833690331845230e-03) (127, -1.94888112080530417902e-01) (128, -7.18964107183625800168e-01) (129, 1.50000000000000000000e+03) (130, 1.50000000000000000000e+03) (131, -1.81559878221665554898e-01) (132, 1.89974092813316119965e-01) (133, 2.51480933880626922328e-01) (134, 3.18856015978400186839e-01) (135, 3.61765116778676232290e-01) (136, 2.93081254871396301720e-01) (137, -1.30951603102065685519e-02) (138, 4.27402072832503976407e-02) (139, 1.50000000000000000000e+03) (140, 1.50000000000000000000e+03) (141, 9.79334602964476830245e-01) (142, -1.64009322442705343659e-02) (143, 3.41733095679373322096e-01) (144, 2.84854432079887753826e-01) (145, 4.08951116237729728198e-01) (146, 2.44528507325740662726e-01) (147, 4.92918030827149244999e+00) (148, 1.28933696041172751734e+00) (149, 1.50000000000000000000e+03) (150, 1.50000000000000000000e+03) (151, 1.50000000000000000000e+03) (152, 1.50000000000000000000e+03) (153, 1.50000000000000000000e+03) (154, 1.50000000000000000000e+03) (155, 1.50000000000000000000e+03) (156, 1.50000000000000000000e+03) (157, 1.50000000000000000000e+03) (158, 1.50000000000000000000e+03) (159, 1.50000000000000000000e+03) (160, 6.95232387955472819208e-02) (0, 1.50000000000000000000e+03) (1, 1.50000000000000000000e+03) (2, 1.50000000000000000000e+03) (3, 1.50000000000000000000e+03) (4, 1.50000000000000000000e+03) (5, 1.50000000000000000000e+03) (6, 1.50000000000000000000e+03) (7, 1.50000000000000000000e+03) (8, 1.50000000000000000000e+03) (9, 1.50000000000000000000e+03) (10, 1.50000000000000000000e+03) (11, 1.50000000000000000000e+03) (12, 1.50000000000000000000e+03) (13, 1.50000000000000000000e+03) (14, 1.50000000000000000000e+03) (15, 1.50000000000000000000e+03) (16, 1.50000000000000000000e+03) (17, 1.50000000000000000000e+03) (18, 1.50000000000000000000e+03) (19, 1.50000000000000000000e+03) (20, 1.50000000000000000000e+03) (21, 1.50000000000000000000e+03) (22, 2.65666247814921929749e-01) (23, 1.67851307898756213488e-01) (24, 2.55973377684639180618e-01) (25, 4.93195063453556944988e-02) (26, -5.05650014414622650527e-01) (27, -6.20046085317907530454e-02) (28, 8.47278054610797304314e-01) (29, 1.50000000000000000000e+03) (30, 1.50000000000000000000e+03) (31, -1.28769068568251821016e-01) (32, 1.02675277247181159779e-01) (33, 1.05001125520835042471e-01) (34, -3.31506919141004052776e-01) (35, 5.99748454268293901270e-02) (36, -2.15645568229037798424e-01) (37, -3.17482926718542723954e-01) (38, 4.42824473774711818708e-02) (39, 1.50000000000000000000e+03) (40, 1.50000000000000000000e+03) (41, -6.56732963811601927473e-02) (42, 7.70689740586767563224e-02) (43, -1.51558966497880392987e-01) (44, 1.64808274609545751810e-01) (45, 1.31088959140831629036e-01) (46, -1.33692799134018769358e-01) (47, 4.56650344540707117669e-02) (48, 1.09430810329840352835e-01) (49, 1.50000000000000000000e+03) (50, 1.50000000000000000000e+03) (51, -1.81025480061104387941e-01) (52, -4.51204189977892980434e-02) (53, -2.41961536444085523190e-01) (54, 1.02153991587602921420e+00) (55, -1.32130619201165089294e+00) (56, -2.92728783968032701956e-01) (57, -6.93485421542878177625e-02) (58, -1.50006185978003553361e-01) (59, 1.50000000000000000000e+03) (60, 1.50000000000000000000e+03) (61, -1.26005919126615545389e-01) (62, -1.60216705415358283415e-02) (63, -2.44018661115460444577e-01) (64, 8.21225487012663957209e-02) (65, 1.11861718993869849875e-02) (66, 8.00371791168262743110e-03) (67, 1.10311452786855432318e-01) (68, 3.10289622705797567270e-02) (69, 1.50000000000000000000e+03) (70, 1.50000000000000000000e+03) (71, -9.19742037845847903998e-02) (72, -4.75216087521078620060e-02) (73, -1.78229622720779107281e-01) (74, -2.26132016347240838439e-01) (75, -1.38544204520298502858e-01) (76, -1.79120510816012240563e-01) (77, 1.09826921471114294371e-01) (78, -1.69385554986329539551e-01) (79, 1.50000000000000000000e+03) (80, 1.50000000000000000000e+03) (81, -2.96546861140408568591e-01) (82, 5.35181340915042783046e-02) (83, 3.05276474958491228148e-03) (84, 4.83699118754122095454e-02) (85, -6.76492088440475008992e-02) (86, -7.49772437196839836027e-01) (87, -1.54047643678975415549e-01) (88, -2.10848427563147727826e-01) (89, 1.50000000000000000000e+03) (90, 1.50000000000000000000e+03) (91, 2.89857362433925264122e-02) (92, 1.43654582742545861018e-01) (93, -5.94850872349333703593e-02) (94, -9.45345315893576232380e-02) (95, -1.12931699980979322051e-01) (96, -1.03848216261276035666e-01) (97, 8.14085283261153508372e-02) (98, -4.81186900564243569267e-02) (99, 1.50000000000000000000e+03) (100, 1.50000000000000000000e+03) (101, -8.59593957917754308840e-02) (102, -7.16957581646065524039e-03) (103, -1.35454441660955882121e-01) (104, -1.30500560623482975142e-01) (105, 4.03521382264366360038e-02) (106, -2.80787725401891341548e-01) (107, -6.53371525820130860662e-02) (108, 4.48366526128367096082e-02) (109, 1.50000000000000000000e+03) (110, 1.50000000000000000000e+03) (111, 8.44289244046397130417e-02) (112, 4.88027511169324898499e-02) (113, 3.09702792677343345662e-02) (114, -6.15514185722877624207e-02) (115, -9.50781511339667678717e-02) (116, -6.10102992173789451802e-02) (117, 4.60641949228010050277e-02) (118, 1.15849634401939682871e-01) (119, 1.50000000000000000000e+03) (120, 1.50000000000000000000e+03) (121, -1.58913368300058338578e-01) (122, 3.66635490562321406105e-02) (123, 5.87820716194991030323e-02) (124, -9.93328686787835063443e-02) (125, -9.75652546528001152204e-01) (126, -1.15964918780817452526e-01) (127, -6.22576076291132055052e-02) (128, 6.65427925379510482040e-02) (129, 1.50000000000000000000e+03) (130, 1.50000000000000000000e+03) (131, 4.67333723809321366360e-01) (132, 2.38065314915440855159e-02) (133, -6.64658397532654543483e-01) (134, 8.40371242642050896021e-03) (135, -4.44585163361718715969e-01) (136, 1.37485476323183064551e+00) (137, 3.94070815856308487302e-01) (138, 5.03593641146072634740e-01) (139, 1.50000000000000000000e+03) (140, 1.50000000000000000000e+03) (141, 4.58562521308359005712e-01) (142, 1.37271374955893088465e-01) (143, -6.02491442289971104729e-02) (144, -1.56837286445205698060e-01) (145, 3.88049146264343031154e-03) (146, -8.40588847071251261955e-03) (147, 8.13430246975588716607e-02) (148, -8.54928537292251600199e-02) (149, 1.50000000000000000000e+03) (150, 1.50000000000000000000e+03) (151, 1.50000000000000000000e+03) (152, 1.50000000000000000000e+03) (153, 1.50000000000000000000e+03) (154, 1.50000000000000000000e+03) (155, 1.50000000000000000000e+03) (156, 1.50000000000000000000e+03) (157, 1.50000000000000000000e+03) (158, 1.50000000000000000000e+03) (159, 1.50000000000000000000e+03) (160, -1.90779371102990147335e-01) (0, 1.50000000000000000000e+03) (1, 1.50000000000000000000e+03) (2, 1.50000000000000000000e+03) (3, 1.50000000000000000000e+03) (4, 1.50000000000000000000e+03) (5, 1.50000000000000000000e+03) (6, 1.50000000000000000000e+03) (7, 1.50000000000000000000e+03) (8, 1.50000000000000000000e+03) (9, 1.50000000000000000000e+03) (10, 1.50000000000000000000e+03) (11, 1.50000000000000000000e+03) (12, 1.50000000000000000000e+03) (13, 1.50000000000000000000e+03) (14, 1.50000000000000000000e+03) (15, 1.50000000000000000000e+03) (16, 1.50000000000000000000e+03) (17, 1.50000000000000000000e+03) (18, 1.50000000000000000000e+03) (19, 1.50000000000000000000e+03) (20, 1.50000000000000000000e+03) (21, 1.50000000000000000000e+03) (22, 4.89331816689439758061e-02) (23, 1.98689039553820917527e-01) (24, 4.21406935066181542737e-01) (25, 3.84169871651646732680e-01) (26, 5.33162795262742905678e-01) (27, 1.03501402447659396344e+00) (28, -2.03498891101097173495e-01) (29, 1.50000000000000000000e+03) (30, 1.50000000000000000000e+03) (31, -6.62195152731551023306e-02) (32, -1.10532022323085094007e-01) (33, -2.19524433222482440176e-01) (34, 4.19729460041433181938e-03) (35, -1.35381920896250174113e-01) (36, -1.53103748970483150016e-01) (37, -1.15975417161959928891e-01) (38, 5.40360161712412079282e-01) (39, 1.50000000000000000000e+03) (40, 1.50000000000000000000e+03) (41, 3.31946567559554428506e-01) (42, 6.26456637622100492857e-02) (43, 1.22961051315559552477e-01) (44, 9.80329312892259593926e-03) (45, 2.30139037787319949979e-01) (46, -3.56614029638891091856e-02) (47, -3.18407946896612434329e-02) (48, -9.30593681527011540311e+01) (49, 1.50000000000000000000e+03) (50, 1.50000000000000000000e+03) (51, 4.11465912317084125949e-01) (52, -7.39683684328451829249e-02) (53, 2.15330655935166946635e-02) (54, 2.95472454811939733155e-01) (55, 1.19658154260909185829e-01) (56, 1.78952076028062623259e-01) (57, -2.62464382559861146571e-02) (58, -1.30497793942607809292e+00) (59, 1.50000000000000000000e+03) (60, 1.50000000000000000000e+03) (61, 1.97848303622811444447e-01) (62, -9.73940147472265871365e-02) (63, -1.49701051190148509695e-01) (64, 3.59411361603878432014e-01) (65, -1.78299141033063213158e-01) (66, -5.25257587723491417564e-02) (67, 1.41803941119756665712e-01) (68, -4.45301717428072618699e-01) (69, 1.50000000000000000000e+03) (70, 1.50000000000000000000e+03) (71, 3.59356246642445253947e-01) (72, -1.21757606451052463603e-01) (73, -1.65764291700028043586e-01) (74, 1.35753991328607919592e-02) (75, -1.18756656627327081277e-01) (76, -3.60605617547659573763e-01) (77, -7.15635742163416632700e-01) (78, -1.72811199462620107559e-01) (79, 1.50000000000000000000e+03) (80, 1.50000000000000000000e+03) (81, 1.14335467793747050380e-01) (82, 1.99794047319919121364e-01) (83, -7.46162645479563069184e-03) (84, 4.44350922822404972856e-02) (85, 1.26448435983306350927e-01) (86, 3.43508230718584592345e-02) (87, 3.33474839872034856114e-01) (88, 6.25075641217378685788e-01) (89, 1.50000000000000000000e+03) (90, 1.50000000000000000000e+03) (91, 9.34859589037181394622e-03) (92, -1.77113308665195923197e-01) (93, -5.24604804753738135359e-02) (94, 4.31832944273612476249e-02) (95, 1.62971469146765933489e-02) (96, -1.96349801894886183407e-01) (97, -3.86559620046665539106e-02) (98, 1.52164402934562320580e-01) (99, 1.50000000000000000000e+03) (100, 1.50000000000000000000e+03) (101, 1.46479187495412305209e-01) (102, 1.29919195454837960169e-01) (103, 1.06831141921729613764e-01) (104, -1.59639205905614423031e-01) (105, 4.62159378165829873297e-02) (106, 7.43218698182418618936e-02) (107, 1.70179345524659214606e-01) (108, -1.05638651552255802279e+00) (109, 1.50000000000000000000e+03) (110, 1.50000000000000000000e+03) (111, -1.41106904459162102450e-01) (112, -1.64909243799139293429e-01) (113, -1.17321278695796241132e-01) (114, -3.54512092186390403992e-01) (115, -1.05193245058659845537e-01) (116, -6.38689502041545342781e-02) (117, -3.03533198990843355869e-01) (118, -1.50000000000000000000e+03) (119, 1.50000000000000000000e+03) (120, 1.50000000000000000000e+03) (121, -1.29445144429825659271e-01) (122, -1.48007495039422121152e-01) (123, -1.26589483751655851318e-01) (124, -2.16916524770523894139e-02) (125, -8.48971034172312233324e-02) (126, 1.58245993119098427027e-01) (127, -2.85362983345811282998e-01) (128, -5.18391956077080218179e-01) (129, 1.50000000000000000000e+03) (130, 1.50000000000000000000e+03) (131, -9.10706982081557064879e-02) (132, 1.60726808380780739061e-01) (133, 3.96497761561264983055e-01) (134, 2.68842736541431259756e-01) (135, 2.61829540895336609907e-01) (136, 2.87785372579594023179e-01) (137, -9.75617108094113116845e-02) (138, -2.41863297087989453926e-01) (139, 1.50000000000000000000e+03) (140, 1.50000000000000000000e+03) (141, 9.38032115710334180037e-01) (142, -2.48638857391049017398e-01) (143, 2.72377969795797647556e-01) (144, 1.43514448875528943805e-01) (145, 3.02932174975016843543e-01) (146, 1.95534708077052171715e-01) (147, -9.41316067245963755683e-02) (148, 1.22872905025547729529e+00) (149, 1.50000000000000000000e+03) (150, 1.50000000000000000000e+03) (151, 1.50000000000000000000e+03) (152, 1.50000000000000000000e+03) (153, 1.50000000000000000000e+03) (154, 1.50000000000000000000e+03) (155, 1.50000000000000000000e+03) (156, 1.50000000000000000000e+03) (157, 1.50000000000000000000e+03) (158, 1.50000000000000000000e+03) (159, 1.50000000000000000000e+03) (160, 2.41667810738958183103e-01) (0, 1.50000000000000000000e+03) (1, 1.50000000000000000000e+03) (2, 1.50000000000000000000e+03) (3, 1.50000000000000000000e+03) (4, 1.50000000000000000000e+03) (5, 1.50000000000000000000e+03) (6, 1.50000000000000000000e+03) (7, 1.50000000000000000000e+03) (8, 1.50000000000000000000e+03) (9, 1.50000000000000000000e+03) (10, 1.50000000000000000000e+03) (11, 1.50000000000000000000e+03) (12, 1.50000000000000000000e+03) (13, 1.50000000000000000000e+03) (14, 1.50000000000000000000e+03) (15, 1.50000000000000000000e+03) (16, 1.50000000000000000000e+03) (17, 1.50000000000000000000e+03) (18, 1.50000000000000000000e+03) (19, 1.50000000000000000000e+03) (20, 1.50000000000000000000e+03) (21, 1.50000000000000000000e+03) (22, 1.83954945826119459218e-01) (23, 2.04938835525101642476e-01) (24, 3.05680009151403309087e-01) (25, 3.96968944662329958906e-01) (26, 6.21956736104895435702e-01) (27, 1.04107884387061400133e+00) (28, -3.02479601011469589888e-01) (29, 1.50000000000000000000e+03) (30, 1.50000000000000000000e+03) (31, -4.23839677057836622387e-02) (32, -5.34756792667525487905e-03) (33, 1.79566463682766408461e-01) (34, 9.75802030206632253773e-02) (35, -1.09383892328212325301e-02) (36, -9.16589496780007145782e-02) (37, -6.24703620430762593396e-02) (38, -2.00256064692432393659e-02) (39, 1.50000000000000000000e+03) (40, 1.50000000000000000000e+03) (41, -3.31381742125635148088e-02) (42, -3.61755799716980616654e-02) (43, 1.39651076176316418787e-01) (44, -1.00594978980944743663e-01) (45, 1.24280459904570497742e-01) (46, 1.10679018957979158344e-01) (47, -3.11568801525427818699e-02) (48, -1.59412523544665174491e-01) (49, 1.50000000000000000000e+03) (50, 1.50000000000000000000e+03) (51, 9.13102095915762496103e-02) (52, 2.68692288113398569660e-01) (53, -4.35040059723201116837e-02) (54, 5.36743473161478620859e-02) (55, 1.64135056257414424508e-01) (56, -1.50221035597789737137e-01) (57, -1.51379537901949107193e-01) (58, 6.17681881242367267215e-02) (59, 1.50000000000000000000e+03) (60, 1.50000000000000000000e+03) (61, -9.04752814068513905310e-02) (62, 3.14354299971553105553e-02) (63, 2.39883681301626995597e-02) (64, 8.69872230790501715925e-02) (65, -3.20049493056755895992e-01) (66, -7.17476453232003194560e-03) (67, -8.52162514304489054906e-02) (68, -1.39210260681380010306e-01) (69, 1.50000000000000000000e+03) (70, 1.50000000000000000000e+03) (71, -8.25775148920541712805e-02) (72, -1.45411446108626246643e-01) (73, -1.70388935368922495028e-01) (74, 2.18042772749986700498e-02) (75, -1.23627947856348383016e-01) (76, -1.51887849746363740033e-01) (77, -1.91338091790656777968e-01) (78, -8.94435442214811526895e-01) (79, 1.50000000000000000000e+03) (80, 1.50000000000000000000e+03) (81, -1.55277168943494581210e-01) (82, -8.00363414670786504912e-02) (83, -8.54473867583736834685e-02) (84, -6.75326040953503348163e-02) (85, -4.28178812655316473612e-02) (86, -1.02826251375341598537e-01) (87, -8.19335687634274896507e-03) (88, 3.06185245233548154753e-02) (89, 1.50000000000000000000e+03) (90, 1.50000000000000000000e+03) (91, -1.17556787457480053233e-02) (92, -6.72664511636512640891e-02) (93, -5.64122024982842626417e-02) (94, 7.24808838057224291695e-02) (95, -2.32432465900603325848e-02) (96, -1.81586666487983522389e-02) (97, -1.69344694174473286985e-01) (98, -4.04006921721647843659e-02) (99, 1.50000000000000000000e+03) (100, 1.50000000000000000000e+03) (101, -6.46614917545133283117e-02) (102, -1.46262856337080721092e-01) (103, -1.85576451262773250983e-01) (104, -2.19882040433580061567e-01) (105, -6.30230635841992764545e-02) (106, -1.78915208545652765215e-01) (107, -4.21331781279959960429e-02) (108, -1.83915924635029703893e-01) (109, 1.50000000000000000000e+03) (110, 1.50000000000000000000e+03) (111, -1.15704354992187299911e-01) (112, -1.35889229936666716680e-01) (113, -1.29921414368209198198e-01) (114, -5.57566351029532669692e-01) (115, 1.75680659895811257069e-03) (116, -6.47397772893649053882e-02) (117, -1.82078120343055725738e-02) (118, -9.39677730940827460326e-02) (119, 1.50000000000000000000e+03) (120, 1.50000000000000000000e+03) (121, -1.45409182347669252433e-01) (122, -1.71753947727615909058e-02) (123, -1.24487012909973646102e-01) (124, -8.47149449103743734657e-02) (125, 6.66258931570848367265e-02) (126, -8.61423671321487338659e-02) (127, -7.75710941713844553957e-02) (128, 1.03189977526963655441e-01) (129, 1.50000000000000000000e+03) (130, 1.50000000000000000000e+03) (131, -1.06730878052424704716e-01) (132, 1.57753168195459730905e-01) (133, 3.17467499504338668270e-01) (134, 6.08961897613012936858e+00) (135, 4.73975096669258988413e+00) (136, 2.99213258827300210285e-01) (137, 4.40806543468438075117e-02) (138, -3.41844595620062474683e-03) (139, 1.50000000000000000000e+03) (140, 1.50000000000000000000e+03) (141, 9.35193977219419103619e-01) (142, -1.19936731671219015682e-01) (143, 4.60608174188792518500e-01) (144, 5.45062516911685168708e-01) (145, 4.77093768401801343604e-01) (146, 4.44226336761176343604e-01) (147, 8.35681839692314243351e-01) (148, 1.27815532276695931202e+00) (149, 1.50000000000000000000e+03) (150, 1.50000000000000000000e+03) (151, 1.50000000000000000000e+03) (152, 1.50000000000000000000e+03) (153, 1.50000000000000000000e+03) (154, 1.50000000000000000000e+03) (155, 1.50000000000000000000e+03) (156, 1.50000000000000000000e+03) (157, 1.50000000000000000000e+03) (158, 1.50000000000000000000e+03) (159, 1.50000000000000000000e+03) (160, 6.24103463841140827795e-03) (0, 1.50000000000000000000e+03) (1, 1.50000000000000000000e+03) (2, 1.50000000000000000000e+03) (3, 1.50000000000000000000e+03) (4, 1.50000000000000000000e+03) (5, 1.50000000000000000000e+03) (6, 1.50000000000000000000e+03) (7, 1.50000000000000000000e+03) (8, 1.50000000000000000000e+03) (9, 1.50000000000000000000e+03) (10, 1.50000000000000000000e+03) (11, 1.50000000000000000000e+03) (12, 1.50000000000000000000e+03) (13, 1.50000000000000000000e+03) (14, 1.50000000000000000000e+03) (15, 1.50000000000000000000e+03) (16, 1.50000000000000000000e+03) (17, 1.50000000000000000000e+03) (18, 1.50000000000000000000e+03) (19, 1.50000000000000000000e+03) (20, 1.50000000000000000000e+03) (21, 1.50000000000000000000e+03) (22, 6.87619598327472325572e-01) (23, 6.71048553405597325572e-01) (24, 6.72233620386035402028e-01) (25, 9.56295888953883843620e-01) (26, 1.11246236079255966800e+00) (27, 1.49794204894741156409e+00) (28, 1.87126881315495374736e-01) (29, 1.50000000000000000000e+03) (30, 1.50000000000000000000e+03) (31, -1.46088617240504925476e+00) (32, 4.68913315553322329610e-01) (33, 7.19582652920983445455e-01) (34, 6.75284775537253190159e-01) (35, 6.39923723436462754677e-01) (36, 5.05593891913637794033e-01) (37, 6.30156647598376751240e-01) (38, 6.18398264489290916401e-01) (39, 1.50000000000000000000e+03) (40, 1.50000000000000000000e+03) (41, -2.25253079065876304909e+00) (42, 6.25243027480540169982e-01) (43, 6.67733120827995518809e-01) (44, 4.03987913584504476638e-01) (45, 9.03136801860184967872e-01) (46, 6.40064440741688445158e-01) (47, 5.02752467498580046801e-01) (48, 3.52258874814287914479e-01) (49, 1.50000000000000000000e+03) (50, 1.50000000000000000000e+03) (51, 8.07505528564572250261e-01) (52, 7.64739907968693621854e-01) (53, 5.69349025655911167298e-01) (54, 6.41359376239944434239e-01) (55, 7.39186340339968550595e-01) (56, 6.41731720905680647071e-01) (57, 6.00524761363068426689e-01) (58, -4.68019867280554269229e+00) (59, 1.50000000000000000000e+03) (60, 1.50000000000000000000e+03) (61, 4.44209476718250562133e-01) (62, 4.68898137862498176620e-01) (63, 1.77982804644334802191e-01) (64, 4.15193972224907725810e-01) (65, 4.58456052173734140975e-01) (66, 6.89689252890278159391e-01) (67, 4.51331842220114631825e-01) (68, -1.30889020024443425427e+00) (69, 1.50000000000000000000e+03) (70, 1.50000000000000000000e+03) (71, 4.83894103835584010742e-01) (72, 5.77078401548476560556e-01) (73, 4.18371827308776755849e-01) (74, 5.68560749277478461039e-01) (75, 5.04217697759247185374e-01) (76, 5.40410951870097133742e-01) (77, 5.68059229756590733373e-01) (78, 9.34017894385209962449e-02) (79, 1.50000000000000000000e+03) (80, 1.50000000000000000000e+03) (81, 5.40747859481466308651e-01) (82, 5.51016329367217894131e-01) (83, 6.11686662610917086802e-01) (84, 5.87184294346040913659e-01) (85, 5.31310177403075400981e-01) (86, 4.61597654313091576572e-01) (87, 4.48863486951138868086e-01) (88, 4.44855219329941820039e-01) (89, 1.50000000000000000000e+03) (90, 1.50000000000000000000e+03) (91, 4.29557626971243167180e-01) (92, 4.01523887602412865583e-01) (93, 4.76449454876208822185e-01) (94, 5.44481192470821162566e-01) (95, 4.58875936157694674922e-01) (96, 6.83863232527405551231e-01) (97, 5.89501168302335454285e-01) (98, 4.38230722029256614114e-01) (99, 1.50000000000000000000e+03) (100, 1.50000000000000000000e+03) (101, 5.59957071883601553708e-01) (102, 5.34911274278850212838e-01) (103, 5.15045354574478864151e-01) (104, -4.47519000218340146091e+00) (105, 4.40818527253802661114e-01) (106, 4.56481471287740359077e-01) (107, 5.40805424658372890789e-01) (108, 5.21431758215770146947e-01) (109, 1.50000000000000000000e+03) (110, 1.50000000000000000000e+03) (111, -1.65536811246186715829e-01) (112, 5.71083790999687312961e-01) (113, -1.79721791641050204769e-01) (114, -6.80121439581717335265e-01) (115, 5.09805864161594901596e-01) (116, 5.90907223604749232138e-01) (117, 4.90708128796202125432e-01) (118, -3.15743488977183650590e+00) (119, 1.50000000000000000000e+03) (120, 1.50000000000000000000e+03) (121, 5.77461373078509532242e-01) (122, 4.31807584773857944249e-01) (123, 4.15152669681023434034e-01) (124, 4.70957638322807847775e-01) (125, 4.45100412515046284234e-01) (126, 5.45964318519268743124e-01) (127, 4.17369509392067683518e-01) (128, -1.70328324613037573876e+00) (129, 1.50000000000000000000e+03) (130, 1.50000000000000000000e+03) (131, 2.83582686638543801649e-02) (132, 6.38820942431090776914e-01) (133, 1.35931077217888640618e+00) (134, 7.44898968859151078270e-01) (135, 5.92687334551175393216e-01) (136, 2.62201725759380555036e-01) (137, 3.23725023859053717690e-01) (138, 2.23796949050558441341e-01) (139, 1.50000000000000000000e+03) (140, 1.50000000000000000000e+03) (141, 1.39521061654146749653e+00) (142, 9.46833342869080940574e-01) (143, 7.03058719797732933898e-01) (144, 7.61988166882398232360e-01) (145, 7.34497931017282223998e-01) (146, 8.48267469717862487855e-01) (147, 1.14326132977472538776e+00) (148, 1.79770565871064924579e+00) (149, 1.50000000000000000000e+03) (150, 1.50000000000000000000e+03) (151, 1.50000000000000000000e+03) (152, 1.50000000000000000000e+03) (153, 1.50000000000000000000e+03) (154, 1.50000000000000000000e+03) (155, 1.50000000000000000000e+03) (156, 1.50000000000000000000e+03) (157, 1.50000000000000000000e+03) (158, 1.50000000000000000000e+03) (159, 1.50000000000000000000e+03) (160, 6.17967380063227600395e-01) (0, 1.50000000000000000000e+03) (1, 1.50000000000000000000e+03) (2, 1.50000000000000000000e+03) (3, 1.50000000000000000000e+03) (4, 1.50000000000000000000e+03) (5, 1.50000000000000000000e+03) (6, 1.50000000000000000000e+03) (7, 1.50000000000000000000e+03) (8, 1.50000000000000000000e+03) (9, 1.50000000000000000000e+03) (10, 1.50000000000000000000e+03) (11, 1.50000000000000000000e+03) (12, 1.50000000000000000000e+03) (13, 1.50000000000000000000e+03) (14, 1.50000000000000000000e+03) (15, 1.50000000000000000000e+03) (16, 1.50000000000000000000e+03) (17, 1.50000000000000000000e+03) (18, 1.50000000000000000000e+03) (19, 1.50000000000000000000e+03) (20, 1.50000000000000000000e+03) (21, 1.50000000000000000000e+03) (22, 5.03324459775603624823e-02) (23, 1.39999192534314254033e-01) (24, 3.64231773850320295072e-01) (25, 4.32119092636821355846e-01) (26, 5.27925975876260666908e-01) (27, 9.76438103285190206471e-01) (28, -3.32411243126585709273e-01) (29, 1.50000000000000000000e+03) (30, 1.50000000000000000000e+03) (31, -1.05520188336363604509e-01) (32, -2.25382587611908130620e-01) (33, 3.05287640405406436594e-02) (34, 5.17511105358697647005e-03) (35, -1.37861284275339307515e-01) (36, -1.39191355342528660932e-01) (37, -1.27594949261309237309e-01) (38, -1.44201237776173302185e-01) (39, 1.50000000000000000000e+03) (40, 1.50000000000000000000e+03) (41, -1.68683577131026468665e-01) (42, 2.52782027163130605663e-02) (43, 1.90770577864780882527e-01) (44, 2.60380787108287388432e-02) (45, 7.93457169158009789633e-01) (46, 1.36846528083911761486e-01) (47, -2.02019435131988896182e-02) (48, -3.38394847670367371339e-01) (49, 1.50000000000000000000e+03) (50, 1.50000000000000000000e+03) (51, -1.02871056225257648253e-03) (52, 3.25125295211245390892e-01) (53, 2.23741240411079421457e-02) (54, -8.39061241199198955265e-03) (55, 5.71504400966560063835e-02) (56, 9.07757544095544322005e-02) (57, 2.53758251701079982909e-02) (58, -4.46126422419423698806e-02) (59, 1.50000000000000000000e+03) (60, 1.50000000000000000000e+03) (61, -2.20145976692421418974e-01) (62, -5.72265390117891389887e-03) (63, 2.18050259188717676651e-01) (64, -1.26234922697058493668e-01) (65, -1.63243908693998351911e-01) (66, -4.81675911955845373336e-02) (67, -1.48055937866588660512e-01) (68, -4.47855527145388787602e-02) (69, 1.50000000000000000000e+03) (70, 1.50000000000000000000e+03) (71, -1.53886901602710263193e-01) (72, -5.95656975991261314340e-02) (73, -6.18394040633942695950e-02) (74, -1.26235074037107292133e-01) (75, -1.13342425782273284462e-01) (76, -1.32277580123921646021e-02) (77, -2.98874079871829123611e-01) (78, -1.90447758881894219085e-01) (79, 1.50000000000000000000e+03) (80, 1.50000000000000000000e+03) (81, -4.89205568397460058283e-02) (82, -1.08006376820178870424e-01) (83, -7.77918189508535473653e-02) (84, -1.04133412772501710020e-01) (85, 1.07102808273146464513e-02) (86, -3.61868328502226860310e-02) (87, -2.37221779700370304089e-02) (88, 3.26804956222009057587e-02) (89, 1.50000000000000000000e+03) (90, 1.50000000000000000000e+03) (91, -2.23472882855444768269e-02) (92, -1.44188604049194951662e-01) (93, -1.63544597723760481989e-01) (94, -1.78132014791136300547e-01) (95, -4.57246108347122461046e-03) (96, 1.01508995101999552335e-01) (97, -1.01267907868106757374e-03) (98, -3.18147784576002026768e-02) (99, 1.50000000000000000000e+03) (100, 1.50000000000000000000e+03) (101, -1.77832328354355001521e-01) (102, -5.26666170238207706489e-02) (103, 1.09697699539913137712e-01) (104, -4.30348959042220965965e-02) (105, 7.64234521458830810131e-03) (106, -7.69074872392014469158e-02) (107, 7.09388342070607774703e-02) (108, -1.17083478366177184959e+00) (109, 1.50000000000000000000e+03) (110, 1.50000000000000000000e+03) (111, -1.01863688749804406908e-01) (112, 3.05345904822673305801e-03) (113, -4.21711657572275064321e-02) (114, -4.83629098037000160204e-01) (115, -1.06386074110006334514e-01) (116, -1.73696496753919758793e-02) (117, -1.58944827396130278219e-01) (118, -6.10979260490109796211e-02) (119, 1.50000000000000000000e+03) (120, 1.50000000000000000000e+03) (121, -8.39235516893616223522e-02) (122, -1.40405644156902903452e-01) (123, -1.59574495734907895184e-01) (124, -3.53879789700546343312e-02) (125, -3.15322469911888565719e-03) (126, -9.03072325162040390190e-02) (127, 1.04480922936889997210e+00) (128, 5.25937022611884692769e-03) (129, 1.50000000000000000000e+03) (130, 1.50000000000000000000e+03) (131, -8.18267558728893590336e-02) (132, 5.53080196697023837582e-02) (133, 2.72620582355106222394e-01) (134, 3.45514245567068778442e-01) (135, 9.61498563835059827376e-02) (136, 2.31337083712215035858e-01) (137, -1.24441146596114514400e-02) (138, -5.34595621028601183933e-02) (139, 1.50000000000000000000e+03) (140, 1.50000000000000000000e+03) (141, 1.01244618268067965161e+00) (142, -2.82570798779193832484e-01) (143, 1.38055105363480951075e-01) (144, 1.86156910513986362243e-01) (145, 2.25866381680115191344e-01) (146, 2.04565112148869354680e-01) (147, 7.67104139206865487388e-01) (148, 1.32519511470858319946e+00) (149, 1.50000000000000000000e+03) (150, 1.50000000000000000000e+03) (151, 1.50000000000000000000e+03) (152, 1.50000000000000000000e+03) (153, 1.50000000000000000000e+03) (154, 1.50000000000000000000e+03) (155, 1.50000000000000000000e+03) (156, 1.50000000000000000000e+03) (157, 1.50000000000000000000e+03) (158, 1.50000000000000000000e+03) (159, 1.50000000000000000000e+03) (160, 9.55528269192907897533e-02) (0, 1.50000000000000000000e+03) (1, 1.50000000000000000000e+03) (2, 1.50000000000000000000e+03) (3, 1.50000000000000000000e+03) (4, 1.50000000000000000000e+03) (5, 1.50000000000000000000e+03) (6, 1.50000000000000000000e+03) (7, 1.50000000000000000000e+03) (8, 1.50000000000000000000e+03) (9, 1.50000000000000000000e+03) (10, 1.50000000000000000000e+03) (11, 1.50000000000000000000e+03) (12, 1.50000000000000000000e+03) (13, 1.50000000000000000000e+03) (14, 1.50000000000000000000e+03) (15, 1.50000000000000000000e+03) (16, 1.50000000000000000000e+03) (17, 1.50000000000000000000e+03) (18, 1.50000000000000000000e+03) (19, 1.50000000000000000000e+03) (20, 1.50000000000000000000e+03) (21, 1.50000000000000000000e+03) (22, 3.65260759739286400283e-01) (23, 3.62392107395536400283e-01) (24, 3.33800598235409029524e-01) (25, 6.14105693083643738861e-02) (26, -5.23234241440164504766e-01) (27, -8.37915738138598625850e-02) (28, 8.06402813450404432061e-01) (29, 1.50000000000000000000e+03) (30, 1.50000000000000000000e+03) (31, -2.71633263749316677949e-01) (32, -2.27650488746657581052e-01) (33, 1.89955654229604253835e-01) (34, -2.73821787275116168558e+00) (35, 1.16839859783328170462e-01) (36, 2.81502886794121748304e-02) (37, 1.99435764876493837328e-02) (38, -1.54017048022590752332e-01) (39, 1.50000000000000000000e+03) (40, 1.50000000000000000000e+03) (41, -1.07384940267922321389e-01) (42, -8.89768882426720530976e-02) (43, 3.86940316564848563186e-01) (44, 1.71630529915695634324e-01) (45, -2.10210299030455266545e-01) (46, -2.21405902977559049249e-01) (47, -1.14005628313532447748e-01) (48, -8.61408183766888546629e-01) (49, 1.50000000000000000000e+03) (50, 1.50000000000000000000e+03) (51, -7.97013277663544794649e-01) (52, -7.57854945316219497098e-02) (53, 3.29008654527966681869e-01) (54, -1.28447105843021418953e-02) (55, 2.43036721981828601757e-01) (56, 2.35009726073412944514e-01) (57, -8.41477886864475527195e-02) (58, -1.04957593671951288083e-01) (59, 1.50000000000000000000e+03) (60, 1.50000000000000000000e+03) (61, -8.10719479962935141160e-01) (62, 4.30293360657266921177e-01) (63, 4.53835477238665241373e-01) (64, -1.63094744557032910945e-03) (65, 1.62951812902423567864e-02) (66, 2.83410715831423409838e-01) (67, -2.93820179204022868813e-01) (68, -1.84814741867192311453e+00) (69, 1.50000000000000000000e+03) (70, 1.50000000000000000000e+03) (71, 3.58624467814595226933e-01) (72, -8.97665628092579256925e-03) (73, 5.56566107280563257542e-02) (74, -2.22861738900215315684e-02) (75, -7.91984707031834211932e-02) (76, -7.10387777301455802803e-02) (77, -3.72049688391640556717e-03) (78, 1.93332174766417037338e-03) (79, 1.50000000000000000000e+03) (80, 1.50000000000000000000e+03) (81, -6.10624034506786261822e-01) (82, -4.58828280986404657416e-01) (83, 1.07696133603675203716e+00) (84, -1.72889696089402640500e-02) (85, -1.53374333635049792113e-01) (86, -9.32403349681566913365e-03) (87, -6.31217755451799922284e-01) (88, -4.35579640949774193892e-01) (89, 1.50000000000000000000e+03) (90, 1.50000000000000000000e+03) (91, -1.33317702715318509021e-01) (92, -2.09221402406666728835e-01) (93, -4.31625407410878535186e-03) (94, 9.72314891013775078887e-02) (95, -7.09724853180429687827e-02) (96, -1.83666352428449475287e-01) (97, -1.92267603609482917726e-01) (98, -2.02672344629134637550e-01) (99, 1.50000000000000000000e+03) (100, 1.50000000000000000000e+03) (101, -2.86342416785673847812e+00) (102, -3.02906915142499455484e-01) (103, 1.09016594208978606639e-01) (104, -3.41933408047168041488e-01) (105, 1.95693425248662268567e-02) (106, -2.39214832037121571950e-01) (107, -1.42405536763295481606e-01) (108, -7.31280984853969973081e-01) (109, 1.50000000000000000000e+03) (110, 1.50000000000000000000e+03) (111, -1.72708043747839018467e-01) (112, -1.22965549309960259228e-01) (113, -3.34178533051401535636e-02) (114, -1.39214481174480906450e-02) (115, -6.41591988742572921778e-02) (116, 1.34145389299736971650e-02) (117, -3.11084708907558071811e-01) (118, -1.11397993136945827608e+00) (119, 1.50000000000000000000e+03) (120, 1.50000000000000000000e+03) (121, -2.45962498701882276153e-01) (122, -1.68199674574001728500e-01) (123, -6.46010202467282301786e-02) (124, -1.90609805660630279855e-02) (125, -8.83938814296381658586e-02) (126, 9.19214633227675853577e-02) (127, 2.74765476476610359668e+00) (128, -4.45662279867775124043e-01) (129, 1.50000000000000000000e+03) (130, 1.50000000000000000000e+03) (131, 3.08566539450722987503e-01) (132, -1.94018670893752992468e-01) (133, -3.89691912856010902466e-01) (134, -2.68545965007211728803e-01) (135, -5.85699593048492062053e-01) (136, 2.91457253935837212744e-01) (137, 2.70810696553237771622e-02) (138, 5.47050123125187304218e-01) (139, 1.50000000000000000000e+03) (140, 1.50000000000000000000e+03) (141, 4.77257592647964190569e-01) (142, 4.68588906132668681082e-02) (143, -1.14692852990885718611e-01) (144, -8.25334351232164253886e-02) (145, -7.21635605862242651698e-02) (146, -3.60063325336093531526e-02) (147, 2.65746408944736500768e-01) (148, 1.49527036564400771235e-02) (149, 1.50000000000000000000e+03) (150, 1.50000000000000000000e+03) (151, 1.50000000000000000000e+03) (152, 1.50000000000000000000e+03) (153, 1.50000000000000000000e+03) (154, 1.50000000000000000000e+03) (155, 1.50000000000000000000e+03) (156, 1.50000000000000000000e+03) (157, 1.50000000000000000000e+03) (158, 1.50000000000000000000e+03) (159, 1.50000000000000000000e+03) (160, 1.11964298951061552723e-01) (0, 1.50000000000000000000e+03) (1, 1.50000000000000000000e+03) (2, 1.50000000000000000000e+03) (3, 1.50000000000000000000e+03) (4, 1.50000000000000000000e+03) (5, 1.50000000000000000000e+03) (6, 1.50000000000000000000e+03) (7, 1.50000000000000000000e+03) (8, 1.50000000000000000000e+03) (9, 1.50000000000000000000e+03) (10, 1.50000000000000000000e+03) (11, 1.50000000000000000000e+03) (12, 1.50000000000000000000e+03) (13, 1.50000000000000000000e+03) (14, 1.50000000000000000000e+03) (15, 1.50000000000000000000e+03) (16, 1.50000000000000000000e+03) (17, 1.50000000000000000000e+03) (18, 1.50000000000000000000e+03) (19, 1.50000000000000000000e+03) (20, 1.50000000000000000000e+03) (21, 1.50000000000000000000e+03) (22, 6.22233888503616716648e-01) (23, 5.79844972487991605625e-01) (24, 7.26432244908416402396e-01) (25, 5.99502394674359950777e-01) (26, 1.57448031578215574822e-01) (27, -2.81941105047158503683e-02) (28, 1.25557251818574888702e+00) (29, 1.50000000000000000000e+03) (30, 1.50000000000000000000e+03) (31, 1.50000000000000000000e+03) (32, 5.57419358819773447244e-01) (33, 3.72954282665234004845e-01) (34, 5.54740164346693487296e-01) (35, 7.69352903033033164171e-01) (36, 5.99254458384463117859e-01) (37, 6.06845998846423650974e-01) (38, 5.92906425413357252019e-01) (39, 1.50000000000000000000e+03) (40, 1.50000000000000000000e+03) (41, 1.50000000000000000000e+03) (42, 4.83117134920226287687e-01) (43, 8.42054210728648278028e-01) (44, 7.34483928379407680076e-01) (45, -1.56092653312785489828e-01) (46, 4.80440852085762704071e-01) (47, 5.25996944309269909290e-01) (48, 1.19052350791020558063e+02) (49, 1.50000000000000000000e+03) (50, 1.50000000000000000000e+03) (51, 4.29722711671075563444e-01) (52, 3.13270809117886239736e-01) (53, 4.54670983902796976839e-01) (54, 1.38337705230626806241e+00) (55, 3.75018187925672374927e-01) (56, 7.50131261024671425197e-01) (57, 6.10799089827725016910e-01) (58, 9.03301586187772898029e+00) (59, 1.50000000000000000000e+03) (60, 1.50000000000000000000e+03) (61, 5.55776049452064824230e-01) (62, 5.22125737663061917360e-01) (63, 1.10910985978029730248e+00) (64, 1.15157891400169409835e+00) (65, 5.91017634164169303190e-01) (66, 4.74373655582680686660e-01) (67, 6.78824755962124215536e-01) (68, 6.23974746537672260160e+01) (69, 1.50000000000000000000e+03) (70, 1.50000000000000000000e+03) (71, 5.90166319960409468948e-01) (72, 6.10735033731927834388e-01) (73, 6.91218978212899570757e-01) (74, 4.81208633232170890359e-01) (75, 5.99495413386947784140e-01) (76, 6.40869825402634374356e-01) (77, 7.80915037799222111481e-01) (78, 1.50000000000000000000e+03) (79, 1.50000000000000000000e+03) (80, 1.50000000000000000000e+03) (81, 6.69095292888672532605e-01) (82, 6.43159196190594695253e-01) (83, 7.03654409200396457891e-01) (84, 5.55667217501536025992e-01) (85, 5.44605466865108911456e-01) (86, 6.74835485514799549023e-01) (87, 6.42308016829041816820e-01) (88, 7.71724446134386732332e-01) (89, 1.50000000000000000000e+03) (90, 1.50000000000000000000e+03) (91, 5.57947853678444460890e-01) (92, 6.15820454733254973867e-01) (93, 7.61712312438889704858e-01) (94, 6.78658284149936674723e-01) (95, 5.02633563798172033898e-01) (96, 4.02998838246899249160e-01) (97, 6.17394270683079726680e-01) (98, 5.61819004386520992611e-01) (99, 1.50000000000000000000e+03) (100, 1.50000000000000000000e+03) (101, 5.57232648066145253019e-01) (102, 5.18495708818729639233e-01) (103, 6.82135549283984676805e-01) (104, 1.42334694689180700777e+01) (105, 7.13881449409563995090e-01) (106, 5.64474841636699364855e-01) (107, 6.55059534783797525748e-01) (108, 6.54026552786885262414e-01) (109, 1.50000000000000000000e+03) (110, 1.50000000000000000000e+03) (111, 2.27084158374862798979e+00) (112, 5.25139313559735199100e-01) (113, 1.75035041497257592980e+00) (114, 6.19246007165263989691e+00) (115, 4.95377047049164132009e-01) (116, 5.38615441940555439437e-01) (117, 5.98312771969140011485e-01) (118, 1.50000000000000000000e+03) (119, 1.50000000000000000000e+03) (120, 1.50000000000000000000e+03) (121, 1.71005701569791956906e+00) (122, 6.34250439221806905365e-01) (123, 6.83684495364606403811e-01) (124, 5.79199129196725892577e-01) (125, 6.19714305569988299638e-01) (126, 6.52813661360208796758e-01) (127, 5.62631239670539629039e-01) (128, 1.50000000000000000000e+03) (129, 1.50000000000000000000e+03) (130, 1.50000000000000000000e+03) (131, 1.99106631115864796122e+00) (132, 9.20819606618699437739e-01) (133, 6.33368224202528584676e-01) (134, -1.51977237187347191671e+00) (135, -2.66155508916812555409e-01) (136, 3.59353861038439192921e-01) (137, 8.83108039157080026982e-01) (138, 2.27018108280591723869e+00) (139, 1.50000000000000000000e+03) (140, 1.50000000000000000000e+03) (141, 1.03649199762913446499e+00) (142, 8.06925737317101265944e-01) (143, 4.53860710815273238339e-01) (144, 4.39938593164767466348e-01) (145, 5.20352411524034108581e-01) (146, 3.87271355346526457986e-01) (147, 7.24373283835013537235e-01) (148, 4.59495955468926631227e-01) (149, 1.50000000000000000000e+03) (150, 1.50000000000000000000e+03) (151, 1.50000000000000000000e+03) (152, 1.50000000000000000000e+03) (153, 1.50000000000000000000e+03) (154, 1.50000000000000000000e+03) (155, 1.50000000000000000000e+03) (156, 1.50000000000000000000e+03) (157, 1.50000000000000000000e+03) (158, 1.50000000000000000000e+03) (159, 1.50000000000000000000e+03) (160, 5.94410906935835647857e-01) (0, 1.50000000000000000000e+03) (1, 1.50000000000000000000e+03) (2, 1.50000000000000000000e+03) (3, 1.50000000000000000000e+03) (4, 1.50000000000000000000e+03) (5, 1.50000000000000000000e+03) (6, 1.50000000000000000000e+03) (7, 1.50000000000000000000e+03) (8, 1.50000000000000000000e+03) (9, 1.50000000000000000000e+03) (10, 1.50000000000000000000e+03) (11, 1.50000000000000000000e+03) (12, 1.50000000000000000000e+03) (13, 1.50000000000000000000e+03) (14, 1.50000000000000000000e+03) (15, 1.50000000000000000000e+03) (16, 1.50000000000000000000e+03) (17, 1.50000000000000000000e+03) (18, 1.50000000000000000000e+03) (19, 1.50000000000000000000e+03) (20, 1.50000000000000000000e+03) (21, 1.50000000000000000000e+03) (22, 6.69785128651454564341e-01) (23, 5.66953086970646724652e-01) (24, 7.43602039019973348744e-01) (25, 1.00594187908722143554e+00) (26, 1.14926656001130855778e+00) (27, 1.49948624138076880286e+00) (28, 2.39220387174874954406e-01) (29, 1.50000000000000000000e+03) (30, 1.50000000000000000000e+03) (31, -1.69461264585743354161e+00) (32, 4.57206773329662918837e-01) (33, 5.87008187795184266378e-01) (34, 5.65543557149172593235e-01) (35, 5.23206191159355515907e-01) (36, 4.98672503704774283673e-01) (37, 6.06920566594233990010e-01) (38, 5.65828681430933677632e-01) (39, 1.50000000000000000000e+03) (40, 1.50000000000000000000e+03) (41, -2.03715700054403558994e+00) (42, 5.66789661320147408752e-01) (43, 5.28701136916004621469e-01) (44, 3.81844355916772237869e-01) (45, 1.09784680307953852463e+00) (46, 6.09046373590380385465e-01) (47, 6.31518337384263106493e-01) (48, 4.82654391567411800157e-01) (49, 1.50000000000000000000e+03) (50, 1.50000000000000000000e+03) (51, 7.74296301539063369646e-01) (52, 8.37103187728577280424e-01) (53, 6.43811920006201465760e-01) (54, 7.13972906100914461724e-01) (55, 7.67067488748709780388e-01) (56, 6.32283475737948408302e-01) (57, 6.09850936218300665459e-01) (58, -5.13781320157527776615e+00) (59, 1.50000000000000000000e+03) (60, 1.50000000000000000000e+03) (61, 5.58961679944228850836e-01) (62, 4.63173040951322001479e-01) (63, 2.29905409085972067817e-01) (64, 4.03963503474907725810e-01) (65, 5.11989993680980748358e-01) (66, 7.08964150763679579192e-01) (67, 5.35511526739771093197e-01) (68, -1.43233381121057501417e+00) (69, 1.50000000000000000000e+03) (70, 1.50000000000000000000e+03) (71, 4.36726135830722894671e-01) (72, 4.20705921972954588473e-01) (73, 4.92999509875320651719e-01) (74, 5.73944054529076819193e-01) (75, 6.44433772643184910045e-01) (76, 5.18273496227873775588e-01) (77, 4.36241598333228619566e-01) (78, 1.49930044149686608757e-01) (79, 1.50000000000000000000e+03) (80, 1.50000000000000000000e+03) (81, 4.18476120535139439749e-01) (82, 6.12472637136039610439e-01) (83, 5.47523049984375398402e-01) (84, 5.84327860954469868737e-01) (85, 5.63524528401477042827e-01) (86, 5.14728757828632477178e-01) (87, 5.78081029658947698202e-01) (88, 3.77716540004361167604e-01) (89, 1.50000000000000000000e+03) (90, 1.50000000000000000000e+03) (91, 4.95261972674265582572e-01) (92, 5.36625209686967474809e-01) (93, 5.96749755295456152382e-01) (94, 4.39958487392779540315e-01) (95, 5.03730670250553846934e-01) (96, 6.54248973969858815813e-01) (97, 4.66997496507275455802e-01) (98, 5.29215826470787575886e-01) (99, 1.50000000000000000000e+03) (100, 1.50000000000000000000e+03) (101, 6.09444379551333792477e-01) (102, 5.71691057944984093453e-01) (103, 5.11889836251295804459e-01) (104, -4.58415849923914198172e+00) (105, 4.39713799866374377423e-01) (106, 4.71721946823090820811e-01) (107, 5.54788707289290083935e-01) (108, 4.26033812722421800778e-01) (109, 1.50000000000000000000e+03) (110, 1.50000000000000000000e+03) (111, 1.94151133203735837274e-01) (112, 4.50838431161790342827e-01) (113, -1.02951765404286507688e-01) (114, -5.77447386458487921246e-01) (115, 4.58070826781777074022e-01) (116, 4.99802570953113589614e-01) (117, 5.98300912664497586135e-01) (118, -3.90614943322453456176e+00) (119, 1.50000000000000000000e+03) (120, 1.50000000000000000000e+03) (121, 5.83174269663974009781e-01) (122, 4.64015833746716899189e-01) (123, 5.89603365195590756187e-01) (124, 4.76932981609783535060e-01) (125, 6.11421205845604442963e-01) (126, 5.77440160518322698202e-01) (127, 4.82017951362338659127e-01) (128, -1.13603788320677634438e+00) (129, 1.50000000000000000000e+03) (130, 1.50000000000000000000e+03) (131, -1.01432370709796434299e-02) (132, 4.92890446747460464483e-01) (133, 7.07168198205962217351e-01) (134, 6.60061067890483910148e-01) (135, 5.07744211430445568922e-01) (136, 2.01277407353716575322e-02) (137, 3.78243342501745516415e-01) (138, 1.24476652917897112616e-01) (139, 1.50000000000000000000e+03) (140, 1.50000000000000000000e+03) (141, 1.34391666973884982283e+00) (142, 8.51789393086232693442e-01) (143, 8.10376841737630360107e-01) (144, 7.47297000302674874206e-01) (145, 7.35260870470407223998e-01) (146, 7.40332890464665993591e-01) (147, 1.29061240101328378316e+00) (148, 1.76505184266631154344e+00) (149, 1.50000000000000000000e+03) (150, 1.50000000000000000000e+03) (151, 1.50000000000000000000e+03) (152, 1.50000000000000000000e+03) (153, 1.50000000000000000000e+03) (154, 1.50000000000000000000e+03) (155, 1.50000000000000000000e+03) (156, 1.50000000000000000000e+03) (157, 1.50000000000000000000e+03) (158, 1.50000000000000000000e+03) (159, 1.50000000000000000000e+03) (160, 7.73106543199687745727e-01) (0, 1.50000000000000000000e+03) (1, 1.50000000000000000000e+03) (2, 1.50000000000000000000e+03) (3, 1.50000000000000000000e+03) (4, 1.50000000000000000000e+03) (5, 1.50000000000000000000e+03) (6, 1.50000000000000000000e+03) (7, 1.50000000000000000000e+03) (8, 1.50000000000000000000e+03) (9, 1.50000000000000000000e+03) (10, 1.50000000000000000000e+03) (11, 1.50000000000000000000e+03) (12, 1.50000000000000000000e+03) (13, 1.50000000000000000000e+03) (14, 1.50000000000000000000e+03) (15, 1.50000000000000000000e+03) (16, 1.50000000000000000000e+03) (17, 1.50000000000000000000e+03) (18, 1.50000000000000000000e+03) (19, 1.50000000000000000000e+03) (20, 1.50000000000000000000e+03) (21, 1.50000000000000000000e+03) (22, 5.56888395665496860332e-01) (23, 6.01859094320132625988e-01) (24, 7.11869852344901632435e-01) (25, 8.97293198936660707510e-01) (26, 1.14129537009517578738e+00) (27, 1.46135146532495596716e+00) (28, 2.31035566761281258019e-01) (29, 1.50000000000000000000e+03) (30, 1.50000000000000000000e+03) (31, -1.65225019223380531486e+00) (32, 4.38468980360927795825e-01) (33, 5.90322396034501206685e-01) (34, 6.78238871139288712619e-01) (35, 6.25250877834427232216e-01) (36, 5.47775286907896674649e-01) (37, 4.66802161371410340163e-01) (38, 4.45723697982060518274e-01) (39, 1.50000000000000000000e+03) (40, 1.50000000000000000000e+03) (41, -1.96351960990469387447e+00) (42, 6.62810173602995766906e-01) (43, 6.71926233082138280039e-01) (44, 4.18349488830361715408e-01) (45, 9.46313080332131684180e-01) (46, 6.50464832856804564543e-01) (47, 5.55572296932736464647e-01) (48, 3.30298430065886272633e-01) (49, 1.50000000000000000000e+03) (50, 1.50000000000000000000e+03) (51, 7.94682043726563369646e-01) (52, 7.58050448883229144315e-01) (53, 6.01392486412451465760e-01) (54, 7.79204890362713231688e-01) (55, 7.07625062533209669979e-01) (56, 6.19514924030680647071e-01) (57, 6.11535512491265142998e-01) (58, -4.82729340681862328921e+00) (59, 1.50000000000000000000e+03) (60, 1.50000000000000000000e+03) (61, 5.69874768861961089605e-01) (62, 4.22810489142996237533e-01) (63, 9.60614097299509472894e-02) (64, 3.03823118145184312144e-01) (65, 4.16988769252676916288e-01) (66, 7.81754684067894056732e-01) (67, 4.49397030747221870595e-01) (68, -1.36171054774003086330e+00) (69, 1.50000000000000000000e+03) (70, 1.50000000000000000000e+03) (71, 5.57655093888969277671e-01) (72, 4.56002957625103733097e-01) (73, 4.93390136365436104970e-01) (74, 4.70910601303045794896e-01) (75, 5.19215341412014530498e-01) (76, 4.50390198426967092171e-01) (77, 5.11790910269019128087e-01) (78, 7.00947878065443924500e-02) 