FANN_FLO_2.1
num_layers=3
learning_rate=0.700000
connection_rate=1.000000
network_type=0
learning_momentum=0.000000
training_algorithm=2
train_error_function=1
train_stop_function=0
cascade_output_change_fraction=0.010000
quickprop_decay=-0.000100
quickprop_mu=1.750000
rprop_increase_factor=1.200000
rprop_decrease_factor=0.500000
rprop_delta_min=0.000000
rprop_delta_max=50.000000
rprop_delta_zero=0.100000
cascade_output_stagnation_epochs=12
cascade_candidate_change_fraction=0.010000
cascade_candidate_stagnation_epochs=12
cascade_max_out_epochs=150
cascade_min_out_epochs=50
cascade_max_cand_epochs=150
cascade_min_cand_epochs=50
cascade_num_candidate_groups=2
bit_fail_limit=3.49999999999999977796e-01
cascade_candidate_limit=1.00000000000000000000e+03
cascade_weight_multiplier=4.00000000000000022204e-01
cascade_activation_functions_count=10
cascade_activation_functions=3 5 7 8 10 11 14 15 16 17 
cascade_activation_steepnesses_count=4
cascade_activation_steepnesses=2.50000000000000000000e-01 5.00000000000000000000e-01 7.50000000000000000000e-01 1.00000000000000000000e+00 
layer_sizes=161 108 2 
scale_included=0
neurons (num_inputs, activation_function, activation_steepness)=(0, 0, 0.00000000000000000000e+00) (0, 0, 0.00000000000000000000e+00) (0, 0, 0.00000000000000000000e+00) (0, 0, 0.00000000000000000000e+00) (0, 0, 0.00000000000000000000e+00) (0, 0, 0.00000000000000000000e+00) (0, 0, 0.00000000000000000000e+00) (0, 0, 0.00000000000000000000e+00) (0, 0, 0.00000000000000000000e+00) (0, 0, 0.00000000000000000000e+00) (0, 0, 0.00000000000000000000e+00) (0, 0, 0.00000000000000000000e+00) (0, 0, 0.00000000000000000000e+00) (0, 0, 0.00000000000000000000e+00) (0, 0, 0.00000000000000000000e+00) (0, 0, 0.00000000000000000000e+00) (0, 0, 0.00000000000000000000e+00) (0, 0, 0.00000000000000000000e+00) (0, 0, 0.00000000000000000000e+00) (0, 0, 0.00000000000000000000e+00) (0, 0, 0.00000000000000000000e+00) (0, 0, 0.00000000000000000000e+00) (0, 0, 0.00000000000000000000e+00) (0, 0, 0.00000000000000000000e+00) (0, 0, 0.00000000000000000000e+00) (0, 0, 0.00000000000000000000e+00) (0, 0, 0.00000000000000000000e+00) (0, 0, 0.00000000000000000000e+00) (0, 0, 0.00000000000000000000e+00) (0, 0, 0.00000000000000000000e+00) (0, 0, 0.00000000000000000000e+00) (0, 0, 0.00000000000000000000e+00) (0, 0, 0.00000000000000000000e+00) (0, 0, 0.00000000000000000000e+00) (0, 0, 0.00000000000000000000e+00) (0, 0, 0.00000000000000000000e+00) (0, 0, 0.00000000000000000000e+00) (0, 0, 0.00000000000000000000e+00) (0, 0, 0.00000000000000000000e+00) (0, 0, 0.00000000000000000000e+00) (0, 0, 0.00000000000000000000e+00) (0, 0, 0.00000000000000000000e+00) (0, 0, 0.00000000000000000000e+00) (0, 0, 0.00000000000000000000e+00) (0, 0, 0.00000000000000000000e+00) (0, 0, 0.00000000000000000000e+00) (0, 0, 0.00000000000000000000e+00) (0, 0, 0.00000000000000000000e+00) (0, 0, 0.00000000000000000000e+00) (0, 0, 0.00000000000000000000e+00) (0, 0, 0.00000000000000000000e+00) (0, 0, 0.00000000000000000000e+00) (0, 0, 0.00000000000000000000e+00) (0, 0, 0.00000000000000000000e+00) (0, 0, 0.00000000000000000000e+00) (0, 0, 0.00000000000000000000e+00) (0, 0, 0.00000000000000000000e+00) (0, 0, 0.00000000000000000000e+00) (0, 0, 0.00000000000000000000e+00) (0, 0, 0.00000000000000000000e+00) (0, 0, 0.00000000000000000000e+00) (0, 0, 0.00000000000000000000e+00) (0, 0, 0.00000000000000000000e+00) (0, 0, 0.00000000000000000000e+00) (0, 0, 0.00000000000000000000e+00) (0, 0, 0.00000000000000000000e+00) (0, 0, 0.00000000000000000000e+00) (0, 0, 0.00000000000000000000e+00) (0, 0, 0.00000000000000000000e+00) (0, 0, 0.00000000000000000000e+00) (0, 0, 0.00000000000000000000e+00) (0, 0, 0.00000000000000000000e+00) (0, 0, 0.00000000000000000000e+00) (0, 0, 0.00000000000000000000e+00) (0, 0, 0.00000000000000000000e+00) (0, 0, 0.00000000000000000000e+00) (0, 0, 0.00000000000000000000e+00) (0, 0, 0.00000000000000000000e+00) (0, 0, 0.00000000000000000000e+00) (0, 0, 0.00000000000000000000e+00) (0, 0, 0.00000000000000000000e+00) (0, 0, 0.00000000000000000000e+00) (0, 0, 0.00000000000000000000e+00) (0, 0, 0.00000000000000000000e+00) (0, 0, 0.00000000000000000000e+00) (0, 0, 0.00000000000000000000e+00) (0, 0, 0.00000000000000000000e+00) (0, 0, 0.00000000000000000000e+00) (0, 0, 0.00000000000000000000e+00) (0, 0, 0.00000000000000000000e+00) (0, 0, 0.00000000000000000000e+00) (0, 0, 0.00000000000000000000e+00) (0, 0, 0.00000000000000000000e+00) (0, 0, 0.00000000000000000000e+00) (0, 0, 0.00000000000000000000e+00) (0, 0, 0.00000000000000000000e+00) (0, 0, 0.00000000000000000000e+00) (0, 0, 0.00000000000000000000e+00) (0, 0, 0.00000000000000000000e+00) (0, 0, 0.00000000000000000000e+00) (0, 0, 0.00000000000000000000e+00) (0, 0, 0.00000000000000000000e+00) (0, 0, 0.00000000000000000000e+00) (0, 0, 0.00000000000000000000e+00) (0, 0, 0.00000000000000000000e+00) (0, 0, 0.00000000000000000000e+00) (0, 0, 0.00000000000000000000e+00) (0, 0, 0.00000000000000000000e+00) (0, 0, 0.00000000000000000000e+00) (0, 0, 0.00000000000000000000e+00) (0, 0, 0.00000000000000000000e+00) (0, 0, 0.00000000000000000000e+00) (0, 0, 0.00000000000000000000e+00) (0, 0, 0.00000000000000000000e+00) (0, 0, 0.00000000000000000000e+00) (0, 0, 0.00000000000000000000e+00) (0, 0, 0.00000000000000000000e+00) (0, 0, 0.00000000000000000000e+00) (0, 0, 0.00000000000000000000e+00) (0, 0, 0.00000000000000000000e+00) (0, 0, 0.00000000000000000000e+00) (0, 0, 0.00000000000000000000e+00) (0, 0, 0.00000000000000000000e+00) (0, 0, 0.00000000000000000000e+00) (0, 0, 0.00000000000000000000e+00) (0, 0, 0.00000000000000000000e+00) (0, 0, 0.00000000000000000000e+00) (0, 0, 0.00000000000000000000e+00) (0, 0, 0.00000000000000000000e+00) (0, 0, 0.00000000000000000000e+00) (0, 0, 0.00000000000000000000e+00) (0, 0, 0.00000000000000000000e+00) (0, 0, 0.00000000000000000000e+00) (0, 0, 0.00000000000000000000e+00) (0, 0, 0.00000000000000000000e+00) (0, 0, 0.00000000000000000000e+00) (0, 0, 0.00000000000000000000e+00) (0, 0, 0.00000000000000000000e+00) (0, 0, 0.00000000000000000000e+00) (0, 0, 0.00000000000000000000e+00) (0, 0, 0.00000000000000000000e+00) (0, 0, 0.00000000000000000000e+00) (0, 0, 0.00000000000000000000e+00) (0, 0, 0.00000000000000000000e+00) (0, 0, 0.00000000000000000000e+00) (0, 0, 0.00000000000000000000e+00) (0, 0, 0.00000000000000000000e+00) (0, 0, 0.00000000000000000000e+00) (0, 0, 0.00000000000000000000e+00) (0, 0, 0.00000000000000000000e+00) (0, 0, 0.00000000000000000000e+00) (0, 0, 0.00000000000000000000e+00) (0, 0, 0.00000000000000000000e+00) (0, 0, 0.00000000000000000000e+00) (0, 0, 0.00000000000000000000e+00) (0, 0, 0.00000000000000000000e+00) (0, 0, 0.00000000000000000000e+00) (0, 0, 0.00000000000000000000e+00) (0, 0, 0.00000000000000000000e+00) (0, 0, 0.00000000000000000000e+00) (0, 0, 0.00000000000000000000e+00) (161, 5, 5.00000000000000000000e-01) (161, 5, 5.00000000000000000000e-01) (161, 5, 5.00000000000000000000e-01) (161, 5, 5.00000000000000000000e-01) (161, 5, 5.00000000000000000000e-01) (161, 5, 5.00000000000000000000e-01) (161, 5, 5.00000000000000000000e-01) (161, 5, 5.00000000000000000000e-01) (161, 5, 5.00000000000000000000e-01) (161, 5, 5.00000000000000000000e-01) (161, 5, 5.00000000000000000000e-01) (161, 5, 5.00000000000000000000e-01) (161, 5, 5.00000000000000000000e-01) (161, 5, 5.00000000000000000000e-01) (161, 5, 5.00000000000000000000e-01) (161, 5, 5.00000000000000000000e-01) (161, 5, 5.00000000000000000000e-01) (161, 5, 5.00000000000000000000e-01) (161, 5, 5.00000000000000000000e-01) (161, 5, 5.00000000000000000000e-01) (161, 5, 5.00000000000000000000e-01) (161, 5, 5.00000000000000000000e-01) (161, 5, 5.00000000000000000000e-01) (161, 5, 5.00000000000000000000e-01) (161, 5, 5.00000000000000000000e-01) (161, 5, 5.00000000000000000000e-01) (161, 5, 5.00000000000000000000e-01) (161, 5, 5.00000000000000000000e-01) (161, 5, 5.00000000000000000000e-01) (161, 5, 5.00000000000000000000e-01) (161, 5, 5.00000000000000000000e-01) (161, 5, 5.00000000000000000000e-01) (161, 5, 5.00000000000000000000e-01) (161, 5, 5.00000000000000000000e-01) (161, 5, 5.00000000000000000000e-01) (161, 5, 5.00000000000000000000e-01) (161, 5, 5.00000000000000000000e-01) (161, 5, 5.00000000000000000000e-01) (161, 5, 5.00000000000000000000e-01) (161, 5, 5.00000000000000000000e-01) (161, 5, 5.00000000000000000000e-01) (161, 5, 5.00000000000000000000e-01) (161, 5, 5.00000000000000000000e-01) (161, 5, 5.00000000000000000000e-01) (161, 5, 5.00000000000000000000e-01) (161, 5, 5.00000000000000000000e-01) (161, 5, 5.00000000000000000000e-01) (161, 5, 5.00000000000000000000e-01) (161, 5, 5.00000000000000000000e-01) (161, 5, 5.00000000000000000000e-01) (161, 5, 5.00000000000000000000e-01) (161, 5, 5.00000000000000000000e-01) (161, 5, 5.00000000000000000000e-01) (161, 5, 5.00000000000000000000e-01) (161, 5, 5.00000000000000000000e-01) (161, 5, 5.00000000000000000000e-01) (161, 5, 5.00000000000000000000e-01) (161, 5, 5.00000000000000000000e-01) (161, 5, 5.00000000000000000000e-01) (161, 5, 5.00000000000000000000e-01) (161, 5, 5.00000000000000000000e-01) (161, 5, 5.00000000000000000000e-01) (161, 5, 5.00000000000000000000e-01) (161, 5, 5.00000000000000000000e-01) (161, 5, 5.00000000000000000000e-01) (161, 5, 5.00000000000000000000e-01) (161, 5, 5.00000000000000000000e-01) (161, 5, 5.00000000000000000000e-01) (161, 5, 5.00000000000000000000e-01) (161, 5, 5.00000000000000000000e-01) (161, 5, 5.00000000000000000000e-01) (161, 5, 5.00000000000000000000e-01) (161, 5, 5.00000000000000000000e-01) (161, 5, 5.00000000000000000000e-01) (161, 5, 5.00000000000000000000e-01) (161, 5, 5.00000000000000000000e-01) (161, 5, 5.00000000000000000000e-01) (161, 5, 5.00000000000000000000e-01) (161, 5, 5.00000000000000000000e-01) (161, 5, 5.00000000000000000000e-01) (161, 5, 5.00000000000000000000e-01) (161, 5, 5.00000000000000000000e-01) (161, 5, 5.00000000000000000000e-01) (161, 5, 5.00000000000000000000e-01) (161, 5, 5.00000000000000000000e-01) (161, 5, 5.00000000000000000000e-01) (161, 5, 5.00000000000000000000e-01) (161, 5, 5.00000000000000000000e-01) (161, 5, 5.00000000000000000000e-01) (161, 5, 5.00000000000000000000e-01) (161, 5, 5.00000000000000000000e-01) (161, 5, 5.00000000000000000000e-01) (161, 5, 5.00000000000000000000e-01) (161, 5, 5.00000000000000000000e-01) (161, 5, 5.00000000000000000000e-01) (161, 5, 5.00000000000000000000e-01) (161, 5, 5.00000000000000000000e-01) (161, 5, 5.00000000000000000000e-01) (161, 5, 5.00000000000000000000e-01) (161, 5, 5.00000000000000000000e-01) (161, 5, 5.00000000000000000000e-01) (161, 5, 5.00000000000000000000e-01) (161, 5, 5.00000000000000000000e-01) (161, 5, 5.00000000000000000000e-01) (161, 5, 5.00000000000000000000e-01) (161, 5, 5.00000000000000000000e-01) (161, 5, 5.00000000000000000000e-01) (0, 5, 0.00000000000000000000e+00) (108, 5, 5.00000000000000000000e-01) (0, 5, 0.00000000000000000000e+00) 
connections (connected_to_neuron, weight)=(0, 1.50000000000000000000e+03) (1, 1.50000000000000000000e+03) (2, 1.50000000000000000000e+03) (3, 1.50000000000000000000e+03) (4, 1.50000000000000000000e+03) (5, 1.50000000000000000000e+03) (6, 1.50000000000000000000e+03) (7, 1.50000000000000000000e+03) (8, 1.50000000000000000000e+03) (9, 1.50000000000000000000e+03) (10, 1.50000000000000000000e+03) (11, 1.50000000000000000000e+03) (12, 1.50000000000000000000e+03) (13, 1.50000000000000000000e+03) (14, 1.50000000000000000000e+03) (15, 1.50000000000000000000e+03) (16, 1.50000000000000000000e+03) (17, 1.50000000000000000000e+03) (18, 1.50000000000000000000e+03) (19, 1.50000000000000000000e+03) (20, 1.50000000000000000000e+03) (21, 1.50000000000000000000e+03) (22, 9.84075922641582612194e-01) (23, 1.02327270073047715826e+00) (24, -6.44167434339445565961e-01) (25, 5.07032316198927412998e-01) (26, 2.67337201043605920958e+00) (27, 1.48536427624270239711e+00) (28, -6.70279606798862143124e-02) (29, 1.50000000000000000000e+03) (30, 1.50000000000000000000e+03) (31, 1.03364391647776532324e+00) (32, 1.07008545183382430821e+00) (33, -1.13386642773634093828e+02) (34, 1.31758717773594025857e+03) (35, 1.42204807041961976211e+03) (36, 3.68455239996277796877e+01) (37, 1.92702050855202577928e+00) (38, 2.72152916115771006389e+01) (39, 1.50000000000000000000e+03) (40, 1.50000000000000000000e+03) (41, 3.81530820883275634259e+00) (42, 1.60999653214426814429e+01) (43, 7.63890424080081857028e+02) (44, 7.17937650537545323459e+02) (45, 1.49998260959930621539e+03) (46, 1.50000000000000000000e+03) (47, 1.77190613430573229437e+01) (48, 1.10236767567237836651e+00) (49, 1.50000000000000000000e+03) (50, 1.50000000000000000000e+03) (51, -1.46016230751888862471e+01) (52, 3.44868341941306198351e+02) (53, 1.50000000000000000000e+03) (54, 3.48897673997515678224e+00) (55, 9.46643514476058953733e+01) (56, 1.50000000000000000000e+03) (57, 1.49998237919928442352e+03) (58, -9.23706676145054639271e-01) (59, 1.50000000000000000000e+03) (60, 1.50000000000000000000e+03) (61, 8.85260460415129957212e-01) (62, 1.20272094527183504020e+00) (63, 1.17772934406695339860e+00) (64, 3.37369587684375471515e-01) (65, -6.26237151879314524194e+00) (66, 8.93129133557901244700e-01) (67, 1.03598369593035188885e+00) (68, -8.58822578895897237317e+00) (69, 1.50000000000000000000e+03) (70, 1.50000000000000000000e+03) (71, 1.47426782619418411668e-01) (72, 9.06722936088247055686e-01) (73, 9.39559253425781393254e-01) (74, 6.85475078412468619149e+00) (75, 1.06608811573939927797e+01) (76, 9.85928491127307404795e-01) (77, -8.08476859808774328542e+00) (78, 3.48058951632569790746e+00) (79, 1.50000000000000000000e+03) (80, 1.50000000000000000000e+03) (81, 8.76130492666879923114e-01) (82, 9.38576182363518141116e-01) (83, 2.55082866134662200608e+00) (84, 1.14438597926418084150e+00) (85, 1.17878637598459645730e+00) (86, -3.55196404808013044274e+00) (87, 1.06826156732449217834e+00) (88, 1.70479650795519771522e-01) (89, 1.50000000000000000000e+03) (90, 1.50000000000000000000e+03) (91, 1.55901841029294043750e+01) (92, 9.12822380814735989674e-01) (93, -1.97700171772381777524e-01) (94, 1.01430449187070736983e+00) (95, 1.22811193144147523526e+00) (96, 3.85970542635177125135e+01) (97, 6.31068021933923706257e+00) (98, 2.41513796651875836119e+01) (99, 1.50000000000000000000e+03) (100, 1.50000000000000000000e+03) (101, -7.45169154407028244691e-01) (102, 5.11409062498180677636e+00) (103, 1.07626032138282301531e+00) (104, -9.23618064374724845322e+00) (105, 5.74942818518228038194e-01) (106, -9.93371438159538877599e-01) (107, 1.28929802242668034573e+00) (108, -6.86131557610504394518e+00) (109, 1.50000000000000000000e+03) (110, 1.50000000000000000000e+03) (111, 1.77343784828520067975e+00) (112, 8.97692916649791450290e-01) (113, -1.41634099593629620983e+01) (114, -1.61432597153334356221e+00) (115, 1.20332896705342595745e+00) (116, 1.54021616222611151814e-01) (117, 8.76498921680000431245e-01) (118, 7.20883479170327312602e+00) (119, 1.50000000000000000000e+03) (120, 1.50000000000000000000e+03) (121, 1.49998295999933270650e+03) (122, 2.38813652678228693915e+00) (123, 8.07926444124103637634e-01) (124, 5.11610133295365643313e-01) (125, 5.10866859709922960242e-01) (126, -6.48674398807683161294e+00) (127, 1.04219474720963845016e+00) (128, 1.50000000000000000000e+03) (129, 1.50000000000000000000e+03) (130, 1.50000000000000000000e+03) (131, -4.56710445449974056231e+00) (132, 1.60564044768665659113e+00) (133, 1.62710889299097907212e+01) (134, 1.78210812061358425673e+00) (135, 8.15681375883540482619e+00) (136, 1.45504631012994090078e+00) (137, 8.83316696376368115651e-01) (138, -3.54095163330744866492e-01) (139, 1.50000000000000000000e+03) (140, 1.50000000000000000000e+03) (141, 7.53322135190217512246e+00) (142, -2.32747783872203406474e+00) (143, 1.85474178596777372618e+00) (144, 1.95840389310759954711e+00) (145, 1.80085995077533111974e+00) (146, 1.84431698202533156383e+00) (147, 4.56711143735859703696e+00) (148, -9.42721354599540095620e-01) (149, 1.50000000000000000000e+03) (150, 1.50000000000000000000e+03) (151, 1.50000000000000000000e+03) (152, 1.50000000000000000000e+03) (153, 1.50000000000000000000e+03) (154, 1.50000000000000000000e+03) (155, 1.50000000000000000000e+03) (156, 1.50000000000000000000e+03) (157, 1.50000000000000000000e+03) (158, 1.50000000000000000000e+03) (159, 1.50000000000000000000e+03) (160, 1.06039782153422112998e+00) (0, 1.50000000000000000000e+03) (1, 1.50000000000000000000e+03) (2, 1.50000000000000000000e+03) (3, 1.50000000000000000000e+03) (4, 1.50000000000000000000e+03) (5, 1.50000000000000000000e+03) (6, 1.50000000000000000000e+03) (7, 1.50000000000000000000e+03) (8, 1.50000000000000000000e+03) (9, 1.50000000000000000000e+03) (10, 1.50000000000000000000e+03) (11, 1.50000000000000000000e+03) (12, 1.50000000000000000000e+03) (13, 1.50000000000000000000e+03) (14, 1.50000000000000000000e+03) (15, 1.50000000000000000000e+03) (16, 1.50000000000000000000e+03) (17, 1.50000000000000000000e+03) (18, 1.50000000000000000000e+03) (19, 1.50000000000000000000e+03) (20, 1.50000000000000000000e+03) (21, 1.50000000000000000000e+03) (22, 7.55283149976607393050e-01) (23, 8.47434031863125381001e-01) (24, -7.86847646334112860167e-01) (25, 3.31636934697054241994e-01) (26, 1.18261830121042121888e+00) (27, 2.01969477363640992351e+00) (28, -7.72876375872714627135e-01) (29, 1.50000000000000000000e+03) (30, 1.50000000000000000000e+03) (31, -2.34393149184936477880e+00) (32, -3.97468444209229243569e+00) (33, 1.11610234195218116504e+00) (34, 1.32608163620151264794e-01) (35, 1.47283110031386776928e-01) (36, 2.45322082977771138701e-01) (37, 2.45715957240352889102e+00) (38, -1.47847738939902573208e+00) (39, 1.50000000000000000000e+03) (40, 1.50000000000000000000e+03) (41, -2.86237665753324366236e+00) (42, -6.54966232169088523329e-03) (43, 4.12163187331732905339e-01) (44, -2.41016078713411387169e-02) (45, 3.99801612913024018159e-01) (46, 4.66988998812377653636e-01) (47, 2.41340217689444996862e-01) (48, -3.81174279228928947205e+00) (49, 1.50000000000000000000e+03) (50, 1.50000000000000000000e+03) (51, -1.72828532089604602895e+00) (52, 1.17568792425691820425e-01) (53, 2.92709828775989056027e-01) (54, 2.97183159951927733378e-01) (55, -1.17129841888080576950e+00) (56, -1.37451494126018619601e-01) (57, 2.36022678732111190758e-01) (58, 1.01943256806894955169e+00) (59, 1.50000000000000000000e+03) (60, 1.50000000000000000000e+03) (61, -1.23103898156621682780e+00) (62, -9.40904354577660889669e-02) (63, 2.80617064856872988621e-01) (64, 5.30004915516096630768e-01) (65, 8.76239201923011412632e-02) (66, 2.30876100326609157154e-01) (67, -4.67613747231270873717e-02) (68, -4.34212240919886127699e+00) (69, 1.50000000000000000000e+03) (70, 1.50000000000000000000e+03) (71, -1.84248299918064489811e-01) (72, -3.56840103228511784650e-01) (73, 2.80048083018195392846e-01) (74, 4.67115873952656079915e-01) (75, 1.71055196265550824020e-01) (76, -9.75365563516599198834e-02) (77, -1.05127692063926403421e+00) (78, 1.25181962926400003333e+00) (79, 1.50000000000000000000e+03) (80, 1.50000000000000000000e+03) (81, 2.79121419548817750744e-01) (82, 3.26692316593744036535e-01) (83, 6.42792618125601067369e-01) (84, 3.01467019014124926191e-01) (85, 4.33324398198700888596e-01) (86, 3.98785874209885593533e-01) (87, 3.31813571171732490939e-01) (88, 3.21019657129715429988e+00) (89, 1.50000000000000000000e+03) (90, 1.50000000000000000000e+03) (91, 2.02179394173430809767e-01) (92, -2.41716011148132327302e-02) (93, 1.28302970126181392629e+00) (94, 1.16971971778053740465e+00) (95, 1.97266438785673825507e+00) (96, 2.43443206161713510127e+00) (97, 3.80120437608579331279e-01) (98, 3.87069905421852156202e-01) (99, 1.50000000000000000000e+03) (100, 1.50000000000000000000e+03) (101, 2.64109003925016772030e+00) (102, 4.07195070745488552078e-01) (103, 3.20921612531057720563e-01) (104, 3.52637874027454900627e+00) (105, 8.10399938950628895284e-01) (106, 5.75212997222421473786e-01) (107, 1.96294360876812290506e-01) (108, 7.32634503918700552560e-01) (109, 1.50000000000000000000e+03) (110, 1.50000000000000000000e+03) (111, 3.61754938516396451487e-01) (112, 1.99166218302267966633e-01) (113, 1.34812459558012992522e-01) (114, -2.01101428084988587131e+00) (115, -1.04572922800922762931e+00) (116, 1.46854333536254966219e+00) (117, -3.33879020080552901817e+00) (118, -3.45423353893108631141e+00) (119, 1.50000000000000000000e+03) (120, 1.50000000000000000000e+03) (121, 4.47599148216847320114e-01) (122, 2.98736345098948330445e+00) (123, 2.96486164647696670560e-01) (124, -1.28599179356436343902e+00) (125, -5.31947989284725419878e-01) (126, 3.15015008203590463065e-01) (127, 6.98721028115278475212e+00) (128, 5.76776076694209294260e+00) (129, 1.50000000000000000000e+03) (130, 1.50000000000000000000e+03) (131, 8.27513792704964723512e-02) (132, 5.39179897788316653262e-01) (133, 5.25450830473891405958e-01) (134, 5.25224954402504384809e-01) (135, 5.09545607558780422330e-01) (136, 3.28238525631572353181e-01) (137, 2.70399353021534338826e-01) (138, 2.76459250112942755973e-01) (139, 1.50000000000000000000e+03) (140, 1.50000000000000000000e+03) (141, 4.93949920646171136696e+00) (142, -5.17280433793338634274e+00) (143, 3.17788643833669226524e-01) (144, 2.83035224374765193023e-01) (145, 2.99179023202908067613e-01) (146, 3.59176589247280797501e-01) (147, 8.33585669336419754494e-01) (148, -1.68364928509064770701e+00) (149, 1.50000000000000000000e+03) (150, 1.50000000000000000000e+03) (151, 1.50000000000000000000e+03) (152, 1.50000000000000000000e+03) (153, 1.50000000000000000000e+03) (154, 1.50000000000000000000e+03) (155, 1.50000000000000000000e+03) (156, 1.50000000000000000000e+03) (157, 1.50000000000000000000e+03) (158, 1.50000000000000000000e+03) (159, 1.50000000000000000000e+03) (160, 2.61200476325564256985e-01) (0, 1.50000000000000000000e+03) (1, 1.50000000000000000000e+03) (2, 1.50000000000000000000e+03) (3, 1.50000000000000000000e+03) (4, 1.50000000000000000000e+03) (5, 1.50000000000000000000e+03) (6, 1.50000000000000000000e+03) (7, 1.50000000000000000000e+03) (8, 1.50000000000000000000e+03) (9, 1.50000000000000000000e+03) (10, 1.50000000000000000000e+03) (11, 1.50000000000000000000e+03) (12, 1.50000000000000000000e+03) (13, 1.50000000000000000000e+03) (14, 1.50000000000000000000e+03) (15, 1.50000000000000000000e+03) (16, 1.50000000000000000000e+03) (17, 1.50000000000000000000e+03) (18, 1.50000000000000000000e+03) (19, 1.50000000000000000000e+03) (20, 1.50000000000000000000e+03) (21, 1.50000000000000000000e+03) (22, 3.97647606376753837143e-01) (23, 4.13742574099650928243e-01) (24, 2.40629490137545953843e+00) (25, 9.41066015002707700887e-01) (26, -1.15071734398724812021e-01) (27, 3.52702706807106816655e-02) (28, 4.49774844825329811471e+00) (29, 1.50000000000000000000e+03) (30, 1.50000000000000000000e+03) (31, 9.68040400201512940548e-01) (32, 2.04553480931039155521e+00) (33, 9.18720908586585061073e-01) (34, 7.24709123043703606903e-01) (35, 6.93807873751997594702e-01) (36, 7.63817856452753463081e-01) (37, 8.48037442872845992348e-01) (38, 2.05449387147877998716e-01) (39, 1.50000000000000000000e+03) (40, 1.50000000000000000000e+03) (41, 6.95236887599435027241e-01) (42, 2.23347761777786188442e-02) (43, 5.62664139983894640018e-01) (44, 9.78166946467558862111e-01) (45, 8.89652772439051386932e-01) (46, -7.26589640419517346359e-01) (47, 6.90028103470274767339e-01) (48, 1.81032360159737537586e+00) (49, 1.50000000000000000000e+03) (50, 1.50000000000000000000e+03) (51, 1.92279656731243830947e+00) (52, -2.61504246332635226224e+00) (53, 5.30863096142650037201e-01) (54, 1.02214503733334205471e+00) (55, 3.59270235932386605704e-01) (56, -2.61938985795948209301e-01) (57, 2.78920633588790434221e-01) (58, 1.18341752855951209966e+01) (59, 1.50000000000000000000e+03) (60, 1.50000000000000000000e+03) (61, 1.76908138540624104706e+00) (62, 7.69275739411538705959e-01) (63, 9.37711350937822429863e-01) (64, -2.65623821479809341106e-01) (65, -4.75182917726216480503e+00) (66, 1.18360020938532684021e+00) (67, 8.92960934057107746931e-01) (68, 1.45515044615992721333e+01) (69, 1.50000000000000000000e+03) (70, 1.50000000000000000000e+03) (71, 4.61259467887214003046e-01) (72, 8.08409421536755878890e-01) (73, 8.00876459557718800575e-01) (74, 3.46145059037970714844e-01) (75, -1.48271314658677960674e-01) (76, 9.16791209082741032077e-01) (77, 2.32584403718553183182e+01) (78, -3.68087270022255941271e-01) (79, 1.50000000000000000000e+03) (80, 1.50000000000000000000e+03) (81, 9.55617302804574242359e-01) (82, 8.28558351590983899193e-01) (83, 9.51039544689971871883e-01) (84, 8.70489904336972486476e-01) (85, 8.13425949867105257951e-01) (86, 2.83806546756302235934e+00) (87, 1.00273349935474986871e+00) (88, -4.43765786059327904667e+00) (89, 1.50000000000000000000e+03) (90, 1.50000000000000000000e+03) (91, -2.04552357767959297474e-01) (92, 8.25640498375394327191e-01) (93, 2.92727613312454204575e+00) (94, 8.20243292000771728745e-01) (95, 7.32034225848382957835e-01) (96, 3.33151425258479461089e-01) (97, -3.74802272895625954163e-01) (98, -1.68387392503778965391e+00) (99, 1.50000000000000000000e+03) (100, 1.50000000000000000000e+03) (101, -6.40975833769251379657e-01) (102, 4.53868742152021775738e-01) (103, 8.77166440735485331004e-01) (104, 3.55803228416191572592e+01) (105, 1.43018536135305573964e+00) (106, 2.65232506526515123824e+01) (107, 7.30721566404139988293e-01) (108, 2.42135121016601608801e+01) (109, 1.50000000000000000000e+03) (110, 1.50000000000000000000e+03) (111, 5.28555099093473979011e-01) (112, 9.32330568110024238138e-01) (113, 1.49777340272112428465e+03) (114, 1.00934113987566043136e+01) (115, 9.81902077673075024400e-01) (116, 1.49003117555126095795e+03) (117, 1.00142381916312994683e+00) (118, 2.74283597064368489526e+00) (119, 1.50000000000000000000e+03) (120, 1.50000000000000000000e+03) (121, -4.18125718882578123470e+00) (122, 8.49572315128916510929e-01) (123, 1.49998260959930621539e+03) (124, 1.47128529831782248039e+03) (125, 1.47130372430557758889e+03) (126, 1.49997982991897038119e+03) (127, 7.95873786975471397831e-01) (128, -2.81844448527607234212e+01) (129, 1.50000000000000000000e+03) (130, 1.50000000000000000000e+03) (131, 4.46343739714677738561e+01) (132, 9.81194660891297254501e-01) (133, 4.72975828848411883332e-01) (134, 1.90848083490461145617e-01) (135, -1.46082145162716714459e+00) (136, 5.98789786211395669291e-01) (137, 1.18986255013625319421e+00) (138, 4.27244466590748572798e+00) (139, 1.50000000000000000000e+03) (140, 1.50000000000000000000e+03) (141, 1.72696135009872442367e+01) (142, 1.56278012394101377680e+01) (143, 2.06145490148269860953e+00) (144, 2.22291730531655140624e+00) (145, 2.12222150900566353116e+00) (146, 2.12856916525566353116e+00) (147, 1.13140706975506533105e+00) (148, 5.17362887627625855913e+00) (149, 1.50000000000000000000e+03) (150, 1.50000000000000000000e+03) (151, 1.50000000000000000000e+03) (152, 1.50000000000000000000e+03) (153, 1.50000000000000000000e+03) (154, 1.50000000000000000000e+03) (155, 1.50000000000000000000e+03) (156, 1.50000000000000000000e+03) (157, 1.50000000000000000000e+03) (158, 1.50000000000000000000e+03) (159, 1.50000000000000000000e+03) (160, 8.39983628917721381058e-01) (0, 1.50000000000000000000e+03) (1, 1.50000000000000000000e+03) (2, 1.50000000000000000000e+03) (3, 1.50000000000000000000e+03) (4, 1.50000000000000000000e+03) (5, 1.50000000000000000000e+03) (6, 1.50000000000000000000e+03) (7, 1.50000000000000000000e+03) (8, 1.50000000000000000000e+03) (9, 1.50000000000000000000e+03) (10, 1.50000000000000000000e+03) (11, 1.50000000000000000000e+03) (12, 1.50000000000000000000e+03) (13, 1.50000000000000000000e+03) (14, 1.50000000000000000000e+03) (15, 1.50000000000000000000e+03) (16, 1.50000000000000000000e+03) (17, 1.50000000000000000000e+03) (18, 1.50000000000000000000e+03) (19, 1.50000000000000000000e+03) (20, 1.50000000000000000000e+03) (21, 1.50000000000000000000e+03) (22, 1.17207286786597242312e+00) (23, 1.10273082834035252020e+00) (24, -4.51940049741817007067e-01) (25, 5.98434720182170254432e-01) (26, 2.72951202051717345398e+00) (27, 1.44254321091083070883e+00) (28, 6.03990325723299040228e-02) (29, 1.50000000000000000000e+03) (30, 1.50000000000000000000e+03) (31, 1.10934957330538686016e+00) (32, 9.67794279509204491418e-01) (33, -1.13458806994323794015e+02) (34, 1.31765145760704717759e+03) (35, 1.42207685224534179724e+03) (36, 3.68963761438105208867e+01) (37, 2.05364168229241705887e+00) (38, 2.70218253255070095520e+01) (39, 1.50000000000000000000e+03) (40, 1.50000000000000000000e+03) (41, 3.70105413843258324036e+00) (42, 1.60845515845634174923e+01) (43, 7.63716837735781041374e+02) (44, 7.17898170650477936761e+02) (45, 1.49998260959930621539e+03) (46, 1.50000000000000000000e+03) (47, 1.76334022508108532179e+01) (48, 1.22444173772295306080e+00) (49, 1.50000000000000000000e+03) (50, 1.50000000000000000000e+03) (51, -1.47046527825898589725e+01) (52, 3.44901084942708735070e+02) (53, 1.50000000000000000000e+03) (54, 3.40840187177396591878e+00) (55, 9.47765073004909766041e+01) (56, 1.50000000000000000000e+03) (57, 1.49998237919928442352e+03) (58, -1.04714042808445784161e+00) (59, 1.50000000000000000000e+03) (60, 1.50000000000000000000e+03) (61, 8.54905436481240066371e-01) (62, 1.15183745548101268419e+00) (63, 1.12677483272344458598e+00) (64, 3.94394021085089807599e-01) (65, -6.24376504769867324285e+00) (66, 9.10457576086623143752e-01) (67, 9.65002542024173459723e-01) (68, -8.67907897896277802374e+00) (69, 1.50000000000000000000e+03) (70, 1.50000000000000000000e+03) (71, 3.02644008427379207493e-01) (72, 9.84670669024235722944e-01) (73, 9.64244072363706683504e-01) (74, 6.81068566635587302471e+00) (75, 1.05975592838560359610e+01) (76, 9.43750838232851219090e-01) (77, -8.04819017207534770364e+00) (78, 4.28069499371723694026e+00) (79, 1.50000000000000000000e+03) (80, 1.50000000000000000000e+03) (81, 9.53014123539642321603e-01) (82, 1.03551554870010664722e+00) (83, 2.72071490380260705422e+00) (84, 1.00865364333992513224e+00) (85, 1.01476423768775325662e+00) (86, -3.60287929143056651071e+00) (87, 1.10403619257575069668e+00) (88, 2.58859311757392185349e-01) (89, 1.50000000000000000000e+03) (90, 1.50000000000000000000e+03) (91, 1.56312340025085170225e+01) (92, 9.73623370844760027687e-01) (93, -2.41815519247554705506e-01) (94, 9.53657602185020381036e-01) (95, 1.27666914778885076664e+00) (96, 3.85771300345524892350e+01) (97, 6.31371131114952799379e+00) (98, 2.42482095918283953040e+01) (99, 1.50000000000000000000e+03) (100, 1.50000000000000000000e+03) (101, -3.54076001377795213099e-01) (102, 5.03985301527992657356e+00) (103, 1.03946725055371302915e+00) (104, -9.19722396734920977224e+00) (105, 6.58694102203419395991e-01) (106, -2.67048062383974693645e+00) (107, 1.34785217151703284877e+00) (108, -6.82721121585559220790e+00) (109, 1.50000000000000000000e+03) (110, 1.50000000000000000000e+03) (111, 1.74289960415799161098e+00) (112, 1.03187025316496128191e+00) (113, -1.46604632597664039650e+01) (114, -1.61001282032088344209e+00) (115, 1.35142466127983551516e+00) (116, -6.57782402184419856539e-01) (117, 1.04372678785398775858e+00) (118, 7.08445858579304310609e+00) (119, 1.50000000000000000000e+03) (120, 1.50000000000000000000e+03) (121, 1.49998295999933270650e+03) (122, 1.71360633800382222702e+00) (123, 8.24753930053908179687e-01) (124, 7.34948792856987997979e-01) (125, 8.15565841704119276478e-01) (126, -6.79905552663556811410e+00) (127, 1.04084351182094492216e+00) (128, 1.50000000000000000000e+03) (129, 1.50000000000000000000e+03) (130, 1.50000000000000000000e+03) (131, -4.50526678400159052984e+00) (132, 1.67070431940444108498e+00) (133, 1.70893577434253209901e+01) (134, 1.99136344093789618981e+00) (135, 8.40979484221167084002e+00) (136, 1.33919312161614012524e+00) (137, 8.28627638260334475895e-01) (138, -3.69608357725399322424e-02) (139, 1.50000000000000000000e+03) (140, 1.50000000000000000000e+03) (141, 7.40223845013162851103e+00) (142, -2.29306556376399717223e+00) (143, 1.89619953738027868795e+00) (144, 1.87372029380375204610e+00) (145, 1.92426960722976980733e+00) (146, 1.89468586997562704610e+00) (147, 4.67628419542436191136e+00) (148, -7.83499195844928109089e-01) (149, 1.50000000000000000000e+03) (150, 1.50000000000000000000e+03) (151, 1.50000000000000000000e+03) (152, 1.50000000000000000000e+03) (153, 1.50000000000000000000e+03) (154, 1.50000000000000000000e+03) (155, 1.50000000000000000000e+03) (156, 1.50000000000000000000e+03) (157, 1.50000000000000000000e+03) (158, 1.50000000000000000000e+03) (159, 1.50000000000000000000e+03) (160, 9.47040968675774030849e-01) (0, 1.50000000000000000000e+03) (1, 1.50000000000000000000e+03) (2, 1.50000000000000000000e+03) (3, 1.50000000000000000000e+03) (4, 1.50000000000000000000e+03) (5, 1.50000000000000000000e+03) (6, 1.50000000000000000000e+03) (7, 1.50000000000000000000e+03) (8, 1.50000000000000000000e+03) (9, 1.50000000000000000000e+03) (10, 1.50000000000000000000e+03) (11, 1.50000000000000000000e+03) (12, 1.50000000000000000000e+03) (13, 1.50000000000000000000e+03) (14, 1.50000000000000000000e+03) (15, 1.50000000000000000000e+03) (16, 1.50000000000000000000e+03) (17, 1.50000000000000000000e+03) (18, 1.50000000000000000000e+03) (19, 1.50000000000000000000e+03) (20, 1.50000000000000000000e+03) (21, 1.50000000000000000000e+03) (22, 2.57319561270394958630e-01) (23, 1.68788059679156637882e-01) (24, 2.15436581270202553995e+00) (25, 3.61150277514701467663e-01) (26, -1.32962101166045343348e+00) (27, 1.26888577698105020630e-01) (28, 3.95195387054740221444e+00) (29, 1.50000000000000000000e+03) (30, 1.50000000000000000000e+03) (31, 4.67340261101195017512e-02) (32, -4.52637140393190862131e-02) (33, 1.84009495174953968899e+02) (34, -2.52715217139684504843e+01) (35, 4.64160463067479867050e+01) (36, 7.92974282792970353029e+00) (37, -1.19995985362179771738e-01) (38, -7.20400772492417207360e+00) (39, 1.50000000000000000000e+03) (40, 1.50000000000000000000e+03) (41, -3.41216021905232791411e+00) (42, -7.37681242528915781520e+00) (43, -2.17671456862745031913e+02) (44, -1.48272385272044658677e+02) (45, -1.41837051150898400920e+03) (46, -1.43648947866638468440e+03) (47, -4.40789975669276845593e+00) (48, 4.06403321081616142330e-01) (49, 1.50000000000000000000e+03) (50, 1.50000000000000000000e+03) (51, 3.09932267084339407859e+01) (52, -2.32506129180854458127e+02) (53, -1.42247379791574803676e+03) (54, -1.27186023432542749667e+00) (55, -1.70431737509262415387e+00) (56, -1.43828540909359435318e+03) (57, -1.42940486863892215297e+03) (58, 7.98149120328600680807e+00) (59, 1.50000000000000000000e+03) (60, 1.50000000000000000000e+03) (61, -8.89232904531009449300e-01) (62, 1.33453173132373981158e-01) (63, -3.21344210158248599907e-01) (64, -2.42548960255029051325e+01) (65, -3.55833712719536094937e+01) (66, 2.55619632912406302694e-01) (67, 1.08436771634244102924e-01) (68, 1.13645649711425864581e+01) (69, 1.50000000000000000000e+03) (70, 1.50000000000000000000e+03) (71, -6.52375757846978654442e-01) (72, 2.23979167554558239450e-01) (73, -4.80035423636977348627e-02) (74, -3.87785218705175838139e+00) (75, -6.71955070147317634621e+00) (76, 9.08922392825053382381e-02) (77, 1.11796653086844122171e+00) (78, -4.72620441033474281145e-01) (79, 1.50000000000000000000e+03) (80, 1.50000000000000000000e+03) (81, 3.92572090435115261808e-01) (82, 2.47288164810232247159e-01) (83, 4.42892344805360764493e-03) (84, 1.86376155039202212604e-01) (85, 1.12937515189913129099e-01) (86, 1.71802396323474493300e-01) (87, 5.70916570788897126398e-01) (88, -1.43569551831197145475e+03) (89, 1.50000000000000000000e+03) (90, 1.50000000000000000000e+03) (91, -9.59707651917425330623e+00) (92, 3.23061225676731234024e-01) (93, 2.24840123792155965887e+00) (94, 2.57904227509878403168e-01) (95, -8.59068918678511095344e-02) (96, -2.31558563859440482702e+01) (97, -3.84207486816916254924e+00) (98, -1.72239291214247920436e+01) (99, 1.50000000000000000000e+03) (100, 1.50000000000000000000e+03) (101, -3.24389569265893518146e-01) (102, -2.47683515949655053134e+00) (103, -3.27759746031579668468e+00) (104, 4.05136554703482953954e+00) (105, 2.80080587675103076517e-01) (106, -1.32810181438975707380e+01) (107, 3.97941596553967949501e-02) (108, 2.29643059316797746305e+01) (109, 1.50000000000000000000e+03) (110, 1.50000000000000000000e+03) (111, -3.95004235426658911745e-01) (112, 2.27046473568289192135e-01) (113, 1.60039760943334052889e-01) (114, -3.15147552877375003444e-01) (115, -3.64670144262236151089e-01) (116, -2.82466654755509971597e-01) (117, 2.18987978219762291499e-01) (118, -1.36822377436874398349e+00) (119, 1.50000000000000000000e+03) (120, 1.50000000000000000000e+03) (121, -1.45849521829072045875e+03) (122, -3.48677984053627820771e-01) (123, -2.11279426291012539796e-01) (124, 9.92189067449890521599e-02) (125, 1.37910833998890952623e-01) (126, 3.97989301865154555815e-03) (127, 2.86038078391086747487e-01) (128, -1.46701194518008469458e+03) (129, 1.50000000000000000000e+03) (130, 1.50000000000000000000e+03) (131, 2.02855421307262551167e+00) (132, -6.59930176871310392173e-01) (133, -9.45575306110229107937e-01) (134, -5.95473947554688187722e-01) (135, -6.18024891047197599825e-01) (136, 1.42753289449554870982e-01) (137, 2.17274767552586345332e-01) (138, 5.18682949859133435311e-01) (139, 1.50000000000000000000e+03) (140, 1.50000000000000000000e+03) (141, 1.65565312491599812006e+01) (142, 4.17060957896184447691e+00) (143, 1.66580457064657450061e+00) (144, 1.54833630296716218133e+00) (145, 1.67221935662776610698e+00) (146, 1.65947521302250877717e+00) (147, 1.42505481662730937309e+00) (148, 4.57795636441255027194e+00) (149, 1.50000000000000000000e+03) (150, 1.50000000000000000000e+03) (151, 1.50000000000000000000e+03) (152, 1.50000000000000000000e+03) (153, 1.50000000000000000000e+03) (154, 1.50000000000000000000e+03) (155, 1.50000000000000000000e+03) (156, 1.50000000000000000000e+03) (157, 1.50000000000000000000e+03) (158, 1.50000000000000000000e+03) (159, 1.50000000000000000000e+03) (160, 7.07516858056334158045e-02) (0, 1.50000000000000000000e+03) (1, 1.50000000000000000000e+03) (2, 1.50000000000000000000e+03) (3, 1.50000000000000000000e+03) (4, 1.50000000000000000000e+03) (5, 1.50000000000000000000e+03) (6, 1.50000000000000000000e+03) (7, 1.50000000000000000000e+03) (8, 1.50000000000000000000e+03) (9, 1.50000000000000000000e+03) (10, 1.50000000000000000000e+03) (11, 1.50000000000000000000e+03) (12, 1.50000000000000000000e+03) (13, 1.50000000000000000000e+03) (14, 1.50000000000000000000e+03) (15, 1.50000000000000000000e+03) (16, 1.50000000000000000000e+03) (17, 1.50000000000000000000e+03) (18, 1.50000000000000000000e+03) (19, 1.50000000000000000000e+03) (20, 1.50000000000000000000e+03) (21, 1.50000000000000000000e+03) (22, -2.97945894277465928024e-01) (23, -1.18472017324428913199e-01) (24, 2.07166756655644368479e+00) (25, 4.25530155856849834350e-01) (26, -1.34659487967288171717e+00) (27, -5.09333421665810082146e-01) (28, 3.87961499888955607673e+00) (29, 1.50000000000000000000e+03) (30, 1.50000000000000000000e+03) (31, 1.19234595967690731877e-01) (32, 5.60119071479664665247e-01) (33, -1.82854898235388155237e-02) (34, 3.11018515341441592614e-01) (35, 6.88135021149203884860e-01) (36, 3.40895547806674248381e-01) (37, -2.46025750641086671244e-01) (38, -1.11541059385275032056e+00) (39, 1.50000000000000000000e+03) (40, 1.50000000000000000000e+03) (41, -7.54770608967179512661e-01) (42, 3.11864304744504938771e-01) (43, 4.48743320118791699791e-01) (44, -1.46486464715498776457e+00) (45, -7.75018220176090566476e-01) (46, 3.24774300752523004121e-01) (47, 3.75028982556783907487e-01) (48, -1.93965781055990671433e+00) (49, 1.50000000000000000000e+03) (50, 1.50000000000000000000e+03) (51, 2.87062008666324741668e+00) (52, -1.13092407208874878854e+00) (53, -7.85194925591976788937e-01) (54, -4.62857757546266734838e-01) (55, 2.82183898294581569921e-01) (56, -3.58324127274734005599e-01) (57, 2.23861830088855129350e-01) (58, -4.05272354785756139250e+00) (59, 1.50000000000000000000e+03) (60, 1.50000000000000000000e+03) (61, 1.79930375802467040769e-01) (62, -4.69073269449585494861e-01) (63, -2.68073004572385753530e-01) (64, -1.12189247536355125590e+01) (65, -3.64077536990310974829e+01) (66, 2.92024589000158929508e-01) (67, 1.02131362375516787644e-01) (68, 1.27184047828068313990e+00) (69, 1.50000000000000000000e+03) (70, 1.50000000000000000000e+03) (71, -2.37697870458279059136e-01) (72, 1.65175535389056576951e-01) (73, 1.00253994811457844416e-01) (74, -3.82441029990407299621e+00) (75, -1.43158403996478078568e+01) (76, 2.15786081972334620183e-01) (77, 2.86950047385013240486e+00) (78, -4.32963492057879983932e-01) (79, 1.50000000000000000000e+03) (80, 1.50000000000000000000e+03) (81, 4.54789032974349749505e-01) (82, 1.73367728630136552770e-01) (83, -1.09398675445109083704e+00) (84, 6.89310359160516111787e-02) (85, -3.39751221906918920990e-01) (86, -8.90816566068073079077e-02) (87, 3.51539812158025044564e-01) (88, -8.18560184447279737263e-01) (89, 1.50000000000000000000e+03) (90, 1.50000000000000000000e+03) (91, -1.04417228783822437777e+01) (92, 2.71966248385635656071e-01) (93, 2.27607345638539371180e+00) (94, 5.23512864658218918246e-03) (95, -3.81606591594265201484e-02) (96, -2.32526154221274055089e+01) (97, -3.99165992792383272914e+00) (98, -1.52765122399358403982e+01) (99, 1.50000000000000000000e+03) (100, 1.50000000000000000000e+03) (101, -8.32910541782984174819e-03) (102, -2.47904360982921101453e+00) (103, -1.03844128826355053263e+00) (104, 1.14355990394611373162e+00) (105, 2.75733545240042510205e-01) (106, -7.13326880835342014286e-01) (107, 3.13957368297315062011e-02) (108, 1.66969341166446270108e+01) (109, 1.50000000000000000000e+03) (110, 1.50000000000000000000e+03) (111, -1.43452354978800877827e-01) (112, 1.89934861939235838380e-01) (113, 8.26768855886648279530e-01) (114, 8.90144712513413066679e-02) (115, -3.28720956775989725518e-01) (116, -2.92920842289284055759e-01) (117, 3.15027074955303409975e-01) (118, -5.71528595323928545469e+00) (119, 1.50000000000000000000e+03) (120, 1.50000000000000000000e+03) (121, -1.45849521829072045875e+03) (122, -6.65802443576652636104e-01) (123, 2.30292894110819434950e-01) (124, 1.47920112157893329785e-01) (125, 1.42817080512023408811e-01) (126, 1.01465396211550942795e-01) (127, -1.47279330313967254940e-01) (128, -1.46701194518008469458e+03) (129, 1.50000000000000000000e+03) (130, 1.50000000000000000000e+03) (131, 7.47821396167898333474e-01) (132, -7.25175879859587535492e-01) (133, -3.09276877276594230892e+00) (134, -1.19173932968454443504e+00) (135, -9.92547941382964871160e-01) (136, 4.04622872510668696311e-01) (137, 3.44025040586779018437e-01) (138, 5.94204179728949566375e-01) (139, 1.50000000000000000000e+03) (140, 1.50000000000000000000e+03) (141, 1.65681462349240185006e+01) (142, 2.74547518841965354497e+00) (143, 2.33053651004903317201e+00) (144, 2.40611023753752473198e+00) (145, 2.33228211402766616445e+00) (146, 2.41258607357611154498e+00) (147, 5.78529570335859055774e-01) (148, 4.55206524666095369014e+00) (149, 1.50000000000000000000e+03) (150, 1.50000000000000000000e+03) (151, 1.50000000000000000000e+03) (152, 1.50000000000000000000e+03) (153, 1.50000000000000000000e+03) (154, 1.50000000000000000000e+03) (155, 1.50000000000000000000e+03) (156, 1.50000000000000000000e+03) (157, 1.50000000000000000000e+03) (158, 1.50000000000000000000e+03) (159, 1.50000000000000000000e+03) (160, -1.84489016026437274709e-01) (0, 1.50000000000000000000e+03) (1, 1.50000000000000000000e+03) (2, 1.50000000000000000000e+03) (3, 1.50000000000000000000e+03) (4, 1.50000000000000000000e+03) (5, 1.50000000000000000000e+03) (6, 1.50000000000000000000e+03) (7, 1.50000000000000000000e+03) (8, 1.50000000000000000000e+03) (9, 1.50000000000000000000e+03) (10, 1.50000000000000000000e+03) (11, 1.50000000000000000000e+03) (12, 1.50000000000000000000e+03) (13, 1.50000000000000000000e+03) (14, 1.50000000000000000000e+03) (15, 1.50000000000000000000e+03) (16, 1.50000000000000000000e+03) (17, 1.50000000000000000000e+03) (18, 1.50000000000000000000e+03) (19, 1.50000000000000000000e+03) (20, 1.50000000000000000000e+03) (21, 1.50000000000000000000e+03) (22, 4.95175684038681673815e-01) (23, 3.82108053360324328995e-01) (24, 2.41359263851365657416e+00) (25, 1.10616001063390267944e+00) (26, -1.14205034434916766206e-01) (27, 2.43335661821245108349e-03) (28, 4.51234195262255610714e+00) (29, 1.50000000000000000000e+03) (30, 1.50000000000000000000e+03) (31, 9.47684043112743013104e-01) (32, 1.42784391510472885578e+00) (33, 9.37406220924331012867e-01) (34, 8.34362424361693055808e-01) (35, 5.08271304958447633915e-01) (36, 7.97140150531786551014e-01) (37, 7.34276893866912638842e-01) (38, 3.20784815454157545833e-01) (39, 1.50000000000000000000e+03) (40, 1.50000000000000000000e+03) (41, 4.89807547410999521986e-01) (42, -2.02278951415349989018e-01) (43, 6.01726499697270322820e-01) (44, 1.14512237560748686427e+00) (45, 7.03514040859756439872e-01) (46, -6.68369454423207609572e-01) (47, 4.55454773484073871526e-01) (48, 1.76469151915181865498e+00) (49, 1.50000000000000000000e+03) (50, 1.50000000000000000000e+03) (51, 2.06559959460909015050e+00) (52, -2.46143126279007606882e+00) (53, 5.91229558205899619061e-01) (54, 1.03160052077983155350e+00) (55, 2.51616875136133677504e-01) (56, -3.23779656284426675672e-01) (57, 3.16192406812017989814e-01) (58, 1.17906389056617637578e+01) (59, 1.50000000000000000000e+03) (60, 1.50000000000000000000e+03) (61, 1.27460895588668798872e+00) (62, 6.32084734788139757100e-01) (63, 8.36873694659890920988e-01) (64, 2.39426331988421559060e-01) (65, -5.13986389223744666310e+00) (66, 9.62864842789696639969e-01) (67, 8.96866490936222393593e-01) (68, 1.44901153059133704915e+01) (69, 1.50000000000000000000e+03) (70, 1.50000000000000000000e+03) (71, 3.36494438516897087510e-01) (72, 9.35652474491210695007e-01) (73, 8.74714689353565000296e-01) (74, 3.40384519918515537906e-01) (75, 5.06147126916595274659e-02) (76, 8.85955927232884854483e-01) (77, 2.31808768923125860795e+01) (78, -2.67153431386478734666e-01) (79, 1.50000000000000000000e+03) (80, 1.50000000000000000000e+03) (81, 9.53644725562613926328e-01) (82, 9.52626111917485030034e-01) (83, 4.96251929564499927316e-01) (84, 9.81863557451208124327e-01) (85, 8.37955279730646873659e-01) (86, 1.15704928777995386113e+00) (87, 8.81917522372553386312e-01) (88, -1.82000460965896637688e+00) (89, 1.50000000000000000000e+03) (90, 1.50000000000000000000e+03) (91, -5.27676336766760845087e-01) (92, 8.75753608001344496792e-01) (93, 3.02277690866414427973e+00) (94, 9.12814085650925144400e-01) (95, 7.73522603522965979117e-01) (96, 1.94656858436207308438e-01) (97, 8.68207026438582163408e-02) (98, -6.33005441197496687700e-01) (99, 1.50000000000000000000e+03) (100, 1.50000000000000000000e+03) (101, -5.58508968045863141150e-01) (102, 5.33032378160161468550e-01) (103, 8.93843247236134064160e-01) (104, 3.57678533591972822592e+01) (105, 1.42720464490832332771e+00) (106, 1.93068762587825411003e+01) (107, 6.84932987715083263502e-01) (108, 1.05440876998828159117e+01) (109, 1.50000000000000000000e+03) (110, 1.50000000000000000000e+03) (111, 7.96222815722549270845e-01) (112, 7.73226664757236226144e-01) (113, 1.49777340272112428465e+03) (114, 1.02099153079868365523e+01) (115, 8.59347131015539056342e-01) (116, 1.49003117555126095795e+03) (117, 8.60704029179912954994e-01) (118, 3.26116120435384493348e+00) (119, 1.50000000000000000000e+03) (120, 1.50000000000000000000e+03) (121, -3.33527911781918673384e+00) (122, 9.80558017098122625121e-01) (123, 1.49998260959930621539e+03) (124, 1.47128529831782248039e+03) (125, 1.47130372430557758889e+03) (126, 1.49997982991897038119e+03) (127, 9.58601858883522894850e-01) (128, -2.19558365680147780097e+01) (129, 1.50000000000000000000e+03) (130, 1.50000000000000000000e+03) (131, 4.44634999495203899755e+01) (132, 8.70550860012228366891e-01) (133, 6.21841057405161268257e-01) (134, 1.77560732955066968852e-01) (135, -1.44019766338959542828e+00) (136, 7.63816644660252896948e-01) (137, 1.10669604771996543668e+00) (138, 4.40850424069033675067e+00) (139, 1.50000000000000000000e+03) (140, 1.50000000000000000000e+03) (141, 1.71784391741490587435e+01) (142, 1.55259274616033824401e+01) (143, 2.18276228198015109783e+00) (144, 2.14360822179519860953e+00) (145, 2.11137555726969017300e+00) (146, 2.09220441618168129239e+00) (147, 1.09291830171385995207e+00) (148, 5.19471652276063267095e+00) (149, 1.50000000000000000000e+03) (150, 1.50000000000000000000e+03) (151, 1.50000000000000000000e+03) (152, 1.50000000000000000000e+03) (153, 1.50000000000000000000e+03) (154, 1.50000000000000000000e+03) (155, 1.50000000000000000000e+03) (156, 1.50000000000000000000e+03) (157, 1.50000000000000000000e+03) (158, 1.50000000000000000000e+03) (159, 1.50000000000000000000e+03) (160, 9.13235594481829449087e-01) (0, 1.50000000000000000000e+03) (1, 1.50000000000000000000e+03) (2, 1.50000000000000000000e+03) (3, 1.50000000000000000000e+03) (4, 1.50000000000000000000e+03) (5, 1.50000000000000000000e+03) (6, 1.50000000000000000000e+03) (7, 1.50000000000000000000e+03) (8, 1.50000000000000000000e+03) (9, 1.50000000000000000000e+03) (10, 1.50000000000000000000e+03) (11, 1.50000000000000000000e+03) (12, 1.50000000000000000000e+03) (13, 1.50000000000000000000e+03) (14, 1.50000000000000000000e+03) (15, 1.50000000000000000000e+03) (16, 1.50000000000000000000e+03) (17, 1.50000000000000000000e+03) (18, 1.50000000000000000000e+03) (19, 1.50000000000000000000e+03) (20, 1.50000000000000000000e+03) (21, 1.50000000000000000000e+03) (22, 1.09201148945060788620e+00) (23, 9.10236582636468449792e-01) (24, -7.22264252453079125260e-01) (25, 3.29000123227283391980e-01) (26, 1.42803718749305730285e+00) (27, 2.21768378746724481587e+00) (28, -2.70020370755549188324e-01) (29, 1.50000000000000000000e+03) (30, 1.50000000000000000000e+03) (31, 3.03669479164076105970e-01) (32, -3.83853700057883884256e+00) (33, 1.38189701495241346052e-01) (34, 2.01422526442504606914e-01) (35, 2.28602989477116574912e-01) (36, 3.43865736798872723146e-01) (37, 2.73423624149323363230e-01) (38, 6.02896636542877284448e-01) (39, 1.50000000000000000000e+03) (40, 1.50000000000000000000e+03) (41, 1.04947817728964643003e+00) (42, 2.73132678386599658804e-01) (43, 2.87396158390981593111e-01) (44, 3.99756035652376384704e-01) (45, 3.72412053170012913306e-01) (46, 3.79271617932621096791e-01) (47, 4.49854786433734749052e-02) (48, 2.96759043285247647859e+00) (49, 1.50000000000000000000e+03) (50, 1.50000000000000000000e+03) (51, -3.53011217331433257982e+00) (52, 4.00806782496745450661e-01) (53, 2.56027661191882638381e-01) (54, 3.87539796494852817332e-01) (55, 3.64894635873478034860e-01) (56, 1.26473256443682324779e+00) (57, 2.29952823888313756528e-01) (58, 7.43181467280931040698e-01) (59, 1.50000000000000000000e+03) (60, 1.50000000000000000000e+03) (61, -2.15695772506367600130e+00) (62, 2.30838027229193620826e+00) (63, -8.93241716770235893996e-01) (64, 4.24367973230611483793e-01) (65, 4.51702389932899170399e-02) (66, 7.27418537417975352710e-02) (67, 9.05762567989194661289e-02) (68, 1.04251361170824075053e+00) (69, 1.50000000000000000000e+03) (70, 1.50000000000000000000e+03) (71, 1.91804155638739803891e+00) (72, 2.97582384110107067698e-01) (73, 2.56870466710306444291e-01) (74, 2.26982456385406317079e-01) (75, 2.77897727522204651684e-01) (76, 3.50926485782641073286e-01) (77, -1.97196473765347102258e-01) (78, 3.76879270688854406401e+00) (79, 1.50000000000000000000e+03) (80, 1.50000000000000000000e+03) (81, 2.53020242292617714153e-01) (82, 3.10650310817543351405e-01) (83, 4.09660559382674371864e-01) (84, 3.17074541451110081258e-01) (85, 3.21700749702042931855e-01) (86, 6.30611458219871717779e-02) (87, 4.10086153134535946752e-01) (88, 5.26164185574134690704e-01) (89, 1.50000000000000000000e+03) (90, 1.50000000000000000000e+03) (91, 4.20705479726768194482e-01) (92, -2.26323083324009077799e+00) (93, 2.70681122601957702134e-01) (94, 4.48134892759016634223e-01) (95, 9.42763577540013164580e-01) (96, -1.60585148897736296192e+00) (97, -2.07208300901454180176e-02) (98, -3.66720157724034101498e-01) (99, 1.50000000000000000000e+03) (100, 1.50000000000000000000e+03) (101, 4.50207814229941549744e-01) (102, 5.24162878720272007449e-01) (103, 5.20358399639804569681e-01) (104, 1.10728079252237668340e-01) (105, 3.62449018417259571923e-01) (106, 5.14393455312866509921e-01) (107, 2.48533899562523946658e-01) (108, 5.59464825351709382772e-01) (109, 1.50000000000000000000e+03) (110, 1.50000000000000000000e+03) (111, 1.25503403915034916771e+00) (112, 2.22576593000188449611e-01) (113, 2.92963471723437840488e-01) (114, -2.08801053807803560503e-01) (115, 3.36795441100318782013e-01) (116, 2.55753220489522981040e-01) (117, 1.47303479560451477948e-01) (118, 5.59837029859718351976e-02) (119, 1.50000000000000000000e+03) (120, 1.50000000000000000000e+03) (121, 7.86652276766195646118e-01) (122, -8.75848724007078693887e-01) (123, 2.27212208941692278552e-01) (124, 3.13871901430972433111e-01) (125, 2.76059245211457526814e-01) (126, 2.36451579324175931163e-01) (127, 2.49704361658303869431e-01) (128, -3.22048580579591714468e+00) (129, 1.50000000000000000000e+03) (130, 1.50000000000000000000e+03) (131, 1.76902940989726836785e-01) (132, 4.80728262829044628024e-01) (133, 3.44789371695071666934e+00) (134, 1.38379959683869691034e+00) (135, 1.27550057606714029035e+00) (136, 5.07378770404117163118e-01) (137, 5.06013106901065046195e-01) (138, 3.39666405652540248639e-01) (139, 1.50000000000000000000e+03) (140, 1.50000000000000000000e+03) (141, 4.22758206052405416386e+00) (142, -3.43354196554368940042e+00) (143, 4.79645958129006233506e-01) (144, 4.51295128050946681153e-01) (145, 5.25678669992430402935e-01) (146, 4.66846888843625074106e-01) (147, 3.78737587526587082820e+00) (148, -1.68417849322603419004e+00) (149, 1.50000000000000000000e+03) (150, 1.50000000000000000000e+03) (151, 1.50000000000000000000e+03) (152, 1.50000000000000000000e+03) (153, 1.50000000000000000000e+03) (154, 1.50000000000000000000e+03) (155, 1.50000000000000000000e+03) (156, 1.50000000000000000000e+03) (157, 1.50000000000000000000e+03) (158, 1.50000000000000000000e+03) (159, 1.50000000000000000000e+03) (160, 1.99528579110911929995e-01) (0, 1.50000000000000000000e+03) (1, 1.50000000000000000000e+03) (2, 1.50000000000000000000e+03) (3, 1.50000000000000000000e+03) (4, 1.50000000000000000000e+03) (5, 1.50000000000000000000e+03) (6, 1.50000000000000000000e+03) (7, 1.50000000000000000000e+03) (8, 1.50000000000000000000e+03) (9, 1.50000000000000000000e+03) (10, 1.50000000000000000000e+03) (11, 1.50000000000000000000e+03) (12, 1.50000000000000000000e+03) (13, 1.50000000000000000000e+03) (14, 1.50000000000000000000e+03) (15, 1.50000000000000000000e+03) (16, 1.50000000000000000000e+03) (17, 1.50000000000000000000e+03) (18, 1.50000000000000000000e+03) (19, 1.50000000000000000000e+03) (20, 1.50000000000000000000e+03) (21, 1.50000000000000000000e+03) (22, 3.83792622182708875744e-01) (23, 3.33737688306885105227e-01) (24, 2.48318131703174005409e+00) (25, 9.87611431119447047422e-01) (26, -3.69650442005147253366e-02) (27, 1.23515695088365195370e-02) (28, 4.53827579200329633835e+00) (29, 1.50000000000000000000e+03) (30, 1.50000000000000000000e+03) (31, 8.99432028746073197745e-01) (32, 2.43851737118134925808e+00) (33, 8.79558399870192242354e-01) (34, 8.06418146370450394933e-01) (35, 6.07736099388555550682e-01) (36, 7.26451706652462614322e-01) (37, 7.38164092550933736980e-01) (38, 3.48784487988814673187e-02) (39, 1.50000000000000000000e+03) (40, 1.50000000000000000000e+03) (41, 6.06436903916414804527e-01) (42, -9.21820408444284505878e-02) (43, 5.51009025804324092945e-01) (44, 1.03697843226227526259e+00) (45, 8.94753031993293590496e-01) (46, -8.00679100405386257044e-01) (47, 5.94764059113897958220e-01) (48, 1.72947487410238776029e+00) (49, 1.50000000000000000000e+03) (50, 1.50000000000000000000e+03) (51, 1.83933098368998271255e+00) (52, -2.50924809644834656552e+00) (53, 6.08290432522697210871e-01) (54, 9.56113989335208636078e-01) (55, 2.99687715656050179813e-01) (56, -1.92615418765850227034e-01) (57, 3.53837769298617432767e-01) (58, 1.18563432513648887578e+01) (59, 1.50000000000000000000e+03) (60, 1.50000000000000000000e+03) (61, 1.78195344749543771457e+00) (62, 6.37053587697295031766e-01) (63, 9.09562057006157775874e-01) (64, -4.20281325984878384450e-01) (65, -5.95932512429463390191e+00) (66, 1.15507565500669406866e+00) (67, 9.39973610844069051851e-01) (68, 1.44163787351378616108e+01) (69, 1.50000000000000000000e+03) (70, 1.50000000000000000000e+03) (71, 4.27450639194678461141e-01) (72, 9.38485091161926465730e-01) (73, 8.54600382309077200027e-01) (74, 3.52221006885425846900e-01) (75, -2.22178786851953413706e-01) (76, 8.37953728282399668004e-01) (77, 2.32225211824021933182e+01) (78, -4.03744009048596752542e-01) (79, 1.50000000000000000000e+03) (80, 1.50000000000000000000e+03) (81, 8.92291346967184151318e-01) (82, 9.39681851012652558097e-01) (83, 7.44310846577285745163e-01) (84, 1.00529095549375413476e+00) (85, 8.56349464479245758852e-01) (86, 2.90402005591665579587e+00) (87, 1.00219028497400874933e+00) (88, -4.52739663379739454285e+00) (89, 1.50000000000000000000e+03) (90, 1.50000000000000000000e+03) (91, -5.20601904962945116750e-01) (92, 9.30862106237805631004e-01) (93, 3.30523655988905273873e+00) (94, 8.65080455294282679723e-01) (95, 7.87549028692716479583e-01) (96, -2.88799991425952140567e-01) (97, -1.15009545585002245782e-01) (98, -1.65856874329607517637e+00) (99, 1.50000000000000000000e+03) (100, 1.50000000000000000000e+03) (101, -5.19698025647224004508e-01) (102, 4.84729273638181745731e-01) (103, 9.20063568788793029185e-01) (104, 3.56252325088428491995e+01) (105, 1.42215371359415465591e+00) (106, 1.11580110257301878818e+01) (107, 6.86394582875837322433e-01) (108, 2.41539112715820358801e+01) (109, 1.50000000000000000000e+03) (110, 1.50000000000000000000e+03) (111, 8.41579403131056169585e-01) (112, 8.54143139122432781818e-01) (113, 1.49777340272112428465e+03) (114, 1.02007112034441043136e+01) (115, 8.31415579399806037308e-01) (116, 1.49003117555126095795e+03) (117, 8.97013426801638757979e-01) (118, 3.21939213808758495361e+00) (119, 1.50000000000000000000e+03) (120, 1.50000000000000000000e+03) (121, -3.54783171581084255664e+00) (122, 1.00284937202791479827e+00) (123, 1.49998260959930621539e+03) (124, 1.47128529831782248039e+03) (125, 1.47130372430557758889e+03) (126, 1.49997982991897038119e+03) (127, 8.04653497385434901545e-01) (128, -1.31729342301862484277e+01) (129, 1.50000000000000000000e+03) (130, 1.50000000000000000000e+03) (131, 4.44459279265458988561e+01) (132, 9.56708096260403428879e-01) (133, 6.27297609314602988562e-01) (134, 7.25108513844526098024e-02) (135, -1.40557243116989938336e+00) (136, 6.29209709576497577821e-01) (137, 1.09111593684468499710e+00) (138, 4.30009969371424638496e+00) (139, 1.50000000000000000000e+03) (140, 1.50000000000000000000e+03) (141, 1.72489531005965908150e+01) (142, 1.55978879108221324401e+01) (143, 2.17589582690202743009e+00) (144, 2.15842145868742196768e+00) (145, 2.22044538148842729441e+00) (146, 2.09609235265457405362e+00) (147, 1.11318197358889747761e+00) (148, 5.16255708999181184282e+00) (149, 1.50000000000000000000e+03) (150, 1.50000000000000000000e+03) (151, 1.50000000000000000000e+03) (152, 1.50000000000000000000e+03) (153, 1.50000000000000000000e+03) (154, 1.50000000000000000000e+03) (155, 1.50000000000000000000e+03) (156, 1.50000000000000000000e+03) (157, 1.50000000000000000000e+03) (158, 1.50000000000000000000e+03) (159, 1.50000000000000000000e+03) (160, 8.27675783487122451731e-01) (0, 1.50000000000000000000e+03) (1, 1.50000000000000000000e+03) (2, 1.50000000000000000000e+03) (3, 1.50000000000000000000e+03) (4, 1.50000000000000000000e+03) (5, 1.50000000000000000000e+03) (6, 1.50000000000000000000e+03) (7, 1.50000000000000000000e+03) (8, 1.50000000000000000000e+03) (9, 1.50000000000000000000e+03) (10, 1.50000000000000000000e+03) (11, 1.50000000000000000000e+03) (12, 1.50000000000000000000e+03) (13, 1.50000000000000000000e+03) (14, 1.50000000000000000000e+03) (15, 1.50000000000000000000e+03) (16, 1.50000000000000000000e+03) (17, 1.50000000000000000000e+03) (18, 1.50000000000000000000e+03) (19, 1.50000000000000000000e+03) (20, 1.50000000000000000000e+03) (21, 1.50000000000000000000e+03) (22, 1.47116695951852216595e+00) (23, 1.33707881953741414272e+00) (24, -9.90719612357444656681e-01) (25, 3.89901005113780008138e-01) (26, 1.37911140400779230752e+00) (27, 2.27804887206208750428e+00) (28, -2.53553082619067615688e-01) (29, 1.50000000000000000000e+03) (30, 1.50000000000000000000e+03) (31, 2.46882700632028717624e-01) (32, -2.52279531888128039085e+00) (33, -1.62338184359726855899e-01) (34, -8.29833784323637108082e-02) (35, 1.76057206521037484803e-01) (36, 2.12651154155564542370e-01) (37, 4.33118991651699591916e-01) (38, 1.04843368601695563491e+00) (39, 1.50000000000000000000e+03) (40, 1.50000000000000000000e+03) (41, 6.96558530670267628260e-02) (42, 4.08840289344329754773e-01) (43, 2.71948199886653363411e-01) (44, 3.69135664413337616363e-01) (45, 3.73913616128204617794e-01) (46, 3.74654822064031778339e-01) (47, 2.45295540472384027142e-01) (48, -7.55043093126659670133e+00) (49, 1.50000000000000000000e+03) (50, 1.50000000000000000000e+03) (51, 1.31470037255067806470e+00) (52, 5.01931717501462371089e-01) (53, 3.89271102731014839726e-01) (54, 3.00289964475714821202e-01) (55, 3.60181769549992703006e-01) (56, 8.81493267046094208794e-01) (57, 3.38094107005507682473e-01) (58, 8.20455603793214138797e-01) (59, 1.50000000000000000000e+03) (60, 1.50000000000000000000e+03) (61, 1.10921610235422107849e+00) (62, 5.19675420763995310480e-01) (63, -4.75891014180770122177e-01) (64, 2.00648097958574439525e-01) (65, -3.66483137718193019428e-01) (66, -3.76736902067536405525e-01) (67, -2.97967016844839671652e-01) (68, -8.68359988315314978991e+00) (69, 1.50000000000000000000e+03) (70, 1.50000000000000000000e+03) (71, 6.23849454963942284813e-01) (72, 2.38415572817927634564e-01) (73, 2.69036520460256223242e-01) (74, 3.20272549220792845937e-01) (75, 2.10816091941913447139e-01) (76, -1.81650643261266764306e+00) (77, -1.56242446575297417866e+01) (78, 2.31972557331008966131e+00) (79, 1.50000000000000000000e+03) (80, 1.50000000000000000000e+03) (81, 3.44940718791972467105e-01) (82, 2.58134899978734344561e-01) (83, 4.04961289078217934190e-01) (84, 1.94014173055869598716e-01) (85, 3.60526844988699302075e-01) (86, 3.11412511939049674314e-01) (87, 4.25745176340663056269e-01) (88, 6.23178265112826701433e-01) (89, 1.50000000000000000000e+03) (90, 1.50000000000000000000e+03) (91, 8.71596067901532212119e-01) (92, -1.73372098976262645209e+00) (93, -4.01870633745704419759e-01) (94, 4.43088997666874317982e-01) (95, 7.64363864907852574859e-01) (96, 5.80597306280675518053e-01) (97, 4.94011607117793960509e-01) (98, 2.50753093604830290531e+00) (99, 1.50000000000000000000e+03) (100, 1.50000000000000000000e+03) (101, 4.23294005454295851898e-01) (102, 4.59571397273381532234e-01) (103, 1.70566058389029495679e-01) (104, 1.94939906562023396175e-01) (105, 2.74146257602142395804e-01) (106, 2.87102741679184203516e-01) (107, 2.77677900717498982175e-01) (108, -8.00088941759958927058e-01) (109, 1.50000000000000000000e+03) (110, 1.50000000000000000000e+03) (111, 2.11880844554353936493e-01) (112, 3.13567641692168441736e-01) (113, 3.76188897233672492337e-01) (114, 3.82735595419506968717e-01) (115, 2.14665110881864212855e-01) (116, 3.87451919889851670309e-01) (117, -6.86616754490828595792e-02) (118, -2.52271050561163923120e+00) (119, 1.50000000000000000000e+03) (120, 1.50000000000000000000e+03) (121, 5.27016808080598253561e-01) (122, 3.73540334602049939328e-02) (123, 3.87277574996097551097e-01) (124, 3.51540563238056047446e-01) (125, 3.00154605825267650765e-01) (126, 3.33142330281780640888e-01) (127, 6.38435798187512032476e-02) (128, 9.93259534641904195951e-01) (129, 1.50000000000000000000e+03) (130, 1.50000000000000000000e+03) (131, 1.18321223468560807884e-03) (132, 6.82704794909278489534e-01) (133, 8.01036726853181946240e-01) (134, 9.05831635666631718173e-01) (135, 8.77725852925555383166e-01) (136, 4.20928648365585078572e-01) (137, 3.31959549660795605330e-01) (138, 3.16755674221051830575e-01) (139, 1.50000000000000000000e+03) (140, 1.50000000000000000000e+03) (141, 4.18255032671315252202e+00) (142, -3.58692319697676653689e+00) (143, 6.34349466056142952120e-01) (144, 5.56828711867974224248e-01) (145, 6.32396341056142952120e-01) (146, 5.42619728238062259962e-01) (147, 3.89778408853597957417e+00) (148, -1.77451052447603951912e+00) (149, 1.50000000000000000000e+03) (150, 1.50000000000000000000e+03) (151, 1.50000000000000000000e+03) (152, 1.50000000000000000000e+03) (153, 1.50000000000000000000e+03) (154, 1.50000000000000000000e+03) (155, 1.50000000000000000000e+03) (156, 1.50000000000000000000e+03) (157, 1.50000000000000000000e+03) (158, 1.50000000000000000000e+03) (159, 1.50000000000000000000e+03) (160, 1.86970738657557256079e-01) (0, 1.50000000000000000000e+03) (1, 1.50000000000000000000e+03) (2, 1.50000000000000000000e+03) (3, 1.50000000000000000000e+03) (4, 1.50000000000000000000e+03) (5, 1.50000000000000000000e+03) (6, 1.50000000000000000000e+03) (7, 1.50000000000000000000e+03) (8, 1.50000000000000000000e+03) (9, 1.50000000000000000000e+03) (10, 1.50000000000000000000e+03) (11, 1.50000000000000000000e+03) (12, 1.50000000000000000000e+03) (13, 1.50000000000000000000e+03) (14, 1.50000000000000000000e+03) (15, 1.50000000000000000000e+03) (16, 1.50000000000000000000e+03) (17, 1.50000000000000000000e+03) (18, 1.50000000000000000000e+03) (19, 1.50000000000000000000e+03) (20, 1.50000000000000000000e+03) (21, 1.50000000000000000000e+03) (22, 8.06332102021950158921e-01) (23, 7.84200748405235681382e-01) (24, -1.88728747752240333391e+00) (25, -1.58918494422141926004e-01) (26, 8.88485706897486293698e-01) (27, 1.79528434434696149147e+00) (28, -6.52735884355965301218e-01) (29, 1.50000000000000000000e+03) (30, 1.50000000000000000000e+03) (31, 4.84116362025944435565e-01) (32, 4.44442581631334154846e-01) (33, 1.31542537258406838641e-01) (34, 1.77956050810025828701e-01) (35, 3.06440383230851431939e-01) (36, 3.43229435119441428359e-01) (37, 1.97839490584184096722e-01) (38, -7.18747699851835841756e-01) (39, 1.50000000000000000000e+03) (40, 1.50000000000000000000e+03) (41, 1.00674717552865700121e+00) (42, -5.97957885018598062077e-02) (43, 2.13789821848091643464e-01) (44, -1.70163372440338217517e-01) (45, 6.98020809240608580692e-02) (46, 6.17667794668543407299e-02) (47, 6.67232857047837454867e-03) (48, -1.95990970200322023320e-01) (49, 1.50000000000000000000e+03) (50, 1.50000000000000000000e+03) (51, 2.90761795525767219317e+00) (52, 1.65228111173388425570e-01) (53, 2.22798028409271348105e-01) (54, -7.63184460470773040619e-01) (55, 7.36365232223786109200e-02) (56, -6.35500882045379245078e-01) (57, 2.35261597077783046750e-01) (58, -4.56101572852562231475e+00) (59, 1.50000000000000000000e+03) (60, 1.50000000000000000000e+03) (61, -1.06550767270400847941e+00) (62, 2.00196716881432090762e-01) (63, -7.73543402858878348383e-02) (64, 1.72382529691637698122e-01) (65, -3.98490948453870674761e-01) (66, -1.40020352102896133289e-02) (67, -6.64083719484356183038e-01) (68, -8.75328584947966525931e+00) (69, 1.50000000000000000000e+03) (70, 1.50000000000000000000e+03) (71, -1.03407445857538204947e+00) (72, -3.02459539089911938481e-02) (73, 1.32251689791782284233e-01) (74, 2.40216630306838679898e-01) (75, 4.74582080603094258464e-02) (76, 1.10521211970916327649e-01) (77, -1.55617184522681508696e+01) (78, 6.29426639270933785397e-01) (79, 1.50000000000000000000e+03) (80, 1.50000000000000000000e+03) (81, -8.78355411809382591315e-01) (82, 1.22627226821159229786e-01) (83, 2.40480783563653544022e-01) (84, 3.90041369322424225086e-01) (85, 7.88402955853654691110e-02) (86, 1.76151872854333424456e-01) (87, 2.94420932469140528287e-01) (88, -1.81903141662249079324e+00) (89, 1.50000000000000000000e+03) (90, 1.50000000000000000000e+03) (91, -6.48824777764407945035e-02) (92, -7.26057155823498057146e-01) (93, 3.49871906133738697076e-01) (94, 4.95256979650346873534e-01) (95, 1.57452907709484529741e-01) (96, 5.24280947016735443533e-01) (97, 4.70439950509462856409e-01) (98, 3.08469916190262316569e-01) (99, 1.50000000000000000000e+03) (100, 1.50000000000000000000e+03) (101, 2.92905228505544623641e-01) (102, 1.01457362234464928963e-01) (103, -1.51087340464560199865e-02) (104, -3.53252441962639690543e-02) (105, 2.11455177552613615699e-01) (106, 1.02576641235065560420e-01) (107, 2.30492953818743295802e-01) (108, -1.21088438343348991921e+00) (109, 1.50000000000000000000e+03) (110, 1.50000000000000000000e+03) (111, -2.45812562177599192026e+00) (112, 1.13570249743131387876e-01) (113, 1.22966540214229119732e-01) (114, 1.77429132012552615016e-01) (115, 4.32388458642090189876e-01) (116, 2.07225279757239297385e-02) (117, -1.15283376449880348158e-01) (118, 2.34835175090132164399e+00) (119, 1.50000000000000000000e+03) (120, 1.50000000000000000000e+03) (121, 2.17955614610365888684e-01) (122, -4.24795608029836180286e-01) (123, 3.31132581836564188205e-01) (124, 3.31595732787990593593e-01) (125, 3.06584923999479508350e-01) (126, 2.34085915834365443366e-01) (127, -1.65620207489163007164e-02) (128, 6.94548828492949521518e-01) (129, 1.50000000000000000000e+03) (130, 1.50000000000000000000e+03) (131, 1.45863836226771570459e-01) (132, 3.06650072188606570567e-01) (133, 2.66675201300763831114e-01) (134, -1.84943887333908763004e-01) (135, 1.32972884242089889328e-01) (136, 3.46116461390849061708e-01) (137, 3.71883683693055078212e-01) (138, 1.78760928030104598863e-01) (139, 1.50000000000000000000e+03) (140, 1.50000000000000000000e+03) (141, 6.75557430166781003322e+00) (142, -2.95359056435932609830e+00) (143, 1.21237131859876812179e+00) (144, 1.29384714271641021455e+00) (145, 1.29092356469250013618e+00) (146, 1.16493479069093219813e+00) (147, 4.05384937972780079463e+00) (148, -1.45674700780063504091e+00) (149, 1.50000000000000000000e+03) (150, 1.50000000000000000000e+03) (151, 1.50000000000000000000e+03) (152, 1.50000000000000000000e+03) (153, 1.50000000000000000000e+03) (154, 1.50000000000000000000e+03) (155, 1.50000000000000000000e+03) (156, 1.50000000000000000000e+03) (157, 1.50000000000000000000e+03) (158, 1.50000000000000000000e+03) (159, 1.50000000000000000000e+03) (160, 1.64118251052658398192e-01) (0, 1.50000000000000000000e+03) (1, 1.50000000000000000000e+03) (2, 1.50000000000000000000e+03) (3, 1.50000000000000000000e+03) (4, 1.50000000000000000000e+03) (5, 1.50000000000000000000e+03) (6, 1.50000000000000000000e+03) (7, 1.50000000000000000000e+03) (8, 1.50000000000000000000e+03) (9, 1.50000000000000000000e+03) (10, 1.50000000000000000000e+03) (11, 1.50000000000000000000e+03) (12, 1.50000000000000000000e+03) (13, 1.50000000000000000000e+03) (14, 1.50000000000000000000e+03) (15, 1.50000000000000000000e+03) (16, 1.50000000000000000000e+03) (17, 1.50000000000000000000e+03) (18, 1.50000000000000000000e+03) (19, 1.50000000000000000000e+03) (20, 1.50000000000000000000e+03) (21, 1.50000000000000000000e+03) (22, 1.61420894343271825733e+00) (23, 1.62571407038586834837e+00) (24, -1.43653055650839411861e+00) (25, 3.45241576815297657177e-01) (26, 1.43793709058188046157e+00) (27, 2.31500612259746274546e+00) (28, -8.55965366700757596119e-02) (29, 1.50000000000000000000e+03) (30, 1.50000000000000000000e+03) (31, 4.68224228091981775624e-01) (32, 8.26358218963246099475e-02) (33, 1.87955676142528504968e-01) (34, 2.56441253795987589292e-01) (35, 2.68402159342469359693e-01) (36, 2.85867600743090755078e-01) (37, 4.45534423408420920953e-01) (38, -2.19696617564987484172e+00) (39, 1.50000000000000000000e+03) (40, 1.50000000000000000000e+03) (41, 1.93577255622468857865e-01) (42, 1.13571909156295364207e-01) (43, 2.19454565975800541811e-01) (44, 3.36214693767045019746e-02) (45, 2.83811822768300525688e-01) (46, 2.95381728195001469484e-01) (47, 3.71305329265029571140e-01) (48, 1.45474535677209848572e+00) (49, 1.50000000000000000000e+03) (50, 1.50000000000000000000e+03) (51, -6.42087206779390573530e-01) (52, -5.02507564216315427696e-02) (53, 4.14009965381898548120e-01) (54, 3.79202783220075556603e-01) (55, 2.31201424566668034544e-01) (56, 2.29998658151926577142e-01) (57, 3.17925585058139448247e-01) (58, -2.83618121451861915361e+00) (59, 1.50000000000000000000e+03) (60, 1.50000000000000000000e+03) (61, -6.86774882713010792479e-01) (62, 1.66420757191506368811e-01) (63, -2.82283013308761321358e-01) (64, -4.57969421421993219679e-03) (65, 2.86831959217206444723e-01) (66, 2.69920107130474984380e-01) (67, -1.33386267053677132211e+00) (68, 6.15040586775686404231e-01) (69, 1.50000000000000000000e+03) (70, 1.50000000000000000000e+03) (71, 2.89303576634486248054e+00) (72, -4.47653259989815033304e-02) (73, 5.93006113056528186278e-02) (74, 3.42420208719760588156e-01) (75, 2.89169437861601430484e-01) (76, 1.19127786494845497312e-01) (77, 1.38422669114739327334e+00) (78, -4.02874192688467414047e-01) (79, 1.50000000000000000000e+03) (80, 1.50000000000000000000e+03) (81, 1.30781570162836341398e-01) (82, 3.47693670803299770267e-01) (83, 5.40494725197659883764e-02) (84, 2.79484269503033178061e-01) (85, 3.94121946875564455048e-01) (86, 2.42146469480925913276e-01) (87, -3.00799680942281766338e-01) (88, 1.14537226170544292891e+00) (89, 1.50000000000000000000e+03) (90, 1.50000000000000000000e+03) (91, -3.83895316651535534191e+00) (92, -4.69020085246680729085e+00) (93, 3.99802647223902074547e-01) (94, 3.70307415381576465752e-01) (95, 4.84399432602747814780e-01) (96, -1.17448783017950098007e+00) (97, -1.49376159022950338873e+00) (98, 4.44712653133103652525e-01) (99, 1.50000000000000000000e+03) (100, 1.50000000000000000000e+03) (101, -1.19103969758084815567e+00) (102, 1.76530995190884720802e-01) (103, 3.81921547001493166817e-01) (104, 1.55468005102262274431e-01) (105, 8.98616819005584738234e-02) (106, -7.37384872167208160754e-01) (107, -2.48341711016493466024e-01) (108, 3.25927951827181372479e-01) (109, 1.50000000000000000000e+03) (110, 1.50000000000000000000e+03) (111, 1.25474518485121833145e+00) (112, 1.76444897681917095555e-01) (113, 3.22850418887550671965e-01) (114, -2.49792379395885832949e-01) (115, 7.34830121757956700179e-02) (116, -2.76534624315746546674e-02) (117, 1.61385869691637734435e-01) (118, 3.79558570862821020864e-01) (119, 1.50000000000000000000e+03) (120, 1.50000000000000000000e+03) (121, -5.51952015078577898355e-02) (122, 2.31392026030378838986e-01) (123, 2.10178922520461414214e-01) (124, 1.10553832190696713078e-01) (125, 2.66291534042304101071e-01) (126, 2.33213220432556767037e-01) (127, 5.75752536528594927034e-01) (128, -1.57129101309275798215e+00) (129, 1.50000000000000000000e+03) (130, 1.50000000000000000000e+03) (131, -1.09228040064626701761e-02) (132, 3.91410276217830643830e-01) (133, 3.34785128568935030913e+00) (134, 1.29181968821429826733e+00) (135, 9.28752351076767235227e-01) (136, 3.23615835355821945818e-01) (137, 3.00817149096548663856e-01) (138, -1.15037930239522787068e-01) (139, 1.50000000000000000000e+03) (140, 1.50000000000000000000e+03) (141, 4.11626003754956304448e+00) (142, -3.66967430985292075718e+00) (143, 5.26456800078588194047e-01) (144, 5.93003426467531014055e-01) (145, 5.99570815240488053099e-01) (146, 6.29539076959204080275e-01) (147, 6.85590469581964123691e-01) (148, -1.76622805675314964446e+00) (149, 1.50000000000000000000e+03) (150, 1.50000000000000000000e+03) (151, 1.50000000000000000000e+03) (152, 1.50000000000000000000e+03) (153, 1.50000000000000000000e+03) (154, 1.50000000000000000000e+03) (155, 1.50000000000000000000e+03) (156, 1.50000000000000000000e+03) (157, 1.50000000000000000000e+03) (158, 1.50000000000000000000e+03) (159, 1.50000000000000000000e+03) (160, 1.03547938703774947133e-01) (0, 1.50000000000000000000e+03) (1, 1.50000000000000000000e+03) (2, 1.50000000000000000000e+03) (3, 1.50000000000000000000e+03) (4, 1.50000000000000000000e+03) (5, 1.50000000000000000000e+03) (6, 1.50000000000000000000e+03) (7, 1.50000000000000000000e+03) (8, 1.50000000000000000000e+03) (9, 1.50000000000000000000e+03) (10, 1.50000000000000000000e+03) (11, 1.50000000000000000000e+03) (12, 1.50000000000000000000e+03) (13, 1.50000000000000000000e+03) (14, 1.50000000000000000000e+03) (15, 1.50000000000000000000e+03) (16, 1.50000000000000000000e+03) (17, 1.50000000000000000000e+03) (18, 1.50000000000000000000e+03) (19, 1.50000000000000000000e+03) (20, 1.50000000000000000000e+03) (21, 1.50000000000000000000e+03) (22, 5.25046327282648994661e-01) (23, 3.93124931623241524736e-01) (24, 2.08072741873953592773e+00) (25, 2.99834361036018293145e-01) (26, -1.38440616642033731409e+00) (27, 1.28814405222442973642e-01) (28, 3.97662427772342175203e+00) (29, 1.50000000000000000000e+03) (30, 1.50000000000000000000e+03) (31, 2.67297250522274210116e-01) (32, 3.81760602648857749752e-01) (33, 2.03699029608622572685e-01) (34, 9.87986169913402656473e-02) (35, 3.20391602941059727705e-01) (36, 3.05922898048486713307e-01) (37, -1.26919184203979934500e-01) (38, -3.74319759865481405114e+00) (39, 1.50000000000000000000e+03) (40, 1.50000000000000000000e+03) (41, 5.14208194621537523217e-02) (42, 2.52351225679125046319e-01) (43, 5.13527770243782044624e-01) (44, -1.25090499389175535683e+00) (45, -7.88316894267002576946e-01) (46, 1.12106019744909371494e-01) (47, 1.29985366938935781311e-01) (48, -3.07672726397016393918e+00) (49, 1.50000000000000000000e+03) (50, 1.50000000000000000000e+03) (51, 2.44481958579300018286e+00) (52, -1.83908010308013647460e+00) (53, -9.68023347182786708665e-01) (54, -4.66773912905508736593e-01) (55, 3.21293223918578452203e-01) (56, -4.90885820283770479833e-01) (57, 1.44687328003395537790e-01) (58, -4.15152486191059466591e+00) (59, 1.50000000000000000000e+03) (60, 1.50000000000000000000e+03) (61, -3.97387171750350898236e+00) (62, -2.77817662945548826681e-01) (63, -5.57318426417070744705e-01) (64, -1.60620838474322198408e+01) (65, -3.54634877304434468215e+01) (66, 4.26323473005131403646e-01) (67, 1.84971315311692918737e-01) (68, 2.45091321994758207237e-02) (69, 1.50000000000000000000e+03) (70, 1.50000000000000000000e+03) (71, -2.76677587013625880807e-01) (72, 3.10682445342552626677e-01) (73, -5.78504921001437355521e-01) (74, -3.61366329119715157248e+00) (75, -6.72851981959479417128e+00) (76, 2.94420055464354624153e-01) (77, 5.07580773645111182901e+00) (78, -3.31777258116713458236e+00) (79, 1.50000000000000000000e+03) (80, 1.50000000000000000000e+03) (81, 3.90018716579784374687e-01) (82, 2.02045964943993489049e-01) (83, -6.30326012272759528265e-01) (84, 2.12929194101638408210e-01) (85, -1.26126974211760933819e+00) (86, 1.60204966112604790807e-01) (87, 1.62668095394429890188e-01) (88, -9.58989904717155838831e-01) (89, 1.50000000000000000000e+03) (90, 1.50000000000000000000e+03) (91, -9.92415204915046089695e+00) (92, 1.99815731337686514069e-01) (93, 1.89124182684542607724e+00) (94, 2.12063110953218836308e-01) (95, 3.36228886591891762414e-01) (96, -2.33394684494711555089e+01) (97, -3.72221357069097935621e+00) (98, -1.51215056430852197167e+01) (99, 1.50000000000000000000e+03) (100, 1.50000000000000000000e+03) (101, -1.31105932170587125007e+00) (102, -5.31561261531459727792e+00) (103, -2.93500632308585232902e-03) (104, 1.33758963050843227016e+00) (105, 2.60193000038940025487e-01) (106, -3.42853307692783504379e+00) (107, -2.80960682610726687758e-02) (108, 9.90889241690857147660e+00) (109, 1.50000000000000000000e+03) (110, 1.50000000000000000000e+03) (111, -3.78748152446579999797e-01) (112, 2.83096593422701048315e-01) (113, 5.35381522120828345912e-01) (114, 2.83783084592910073152e-01) (115, -2.22755146746261484259e-01) (116, -1.41260038621637523670e-01) (117, 3.86659181026957787797e-01) (118, -2.21503549721329218158e+00) (119, 1.50000000000000000000e+03) (120, 1.50000000000000000000e+03) (121, 2.65614390971792180274e-01) (122, 2.89406265348741920107e-01) (123, 1.41267589939693627432e-01) (124, 1.21917924345087302918e-01) (125, 3.59087914492009011025e-02) (126, 1.26339281752790272284e-01) (127, 2.10235263457910492857e-02) (128, 2.19366852153018587757e+00) (129, 1.50000000000000000000e+03) (130, 1.50000000000000000000e+03) (131, 6.58758211592350484409e-01) (132, -6.47710173706829261953e-01) (133, -3.26521650546976882623e+00) (134, -1.33404542251564883770e+00) (135, -1.46503027601998137008e+00) (136, 6.97660372798731970301e-02) (137, 3.98383820065131510901e-01) (138, 5.78755017724351450426e-01) (139, 1.50000000000000000000e+03) (140, 1.50000000000000000000e+03) (141, 1.65931035192553366642e+01) (142, 2.91327063510181405448e+00) (143, 1.40962948922707687061e+00) (144, 1.37417416547134507709e+00) (145, 1.34329648215964869706e+00) (146, 1.33040585641459285782e+00) (147, 6.63179809745524484477e-01) (148, 4.53322369690681004073e+00) (149, 1.50000000000000000000e+03) (150, 1.50000000000000000000e+03) (151, 1.50000000000000000000e+03) (152, 1.50000000000000000000e+03) (153, 1.50000000000000000000e+03) (154, 1.50000000000000000000e+03) (155, 1.50000000000000000000e+03) (156, 1.50000000000000000000e+03) (157, 1.50000000000000000000e+03) (158, 1.50000000000000000000e+03) (159, 1.50000000000000000000e+03) (160, 7.19858531273122152772e-03) (0, 1.50000000000000000000e+03) (1, 1.50000000000000000000e+03) (2, 1.50000000000000000000e+03) (3, 1.50000000000000000000e+03) (4, 1.50000000000000000000e+03) (5, 1.50000000000000000000e+03) (6, 1.50000000000000000000e+03) (7, 1.50000000000000000000e+03) (8, 1.50000000000000000000e+03) (9, 1.50000000000000000000e+03) (10, 1.50000000000000000000e+03) (11, 1.50000000000000000000e+03) (12, 1.50000000000000000000e+03) (13, 1.50000000000000000000e+03) (14, 1.50000000000000000000e+03) (15, 1.50000000000000000000e+03) (16, 1.50000000000000000000e+03) (17, 1.50000000000000000000e+03) (18, 1.50000000000000000000e+03) (19, 1.50000000000000000000e+03) (20, 1.50000000000000000000e+03) (21, 1.50000000000000000000e+03) (22, 2.76741856293571508729e-01) (23, 2.64913240032077890174e-01) (24, 1.98212267765363425731e+00) (25, 2.99370495338634134974e-01) (26, -1.36511904959475671717e+00) (27, 7.35562110086273729381e-02) (28, 4.02244947601615887578e+00) (29, 1.50000000000000000000e+03) (30, 1.50000000000000000000e+03) (31, 2.71744270689669276120e-01) (32, -2.36152094400468204327e+00) (33, -5.08143228068490104832e-01) (34, 2.76330294815847976597e-01) (35, 2.27477880540067844972e-01) (36, 4.35716017230112565017e-02) (37, -8.31891175915513869654e-01) (38, -9.71006913664304107670e+01) (39, 1.50000000000000000000e+03) (40, 1.50000000000000000000e+03) (41, -4.32548081369349024516e-01) (42, 2.23638864558208361188e-01) (43, 3.73956701464959240244e-01) (44, 1.58261679500828450484e-01) (45, -5.00719941624084952103e-01) (46, 1.67608555647761697793e-01) (47, 2.01884163169855523901e-01) (48, -1.28538473883289694477e+00) (49, 1.50000000000000000000e+03) (50, 1.50000000000000000000e+03) (51, 2.91529131743532143872e+00) (52, -8.20329574689504847917e-01) (53, 7.97004412939625872525e-02) (54, -3.65344811137640723686e-01) (55, -2.82609877189209712789e-01) (56, -3.24833030669706923632e-01) (57, -3.65215286048486548198e-02) (58, -4.26868389062826469882e+00) (59, 1.50000000000000000000e+03) (60, 1.50000000000000000000e+03) (61, -3.48716713738573103054e-01) (62, 8.06890501723154240921e-02) (63, 1.37067403571755286329e-01) (64, 2.99004431637917678088e-01) (65, 1.52781645578497327076e-01) (66, -3.63297143294341617903e+00) (67, -3.87370168318799668050e-01) (68, -1.00389122260353749749e-01) (69, 1.50000000000000000000e+03) (70, 1.50000000000000000000e+03) (71, -9.68655552568468830588e-02) (72, 1.76005300040178724874e-01) (73, 2.68254620572358382091e-01) (74, -4.90047238152263420208e-01) (75, -7.65810727364337862078e-01) (76, 3.72142477375130065198e-01) (77, 9.48006842468932520163e-01) (78, -8.15308925278380447477e-02) (79, 1.50000000000000000000e+03) (80, 1.50000000000000000000e+03) (81, 1.76749423570056213295e-01) (82, 1.44872274997274619324e-01) (83, -9.58707967628007029504e-01) (84, -1.63975812091924189051e-01) (85, -8.22063157963009438767e-01) (86, 4.74213299328017923173e-02) (87, 2.97994630490618250818e-01) (88, -7.50776297947904791563e-01) (89, 1.50000000000000000000e+03) (90, 1.50000000000000000000e+03) (91, -9.78991132872938507603e+00) (92, 1.82951290382351527963e-01) (93, 2.39287166805999679253e-01) (94, 7.63537737860036647142e-02) (95, -5.53825610755137809349e-01) (96, -8.10364880760147521244e+00) (97, -2.79578847278143749477e+00) (98, -1.51660674091732285973e+01) (99, 1.50000000000000000000e+03) (100, 1.50000000000000000000e+03) (101, -9.44085219929483437928e-02) (102, -5.13375889766208359788e+00) (103, 1.69862570419524822052e-01) (104, 8.81204558895240963601e-01) (105, -1.33311953162393359573e-01) (106, -2.45727563911401158947e+00) (107, 6.64042182507008083014e-02) (108, 4.02301958923263214274e+00) (109, 1.50000000000000000000e+03) (110, 1.50000000000000000000e+03) (111, -2.52521339845383108180e-01) (112, 9.13137747800818050381e-02) (113, 7.20759696998195198425e-01) (114, 3.17123048987017597256e+00) (115, 3.01463580567677302824e-01) (116, -4.04586354333780096049e-01) (117, 3.02010457109696428546e-01) (118, 1.95678194057808463313e+00) (119, 1.50000000000000000000e+03) (120, 1.50000000000000000000e+03) (121, -1.45849521829072045875e+03) (122, -1.29448206424362521894e+00) (123, -5.74232843708747178746e-02) (124, 1.47729558125141408054e-01) (125, 9.85604375113680562792e-03) (126, -3.52347119317114820802e-01) (127, -2.35820692469155462900e-01) (128, -1.46701194518008469458e+03) (129, 1.50000000000000000000e+03) (130, 1.50000000000000000000e+03) (131, 8.49310726271975680035e-01) (132, -1.59654008514540368679e+00) (133, -5.38778574226534345826e+00) (134, -4.63673064231711951066e+00) (135, -1.52334135477590115748e+00) (136, -8.77035243553941912253e-02) (137, -2.51962945551094177898e-02) (138, 7.27737220952604624280e-01) (139, 1.50000000000000000000e+03) (140, 1.50000000000000000000e+03) (141, 1.64395756782832549447e+01) (142, 5.02007376860051124368e+00) (143, 1.89700279303425922706e+00) (144, 1.88430748053425922706e+00) (145, 2.06982993998170750061e+00) (146, 1.96029014804000012440e+00) (147, 3.96336648650125467075e-02) (148, 4.65595929410004938376e+00) (149, 1.50000000000000000000e+03) (150, 1.50000000000000000000e+03) (151, 1.50000000000000000000e+03) (152, 1.50000000000000000000e+03) (153, 1.50000000000000000000e+03) (154, 1.50000000000000000000e+03) (155, 1.50000000000000000000e+03) (156, 1.50000000000000000000e+03) (157, 1.50000000000000000000e+03) (158, 1.50000000000000000000e+03) (159, 1.50000000000000000000e+03) (160, -7.57082933591799733808e-02) (0, 1.50000000000000000000e+03) (1, 1.50000000000000000000e+03) (2, 1.50000000000000000000e+03) (3, 1.50000000000000000000e+03) (4, 1.50000000000000000000e+03) (5, 1.50000000000000000000e+03) (6, 1.50000000000000000000e+03) (7, 1.50000000000000000000e+03) (8, 1.50000000000000000000e+03) (9, 1.50000000000000000000e+03) (10, 1.50000000000000000000e+03) (11, 1.50000000000000000000e+03) (12, 1.50000000000000000000e+03) (13, 1.50000000000000000000e+03) (14, 1.50000000000000000000e+03) (15, 1.50000000000000000000e+03) (16, 1.50000000000000000000e+03) (17, 1.50000000000000000000e+03) (18, 1.50000000000000000000e+03) (19, 1.50000000000000000000e+03) (20, 1.50000000000000000000e+03) (21, 1.50000000000000000000e+03) (22, -2.94615547691235935002e-01) (23, -2.03367989097561541190e-01) (24, 2.08502377317643849963e+00) (25, 2.98503791649535332731e-01) (26, -1.46383121822869455286e+00) (27, -5.07594700593235415020e-01) (28, 3.92261427391826345001e+00) (29, 1.50000000000000000000e+03) (30, 1.50000000000000000000e+03) (31, 2.00322206113475925759e-01) (32, 3.24819001991031697241e-01) (33, 2.19882403915124513105e+02) (34, -1.31876185823993119506e+00) (35, 6.14414989952776053883e+01) (36, 9.23415590959098686596e+00) (37, -4.86077968107257230024e-01) (38, -7.23041152457722535729e+00) (39, 1.50000000000000000000e+03) (40, 1.50000000000000000000e+03) (41, -1.23562402880766231128e+00) (42, -7.48204135602308273434e+00) (43, -9.06664877356264327091e+01) (44, -8.31683453554755601544e+02) (45, -1.41837051150898400920e+03) (46, -1.43648947866638468440e+03) (47, -4.48377796600746592048e+00) (48, -1.31322977513175032094e+00) (49, 1.50000000000000000000e+03) (50, 1.50000000000000000000e+03) (51, 3.10455947046565476910e+01) (52, -2.32472461577182968995e+02) (53, -1.42247379791574803676e+03) (54, -1.26669055212070413852e+00) (55, -1.66946068416362836118e+00) (56, -1.43828540909359435318e+03) (57, -1.42940486863892215297e+03) (58, 7.82035240389927022164e+00) (59, 1.50000000000000000000e+03) (60, 1.50000000000000000000e+03) (61, -1.93402081992198882077e-01) (62, -6.02398862245815819305e-02) (63, 3.41293851291861571884e-01) (64, -2.48661966822166707880e-01) (65, 1.68994585387976070656e-01) (66, 3.42697367037066880080e-01) (67, 2.68123988938135271454e-01) (68, 1.09701399967585189188e+01) (69, 1.50000000000000000000e+03) (70, 1.50000000000000000000e+03) (71, -1.14621390769245135033e+00) (72, 4.52139868712522763339e-02) (73, -1.16907955259063944808e-01) (74, -1.73234997540987900599e+00) (75, -7.24988916965340202125e+00) (76, 4.23526134660204972571e-02) (77, 4.57004716630386020881e+00) (78, -6.52440707640177031124e-01) (79, 1.50000000000000000000e+03) (80, 1.50000000000000000000e+03) (81, 5.28195754464153122143e-01) (82, 1.59953046671198945150e-01) (83, -1.62956320214954875070e-01) (84, 1.84241714225210018174e-01) (85, -9.61885164568617861969e-02) (86, 2.20265140133802411748e-01) (87, 7.25909542221457315669e-01) (88, -1.43569551831197145475e+03) (89, 1.50000000000000000000e+03) (90, 1.50000000000000000000e+03) (91, -9.88876043718233788127e+00) (92, 1.43904499678787600736e-01) (93, 1.03659523110632112441e+00) (94, 1.28483130167118930753e-01) (95, 1.82055355990445727477e-01) (96, -2.32973801400382143356e+01) (97, -3.65972154590668052876e+00) (98, -1.71334176283997052792e+01) (99, 1.50000000000000000000e+03) (100, 1.50000000000000000000e+03) (101, -1.79781201502497434142e-01) (102, -1.81675778424102629671e+00) (103, -7.17643196039637665251e-01) (104, 4.68723038357655941155e+00) (105, 2.45104116547046890773e-01) (106, -1.68422473897665305742e+01) (107, 1.53460193910676060552e-02) (108, 1.83826026918559009005e+01) (109, 1.50000000000000000000e+03) (110, 1.50000000000000000000e+03) (111, -2.07871295856431076432e-01) (112, 2.77381155513799160239e-01) (113, 1.32973753324957244537e+00) (114, 3.45346348169599692834e-01) (115, -1.40205567611384307458e-01) (116, -3.13103251947489391593e-01) (117, 3.14186527866784748309e-01) (118, -1.21689870269948152703e+00) (119, 1.50000000000000000000e+03) (120, 1.50000000000000000000e+03) (121, -1.45849521829072045875e+03) (122, -4.40020995939597980851e-01) (123, 2.14088488768004236995e-01) (124, 2.81056816581127966170e-01) (125, 1.31215638194602995936e-01) (126, 5.29741284554633762305e-01) (127, 2.14546801057563379933e-01) (128, -1.46701194518008469458e+03) (129, 1.50000000000000000000e+03) (130, 1.50000000000000000000e+03) (131, 7.32339416148480193414e-01) (132, -5.91819191815042833227e-01) (133, -4.31855760317237269419e+00) (134, -2.68563178770241473003e+00) (135, -1.37596206829080358602e+00) (136, 1.23145137163212681219e-01) (137, 2.13107503271093373653e-01) (138, 5.52339488328957517460e-01) (139, 1.50000000000000000000e+03) (140, 1.50000000000000000000e+03) (141, 1.65880498053376079781e+01) (142, 2.79827319417972519844e+00) (143, 1.16647253424422392420e+00) (144, 1.22249669820561424061e+00) (145, 1.26600256801141841656e+00) (146, 1.22018957376971237672e+00) (147, 1.53901798328820671458e+00) (148, 4.52065655674481980952e+00) (149, 1.50000000000000000000e+03) (150, 1.50000000000000000000e+03) (151, 1.50000000000000000000e+03) (152, 1.50000000000000000000e+03) (153, 1.50000000000000000000e+03) (154, 1.50000000000000000000e+03) (155, 1.50000000000000000000e+03) (156, 1.50000000000000000000e+03) (157, 1.50000000000000000000e+03) (158, 1.50000000000000000000e+03) (159, 1.50000000000000000000e+03) (160, 2.57138182606204190872e-01) (0, 1.50000000000000000000e+03) (1, 1.50000000000000000000e+03) (2, 1.50000000000000000000e+03) (3, 1.50000000000000000000e+03) (4, 1.50000000000000000000e+03) (5, 1.50000000000000000000e+03) (6, 1.50000000000000000000e+03) (7, 1.50000000000000000000e+03) (8, 1.50000000000000000000e+03) (9, 1.50000000000000000000e+03) (10, 1.50000000000000000000e+03) (11, 1.50000000000000000000e+03) (12, 1.50000000000000000000e+03) (13, 1.50000000000000000000e+03) (14, 1.50000000000000000000e+03) (15, 1.50000000000000000000e+03) (16, 1.50000000000000000000e+03) (17, 1.50000000000000000000e+03) (18, 1.50000000000000000000e+03) (19, 1.50000000000000000000e+03) (20, 1.50000000000000000000e+03) (21, 1.50000000000000000000e+03) (22, 4.80417380277216976570e-01) (23, 5.15329489652178396319e-01) (24, 2.40842926436904214427e+00) (25, 1.07629550570039334012e+00) (26, -1.36336380601047330030e-01) (27, 1.14060555373934738310e-01) (28, 4.61156680315794798020e+00) (29, 1.50000000000000000000e+03) (30, 1.50000000000000000000e+03) (31, 9.91967378714209480073e-01) (32, 2.05499402469050584941e+00) (33, 8.76389196151866500806e-01) (34, 8.05596784323448722454e-01) (35, 5.59082844821353508458e-01) (36, 6.93372757315533716493e-01) (37, 8.12412262871914925277e-01) (38, 5.38327945879834457443e-01) (39, 1.50000000000000000000e+03) (40, 1.50000000000000000000e+03) (41, 1.96345147161236216471e-01) (42, -1.76678036843477132001e-01) (43, 5.41165162040427749623e-01) (44, 9.43444667134667902531e-01) (45, 8.89698600290412588976e-01) (46, -1.86231154227660233857e-01) (47, 4.45097169069037068567e-01) (48, 1.15053346839564296644e+00) (49, 1.50000000000000000000e+03) (50, 1.50000000000000000000e+03) (51, 1.52304227876647124695e+00) (52, -2.55419939660200556730e+00) (53, 5.90024212889311727714e-01) (54, 9.55504651155697937170e-01) (55, 1.08491748799036766271e-01) (56, -2.14166195923583407845e-01) (57, 2.01458636681778102684e-01) (58, 1.16868425204331316536e+01) (59, 1.50000000000000000000e+03) (60, 1.50000000000000000000e+03) (61, 3.79826472593163932956e+00) (62, 6.18098425416356622719e-01) (63, 9.01034103670745656345e-01) (64, -1.05213999389885959346e+00) (65, -7.96663528582244495624e+00) (66, 1.14350528412844254511e+00) (67, 8.29295909161302913226e-01) (68, 1.45648162351378580581e+01) (69, 1.50000000000000000000e+03) (70, 1.50000000000000000000e+03) (71, 8.02729599122828152424e-01) (72, 9.29962663033909064936e-01) (73, 7.84150876762712889523e-01) (74, 3.16118479133686902660e-01) (75, -1.67627388473639477029e-01) (76, 8.42623287236729523464e-01) (77, 2.32817008758626577958e+01) (78, -3.01040147156277804186e-01) (79, 1.50000000000000000000e+03) (80, 1.50000000000000000000e+03) (81, 8.50160967360630182021e-01) (82, 9.67043558301987404846e-01) (83, 6.19876553942437125144e-01) (84, 1.00925913595345395635e+00) (85, 7.70178973658532051161e-01) (86, 1.59009108623271933070e+00) (87, 9.09045867840480581457e-01) (88, -3.04312758831428231687e+00) (89, 1.50000000000000000000e+03) (90, 1.50000000000000000000e+03) (91, -7.71845983010672892499e-02) (92, 8.77781119651564467610e-01) (93, 2.97625991100793729771e+00) (94, 7.88740035663609617700e-01) (95, 8.83326341421696747958e-01) (96, -3.91788527697352506607e-01) (97, -3.42772359836975515357e-01) (98, -2.65406358310721079974e+00) (99, 1.50000000000000000000e+03) (100, 1.50000000000000000000e+03) (101, -6.62435427440696833479e-01) (102, 5.31285399724534368460e-01) (103, 8.92583712075636026562e-01) (104, 3.56032964759217733786e+01) (105, 1.49211790524611798148e+00) (106, 1.86612797563961372305e+01) (107, 7.59036038616721198125e-01) (108, 2.40605763136247681189e+01) (109, 1.50000000000000000000e+03) (110, 1.50000000000000000000e+03) (111, 4.36822036412378322812e-01) (112, 9.24908818051035752639e-01) (113, 1.49777340272112428465e+03) (114, 1.00988496296883631942e+01) (115, 9.92688650160978069970e-01) (116, 1.49003117555126095795e+03) (117, 9.34907394178682737973e-01) (118, 3.15522985267699951351e-01) (119, 1.50000000000000000000e+03) (120, 1.50000000000000000000e+03) (121, -6.03369589020222729658e+00) (122, 9.81775941423523867968e-01) (123, 1.49998260959930621539e+03) (124, 1.47128529831782248039e+03) (125, 1.47130372430557758889e+03) (126, 1.49997982991897038119e+03) (127, 9.09991829021334686090e-01) (128, -1.16616208020272100754e+01) (129, 1.50000000000000000000e+03) (130, 1.50000000000000000000e+03) (131, 4.45144948225672649755e+01) (132, 9.35888998503083269220e-01) (133, 5.33272943660990761394e-01) (134, 1.33700871163931589436e-01) (135, -1.51835318841830102521e+00) (136, 7.42594723812379675643e-01) (137, 1.09201709264181312520e+00) (138, 4.32379354584084651947e+00) (139, 1.50000000000000000000e+03) (140, 1.50000000000000000000e+03) (141, 1.72239225770578805452e+01) (142, 1.55005124210507627680e+01) (143, 2.22187361308537312254e+00) (144, 2.14965070226394860953e+00) (145, 2.18709577807389976556e+00) (146, 2.09161237814628853116e+00) (147, 1.19067220647390237254e+00) (148, 5.18648898071790132036e+00) (149, 1.50000000000000000000e+03) (150, 1.50000000000000000000e+03) (151, 1.50000000000000000000e+03) (152, 1.50000000000000000000e+03) (153, 1.50000000000000000000e+03) (154, 1.50000000000000000000e+03) (155, 1.50000000000000000000e+03) (156, 1.50000000000000000000e+03) (157, 1.50000000000000000000e+03) (158, 1.50000000000000000000e+03) (159, 1.50000000000000000000e+03) (160, 1.04363714886589509234e+00) (0, 1.50000000000000000000e+03) (1, 1.50000000000000000000e+03) (2, 1.50000000000000000000e+03) (3, 1.50000000000000000000e+03) (4, 1.50000000000000000000e+03) (5, 1.50000000000000000000e+03) (6, 1.50000000000000000000e+03) (7, 1.50000000000000000000e+03) (8, 1.50000000000000000000e+03) (9, 1.50000000000000000000e+03) (10, 1.50000000000000000000e+03) (11, 1.50000000000000000000e+03) (12, 1.50000000000000000000e+03) (13, 1.50000000000000000000e+03) (14, 1.50000000000000000000e+03) (15, 1.50000000000000000000e+03) (16, 1.50000000000000000000e+03) (17, 1.50000000000000000000e+03) (18, 1.50000000000000000000e+03) (19, 1.50000000000000000000e+03) (20, 1.50000000000000000000e+03) (21, 1.50000000000000000000e+03) (22, -1.72429274354938016911e-01) (23, -2.80229564343356385425e-01) (24, 2.08028134451603641253e+00) (25, 3.17314831276146180894e-01) (26, -1.42993228350674783655e+00) (27, -5.92580061096620314132e-01) (28, 3.86436842132865532307e+00) (29, 1.50000000000000000000e+03) (30, 1.50000000000000000000e+03) (31, 1.62852722201484501063e-01) (32, 4.28290557003735194996e-01) (33, 2.19894055597604989316e+02) (34, -1.35793190556092868704e+00) (35, 6.14682097158420788219e+01) (36, 8.75576208770173103346e+00) (37, -1.13975345008448622486e-01) (38, -1.73033564480499002514e+01) (39, 1.50000000000000000000e+03) (40, 1.50000000000000000000e+03) (41, -1.35439979122836051673e+00) (42, -7.46633494800959063298e+00) (43, -9.06204000906321738285e+01) (44, -3.51348213497101312441e+02) (45, -1.41837051150898400920e+03) (46, -1.43648947866638468440e+03) (47, -4.45984678041231763501e+00) (48, 4.55927248352950342802e-01) (49, 1.50000000000000000000e+03) (50, 1.50000000000000000000e+03) (51, 3.10956934347868454438e+01) (52, -2.32420017364297990525e+02) (53, -1.42247379791574803676e+03) (54, -1.22319079924156115524e+00) (55, -1.68426170955425336118e+00) (56, -1.43828540909359435318e+03) (57, -1.42940486863892215297e+03) (58, 7.86981518087617715196e+00) (59, 1.50000000000000000000e+03) (60, 1.50000000000000000000e+03) (61, 2.05204443541608327894e-01) (62, 2.21681210709412629400e-01) (63, 3.58103013511736734120e-01) (64, -2.59380707901793705616e+01) (65, -4.21303733208854058745e-01) (66, 6.99200591070708865615e-01) (67, 2.45848090831978838278e-01) (68, 1.37376535836322481998e+01) (69, 1.50000000000000000000e+03) (70, 1.50000000000000000000e+03) (71, -1.51193258875851138656e-01) (72, 2.79580148581338949754e-01) (73, 2.46756068399005185077e-01) (74, -4.59025209298731640128e-01) (75, -6.66721545220941802512e+00) (76, 1.26111209613764291282e-01) (77, 1.59210385922372910095e-01) (78, -4.99609026581324116023e+01) (79, 1.50000000000000000000e+03) (80, 1.50000000000000000000e+03) (81, 3.42627157996240536142e-02) (82, 1.69841464504811218150e-01) (83, 