FANN_FLO_2.1
num_layers=3
learning_rate=0.700000
connection_rate=1.000000
network_type=0
learning_momentum=0.000000
training_algorithm=2
train_error_function=1
train_stop_function=0
cascade_output_change_fraction=0.010000
quickprop_decay=-0.000100
quickprop_mu=1.750000
rprop_increase_factor=1.200000
rprop_decrease_factor=0.500000
rprop_delta_min=0.000000
rprop_delta_max=50.000000
rprop_delta_zero=0.100000
cascade_output_stagnation_epochs=12
cascade_candidate_change_fraction=0.010000
cascade_candidate_stagnation_epochs=12
cascade_max_out_epochs=150
cascade_min_out_epochs=50
cascade_max_cand_epochs=150
cascade_min_cand_epochs=50
cascade_num_candidate_groups=2
bit_fail_limit=3.49999999999999977796e-01
cascade_candidate_limit=1.00000000000000000000e+03
cascade_weight_multiplier=4.00000000000000022204e-01
cascade_activation_functions_count=10
cascade_activation_functions=3 5 7 8 10 11 14 15 16 17 
cascade_activation_steepnesses_count=4
cascade_activation_steepnesses=2.50000000000000000000e-01 5.00000000000000000000e-01 7.50000000000000000000e-01 1.00000000000000000000e+00 
layer_sizes=161 108 2 
scale_included=0
neurons (num_inputs, activation_function, activation_steepness)=(0, 0, 0.00000000000000000000e+00) (0, 0, 0.00000000000000000000e+00) (0, 0, 0.00000000000000000000e+00) (0, 0, 0.00000000000000000000e+00) (0, 0, 0.00000000000000000000e+00) (0, 0, 0.00000000000000000000e+00) (0, 0, 0.00000000000000000000e+00) (0, 0, 0.00000000000000000000e+00) (0, 0, 0.00000000000000000000e+00) (0, 0, 0.00000000000000000000e+00) (0, 0, 0.00000000000000000000e+00) (0, 0, 0.00000000000000000000e+00) (0, 0, 0.00000000000000000000e+00) (0, 0, 0.00000000000000000000e+00) (0, 0, 0.00000000000000000000e+00) (0, 0, 0.00000000000000000000e+00) (0, 0, 0.00000000000000000000e+00) (0, 0, 0.00000000000000000000e+00) (0, 0, 0.00000000000000000000e+00) (0, 0, 0.00000000000000000000e+00) (0, 0, 0.00000000000000000000e+00) (0, 0, 0.00000000000000000000e+00) (0, 0, 0.00000000000000000000e+00) (0, 0, 0.00000000000000000000e+00) (0, 0, 0.00000000000000000000e+00) (0, 0, 0.00000000000000000000e+00) (0, 0, 0.00000000000000000000e+00) (0, 0, 0.00000000000000000000e+00) (0, 0, 0.00000000000000000000e+00) (0, 0, 0.00000000000000000000e+00) (0, 0, 0.00000000000000000000e+00) (0, 0, 0.00000000000000000000e+00) (0, 0, 0.00000000000000000000e+00) (0, 0, 0.00000000000000000000e+00) (0, 0, 0.00000000000000000000e+00) (0, 0, 0.00000000000000000000e+00) (0, 0, 0.00000000000000000000e+00) (0, 0, 0.00000000000000000000e+00) (0, 0, 0.00000000000000000000e+00) (0, 0, 0.00000000000000000000e+00) (0, 0, 0.00000000000000000000e+00) (0, 0, 0.00000000000000000000e+00) (0, 0, 0.00000000000000000000e+00) (0, 0, 0.00000000000000000000e+00) (0, 0, 0.00000000000000000000e+00) (0, 0, 0.00000000000000000000e+00) (0, 0, 0.00000000000000000000e+00) (0, 0, 0.00000000000000000000e+00) (0, 0, 0.00000000000000000000e+00) (0, 0, 0.00000000000000000000e+00) (0, 0, 0.00000000000000000000e+00) (0, 0, 0.00000000000000000000e+00) (0, 0, 0.00000000000000000000e+00) (0, 0, 0.00000000000000000000e+00) (0, 0, 0.00000000000000000000e+00) (0, 0, 0.00000000000000000000e+00) (0, 0, 0.00000000000000000000e+00) (0, 0, 0.00000000000000000000e+00) (0, 0, 0.00000000000000000000e+00) (0, 0, 0.00000000000000000000e+00) (0, 0, 0.00000000000000000000e+00) (0, 0, 0.00000000000000000000e+00) (0, 0, 0.00000000000000000000e+00) (0, 0, 0.00000000000000000000e+00) (0, 0, 0.00000000000000000000e+00) (0, 0, 0.00000000000000000000e+00) (0, 0, 0.00000000000000000000e+00) (0, 0, 0.00000000000000000000e+00) (0, 0, 0.00000000000000000000e+00) (0, 0, 0.00000000000000000000e+00) (0, 0, 0.00000000000000000000e+00) (0, 0, 0.00000000000000000000e+00) (0, 0, 0.00000000000000000000e+00) (0, 0, 0.00000000000000000000e+00) (0, 0, 0.00000000000000000000e+00) (0, 0, 0.00000000000000000000e+00) (0, 0, 0.00000000000000000000e+00) (0, 0, 0.00000000000000000000e+00) (0, 0, 0.00000000000000000000e+00) (0, 0, 0.00000000000000000000e+00) (0, 0, 0.00000000000000000000e+00) (0, 0, 0.00000000000000000000e+00) (0, 0, 0.00000000000000000000e+00) (0, 0, 0.00000000000000000000e+00) (0, 0, 0.00000000000000000000e+00) (0, 0, 0.00000000000000000000e+00) (0, 0, 0.00000000000000000000e+00) (0, 0, 0.00000000000000000000e+00) (0, 0, 0.00000000000000000000e+00) (0, 0, 0.00000000000000000000e+00) (0, 0, 0.00000000000000000000e+00) (0, 0, 0.00000000000000000000e+00) (0, 0, 0.00000000000000000000e+00) (0, 0, 0.00000000000000000000e+00) (0, 0, 0.00000000000000000000e+00) (0, 0, 0.00000000000000000000e+00) (0, 0, 0.00000000000000000000e+00) (0, 0, 0.00000000000000000000e+00) (0, 0, 0.00000000000000000000e+00) (0, 0, 0.00000000000000000000e+00) (0, 0, 0.00000000000000000000e+00) (0, 0, 0.00000000000000000000e+00) (0, 0, 0.00000000000000000000e+00) (0, 0, 0.00000000000000000000e+00) (0, 0, 0.00000000000000000000e+00) (0, 0, 0.00000000000000000000e+00) (0, 0, 0.00000000000000000000e+00) (0, 0, 0.00000000000000000000e+00) (0, 0, 0.00000000000000000000e+00) (0, 0, 0.00000000000000000000e+00) (0, 0, 0.00000000000000000000e+00) (0, 0, 0.00000000000000000000e+00) (0, 0, 0.00000000000000000000e+00) (0, 0, 0.00000000000000000000e+00) (0, 0, 0.00000000000000000000e+00) (0, 0, 0.00000000000000000000e+00) (0, 0, 0.00000000000000000000e+00) (0, 0, 0.00000000000000000000e+00) (0, 0, 0.00000000000000000000e+00) (0, 0, 0.00000000000000000000e+00) (0, 0, 0.00000000000000000000e+00) (0, 0, 0.00000000000000000000e+00) (0, 0, 0.00000000000000000000e+00) (0, 0, 0.00000000000000000000e+00) (0, 0, 0.00000000000000000000e+00) (0, 0, 0.00000000000000000000e+00) (0, 0, 0.00000000000000000000e+00) (0, 0, 0.00000000000000000000e+00) (0, 0, 0.00000000000000000000e+00) (0, 0, 0.00000000000000000000e+00) (0, 0, 0.00000000000000000000e+00) (0, 0, 0.00000000000000000000e+00) (0, 0, 0.00000000000000000000e+00) (0, 0, 0.00000000000000000000e+00) (0, 0, 0.00000000000000000000e+00) (0, 0, 0.00000000000000000000e+00) (0, 0, 0.00000000000000000000e+00) (0, 0, 0.00000000000000000000e+00) (0, 0, 0.00000000000000000000e+00) (0, 0, 0.00000000000000000000e+00) (0, 0, 0.00000000000000000000e+00) (0, 0, 0.00000000000000000000e+00) (0, 0, 0.00000000000000000000e+00) (0, 0, 0.00000000000000000000e+00) (0, 0, 0.00000000000000000000e+00) (0, 0, 0.00000000000000000000e+00) (0, 0, 0.00000000000000000000e+00) (0, 0, 0.00000000000000000000e+00) (0, 0, 0.00000000000000000000e+00) (0, 0, 0.00000000000000000000e+00) (0, 0, 0.00000000000000000000e+00) (0, 0, 0.00000000000000000000e+00) (0, 0, 0.00000000000000000000e+00) (0, 0, 0.00000000000000000000e+00) (0, 0, 0.00000000000000000000e+00) (0, 0, 0.00000000000000000000e+00) (0, 0, 0.00000000000000000000e+00) (0, 0, 0.00000000000000000000e+00) (0, 0, 0.00000000000000000000e+00) (0, 0, 0.00000000000000000000e+00) (0, 0, 0.00000000000000000000e+00) (161, 5, 5.00000000000000000000e-01) (161, 5, 5.00000000000000000000e-01) (161, 5, 5.00000000000000000000e-01) (161, 5, 5.00000000000000000000e-01) (161, 5, 5.00000000000000000000e-01) (161, 5, 5.00000000000000000000e-01) (161, 5, 5.00000000000000000000e-01) (161, 5, 5.00000000000000000000e-01) (161, 5, 5.00000000000000000000e-01) (161, 5, 5.00000000000000000000e-01) (161, 5, 5.00000000000000000000e-01) (161, 5, 5.00000000000000000000e-01) (161, 5, 5.00000000000000000000e-01) (161, 5, 5.00000000000000000000e-01) (161, 5, 5.00000000000000000000e-01) (161, 5, 5.00000000000000000000e-01) (161, 5, 5.00000000000000000000e-01) (161, 5, 5.00000000000000000000e-01) (161, 5, 5.00000000000000000000e-01) (161, 5, 5.00000000000000000000e-01) (161, 5, 5.00000000000000000000e-01) (161, 5, 5.00000000000000000000e-01) (161, 5, 5.00000000000000000000e-01) (161, 5, 5.00000000000000000000e-01) (161, 5, 5.00000000000000000000e-01) (161, 5, 5.00000000000000000000e-01) (161, 5, 5.00000000000000000000e-01) (161, 5, 5.00000000000000000000e-01) (161, 5, 5.00000000000000000000e-01) (161, 5, 5.00000000000000000000e-01) (161, 5, 5.00000000000000000000e-01) (161, 5, 5.00000000000000000000e-01) (161, 5, 5.00000000000000000000e-01) (161, 5, 5.00000000000000000000e-01) (161, 5, 5.00000000000000000000e-01) (161, 5, 5.00000000000000000000e-01) (161, 5, 5.00000000000000000000e-01) (161, 5, 5.00000000000000000000e-01) (161, 5, 5.00000000000000000000e-01) (161, 5, 5.00000000000000000000e-01) (161, 5, 5.00000000000000000000e-01) (161, 5, 5.00000000000000000000e-01) (161, 5, 5.00000000000000000000e-01) (161, 5, 5.00000000000000000000e-01) (161, 5, 5.00000000000000000000e-01) (161, 5, 5.00000000000000000000e-01) (161, 5, 5.00000000000000000000e-01) (161, 5, 5.00000000000000000000e-01) (161, 5, 5.00000000000000000000e-01) (161, 5, 5.00000000000000000000e-01) (161, 5, 5.00000000000000000000e-01) (161, 5, 5.00000000000000000000e-01) (161, 5, 5.00000000000000000000e-01) (161, 5, 5.00000000000000000000e-01) (161, 5, 5.00000000000000000000e-01) (161, 5, 5.00000000000000000000e-01) (161, 5, 5.00000000000000000000e-01) (161, 5, 5.00000000000000000000e-01) (161, 5, 5.00000000000000000000e-01) (161, 5, 5.00000000000000000000e-01) (161, 5, 5.00000000000000000000e-01) (161, 5, 5.00000000000000000000e-01) (161, 5, 5.00000000000000000000e-01) (161, 5, 5.00000000000000000000e-01) (161, 5, 5.00000000000000000000e-01) (161, 5, 5.00000000000000000000e-01) (161, 5, 5.00000000000000000000e-01) (161, 5, 5.00000000000000000000e-01) (161, 5, 5.00000000000000000000e-01) (161, 5, 5.00000000000000000000e-01) (161, 5, 5.00000000000000000000e-01) (161, 5, 5.00000000000000000000e-01) (161, 5, 5.00000000000000000000e-01) (161, 5, 5.00000000000000000000e-01) (161, 5, 5.00000000000000000000e-01) (161, 5, 5.00000000000000000000e-01) (161, 5, 5.00000000000000000000e-01) (161, 5, 5.00000000000000000000e-01) (161, 5, 5.00000000000000000000e-01) (161, 5, 5.00000000000000000000e-01) (161, 5, 5.00000000000000000000e-01) (161, 5, 5.00000000000000000000e-01) (161, 5, 5.00000000000000000000e-01) (161, 5, 5.00000000000000000000e-01) (161, 5, 5.00000000000000000000e-01) (161, 5, 5.00000000000000000000e-01) (161, 5, 5.00000000000000000000e-01) (161, 5, 5.00000000000000000000e-01) (161, 5, 5.00000000000000000000e-01) (161, 5, 5.00000000000000000000e-01) (161, 5, 5.00000000000000000000e-01) (161, 5, 5.00000000000000000000e-01) (161, 5, 5.00000000000000000000e-01) (161, 5, 5.00000000000000000000e-01) (161, 5, 5.00000000000000000000e-01) (161, 5, 5.00000000000000000000e-01) (161, 5, 5.00000000000000000000e-01) (161, 5, 5.00000000000000000000e-01) (161, 5, 5.00000000000000000000e-01) (161, 5, 5.00000000000000000000e-01) (161, 5, 5.00000000000000000000e-01) (161, 5, 5.00000000000000000000e-01) (161, 5, 5.00000000000000000000e-01) (161, 5, 5.00000000000000000000e-01) (161, 5, 5.00000000000000000000e-01) (161, 5, 5.00000000000000000000e-01) (161, 5, 5.00000000000000000000e-01) (0, 5, 0.00000000000000000000e+00) (108, 5, 5.00000000000000000000e-01) (0, 5, 0.00000000000000000000e+00) 
connections (connected_to_neuron, weight)=(0, 1.50000000000000000000e+03) (1, 1.50000000000000000000e+03) (2, 1.50000000000000000000e+03) (3, 1.50000000000000000000e+03) (4, 1.50000000000000000000e+03) (5, 1.50000000000000000000e+03) (6, 1.50000000000000000000e+03) (7, 1.50000000000000000000e+03) (8, 1.50000000000000000000e+03) (9, 1.50000000000000000000e+03) (10, 1.50000000000000000000e+03) (11, 1.50000000000000000000e+03) (12, 1.50000000000000000000e+03) (13, 1.50000000000000000000e+03) (14, 1.50000000000000000000e+03) (15, 1.50000000000000000000e+03) (16, 1.50000000000000000000e+03) (17, 1.50000000000000000000e+03) (18, 1.50000000000000000000e+03) (19, 1.50000000000000000000e+03) (20, 1.50000000000000000000e+03) (21, 1.50000000000000000000e+03) (22, 4.42534752471967163245e-01) (23, 4.43450279815717163245e-01) (24, 3.23299960183831502913e-01) (25, 5.80133380858802061297e-01) (26, 6.54381417085356020813e-01) (27, 6.05415982924909390483e-01) (28, 2.78585052007103498029e-02) (29, 1.50000000000000000000e+03) (30, 1.50000000000000000000e+03) (31, 3.75953389035782736816e-01) (32, 3.44866844936859873183e-01) (33, 3.80639494086772223191e-01) (34, 4.97000302710548347296e-01) (35, 3.12967607397564295812e-01) (36, 4.11363776872280761943e-01) (37, 3.93526194703483378490e-01) (38, 5.58232038681912401401e-01) (39, 1.50000000000000000000e+03) (40, 1.50000000000000000000e+03) (41, 4.28496739420658245834e-01) (42, 3.84946771129566711611e-01) (43, 3.05031023397794254226e-01) (44, 4.27655344456141783827e-01) (45, 5.55925799207772963761e-01) (46, 4.51231753441455218923e-01) (47, 4.68717042711946973998e-01) (48, 3.70824878207179020606e-01) (49, 1.50000000000000000000e+03) (50, 1.50000000000000000000e+03) (51, 3.81524689951194706516e-01) (52, 4.49894756863359279730e-01) (53, 3.59933060479340316551e-01) (54, 5.60659377137012304715e-01) (55, 4.70167734781960555690e-01) (56, 4.87404227764785813459e-01) (57, 4.72039097738558344197e-01) (58, 4.57824762583042776942e-01) (59, 1.50000000000000000000e+03) (60, 1.50000000000000000000e+03) (61, 2.72830525687161928872e-01) (62, 4.05548297075706387638e-01) (63, 4.30270964646852049906e-01) (64, 3.16673406252207578770e-01) (65, 4.53951532528876822159e-01) (66, 4.72699368186107860001e-01) (67, 4.81770628410495949101e-01) (68, 2.71678705256290120573e-01) (69, 1.50000000000000000000e+03) (70, 1.50000000000000000000e+03) (71, 3.23282939797882140631e-01) (72, 3.87050229538938972418e-01) (73, 3.70492748095304524902e-01) (74, 3.27820181285975120744e-01) (75, 3.05132345751152944668e-01) (76, 4.63020863321252862388e-01) (77, 3.09957472155454438756e-01) (78, 2.08556782727662481935e-01) (79, 1.50000000000000000000e+03) (80, 1.50000000000000000000e+03) (81, 4.32878582320261939831e-01) (82, 4.47964646949845723967e-01) (83, 3.61787066425423797789e-01) (84, 2.86750596134034474449e-01) (85, 3.87567050755170838805e-01) (86, 4.55419085647872312617e-01) (87, 3.57958447456353856531e-01) (88, 3.40452147594674292552e-01) (89, 1.50000000000000000000e+03) (90, 1.50000000000000000000e+03) (91, 4.67472034142549452973e-01) (92, 3.48775625665822430754e-01) (93, 4.52603195172666783463e-01) (94, 5.03059595173586671102e-01) (95, 4.64295210251515322319e-01) (96, 4.67106419734207800598e-01) (97, 4.52152322017264463039e-01) (98, 3.62893166511504161598e-01) (99, 1.50000000000000000000e+03) (100, 1.50000000000000000000e+03) (101, 3.56355837643238138046e-01) (102, 3.61448047040615560999e-01) (103, 4.35019686100777791538e-01) (104, 4.87657271277617099248e-01) (105, 2.90300154474538940619e-01) (106, 4.12399138735194570327e-01) (107, 4.88947769984153290945e-01) (108, 4.26984083448269990946e-01) (109, 1.50000000000000000000e+03) (110, 1.50000000000000000000e+03) (111, 2.60169338804361383044e-01) (112, 3.62750317553481915755e-01) (113, 4.71856705963718203733e-01) (114, 4.06586892546923539538e-01) (115, 3.34062794996985434892e-01) (116, 3.63395673584352152385e-01) (117, 3.82968784935956374493e-01) (118, 4.12023437199363407046e-01) (119, 1.50000000000000000000e+03) (120, 1.50000000000000000000e+03) (121, 4.44986807374516735170e-01) (122, 2.85436710352485578657e-01) (123, 3.32328795375044783178e-01) (124, 4.50160819716491744646e-01) (125, 3.78960664096207933138e-01) (126, 3.72036094745666179318e-01) (127, 3.64997969580537318102e-01) (128, 1.40518171036363354043e-01) (129, 1.50000000000000000000e+03) (130, 1.50000000000000000000e+03) (131, 1.05813107968783542967e-01) (132, 3.68552097363993858004e-01) (133, 7.53251616186708217171e-01) (134, 7.38803510308012945096e-01) (135, 7.46641648104760968785e-01) (136, 2.33006136609641173463e-01) (137, 3.55040067480800414224e-01) (138, 1.32778208353553049681e-02) (139, 1.50000000000000000000e+03) (140, 1.50000000000000000000e+03) (141, 4.92435725267497736990e-01) (142, 3.42266104044496755066e-01) (143, 3.82385109213257634586e-01) (144, 4.62060403672123753971e-01) (145, 4.59710550156498753971e-01) (146, 2.94549417343998753971e-01) (147, 4.34490827412402191854e-01) (148, 4.94023800905761145685e-01) (149, 1.50000000000000000000e+03) (150, 1.50000000000000000000e+03) (151, 1.50000000000000000000e+03) (152, 1.50000000000000000000e+03) (153, 1.50000000000000000000e+03) (154, 1.50000000000000000000e+03) (155, 1.50000000000000000000e+03) (156, 1.50000000000000000000e+03) (157, 1.50000000000000000000e+03) (158, 1.50000000000000000000e+03) (159, 1.50000000000000000000e+03) (160, 4.43638280071521617920e-01) (0, 1.50000000000000000000e+03) (1, 1.50000000000000000000e+03) (2, 1.50000000000000000000e+03) (3, 1.50000000000000000000e+03) (4, 1.50000000000000000000e+03) (5, 1.50000000000000000000e+03) (6, 1.50000000000000000000e+03) (7, 1.50000000000000000000e+03) (8, 1.50000000000000000000e+03) (9, 1.50000000000000000000e+03) (10, 1.50000000000000000000e+03) (11, 1.50000000000000000000e+03) (12, 1.50000000000000000000e+03) (13, 1.50000000000000000000e+03) (14, 1.50000000000000000000e+03) (15, 1.50000000000000000000e+03) (16, 1.50000000000000000000e+03) (17, 1.50000000000000000000e+03) (18, 1.50000000000000000000e+03) (19, 1.50000000000000000000e+03) (20, 1.50000000000000000000e+03) (21, 1.50000000000000000000e+03) (22, -2.98433970427103636980e-02) (23, 9.78238437557583939697e-02) (24, 1.57789082619358783655e-01) (25, 2.01719845813858267292e-01) (26, -3.58539993804496748275e-01) (27, -2.37669800073107367888e-01) (28, 4.37023860022309695861e-01) (29, 1.50000000000000000000e+03) (30, 1.50000000000000000000e+03) (31, -6.52397824952542781940e-03) (32, 8.46474897752573091081e-02) (33, -1.12314782235286694800e-01) (34, -7.77407573216562092222e-02) (35, 3.90856288279315747247e-02) (36, -5.14640324933789763961e-02) (37, -1.48203940478035089967e-01) (38, -1.62262846213251481220e-02) (39, 1.50000000000000000000e+03) (40, 1.50000000000000000000e+03) (41, -1.32276459977709953675e-01) (42, -1.14671497824287635381e-01) (43, -7.73963472231457144668e-02) (44, 4.38319251881519877934e-02) (45, 1.27858934765699479991e-02) (46, -1.65112737289760419523e-01) (47, -3.62553415811528376156e-02) (48, 4.09738104988967496989e-02) (49, 1.50000000000000000000e+03) (50, 1.50000000000000000000e+03) (51, -1.66807386295498460971e-01) (52, -4.14343422686819090606e-02) (53, -8.33023355622886790828e-02) (54, 5.58906295950747991630e-02) (55, -1.70598956810267349260e-01) (56, -1.15513760070856230655e-01) (57, 5.96351290199187908381e-02) (58, 3.30320700802440164745e-02) (59, 1.50000000000000000000e+03) (60, 1.50000000000000000000e+03) (61, 5.72287475927537592213e-02) (62, -3.04528661433819160254e-02) (63, 5.39275813667612971547e-02) (64, -2.02309349487431767989e-02) (65, -1.04535983966866627415e-01) (66, -1.86395530274196183362e-02) (67, 1.42831181219665055010e-02) (68, 1.08615863013489882816e-01) (69, 1.50000000000000000000e+03) (70, 1.50000000000000000000e+03) (71, -5.58906553372688630343e-02) (72, -1.07232671419208988595e-01) (73, -5.86715945470883196156e-02) (74, -7.45865210292135233372e-02) (75, -1.84879513021060509770e-01) (76, -1.23632254107081424044e-01) (77, -1.01977922240703164358e-01) (78, 6.24449465942126386020e-02) (79, 1.50000000000000000000e+03) (80, 1.50000000000000000000e+03) (81, -8.68335132154105932001e-02) (82, -3.61198106726133838507e-02) (83, 4.87677651401864781233e-02) (84, 3.54256146973104405276e-03) (85, -3.61426030011765945550e-04) (86, 2.77130374450457531155e-02) (87, -1.07556975488352343784e-01) (88, -1.33272649507238771793e-01) (89, 1.50000000000000000000e+03) (90, 1.50000000000000000000e+03) (91, 1.71051891910530586005e-02) (92, -1.82819715706471694339e-02) (93, 7.35739173698654463918e-02) (94, -1.02965471432118246820e-01) (95, -6.85558527646952381440e-02) (96, 4.80875731295584384062e-04) (97, 9.31211713020708292676e-02) (98, 2.88385547495330178680e-03) (99, 1.50000000000000000000e+03) (100, 1.50000000000000000000e+03) (101, -1.52233774185805720291e-01) (102, -1.74928227193340037060e-02) (103, 1.67983995069737435113e-01) (104, 1.28189009953908306105e-01) (105, -9.49080397458302166269e-02) (106, -2.95411190868503925611e-02) (107, -3.50029376727683944059e-02) (108, -1.00116268256857918195e-01) (109, 1.50000000000000000000e+03) (110, 1.50000000000000000000e+03) (111, 6.41329304153010204548e-02) (112, 4.00248715092214601974e-02) (113, 8.07055425602761888904e-01) (114, 5.00408623462688995076e-01) (115, 1.19662072203407018195e-02) (116, -1.05977270791782055871e-03) (117, -7.06279960070784890158e-02) (118, 9.23285413206156868604e-02) (119, 1.50000000000000000000e+03) (120, 1.50000000000000000000e+03) (121, 5.97954063255695944523e-02) (122, 1.63904170544544244836e-02) (123, 1.77126698093402097645e-02) (124, -8.05685631034594590405e-02) (125, -2.84407218440046183350e-01) (126, -2.73089375596802630408e-01) (127, -1.05470245602445070188e-01) (128, 1.02958400953564468971e-01) (129, 1.50000000000000000000e+03) (130, 1.50000000000000000000e+03) (131, -5.46331327366213620467e-02) (132, -9.99091609377973477457e-01) (133, -3.36198021487235720883e+00) (134, -7.58010056950578769985e-01) (135, -4.81862434151731078291e-01) (136, -1.95463330763091636122e-01) (137, 1.76526872149347785479e-02) (138, 4.40944232769795163573e-02) (139, 1.50000000000000000000e+03) (140, 1.50000000000000000000e+03) (141, -1.60018913876419172082e-01) (142, -9.48771908870959662652e-02) (143, -6.29635124752947056281e-02) (144, -9.86507690797277653205e-02) (145, -1.48681287402909312334e-01) (146, -1.53173473412793192949e-01) (147, -1.16566080867950019884e-01) (148, 2.43058424835352449023e-01) (149, 1.50000000000000000000e+03) (150, 1.50000000000000000000e+03) (151, 1.50000000000000000000e+03) (152, 1.50000000000000000000e+03) (153, 1.50000000000000000000e+03) (154, 1.50000000000000000000e+03) (155, 1.50000000000000000000e+03) (156, 1.50000000000000000000e+03) (157, 1.50000000000000000000e+03) (158, 1.50000000000000000000e+03) (159, 1.50000000000000000000e+03) (160, -2.57182349643830299168e-01) (0, 1.50000000000000000000e+03) (1, 1.50000000000000000000e+03) (2, 1.50000000000000000000e+03) (3, 1.50000000000000000000e+03) (4, 1.50000000000000000000e+03) (5, 1.50000000000000000000e+03) (6, 1.50000000000000000000e+03) (7, 1.50000000000000000000e+03) (8, 1.50000000000000000000e+03) (9, 1.50000000000000000000e+03) (10, 1.50000000000000000000e+03) (11, 1.50000000000000000000e+03) (12, 1.50000000000000000000e+03) (13, 1.50000000000000000000e+03) (14, 1.50000000000000000000e+03) (15, 1.50000000000000000000e+03) (16, 1.50000000000000000000e+03) (17, 1.50000000000000000000e+03) (18, 1.50000000000000000000e+03) (19, 1.50000000000000000000e+03) (20, 1.50000000000000000000e+03) (21, 1.50000000000000000000e+03) (22, 3.68374670326865438774e-01) (23, 5.29086338758594787457e-01) (24, 3.49229835041959146835e-01) (25, 5.69041406017873674372e-01) (26, 1.27848952192251619220e-01) (27, 2.59607502632432762812e-01) (28, 8.30846882089848026709e-01) (29, 1.50000000000000000000e+03) (30, 1.50000000000000000000e+03) (31, 3.67477944419799362752e-01) (32, 6.08582496162553665542e-01) (33, 3.82787241414797418937e-01) (34, 4.57376342885242537228e-01) (35, 4.83011469403423154834e-01) (36, 4.50937030663522087082e-01) (37, 3.77765279235504347621e-01) (38, 4.28736136383203292333e-01) (39, 1.50000000000000000000e+03) (40, 1.50000000000000000000e+03) (41, 4.21944152014153028851e-01) (42, 3.66063402174645724507e-01) (43, 4.76586761965298200128e-01) (44, 3.18117256416998672730e-01) (45, 4.35363815052570546360e-01) (46, 4.37727330759035637708e-01) (47, 5.57186530951437108961e-01) (48, 7.02391291531725969755e-01) (49, 1.50000000000000000000e+03) (50, 1.50000000000000000000e+03) (51, 4.26767606746274119622e-01) (52, 4.48285418343174091316e-01) (53, 4.01431882051284660839e-01) (54, 2.99206194320524199171e-01) (55, 4.58629747773153961798e-01) (56, 3.46059529668907961408e-01) (57, 4.72205182401414624849e-01) (58, 6.35877534245175457528e-01) (59, 1.50000000000000000000e+03) (60, 1.50000000000000000000e+03) (61, 6.19907221845592770748e-01) (62, 5.39672851780993334536e-01) (63, 3.94424215922081600194e-01) (64, 4.33805455315791732573e-01) (65, 5.42834444623728096246e-01) (66, 5.72715806667756344162e-01) (67, 3.83751186736464744431e-01) (68, 5.49424094367329418631e-01) (69, 1.50000000000000000000e+03) (70, 1.50000000000000000000e+03) (71, 4.47933194078094287782e-01) (72, 5.02733149754185371094e-01) (73, 3.88188327125130128170e-01) (74, 3.82707192648685134984e-01) (75, 4.30327883237126451732e-01) (76, 4.45026172735142666603e-01) (77, 5.16021259085239214492e-01) (78, 4.88347215992227134951e-01) (79, 1.50000000000000000000e+03) (80, 1.50000000000000000000e+03) (81, 4.53946119930763780648e-01) (82, 4.91248158227586495528e-01) (83, 4.96496641575989661188e-01) (84, 6.59620415234209778177e-01) (85, 4.39285712313225495951e-01) (86, 3.71947716708393216756e-01) (87, 4.15877535246241381017e-01) (88, 4.84304441051292888787e-01) (89, 1.50000000000000000000e+03) (90, 1.50000000000000000000e+03) (91, 3.57209195980466687192e-01) (92, 5.01172660953878246204e-01) (93, 4.29007754873062252532e-01) (94, 4.74952817795460391359e-01) (95, 4.19657152789094101131e-01) (96, 5.53171566143600190735e-01) (97, 5.20921266934753712796e-01) (98, 5.13559931372834954644e-01) (99, 1.50000000000000000000e+03) (100, 1.50000000000000000000e+03) (101, 3.65795448631404729323e-01) (102, 4.51565249389952849679e-01) (103, 4.06844559127582272584e-01) (104, 5.12836131252311089312e-01) (105, 5.72884759128593157307e-01) (106, 5.33679451772509194640e-01) (107, 5.25270692135191175076e-01) (108, 4.23353993569670572494e-01) (109, 1.50000000000000000000e+03) (110, 1.50000000000000000000e+03) (111, 6.00322676610142713649e-01) (112, 4.42283684780378827384e-01) (113, 5.22266113230191231231e-01) (114, 3.52494510010897210694e-01) (115, 5.07957284016128718385e-01) (116, 4.49234214714419599623e-01) (117, 4.99815870727202016255e-01) (118, 4.97555479207569095745e-01) (119, 1.50000000000000000000e+03) (120, 1.50000000000000000000e+03) (121, 3.79384112789795335807e-01) (122, 4.66024791306708263683e-01) (123, 5.01692395513083200242e-01) (124, 5.21226197683958281104e-01) (125, 3.79423530878461867655e-01) (126, 3.47409211175424448292e-01) (127, 5.04916151484404829297e-01) (128, 5.32364064561981042978e-01) (129, 1.50000000000000000000e+03) (130, 1.50000000000000000000e+03) (131, 9.25626975872150814517e-01) (132, 5.79118073610402683826e-01) (133, 5.22599027131870896845e-01) (134, -7.20316151827059769630e-01) (135, 7.40599559575089577690e-02) (136, 7.64937194752781435270e-01) (137, 7.78581833409764056952e-01) (138, 6.24597400662882940026e-01) (139, 1.50000000000000000000e+03) (140, 1.50000000000000000000e+03) (141, 3.61141765106326173562e-01) (142, 5.21411321645713687900e-01) (143, 4.69579486284454727940e-01) (144, 3.80516981814106369786e-01) (145, 4.52434701953133011632e-01) (146, 3.37633675072391892247e-01) (147, 3.78439465789667750517e-01) (148, 6.69101914827957666709e-01) (149, 1.50000000000000000000e+03) (150, 1.50000000000000000000e+03) (151, 1.50000000000000000000e+03) (152, 1.50000000000000000000e+03) (153, 1.50000000000000000000e+03) (154, 1.50000000000000000000e+03) (155, 1.50000000000000000000e+03) (156, 1.50000000000000000000e+03) (157, 1.50000000000000000000e+03) (158, 1.50000000000000000000e+03) (159, 1.50000000000000000000e+03) (160, 4.93382461656210580259e-01) (0, 1.50000000000000000000e+03) (1, 1.50000000000000000000e+03) (2, 1.50000000000000000000e+03) (3, 1.50000000000000000000e+03) (4, 1.50000000000000000000e+03) (5, 1.50000000000000000000e+03) (6, 1.50000000000000000000e+03) (7, 1.50000000000000000000e+03) (8, 1.50000000000000000000e+03) (9, 1.50000000000000000000e+03) (10, 1.50000000000000000000e+03) (11, 1.50000000000000000000e+03) (12, 1.50000000000000000000e+03) (13, 1.50000000000000000000e+03) (14, 1.50000000000000000000e+03) (15, 1.50000000000000000000e+03) (16, 1.50000000000000000000e+03) (17, 1.50000000000000000000e+03) (18, 1.50000000000000000000e+03) (19, 1.50000000000000000000e+03) (20, 1.50000000000000000000e+03) (21, 1.50000000000000000000e+03) (22, 4.92864456342507251119e-01) (23, 5.72124712483892738923e-01) (24, 4.76400804541809830273e-01) (25, 7.80033720556700505000e-01) (26, 1.02943060188686530410e+00) (27, 5.96102563537084906287e-01) (28, -3.83680207453051744237e-02) (29, 1.50000000000000000000e+03) (30, 1.50000000000000000000e+03) (31, 5.93241068520077630133e-01) (32, 4.52180701614534552579e-01) (33, 4.07113683448094565431e-01) (34, 4.85495209325329413197e-01) (35, 6.02173904297003570463e-01) (36, 5.00016158559324797039e-01) (37, 5.14942154036692412156e-01) (38, 7.82665047595580198880e-01) (39, 1.50000000000000000000e+03) (40, 1.50000000000000000000e+03) (41, 4.95604706522944638003e-01) (42, 4.20910582897529361723e-01) (43, 4.35886271395606594847e-01) (44, 4.82476050128615385759e-01) (45, 5.57374236714315296481e-01) (46, 5.71200652546154263867e-01) (47, 4.34227666014328883559e-01) (48, 3.91686116182192622936e-01) (49, 1.50000000000000000000e+03) (50, 1.50000000000000000000e+03) (51, 5.44445583285679157726e-01) (52, 4.15787656031898655851e-01) (53, 4.76664355058161737233e-01) (54, 5.18190547766952058772e-01) (55, 6.40547592870768678353e-01) (56, 4.51373857230016217734e-01) (57, 4.33478679099297492527e-01) (58, 4.17177332019777968863e-01) (59, 1.50000000000000000000e+03) (60, 1.50000000000000000000e+03) (61, 4.43441032682284796973e-01) (62, 4.10598853064926105905e-01) (63, 4.31035427708839791183e-01) (64, 4.32713556370042495836e-01) (65, 4.09645458578157317664e-01) (66, 4.87995457488937356416e-01) (67, 5.28825206109128420628e-01) (68, 4.00681768689165995756e-01) (69, 1.50000000000000000000e+03) (70, 1.50000000000000000000e+03) (71, 4.56627435040968365776e-01) (72, 5.23438852322941183814e-01) (73, 4.80642798212248256728e-01) (74, 5.56881516548891064566e-01) (75, 5.02545577541098853480e-01) (76, 5.90515689466760695936e-01) (77, 5.13693212817492028677e-01) (78, 4.33856017947254757328e-01) (79, 1.50000000000000000000e+03) (80, 1.50000000000000000000e+03) (81, 4.77283955810556770327e-01) (82, 5.47538257506459014046e-01) (83, 4.48669346956520553871e-01) (84, 4.61219242065757595306e-01) (85, 5.57918387998867837396e-01) (86, 5.56865258061294166048e-01) (87, 4.84557112835093339864e-01) (88, 4.89716476682296675271e-01) (89, 1.50000000000000000000e+03) (90, 1.50000000000000000000e+03) (91, 4.74313023645413667229e-01) (92, 3.52669230806555267232e-01) (93, 4.27769112150881702927e-01) (94, 4.31473163003331605658e-01) (95, 4.50339738481609686005e-01) (96, 4.58934047376785003713e-01) (97, 4.90939613030865751320e-01) (98, 5.88330801577575002170e-01) (99, 1.50000000000000000000e+03) (100, 1.50000000000000000000e+03) (101, 5.92193049934232940146e-01) (102, 5.98227278663150729976e-01) (103, 4.85202460307933403083e-01) (104, 5.83295962333478579254e-01) (105, 4.75695134584029455382e-01) (106, 4.76677056065678450558e-01) (107, 4.53206701173809012317e-01) (108, 5.26539661143493487039e-01) (109, 1.50000000000000000000e+03) (110, 1.50000000000000000000e+03) (111, 4.31900946248249373305e-01) (112, 5.22532538008830260701e-01) (113, 4.57548917839867896884e-01) (114, 1.74552031969411519663e-01) (115, 5.48659392047286531557e-01) (116, 5.94992546336280292429e-01) (117, 5.95323418505515400412e-01) (118, 4.11749057291626641142e-01) (119, 1.50000000000000000000e+03) (120, 1.50000000000000000000e+03) (121, 5.18946724863497577118e-01) (122, 4.82850852109013684021e-01) (123, 4.62318770575800064293e-01) (124, 4.59912164306310766726e-01) (125, 5.82896698621362174819e-01) (126, 5.68513002958002222620e-01) (127, 4.94489106552087165358e-01) (128, 4.10601906178573672346e-01) (129, 1.50000000000000000000e+03) (130, 1.50000000000000000000e+03) (131, -5.45570461800535463914e-02) (132, 4.40831152942007697959e-01) (133, 6.83756275210540276355e-01) (134, 7.39305225762016515745e-01) (135, 6.65188563292993251252e-01) (136, 5.21618665193528285862e-01) (137, 5.63892921317131534664e-01) (138, 4.19542712095224368252e-01) (139, 1.50000000000000000000e+03) (140, 1.50000000000000000000e+03) (141, 7.96825271345674601697e-01) (142, 4.34491433555673156608e-01) (143, 4.28713491140513158761e-01) (144, 5.81508902786847192701e-01) (145, 5.32076535700436448195e-01) (146, 5.95626337407704431470e-01) (147, 5.78484450123414983835e-01) (148, 6.00946837866100813663e-01) (149, 1.50000000000000000000e+03) (150, 1.50000000000000000000e+03) (151, 1.50000000000000000000e+03) (152, 1.50000000000000000000e+03) (153, 1.50000000000000000000e+03) (154, 1.50000000000000000000e+03) (155, 1.50000000000000000000e+03) (156, 1.50000000000000000000e+03) (157, 1.50000000000000000000e+03) (158, 1.50000000000000000000e+03) (159, 1.50000000000000000000e+03) (160, 4.86020960854654293648e-01) (0, 1.50000000000000000000e+03) (1, 1.50000000000000000000e+03) (2, 1.50000000000000000000e+03) (3, 1.50000000000000000000e+03) (4, 1.50000000000000000000e+03) (5, 1.50000000000000000000e+03) (6, 1.50000000000000000000e+03) (7, 1.50000000000000000000e+03) (8, 1.50000000000000000000e+03) (9, 1.50000000000000000000e+03) (10, 1.50000000000000000000e+03) (11, 1.50000000000000000000e+03) (12, 1.50000000000000000000e+03) (13, 1.50000000000000000000e+03) (14, 1.50000000000000000000e+03) (15, 1.50000000000000000000e+03) (16, 1.50000000000000000000e+03) (17, 1.50000000000000000000e+03) (18, 1.50000000000000000000e+03) (19, 1.50000000000000000000e+03) (20, 1.50000000000000000000e+03) (21, 1.50000000000000000000e+03) (22, 5.40402591379206986844e-01) (23, 6.23428709955733184600e-01) (24, 6.26232168345063455739e-01) (25, 9.18972227458066726058e-01) (26, 9.50121228986404720018e-01) (27, 6.41554368854043599590e-01) (28, 3.80132099738150597279e-01) (29, 1.50000000000000000000e+03) (30, 1.50000000000000000000e+03) (31, 4.37274188674430686063e-01) (32, 3.69462111294359352165e-01) (33, 4.08603787346210611808e-01) (34, 6.12951187002571562523e-01) (35, 5.31369366046026581074e-01) (36, 5.30322730198650060807e-01) (37, 5.38247739598834762376e-01) (38, 7.37550215550914156637e-01) (39, 1.50000000000000000000e+03) (40, 1.50000000000000000000e+03) (41, 5.84535289104839317353e-01) (42, 4.19612891014854161309e-01) (43, 4.39166470968429090149e-01) (44, 5.49844420296587976793e-01) (45, 5.71500125835783023831e-01) (46, 4.82789008269318975497e-01) (47, 4.39155560069153683145e-01) (48, 2.49726793519994189063e-01) (49, 1.50000000000000000000e+03) (50, 1.50000000000000000000e+03) (51, 5.85829764247699835700e-01) (52, 5.93030000231453469084e-01) (53, 4.79398424427083691413e-01) (54, 4.98625047522974484959e-01) (55, 4.61926316125615465946e-01) (56, 4.83337196816318981352e-01) (57, 4.56607257492930351805e-01) (58, 4.92954838429835007219e-01) (59, 1.50000000000000000000e+03) (60, 1.50000000000000000000e+03) (61, 4.36906521413127357789e-01) (62, 4.11608293068733144260e-01) (63, 4.55500673789173471384e-01) (64, 4.64594573934751176036e-01) (65, 5.37888783810565374033e-01) (66, 5.15445316749419402136e-01) (67, 4.61359302825968486950e-01) (68, 5.07111127587736354450e-01) (69, 1.50000000000000000000e+03) (70, 1.50000000000000000000e+03) (71, 6.03956461828384694179e-01) (72, 4.29746134203512597516e-01) (73, 4.65892956401956936929e-01) (74, 5.44298415334895202555e-01) (75, 4.46572589709441414296e-01) (76, 5.35140849146587549434e-01) (77, 5.65966074595181334317e-01) (78, 4.72780494033329445891e-01) (79, 1.50000000000000000000e+03) (80, 1.50000000000000000000e+03) (81, 5.34093968935633545136e-01) (82, 5.25157477162116137492e-01) (83, 5.92986064520666045219e-01) (84, 3.34616799259640052000e-01) (85, 4.86721701606725176692e-01) (86, 6.05152536056815737453e-01) (87, 5.12525778374283702554e-01) (88, 5.63807771736021923203e-01) (89, 1.50000000000000000000e+03) (90, 1.50000000000000000000e+03) (91, 5.16380810278350366183e-01) (92, 5.13041456328521494612e-01) (93, 5.21893792490135011164e-01) (94, 4.21270440333665285859e-01) (95, 3.73657526604675604975e-01) (96, 3.84343748170844656808e-01) (97, 3.93607616096291523800e-01) (98, 5.75973003424024021513e-01) (99, 1.50000000000000000000e+03) (100, 1.50000000000000000000e+03) (101, 5.50313088621397050737e-01) (102, 5.93487195027278979786e-01) (103, 5.34173329073193148275e-01) (104, 5.04239488838918115121e-01) (105, 4.95832986596122016199e-01) (106, 4.10529510667378250144e-01) (107, 5.42094565851851561966e-01) (108, 4.71573745939406818728e-01) (109, 1.50000000000000000000e+03) (110, 1.50000000000000000000e+03) (111, 4.47571031528364471352e-01) (112, 4.82013656210039609373e-01) (113, 4.55561525711335457700e-01) (114, 3.61445764526567125952e-01) (115, 4.73870806566380253777e-01) (116, 4.48540234936294579526e-01) (117, 4.66932225233852082891e-01) (118, 4.76759960649067560112e-01) (119, 1.50000000000000000000e+03) (120, 1.50000000000000000000e+03) (121, 5.40128276557328534935e-01) (122, 4.16678891158097364222e-01) (123, 4.10746416019651505724e-01) (124, 4.45196674331152231208e-01) (125, 4.28516363337007322176e-01) (126, 5.41812482024311092843e-01) (127, 4.87222173407929726174e-01) (128, 4.57265643057380599679e-01) (129, 1.50000000000000000000e+03) (130, 1.50000000000000000000e+03) (131, 6.06348444516184928443e-02) (132, 4.74544630874670747556e-01) (133, 6.56737016347526791904e-01) (134, 1.44015328219023586165e+00) (135, 7.45186750122724506085e-01) (136, 4.58601313148798206409e-01) (137, 4.82698468386266510421e-01) (138, 3.92654806313050330768e-01) (139, 1.50000000000000000000e+03) (140, 1.50000000000000000000e+03) (141, 8.28993610552749227161e-01) (142, 5.90493763581367514526e-01) (143, 4.53470889047260405924e-01) (144, 5.05027290001977546829e-01) (145, 5.83805370644179921769e-01) (146, 5.58372016564460893484e-01) (147, 5.72762832392538556725e-01) (148, 6.10116122691868989492e-01) (149, 1.50000000000000000000e+03) (150, 1.50000000000000000000e+03) (151, 1.50000000000000000000e+03) (152, 1.50000000000000000000e+03) (153, 1.50000000000000000000e+03) (154, 1.50000000000000000000e+03) (155, 1.50000000000000000000e+03) (156, 1.50000000000000000000e+03) (157, 1.50000000000000000000e+03) (158, 1.50000000000000000000e+03) (159, 1.50000000000000000000e+03) (160, 5.94989380763072839287e-01) (0, 1.50000000000000000000e+03) (1, 1.50000000000000000000e+03) (2, 1.50000000000000000000e+03) (3, 1.50000000000000000000e+03) (4, 1.50000000000000000000e+03) (5, 1.50000000000000000000e+03) (6, 1.50000000000000000000e+03) (7, 1.50000000000000000000e+03) (8, 1.50000000000000000000e+03) (9, 1.50000000000000000000e+03) (10, 1.50000000000000000000e+03) (11, 1.50000000000000000000e+03) (12, 1.50000000000000000000e+03) (13, 1.50000000000000000000e+03) (14, 1.50000000000000000000e+03) (15, 1.50000000000000000000e+03) (16, 1.50000000000000000000e+03) (17, 1.50000000000000000000e+03) (18, 1.50000000000000000000e+03) (19, 1.50000000000000000000e+03) (20, 1.50000000000000000000e+03) (21, 1.50000000000000000000e+03) (22, 1.02457393729904602808e-01) (23, 3.17150803826506729605e-03) (24, 1.51103272694050577707e-01) (25, 1.30125607532608489336e-01) (26, -4.70435756188434472946e-01) (27, -2.38836315306814733761e-01) (28, 4.00860526218895785178e-01) (29, 1.50000000000000000000e+03) (30, 1.50000000000000000000e+03) (31, -1.73207639847864802718e-01) (32, -1.05567081543740337590e-01) (33, -4.15287823984309301117e-01) (34, -2.39982207595976687609e-01) (35, -6.40434253008423381992e-02) (36, -2.50593673176670750369e-01) (37, -2.57594922414543125999e-01) (38, -4.86501661107388017058e-02) (39, 1.50000000000000000000e+03) (40, 1.50000000000000000000e+03) (41, -1.19428129535536345363e-01) (42, -8.25057006193561481844e-01) (43, -1.30922338758639178469e-01) (44, -6.27877759085099934611e-02) (45, -1.41517207420244595095e-01) (46, -5.85120130721138095864e-02) (47, -7.24615149086530047073e-02) (48, -1.09789550249335476906e+00) (49, 1.50000000000000000000e+03) (50, 1.50000000000000000000e+03) (51, -4.86517135788995108703e-02) (52, -5.08408559462129039375e-01) (53, -1.40798425269606536370e-01) (54, -1.73654242735334723990e-01) (55, 2.46385985864104095633e-01) (56, -1.36378548034203683770e-01) (57, -1.49167725737918699380e-01) (58, -3.34124160431738953525e-02) (59, 1.50000000000000000000e+03) (60, 1.50000000000000000000e+03) (61, 3.03533816366703939477e-03) (62, 6.91302302264524409781e-02) (63, -1.81540848972224533320e+00) (64, -1.32851492134304721704e-01) (65, -3.53228870313864471223e-03) (66, -8.45814940985397806239e-02) (67, -1.35205566897099900558e-02) (68, -1.27748069587539148095e+00) (69, 1.50000000000000000000e+03) (70, 1.50000000000000000000e+03) (71, -5.83856514890041672361e-02) (72, -9.63176098042283074241e-02) (73, -1.41937285383911121484e-01) (74, -1.23390209759906707698e-01) (75, -1.89920903652865818989e-01) (76, -1.95983511853685954396e-02) (77, -2.52991659799728409175e-02) (78, 5.93008569892427006565e-02) (79, 1.50000000000000000000e+03) (80, 1.50000000000000000000e+03) (81, -4.43619645977156140670e-01) (82, -3.04952257647338575985e-01) (83, 1.89120539346968763450e-01) (84, -2.01593208835634078724e-02) (85, -2.26726641270407897055e-01) (86, 6.67384168091493257258e-01) (87, -2.56363152580310549311e+00) (88, -1.96447208550546559280e+00) (89, 1.50000000000000000000e+03) (90, 1.50000000000000000000e+03) (91, 1.60729064363219799338e-02) (92, 7.97582810236632452905e-03) (93, -2.32672935547259984723e-01) (94, 5.86678391380733785243e-02) (95, 1.10269771124664725526e-01) (96, 1.86569999145976272992e-02) (97, 4.04533998331162679418e-03) (98, -5.98175552564065016181e-02) (99, 1.50000000000000000000e+03) (100, 1.50000000000000000000e+03) (101, -7.06310905103610164879e-01) (102, -2.48868491837511340847e+00) (103, -5.98771709626333303866e-01) (104, -3.71403928698857757618e-02) (105, -8.47522882511268921268e-02) (106, -4.25784660217777485847e-02) (107, 5.19498673758079856921e-02) (108, 5.26558571971622313423e-02) (109, 1.50000000000000000000e+03) (110, 1.50000000000000000000e+03) (111, -6.21791889960206511923e-02) (112, -4.65699617340841406921e-02) (113, -7.57194427208062292856e-01) (114, 2.20354813008555172615e+00) (115, 3.24076953245200971576e-01) (116, -7.95054333591278805660e-02) (117, 5.66320630989294582225e-02) (118, 8.52207455840468947050e-02) (119, 1.50000000000000000000e+03) (120, 1.50000000000000000000e+03) (121, -1.12874339305360379959e-01) (122, -5.18217129530897824274e-01) (123, -4.45977351346357353545e-01) (124, 5.14562108089880523853e-02) (125, -1.79310346414110866053e-01) (126, -1.09865332389117290046e-01) (127, -1.40202863866430660345e-01) (128, 2.32340222392370954196e-01) (129, 1.50000000000000000000e+03) (130, 1.50000000000000000000e+03) (131, 3.01236694471845589671e-01) (132, -6.24251746555011033379e-01) (133, -3.35571749133571950452e+00) (134, -9.46488214982973197209e-01) (135, -6.21926012041174036682e-01) (136, -9.36142949725353168411e-02) (137, -9.69786910065575658013e-02) (138, 2.34843643564036336224e-01) (139, 1.50000000000000000000e+03) (140, 1.50000000000000000000e+03) (141, -9.74090401643581266233e-02) (142, -1.06087804065727389635e-01) (143, -5.03037652402710255828e-02) (144, -3.52524971991363678114e-02) (145, 4.93178212613281097276e-02) (146, -1.39756896200737862346e-01) (147, -2.66699658402250842915e-02) (148, 1.33463699762969956186e-01) (149, 1.50000000000000000000e+03) (150, 1.50000000000000000000e+03) (151, 1.50000000000000000000e+03) (152, 1.50000000000000000000e+03) (153, 1.50000000000000000000e+03) (154, 1.50000000000000000000e+03) (155, 1.50000000000000000000e+03) (156, 1.50000000000000000000e+03) (157, 1.50000000000000000000e+03) (158, 1.50000000000000000000e+03) (159, 1.50000000000000000000e+03) (160, -4.66111236628830305495e-01) (0, 1.50000000000000000000e+03) (1, 1.50000000000000000000e+03) (2, 1.50000000000000000000e+03) (3, 1.50000000000000000000e+03) (4, 1.50000000000000000000e+03) (5, 1.50000000000000000000e+03) (6, 1.50000000000000000000e+03) (7, 1.50000000000000000000e+03) (8, 1.50000000000000000000e+03) (9, 1.50000000000000000000e+03) (10, 1.50000000000000000000e+03) (11, 1.50000000000000000000e+03) (12, 1.50000000000000000000e+03) (13, 1.50000000000000000000e+03) (14, 1.50000000000000000000e+03) (15, 1.50000000000000000000e+03) (16, 1.50000000000000000000e+03) (17, 1.50000000000000000000e+03) (18, 1.50000000000000000000e+03) (19, 1.50000000000000000000e+03) (20, 1.50000000000000000000e+03) (21, 1.50000000000000000000e+03) (22, 6.43404651285618689460e-02) (23, -3.02701328097375668702e-02) (24, 2.56912816507397001597e-01) (25, 2.35112178308117453218e-01) (26, -4.69001430016559472946e-01) (27, -2.54288765096817359623e-01) (28, 4.00219657078271229267e-01) (29, 1.50000000000000000000e+03) (30, 1.50000000000000000000e+03) (31, -4.58161088236498231785e-02) (32, 1.76645889435457059680e-01) (33, 3.38903145700327701473e-01) (34, -1.10438226182817803012e-01) (35, 3.53369914917828070733e-02) (36, -9.09022255068263201894e-02) (37, -1.74161776124998668447e-01) (38, -2.69765681047500427425e-01) (39, 1.50000000000000000000e+03) (40, 1.50000000000000000000e+03) (41, 2.64647459545296448447e-01) (42, -3.38581888561183763642e-01) (43, -4.41445845995474928092e-01) (44, -4.44113341862906074731e-01) (45, -3.05168492091416956868e-02) (46, -1.36431963437274095252e-01) (47, -1.97427226078414369548e-01) (48, -7.50790606514081804157e-02) (49, 1.50000000000000000000e+03) (50, 1.50000000000000000000e+03) (51, -2.22821170385328580499e-02) (52, -2.93220253854136747584e-01) (53, -2.25790769744654701290e-01) (54, -1.32819258016749985885e-01) (55, -1.20486737804737606417e-01) (56, 1.01964964751742413057e-02) (57, -1.90602260477334584099e-01) (58, -1.16055063818677162146e+00) (59, 1.50000000000000000000e+03) (60, 1.50000000000000000000e+03) (61, 1.99337408023286567771e-02) (62, 3.21534112075634592731e-01) (63, -4.27050243664959042200e-02) (64, -5.38559472564799981975e-02) (65, -2.30237396104671955543e-02) (66, 1.94914016250214983117e-01) (67, 6.68040571291185630853e-02) (68, -2.43413945633948941571e-01) (69, 1.50000000000000000000e+03) (70, 1.50000000000000000000e+03) (71, -6.42109043536446821854e-02) (72, 6.74628410396839461871e-02) (73, -2.28138769041538264082e-01) (74, -2.29779868938521897315e-01) (75, -3.40562962566197599545e-02) (76, 1.04963710750676808559e+00) (77, -1.42316323511695874693e-01) (78, -9.55565596652144799705e-01) (79, 1.50000000000000000000e+03) (80, 1.50000000000000000000e+03) (81, -6.34294131395246041372e-02) (82, -1.57990776305730218354e-01) (83, -1.08460423995505580996e-01) (84, -1.57703855003537396495e-01) (85, -8.62770368335708387475e-02) (86, -8.54023933719560285338e-02) (87, -2.36772026648328498544e-01) (88, -5.83024190296477576312e-02) (89, 1.50000000000000000000e+03) (90, 1.50000000000000000000e+03) (91, -6.93756127227216218278e-02) (92, 6.03715186790392474570e-02) (93, -4.59684395229908060454e-01) (94, 5.12331972139391800258e-03) (95, 1.05094277740817074185e-01) (96, 4.18107277631145579644e-01) (97, -1.14193700163521903029e-02) (98, 5.61567008684753579684e-02) (99, 1.50000000000000000000e+03) (100, 1.50000000000000000000e+03) (101, -1.57890924945080196595e-01) (102, -1.99558137383014838617e-01) (103, -4.44457655265081075235e-01) (104, -1.26744388304417116009e-01) (105, 5.73348985615535974847e-02) (106, 1.54910147138951209689e-01) (107, -1.00883470246902709477e-01) (108, 5.60137103798690305645e-01) (109, 1.50000000000000000000e+03) (110, 1.50000000000000000000e+03) (111, 2.60990977778524368969e-01) (112, 5.49154970333519537595e-02) (113, 4.27526575875746384092e-01) (114, 1.83937136542457108090e-01) (115, 1.22891587097754828584e-01) (116, -2.01214216941608368960e-02) (117, -7.94219037871337629753e-02) (118, -3.76028151573578883760e-01) (119, 1.50000000000000000000e+03) (120, 1.50000000000000000000e+03) (121, 3.78033241076864423569e-02) (122, 5.45195588449511950313e-02) (123, -4.69238375420140407801e-02) (124, -2.92928843224028517475e-03) (125, -9.21200036890269524648e-02) (126, -1.69883664880874467318e-02) (127, 2.51270526680752205595e-02) (128, 9.48207856809812760224e-02) (129, 1.50000000000000000000e+03) (130, 1.50000000000000000000e+03) (131, 3.88580556542246324803e-01) (132, -2.97149752971893776898e-01) (133, -1.04815972482517039133e+00) (134, -6.94845873363715837989e-01) (135, -4.74449966884496698860e-01) (136, 1.80182679658703326364e-01) (137, 1.37978308814177691444e-01) (138, 1.39634404546901125244e-01) (139, 1.50000000000000000000e+03) (140, 1.50000000000000000000e+03) (141, -1.03555284869081817845e-01) (142, -9.80145876103051677530e-02) (143, -7.71896493473174377664e-02) (144, -5.45700219311793105481e-02) (145, -3.46054163613406240430e-02) (146, -8.18893563785674238886e-02) (147, -1.64616739194332867280e-01) (148, 2.09299881403593651674e-01) (149, 1.50000000000000000000e+03) (150, 1.50000000000000000000e+03) (151, 1.50000000000000000000e+03) (152, 1.50000000000000000000e+03) (153, 1.50000000000000000000e+03) (154, 1.50000000000000000000e+03) (155, 1.50000000000000000000e+03) (156, 1.50000000000000000000e+03) (157, 1.50000000000000000000e+03) (158, 1.50000000000000000000e+03) (159, 1.50000000000000000000e+03) (160, -5.94743237400326529851e-01) (0, 1.50000000000000000000e+03) (1, 1.50000000000000000000e+03) (2, 1.50000000000000000000e+03) (3, 1.50000000000000000000e+03) (4, 1.50000000000000000000e+03) (5, 1.50000000000000000000e+03) (6, 1.50000000000000000000e+03) (7, 1.50000000000000000000e+03) (8, 1.50000000000000000000e+03) (9, 1.50000000000000000000e+03) (10, 1.50000000000000000000e+03) (11, 1.50000000000000000000e+03) (12, 1.50000000000000000000e+03) (13, 1.50000000000000000000e+03) (14, 1.50000000000000000000e+03) (15, 1.50000000000000000000e+03) (16, 1.50000000000000000000e+03) (17, 1.50000000000000000000e+03) (18, 1.50000000000000000000e+03) (19, 1.50000000000000000000e+03) (20, 1.50000000000000000000e+03) (21, 1.50000000000000000000e+03) (22, 5.45128859894285611176e-01) (23, 5.29925003962534169055e-01) (24, 6.67583118638631400898e-01) (25, 7.47352409709260867565e-01) (26, 1.01427721799234293876e+00) (27, 6.17905179843537655238e-01) (28, 2.16045925473953959184e-01) (29, 1.50000000000000000000e+03) (30, 1.50000000000000000000e+03) (31, 5.58011579312809868902e-01) (32, 4.79353550196802258299e-01) (33, 5.56863446758011582105e-01) (34, 5.55288917947746929471e-01) (35, 5.96049697021135971298e-01) (36, 4.23853589354064308470e-01) (37, 4.99317154036703791942e-01) (38, 6.48979741880973071133e-01) (39, 1.50000000000000000000e+03) (40, 1.50000000000000000000e+03) (41, 5.79338846322978828773e-01) (42, 4.46301207897529361723e-01) (43, 4.04250194784087801825e-01) (44, 4.23678009697622759422e-01) (45, 6.55592014622163321569e-01) (46, 5.09108668626191751549e-01) (47, 5.21135622763511996425e-01) (48, 3.16142898821219708871e-01) (49, 1.50000000000000000000e+03) (50, 1.50000000000000000000e+03) (51, 5.03368915678885864295e-01) (52, 5.01883845948032591977e-01) (53, 4.08624081673400141312e-01) (54, 5.32002806606545974866e-01) (55, 4.76031020315307806801e-01) (56, 4.16139123163434598851e-01) (57, 5.32550945469327574600e-01) (58, 4.48726405775519088248e-01) (59, 1.50000000000000000000e+03) (60, 1.50000000000000000000e+03) (61, 4.99391957436427336159e-01) (62, 3.98263649476917225289e-01) (63, 4.06578639854406731491e-01) (64, 4.75261162301801376451e-01) (65, 4.20174023031282317664e-01) (66, 5.04798431534211999860e-01) (67, 5.44560072370597003655e-01) (68, 5.21036987338059032204e-01) (69, 1.50000000000000000000e+03) (70, 1.50000000000000000000e+03) (71, 5.38963864547474358346e-01) (72, 4.38990600449705559161e-01) (73, 5.04531959858612655268e-01) (74, 3.98959144326982872997e-01) (75, 5.58929857865043011600e-01) (76, 5.02045230482418891604e-01) (77, 4.51535008202386123344e-01) (78, 4.59655575513897407536e-01) (79, 1.50000000000000000000e+03) (80, 1.50000000000000000000e+03) (81, 4.19636683040819580270e-01) (82, 4.59880527157189633591e-01) (83, 5.33426207398348894984e-01) (84, 4.14235671625106161020e-01) (85, 3.85396409382192051130e-01) (86, 4.71320830526275047490e-01) (87, 4.93799479217529035946e-01) (88, 5.76560893621411718613e-01) (89, 1.50000000000000000000e+03) (90, 1.50000000000000000000e+03) (91, 5.97536902088616983519e-01) (92, 4.73848431515421386617e-01) (93, 5.31132149260229780019e-01) (94, 5.02347190911179963813e-01) (95, 5.49930807405044519420e-01) (96, 4.56558189590510976608e-01) (97, 4.92372350484707843599e-01) (98, 4.75000188984352422761e-01) (99, 1.50000000000000000000e+03) (100, 1.50000000000000000000e+03) (101, 5.90319273617590178915e-01) (102, 6.08554424120418491206e-01) (103, 6.07706120927153259359e-01) (104, 4.52595284700231026420e-01) (105, 4.65551094595511694152e-01) (106, 5.89256401768765147864e-01) (107, 4.42855140163925131702e-01) (108, 4.53938335333564257912e-01) (109, 1.50000000000000000000e+03) (110, 1.50000000000000000000e+03) (111, 4.68644114036039671767e-01) (112, 4.55369454306522869480e-01) (113, 4.42195276147113791598e-01) (114, 2.59232209240780719917e-01) (115, 3.90215412928410054771e-01) (116, 5.23239618138914286405e-01) (117, 4.26774841971759522075e-01) (118, 5.37939242838467279739e-01) (119, 1.50000000000000000000e+03) (120, 1.50000000000000000000e+03) (121, 4.47022895248396556767e-01) (122, 5.64192409313698295392e-01) (123, 4.20418135810175064293e-01) (124, 5.82769828086723395977e-01) (125, 6.12309534457772475236e-01) (126, 5.17920960452284639963e-01) (127, 4.38410005734645225051e-01) (128, 4.87170509694198450301e-01) (129, 1.50000000000000000000e+03) (130, 1.50000000000000000000e+03) (131, 1.66007716558167796317e-02) (132, 6.10620965593834830187e-01) (133, 6.80341156048402173617e-01) (134, 8.70117109607346006506e-01) (135, 7.28596977670396661608e-01) (136, 5.53975653389420785722e-01) (137, 5.38825993705400851930e-01) (138, 2.96191168519164438333e-01) (139, 1.50000000000000000000e+03) (140, 1.50000000000000000000e+03) (141, 8.48980002778815467934e-01) (142, 5.75758593616355396350e-01) (143, 6.21473906175765811177e-01) (144, 5.67708035545024580770e-01) (145, 5.33003447191398138649e-01) (146, 4.84370639161766203262e-01) (147, 6.15131074955374113067e-01) (148, 6.79574847834491957421e-01) (149, 1.50000000000000000000e+03) (150, 1.50000000000000000000e+03) (151, 1.50000000000000000000e+03) (152, 1.50000000000000000000e+03) (153, 1.50000000000000000000e+03) (154, 1.50000000000000000000e+03) (155, 1.50000000000000000000e+03) (156, 1.50000000000000000000e+03) (157, 1.50000000000000000000e+03) (158, 1.50000000000000000000e+03) (159, 1.50000000000000000000e+03) (160, 4.39091376470282179767e-01) (0, 1.50000000000000000000e+03) (1, 1.50000000000000000000e+03) (2, 1.50000000000000000000e+03) (3, 1.50000000000000000000e+03) (4, 1.50000000000000000000e+03) (5, 1.50000000000000000000e+03) (6, 1.50000000000000000000e+03) (7, 1.50000000000000000000e+03) (8, 1.50000000000000000000e+03) (9, 1.50000000000000000000e+03) (10, 1.50000000000000000000e+03) (11, 1.50000000000000000000e+03) (12, 1.50000000000000000000e+03) (13, 1.50000000000000000000e+03) (14, 1.50000000000000000000e+03) (15, 1.50000000000000000000e+03) (16, 1.50000000000000000000e+03) (17, 1.50000000000000000000e+03) (18, 1.50000000000000000000e+03) (19, 1.50000000000000000000e+03) (20, 1.50000000000000000000e+03) (21, 1.50000000000000000000e+03) (22, 1.36401397171587272783e-02) (23, 7.75988739910684066636e-02) (24, -1.86634448853608835191e-03) (25, 2.62785527092566195684e-01) (26, -3.38563199084800703353e-01) (27, -1.73502527869595163379e-01) (28, 3.53082206651456176338e-01) (29, 1.50000000000000000000e+03) (30, 1.50000000000000000000e+03) (31, -2.78752050621730307345e-01) (32, 5.96205952816550380224e-02) (33, 6.90435265318648655475e-02) (34, -1.26879428167536612015e-01) (35, -1.67047859321451525050e-02) (36, -2.35965989849134361034e-01) (37, -2.62148148913109835245e-01) (38, 4.57165741770447012216e-02) (39, 1.50000000000000000000e+03) (40, 1.50000000000000000000e+03) (41, -8.49908054706548926616e-02) (42, -1.04993514322958544915e-01) (43, -4.46489108351929842033e-02) (44, -1.41912483816721213259e+00) (45, -3.59476849508656881582e-01) (46, -1.56331042619363730362e-01) (47, -9.24777733962568321280e-02) (48, -7.86898935811197047796e-02) (49, 1.50000000000000000000e+03) (50, 1.50000000000000000000e+03) (51, -8.51386414883059799985e-02) (52, -5.62190055873477700921e-02) (53, -1.66750781749374021867e-01) (54, -6.64453491930474121618e-02) (55, -1.02153620069463532682e-01) (56, 5.89091688422584830453e-02) (57, -1.72333711124054517194e-01) (58, -6.39662525153811695189e-02) (59, 1.50000000000000000000e+03) (60, 1.50000000000000000000e+03) (61, 6.62890404902211349825e-02) (62, 7.40689330529309131190e-02) (63, -3.46692928503099961901e-01) (64, -1.33612313864226589510e-02) (65, -1.82835495382877882831e-01) (66, 9.89886231445349096258e-02) (67, -7.82659846160564248718e-02) (68, -5.75523058200717516075e-03) (69, 1.50000000000000000000e+03) (70, 1.50000000000000000000e+03) (71, -1.54687195326095178194e-01) (72, -1.43305458730691975822e-01) (73, 1.59946146766548231988e-02) (74, -3.12173357353301039741e-01) (75, -8.31809226262244849615e-01) (76, 3.25902085310900077597e-02) (77, 4.05387753798039443542e-02) (78, -1.30499839840243214706e-01) (79, 1.50000000000000000000e+03) (80, 1.50000000000000000000e+03) (81, -2.07274857903642029111e-01) (82, -2.70877735409778885867e-01) (83, -8.26240779387973078851e-02) (84, -4.82820684806178346271e-02) (85, -1.77740736346799849121e-01) (86, -6.02955084864869483852e-01) (87, -4.71748955680850512451e-01) (88, -1.97738235419505720136e-01) (89, 1.50000000000000000000e+03) (90, 1.50000000000000000000e+03) (91, 7.08364717851456826558e-02) (92, -1.01969570087879587983e-01) (93, -2.20194675300170200627e-01) (94, 2.72865114568805154638e-02) (95, -4.09701607920597149493e-02) (96, -2.02242682148328550840e-01) (97, -9.73287033517300920193e-02) (98, 5.63945249399763620657e-02) (99, 1.50000000000000000000e+03) (100, 1.50000000000000000000e+03) (101, -1.70911110824805723141e+00) (102, -8.83686197718734578466e-01) (103, -3.29308083466628043201e-01) (104, -1.52599432837040388522e-01) (105, -7.39503759349538908330e-02) (106, -3.74788469035054749856e-02) (107, -9.74004702646050907200e-02) (108, 2.66192172692839068571e-01) (109, 1.50000000000000000000e+03) (110, 1.50000000000000000000e+03) (111, -8.64975489803524039134e-02) (112, -1.63377133085406911484e-01) (113, -5.90865365512518447844e-02) (114, -3.54016441087247821229e-02) (115, -1.22967746107016259738e-01) (116, -9.19182211734884471732e-03) (117, 6.48180827089286926146e-02) (118, 8.97076718525579019925e-02) (119, 1.50000000000000000000e+03) (120, 1.50000000000000000000e+03) (121, -5.35483049404985519959e-02) (122, -5.06968841540325482198e-02) (123, 4.46214251199609016063e-02) (124, -3.97565796809188909400e-02) (125, -2.56567090458515834062e-01) (126, 2.32207705556493962384e-02) (127, -1.11148303353187857812e-01) (128, -4.63749282272943250116e-02) (129, 1.50000000000000000000e+03) (130, 1.50000000000000000000e+03) (131, 1.04190701359215687205e+00) (132, -3.72374595272898456511e-01) (133, -1.27562398764314832711e+00) (134, -2.99866569235878399624e-01) (135, -2.94815014140257458664e-01) (136, 6.15987998028202487361e-03) (137, 5.68344372880131981640e-02) (138, 3.87855330860175540053e-01) (139, 1.50000000000000000000e+03) (140, 1.50000000000000000000e+03) (141, -5.24749611133367016569e-02) (142, -8.57546790448459467227e-03) (143, -1.56356186559622162280e-01) (144, -5.92858725695048355275e-02) (145, -6.02258154658708994011e-02) (146, -1.68520496180478818182e-01) (147, -2.94010096729764129619e-02) (148, 1.31785232966094983942e-01) (149, 1.50000000000000000000e+03) (150, 1.50000000000000000000e+03) (151, 1.50000000000000000000e+03) (152, 1.50000000000000000000e+03) (153, 1.50000000000000000000e+03) (154, 1.50000000000000000000e+03) (155, 1.50000000000000000000e+03) (156, 1.50000000000000000000e+03) (157, 1.50000000000000000000e+03) (158, 1.50000000000000000000e+03) (159, 1.50000000000000000000e+03) (160, -7.98689004306131322686e-01) (0, 1.50000000000000000000e+03) (1, 1.50000000000000000000e+03) (2, 1.50000000000000000000e+03) (3, 1.50000000000000000000e+03) (4, 1.50000000000000000000e+03) (5, 1.50000000000000000000e+03) (6, 1.50000000000000000000e+03) (7, 1.50000000000000000000e+03) (8, 1.50000000000000000000e+03) (9, 1.50000000000000000000e+03) (10, 1.50000000000000000000e+03) (11, 1.50000000000000000000e+03) (12, 1.50000000000000000000e+03) (13, 1.50000000000000000000e+03) (14, 1.50000000000000000000e+03) (15, 1.50000000000000000000e+03) (16, 1.50000000000000000000e+03) (17, 1.50000000000000000000e+03) (18, 1.50000000000000000000e+03) (19, 1.50000000000000000000e+03) (20, 1.50000000000000000000e+03) (21, 1.50000000000000000000e+03) (22, 5.71612023131857216462e-01) (23, 5.59899367706785500154e-01) (24, 5.74828197259716566769e-01) (25, 7.08223931053255761903e-01) (26, 9.77599093574736510703e-01) (27, 5.84950994316217776081e-01) (28, 1.61057427622476850848e-01) (29, 1.50000000000000000000e+03) (30, 1.50000000000000000000e+03) (31, 4.30081891812847005863e-01) (32, 5.34431684137468665519e-01) (33, 5.77211061462276187051e-01) (34, 5.32577730346667110872e-01) (35, 5.45319656250128459440e-01) (36, 5.19535453693254267726e-01) (37, 5.25769792245547873399e-01) (38, 6.61400403628428668057e-01) (39, 1.50000000000000000000e+03) (40, 1.50000000000000000000e+03) (41, 4.98912816462042996157e-01) (42, 5.43945253846473186776e-01) (43, 4.72405843826970595067e-01) (44, 5.02883201570913485057e-01) (45, 6.36164521407556082799e-01) (46, 5.64811796318088865654e-01) (47, 5.15807250642660308770e-01) (48, 2.96556715690478589487e-01) (49, 1.50000000000000000000e+03) (50, 1.50000000000000000000e+03) (51, 4.99218525053886530429e-01) (52, 4.61728815161041417081e-01) (53, 4.63357582056161565465e-01) (54, 6.19533339579084296744e-01) (55, 6.47988554443606812328e-01) (56, 1.92058168129439071903e-01) (57, 4.58112470396971671605e-01) (58, 5.35689299380715966414e-01) (59, 1.50000000000000000000e+03) (60, 1.50000000000000000000e+03) (61, 3.52962519292458976050e-01) (62, 4.78524879945667225289e-01) (63, 4.78954131115888970260e-01) (64, 4.10215999266408615220e-01) (65, 4.84242623566675078894e-01) (66, 5.30182961959259513307e-01) (67, 5.42411630400249089590e-01) (68, 5.25254522595394623963e-01) (69, 1.50000000000000000000e+03) (70, 1.50000000000000000000e+03) (71, 4.11339352828758664238e-01) (72, 4.31355103892946678545e-01) (73, 5.05429173675254639342e-01) (74, 4.42977703484831231151e-01) (75, 5.44708666458793677734e-01) (76, 6.17139221642778457166e-01) (77, 4.10995452950787765189e-01) (78, 5.00842101931629590794e-01) (79, 1.50000000000000000000e+03) (80, 1.50000000000000000000e+03) (81, 5.48560814259500428847e-01) (82, 5.03990639049411770500e-01) (83, 4.94395813416413087982e-01) (84, 2.89253985152211567922e-01) (85, 3.98238207747308170514e-01) (86, 6.09113794060830215926e-01) (87, 4.81299476237296797176e-01) (88, 4.21757423844343504182e-01) (89, 1.50000000000000000000e+03) (90, 1.50000000000000000000e+03) (91, 4.77169464487565309074e-01) (92, 4.12044233786787506002e-01) (93, 4.69834546308730061082e-01) (94, 5.72647486860123677843e-01) (95, 4.40891500764458044159e-01) (96, 3.96403529798660003713e-01) (97, 4.95289826483109485444e-01) (98, 4.64038276411968542146e-01) (99, 1.50000000000000000000e+03) (100, 1.50000000000000000000e+03) (101, 4.60253351923587128436e-01) (102, 4.29837377144367038806e-01) (103, 4.43002759237147880622e-01) (104, 4.72132636725739907035e-01) (105, 5.62084296230356494917e-01) (106, 4.39854543319821211789e-01) (107, 4.53469155325916251087e-01) (108, 5.85878037069498036615e-01) (109, 1.50000000000000000000e+03) (110, 1.50000000000000000000e+03) (111, 3.82236638862566313612e-01) (112, 4.96848948729197048557e-01) (113, 3.92003262052876777499e-01) (114, 3.93956829355027848827e-01) (115, 3.93710972957340976652e-01) (116, 5.05184605761409444291e-01) (117, 5.40611510403482653508e-01) (118, 5.45538119791589060092e-01) (119, 1.50000000000000000000e+03) (120, 1.50000000000000000000e+03) (121, 5.27625928552587275533e-01) (122, 4.72999776400147564637e-01) (123, 4.87660564470567825524e-01) (124, 4.63525446301368826418e-01) (125, 5.31748868182663758652e-01) (126, 4.43384823169451047775e-01) (127, 4.93213470296346045973e-01) (128, 3.70806984303573672346e-01) (129, 1.50000000000000000000e+03) (130, 1.50000000000000000000e+03) (131, 9.17239945778025311807e-02) (132, 4.51901714864766324009e-01) (133, 7.29361643238230272779e-01) (134, 1.33489435804090694759e+00) (135, 7.85169395229771249767e-01) (136, 4.76247348470158538003e-01) (137, 3.96407586992993776764e-01) (138, 5.18091900257412363295e-01) (139, 1.50000000000000000000e+03) (140, 1.50000000000000000000e+03) (141, 8.81459196293925439925e-01) (142, 4.58337065258066778117e-01) (143, 4.51445669339115063234e-01) (144, 5.02922717885187164910e-01) (145, 4.56798449562007824465e-01) (146, 5.78722283647443935806e-01) (147, 6.49579326083570607331e-01) (148, 6.32710185800701596648e-01) (149, 1.50000000000000000000e+03) (150, 1.50000000000000000000e+03) (151, 1.50000000000000000000e+03) (152, 1.50000000000000000000e+03) (153, 1.50000000000000000000e+03) (154, 1.50000000000000000000e+03) (155, 1.50000000000000000000e+03) (156, 1.50000000000000000000e+03) (157, 1.50000000000000000000e+03) (158, 1.50000000000000000000e+03) (159, 1.50000000000000000000e+03) (160, 4.79076261337022635267e-01) (0, 1.50000000000000000000e+03) (1, 1.50000000000000000000e+03) (2, 1.50000000000000000000e+03) (3, 1.50000000000000000000e+03) (4, 1.50000000000000000000e+03) (5, 1.50000000000000000000e+03) (6, 1.50000000000000000000e+03) (7, 1.50000000000000000000e+03) (8, 1.50000000000000000000e+03) (9, 1.50000000000000000000e+03) (10, 1.50000000000000000000e+03) (11, 1.50000000000000000000e+03) (12, 1.50000000000000000000e+03) (13, 1.50000000000000000000e+03) (14, 1.50000000000000000000e+03) (15, 1.50000000000000000000e+03) (16, 1.50000000000000000000e+03) (17, 1.50000000000000000000e+03) (18, 1.50000000000000000000e+03) (19, 1.50000000000000000000e+03) (20, 1.50000000000000000000e+03) (21, 1.50000000000000000000e+03) (22, 1.24211081307421769560e-01) (23, 9.10750934891826902096e-02) (24, -1.99183009742738309500e-01) (25, 5.22465869614551658984e-01) (26, 1.16351403172637168915e+00) (27, 5.74223425079354976575e-01) (28, -1.98000286779657441727e+00) (29, 1.50000000000000000000e+03) (30, 1.50000000000000000000e+03) (31, 1.15332307738873859893e-01) (32, -6.47998579760631354674e-01) (33, -1.13990242312539985514e-01) (34, -8.20777345425097587528e-02) (35, 2.55398755681033005904e-02) (36, 8.88240524947635223807e-02) (37, -9.08325051759006213414e-03) (38, 2.16411336160707706844e-01) (39, 1.50000000000000000000e+03) (40, 1.50000000000000000000e+03) (41, 5.36306137738037438933e-02) (42, 5.76682552359581782064e-02) (43, 1.48998843211156396793e-02) (44, 2.68984601549001278720e-01) (45, 1.54592607470892012822e-01) (46, 2.39001652186245999721e-01) (47, 3.49097628612773068502e-03) (48, -1.57197457774123749985e-01) (49, 1.50000000000000000000e+03) (50, 1.50000000000000000000e+03) (51, 5.57527882617226758222e-02) (52, 2.32976131593790825036e-01) (53, 1.87030045334800720802e-01) (54, 2.74908417227181900433e-01) (55, 1.32567941962670882150e-01) (56, 1.36793100240120646394e-01) (57, 3.02101399902602041347e-02) (58, -1.21162141782899718256e-01) (59, 1.50000000000000000000e+03) (60, 1.50000000000000000000e+03) (61, -5.32514710409578762018e-01) (62, -1.54066455717940919978e-01) (63, -8.01978724442863749600e-02) (64, -1.29775824545556389689e-01) (65, -4.93483639171967275461e-02) (66, 6.48972061255685770537e-03) (67, 2.45998467897527023363e-02) (68, -1.51084637814537601358e-02) (69, 1.50000000000000000000e+03) (70, 1.50000000000000000000e+03) (71, 7.54609993210677149067e-02) (72, -5.16989376847470406828e-03) (73, -8.48255654646041246103e-01) (74, 7.58929841725271003838e-02) (75, 2.69863994052850386662e-01) (76, 6.38035891328109006082e-01) (77, 6.97145228164588182107e-02) (78, -2.81048161371312867074e-02) (79, 1.50000000000000000000e+03) (80, 1.50000000000000000000e+03) (81, -1.18759726960522088435e-01) (82, 8.84988510925878157920e-02) (83, -2.06431346220518729950e-01) (84, 5.81496205373802574345e-02) (85, 2.87816699117232066563e-01) (86, -7.46373929316267448186e-02) (87, 2.99070901955106605019e-01) (88, 1.96292011361323481822e+00) (89, 1.50000000000000000000e+03) (90, 1.50000000000000000000e+03) (91, -2.56790828067471922636e-02) (92, -1.49393467555836356730e+00) (93, 1.34680709607180704168e-01) (94, 2.32269003124254191928e-01) (95, -6.94801178529539514850e-02) (96, -5.43873376082025905554e-01) (97, -6.43281314953061261752e-03) (98, -2.21899341492170110168e-01) (99, 1.50000000000000000000e+03) (100, 1.50000000000000000000e+03) (101, -1.09251086448002271423e-01) (102, 5.17600719964371250303e-02) (103, 9.02728525901623002348e-01) (104, -2.55201191602730213803e-02) (105, -3.61697191618376989730e-02) (106, -3.76945547799070260209e-02) (107, 2.01093952053473974673e-02) (108, 1.00739395667235220877e-01) (109, 1.50000000000000000000e+03) (110, 1.50000000000000000000e+03) (111, 1.54182480794360338150e-01) (112, 1.71769485612784350570e-01) (113, -7.16081487644135483706e-01) (114, -7.65172515934607333499e-01) (115, 7.12183674507036457157e-02) (116, 9.07588505586590654772e-02) (117, -3.74739604049563801436e-01) (118, -3.86051033906733076506e+00) (119, 1.50000000000000000000e+03) (120, 1.50000000000000000000e+03) (121, 1.73545960495692513925e-01) (122, -6.33800776457645823753e-03) (123, -1.19976901370921928969e-01) (124, -8.65575717930709975789e-02) (125, -2.15194624307436209454e-02) (126, 6.53724988899103826023e-02) (127, 1.41174718376980229406e-01) (128, -2.71380302302814679916e-01) (129, 1.50000000000000000000e+03) (130, 1.50000000000000000000e+03) (131, -2.12388292841670445199e+00) (132, 3.36736948801260316255e-01) (133, 3.13756948762199450176e-01) (134, 6.32169081196475080020e-01) (135, 7.76765910039846962931e-01) (136, 2.65987960290252067885e-01) (137, 3.30789357372816394953e-01) (138, -2.03912413409724635471e+00) (139, 1.50000000000000000000e+03) (140, 1.50000000000000000000e+03) (141, 1.70018973211401247525e+00) (142, 2.63656368112599792664e-01) (143, 2.60630355482052877836e-01) (144, 2.50590072278926823124e-01) (145, 3.60685293828212072409e-01) (146, 3.02500476394845563277e-01) (147, -2.45512681341914264233e-02) (148, 6.45669742299932791774e-01) (149, 1.50000000000000000000e+03) (150, 1.50000000000000000000e+03) (151, 1.50000000000000000000e+03) (152, 1.50000000000000000000e+03) (153, 1.50000000000000000000e+03) (154, 1.50000000000000000000e+03) (155, 1.50000000000000000000e+03) (156, 1.50000000000000000000e+03) (157, 1.50000000000000000000e+03) (158, 1.50000000000000000000e+03) (159, 1.50000000000000000000e+03) (160, 6.99683080206778412746e-02) (0, 1.50000000000000000000e+03) (1, 1.50000000000000000000e+03) (2, 1.50000000000000000000e+03) (3, 1.50000000000000000000e+03) (4, 1.50000000000000000000e+03) (5, 1.50000000000000000000e+03) (6, 1.50000000000000000000e+03) (7, 1.50000000000000000000e+03) (8, 1.50000000000000000000e+03) (9, 1.50000000000000000000e+03) (10, 1.50000000000000000000e+03) (11, 1.50000000000000000000e+03) (12, 1.50000000000000000000e+03) (13, 1.50000000000000000000e+03) (14, 1.50000000000000000000e+03) (15, 1.50000000000000000000e+03) (16, 1.50000000000000000000e+03) (17, 1.50000000000000000000e+03) (18, 1.50000000000000000000e+03) (19, 1.50000000000000000000e+03) (20, 1.50000000000000000000e+03) (21, 1.50000000000000000000e+03) (22, 6.56891369725287332937e-02) (23, 9.44489070678744685461e-02) (24, -4.30155184539381188480e-02) (25, 3.73113845775463637278e-01) (26, 5.76548797886713204619e-01) (27, 1.99006105441062230987e-01) (28, -1.64764075373446367001e-01) (29, 1.50000000000000000000e+03) (30, 1.50000000000000000000e+03) (31, -7.48207436512371149018e-02) (32, -1.21251312016463441701e-01) (33, 6.36195458537128395726e-03) (34, 3.79238528533802198711e-03) (35, -6.36232570215744669406e-02) (36, -3.64655935224374033732e-02) (37, -4.09004893008012709865e-02) (38, 1.18010055371761943266e-01) (39, 1.50000000000000000000e+03) (40, 1.50000000000000000000e+03) (41, -1.85257482049507489485e-02) (42, 1.14318139550152533812e-01) (43, 7.93728286889493553358e-03) (44, -3.23355579538248602556e-02) (45, 4.45981450218734809532e-02) (46, 9.46587474233487463637e-02) (47, 8.44587383249585238465e-02) (48, -1.61443961175506217609e-01) (49, 1.50000000000000000000e+03) (50, 1.50000000000000000000e+03) (51, 1.18448210688132063440e-01) (52, -4.09864541161170728434e-02) (53, -1.84134183629952315024e-03) (54, 1.71912640904039237810e-01) (55, 2.11616890703279839081e-02) (56, 8.39398419957840535854e-02) (57, -1.82377467295343344104e-03) (58, -3.00591819195658235819e-02) (59, 1.50000000000000000000e+03) (60, 1.50000000000000000000e+03) (61, -3.28513584582391590660e-02) (62, -2.48015424341198886804e-02) (63, -3.12686521609641934413e-04) (64, -6.93136757865582819882e-02) (65, -5.05583114317602957954e-02) (66, 1.81496228516164932743e-02) (67, -3.61311172210425218809e-02) (68, -7.99833690939211056081e-02) (69, 1.50000000000000000000e+03) (70, 1.50000000000000000000e+03) (71, 1.28603390520461324797e-01) (72, 2.20558109744897722082e-02) (73, 1.08343663461459072117e-01) (74, 9.37264510597708710993e-02) (75, 9.43773802862718225182e-02) (76, -6.67196740943896277054e-02) (77, 9.64115219196275963220e-02) (78, 3.08879084238229927040e-02) (79, 1.50000000000000000000e+03) (80, 1.50000000000000000000e+03) (81, -6.99201967030277371506e-03) (82, 6.53234313913118036510e-02) (83, -4.97664182515037481491e-02) (84, -4.03994183773173295982e-02) (85, 5.75716487174671096017e-02) (86, 1.12589551781837576838e-01) (87, -1.54418542616401675144e-02) (88, 5.23937920311033714094e-02) (89, 1.50000000000000000000e+03) (90, 1.50000000000000000000e+03) (91, 2.74336688407761652986e-02) (92, 6.09645677633523577765e-02) (93, -3.82774884076928639809e-02) (94, 1.16667990549311432341e-02) (95, -5.81031666933376073070e-02) (96, -4.55993603473652669988e-02) (97, -8.14786408142438300928e-02) (98, 4.06044335621537910708e-02) (99, 1.50000000000000000000e+03) (100, 1.50000000000000000000e+03) (101, 8.99077993853288071069e-02) (102, 1.62606589744018824144e-03) (103, 7.96051465219429488229e-02) (104, 3.37698500941257251373e-02) (105, 1.41730457919423524088e-02) (106, -5.61182448079438830901e-02) (107, -2.86788138384125694536e-02) (108, 7.17351843874599742756e-02) (109, 1.50000000000000000000e+03) (110, 1.50000000000000000000e+03) (111, -4.70608484747580824159e-02) (112, 4.17634459420290760079e-02) (113, 5.12618623943012219346e-02) (114, -3.80989889457837904718e-01) (115, 6.06339451113388633319e-02) (116, 1.37194233185712762511e-03) (117, 6.25060846513940115976e-02) (118, 4.27788214025127677687e-02) (119, 1.50000000000000000000e+03) (120, 1.50000000000000000000e+03) (121, -5.53113563366603722127e-02) (122, 1.12346502977869411311e-01) (123, -3.91785745261268927853e-02) (124, 2.02145294134164002497e-02) (125, 2.16283772482641217794e-02) (126, 1.04657554823082851736e-01) (127, 5.99395585397399614791e-03) (128, -1.04604518561717402259e-01) (129, 1.50000000000000000000e+03) (130, 1.50000000000000000000e+03) (131, -3.08097577201701222638e-01) (132, 9.83349011141773921008e-02) (133, 2.11380010009232621737e-01) (134, 4.53167325770569229260e-01) (135, 1.25131029880122895959e-01) (136, 1.31923856284900276048e-01) (137, 6.06825534489371671426e-03) (138, 6.27156384831466934271e-02) (139, 1.50000000000000000000e+03) (140, 1.50000000000000000000e+03) (141, 4.45119097436470545492e-01) (142, 9.00928381123882182635e-02) (143, 5.48331709184112850441e-02) (144, 4.20890273131786646355e-02) (145, -9.04138239437762337471e-04) (146, 1.23229165522042660719e-01) (147, -3.23088560416901447725e-03) (148, 1.96312809413635380729e-01) (149, 1.50000000000000000000e+03) (150, 1.50000000000000000000e+03) (151, 1.50000000000000000000e+03) (152, 1.50000000000000000000e+03) (153, 1.50000000000000000000e+03) (154, 1.50000000000000000000e+03) (155, 1.50000000000000000000e+03) (156, 1.50000000000000000000e+03) (157, 1.50000000000000000000e+03) (158, 1.50000000000000000000e+03) (159, 1.50000000000000000000e+03) (160, 1.38697344687145285302e-01) (0, 1.50000000000000000000e+03) (1, 1.50000000000000000000e+03) (2, 1.50000000000000000000e+03) (3, 1.50000000000000000000e+03) (4, 1.50000000000000000000e+03) (5, 1.50000000000000000000e+03) (6, 1.50000000000000000000e+03) (7, 1.50000000000000000000e+03) (8, 1.50000000000000000000e+03) (9, 1.50000000000000000000e+03) (10, 1.50000000000000000000e+03) (11, 1.50000000000000000000e+03) (12, 1.50000000000000000000e+03) (13, 1.50000000000000000000e+03) (14, 1.50000000000000000000e+03) (15, 1.50000000000000000000e+03) (16, 1.50000000000000000000e+03) (17, 1.50000000000000000000e+03) (18, 1.50000000000000000000e+03) (19, 1.50000000000000000000e+03) (20, 1.50000000000000000000e+03) (21, 1.50000000000000000000e+03) (22, 2.64132175446948821995e-02) (23, -7.01382976172995331599e-02) (24, -2.10847434081478851686e-01) (25, 2.11754026991474247898e-01) (26, -3.53571738046211225814e-01) (27, -2.36974314458092305546e-01) (28, 5.29125903352969828575e-01) (29, 1.50000000000000000000e+03) (30, 1.50000000000000000000e+03) (31, -7.54450573314600858588e-01) (32, -1.28067108245894206719e-01) (33, -6.15323459394753677354e-02) (34, -5.91017948052911079593e-01) (35, -4.87524828965664014380e-01) (36, -1.95511568125331325341e-01) (37, -2.88289302999960250773e-01) (38, -1.33424163597173239815e-01) (39, 1.50000000000000000000e+03) (40, 1.50000000000000000000e+03) (41, -1.20102021181553178519e-01) (42, -8.73769164862485542278e-02) (43, -4.35644399446208918647e-02) (44, -1.97840397566106024341e-01) (45, -2.21902343185036127204e-01) (46, -7.05290559315922660488e-01) (47, -1.71247428225187320328e-02) (48, -3.97032384089215442668e-02) (49, 1.50000000000000000000e+03) (50, 1.50000000000000000000e+03) (51, -6.48087353791197695596e-02) (52, -8.13344360174985681056e-02) (53, -2.42986118822804991746e-01) (54, -8.60219032067831013144e-01) (55, -2.46496145970822339022e-01) (56, -1.95265798888792974086e-01) (57, -6.56014569202362646250e-02) (58, -1.29736536547969211197e-01) (59, 1.50000000000000000000e+03) (60, 1.50000000000000000000e+03) (61, 7.33069545947191009150e-02) (62, -3.13230208034711923859e-02) (63, 5.02727668621306203467e-02) (64, -1.73463127292073526764e-01) (65, -2.98875208266137393220e-01) (66, -1.01113836678889429388e-01) (67, 8.96711847862568106615e-02) (68, 9.08262015004769662774e-01) (69, 1.50000000000000000000e+03) (70, 1.50000000000000000000e+03) (71, -8.10522322262448025043e-02) (72, 4.72927778535376652780e-02) (73, -8.17547723604002074538e-01) (74, -2.57253727670181175924e-01) (75, -5.81941482090184813991e-01) (76, -9.67940533832245403323e-02) (77, -6.95659524841896192981e-02) (78, 2.64282845936184805635e-02) (79, 1.50000000000000000000e+03) (80, 1.50000000000000000000e+03) (81, -1.66611751230402393986e-01) (82, -2.16046303250193916234e-01) (83, -1.07287302372164106146e-01) (84, -6.89249134629539295105e-02) (85, -2.33691356526714244524e-01) (86, -9.96897643577221659328e-01) (87, -1.21113538374491999661e-01) (88, 9.81109062845619134263e-02) (89, 1.50000000000000000000e+03) (90, 1.50000000000000000000e+03) (91, 6.73592823457893341565e-02) (92, 7.16597799500433008113e-02) (93, -1.63657567124074546094e-02) (94, 1.12035005690400993328e-01) (95, 4.26745267642657175045e-02) (96, -1.62126469229327885291e-01) (97, -5.89224445818366318606e-02) (98, 3.18531722789909821358e-02) (99, 1.50000000000000000000e+03) (100, 1.50000000000000000000e+03) (101, -1.32026935188491956197e-01) (102, -1.29887683689548449895e-01) (103, -6.93946750944794521487e-01) (104, -2.19167955908672773546e-01) (105, -4.66155859531176049865e-03) (106, -7.33915192305322622301e-02) (107, 1.27575187138385809371e-01) (108, 9.74951805835215512541e-02) (109, 1.50000000000000000000e+03) (110, 1.50000000000000000000e+03) (111, 9.78553674517306654179e-03) (112, 1.69771765099650910613e-02) (113, 4.42610700376708243731e-01) (114, -1.25515859702676948334e-02) (115, 4.31842761921481521625e-02) (116, 1.03429584946314795380e-01) (117, -1.35740424832697520463e-02) (118, -3.21589338105571831417e-01) (119, 1.50000000000000000000e+03) (120, 1.50000000000000000000e+03) (121, -5.13824286274496781074e-03) (122, -3.74996034371209430169e-02) (123, -5.24907401004687246271e-01) (124, -1.44590139250853760844e-01) (125, -1.98500017496434838504e-01) (126, -1.64952509828157178884e-01) (127, -1.23135483253655003688e-01) (128, -3.42356008277082013436e-01) (129, 1.50000000000000000000e+03) (130, 1.50000000000000000000e+03) (131, -1.56667701892184096923e-01) (132, -5.81846352961328361353e-01) (133, -2.45338936461884804530e+00) (134, -7.66567463400104509574e-01) (135, -5.15531986337754322136e-01) (136, -5.28204447529201995271e-02) (137, 6.37379153342593068876e-02) (138, 1.78226707262733374826e-01) (139, 1.50000000000000000000e+03) (140, 1.50000000000000000000e+03) (141, -8.85223303550548151764e-02) (142, -3.99182131812460760933e-01) (143, -1.84314577451012012732e-01) (144, -2.36304319074410518198e-01) (145, -2.32984005084295980881e-01) (146, -1.01849979331754519896e-01) (147, 5.31545377417570671930e-02) (148, 2.59006914143711075571e-01) (149, 1.50000000000000000000e+03) (150, 1.50000000000000000000e+03) (151, 1.50000000000000000000e+03) (152, 1.50000000000000000000e+03) (153, 1.50000000000000000000e+03) (154, 1.50000000000000000000e+03) (155, 1.50000000000000000000e+03) (156, 1.50000000000000000000e+03) (157, 1.50000000000000000000e+03) (158, 1.50000000000000000000e+03) (159, 1.50000000000000000000e+03) (160, -1.16164458996237707211e+00) (0, 1.50000000000000000000e+03) (1, 1.50000000000000000000e+03) (2, 1.50000000000000000000e+03) (3, 1.50000000000000000000e+03) (4, 1.50000000000000000000e+03) (5, 1.50000000000000000000e+03) (6, 1.50000000000000000000e+03) (7, 1.50000000000000000000e+03) (8, 1.50000000000000000000e+03) (9, 1.50000000000000000000e+03) (10, 1.50000000000000000000e+03) (11, 1.50000000000000000000e+03) (12, 1.50000000000000000000e+03) (13, 1.50000000000000000000e+03) (14, 1.50000000000000000000e+03) (15, 1.50000000000000000000e+03) (16, 1.50000000000000000000e+03) (17, 1.50000000000000000000e+03) (18, 1.50000000000000000000e+03) (19, 1.50000000000000000000e+03) (20, 1.50000000000000000000e+03) (21, 1.50000000000000000000e+03) (22, 3.79928628385222622033e-01) (23, 3.87948641956008200005e-01) (24, 3.53811444519856466151e-01) (25, 5.49339262050722032527e-01) (26, -3.94484185395767225635e-02) (27, 3.41980548017316643428e-01) (28, 8.38470174595589146094e-01) (29, 1.50000000000000000000e+03) (30, 1.50000000000000000000e+03) (31, 5.44083176479717156582e-01) (32, 4.79194070663390980780e-01) (33, 3.95128547028315180167e-01) (34, 3.70561751677388584447e-01) (35, 5.16370513608981784870e-01) (36, 4.29696857036095447580e-01) (37, 4.54962544115446287929e-01) (38, 4.54828665680078292333e-01) (39, 1.50000000000000000000e+03) (40, 1.50000000000000000000e+03) (41, 4.16737857656376387006e-01) (42, 5.10594659625218993959e-01) (43, 5.12276755623629953540e-01) (44, 2.92724744908761935758e-01) (45, 4.07672093911659150223e-01) (46, 3.88676475330966941790e-01) (47, 4.79702400092099912055e-01) (48, 7.57158140215083208524e-01) (49, 1.50000000000000000000e+03) (50, 1.50000000000000000000e+03) (51, 4.54013698261099940545e-01) (52, 3.44537410187793990968e-01) (53, 4.37201221408884566078e-01) (54, 2.86664747834527111614e-01) (55, 4.39470279775627137298e-01) (56, 3.67983354813675611616e-01) (57, 5.05335060743564046248e-01) (58, 5.35175635908769042892e-01) (59, 1.50000000000000000000e+03) (60, 1.50000000000000000000e+03) (61, 5.87167962542976762386e-01) (62, 4.45959471384661465532e-01) (63, 5.66732571491883829751e-01) (64, 3.97397988337957031035e-01) (65, 4.48455786984738480339e-01) (66, 4.52677964125861476141e-01) (67, 4.95274632432103401047e-01) (68, 4.34958753395419395193e-01) (69, 1.50000000000000000000e+03) (70, 1.50000000000000000000e+03) (71, 4.71633148230201526552e-01) (72, 5.37706294285403063604e-01) (73, 4.06175388417063187863e-01) (74, 5.36686695266966329321e-01) (75, 5.14605229967347588271e-01) (76, 5.43549126424201722863e-01) (77, 4.96575452343537171451e-01) (78, 6.27745403391099410229e-01) (79, 1.50000000000000000000e+03) (80, 1.50000000000000000000e+03) (81, 3.86916202066506731416e-01) (82, 5.08908314332430222748e-01) (83, 3.72719989192567435765e-01) (84, 5.24315539065769109506e-01) (85, 5.26321852576284388014e-01) (86, 3.52921082937405372615e-01) (87, 4.56508368326360325362e-01) (88, 4.01747511747421792716e-01) (89, 1.50000000000000000000e+03) (90, 1.50000000000000000000e+03) (91, 3.99872773924506874632e-01) (92, 5.50202201224407105862e-01) (93, 4.87229191910053371917e-01) (94, 3.75068777141754794435e-01) (95, 5.22849295931299029583e-01) (96, 4.49527761355047461578e-01) (97, 4.64536986610788127372e-01) (98, 5.33176624631104045804e-01) (99, 1.50000000000000000000e+03) (100, 1.50000000000000000000e+03) (101, 4.86663364082931371168e-01) (102, 5.01156321293658502114e-01) (103, 4.27425614560140332276e-01) (104, 6.25146917052503359180e-01) (105, 5.67416018069289762593e-01) (106, 4.94854982921448471878e-01) (107, 4.89955744768497680752e-01) (108, 4.37105217253027811264e-01) (109, 1.50000000000000000000e+03) (110, 1.50000000000000000000e+03) (111, 6.01445732425839429958e-01) (112, 3.62046869864245057791e-01) (113, 5.16640755307401944307e-01) (114, 5.48006724506709397282e-01) (115, 3.62427666072280052489e-01) (116, 5.19504237368902943572e-01) (117, 4.36894726658960896870e-01) (118, 4.20162901082569095745e-01) (119, 1.50000000000000000000e+03) (120, 1.50000000000000000000e+03) (121, 3.87526204123661344170e-01) (122, 3.63955703980181732859e-01) (123, 4.79579370324637155321e-01) (124, 3.56211543286010956511e-01) (125, 5.17430128635787744962e-01) (126, 4.57687534468156576040e-01) (127, 5.41543339809299695276e-01) (128, 5.99124321448455954275e-01) (129, 1.50000000000000000000e+03) (130, 1.50000000000000000000e+03) (131, 9.99651608995562046545e-01) (132, 4.31203524976496499477e-01) (133, 6.49189354494639880855e-01) (134, -6.36058271751709036756e-01) (135, 6.82507768284766475064e-02) (136, 6.46065550788204712163e-01) (137, 7.90233006469036713959e-01) (138, 7.28113457971270694458e-01) (139, 1.50000000000000000000e+03) (140, 1.50000000000000000000e+03) (141, 4.17727464426165651101e-01) (142, 3.81775095647346962568e-01) (143, 3.94750377271374131016e-01) (144, 3.96508192751606369786e-01) (145, 3.99205943677624131016e-01) (146, 5.05358291897966216411e-01) (147, 3.74276871113649989287e-01) (148, 7.15085810487404383018e-01) (149, 1.50000000000000000000e+03) (150, 1.50000000000000000000e+03) (151, 1.50000000000000000000e+03) (152, 1.50000000000000000000e+03) (153, 1.50000000000000000000e+03) (154, 1.50000000000000000000e+03) (155, 1.50000000000000000000e+03) (156, 1.50000000000000000000e+03) (157, 1.50000000000000000000e+03) (158, 1.50000000000000000000e+03) (159, 1.50000000000000000000e+03) (160, 3.89263115674149784429e-01) (0, 1.50000000000000000000e+03) (1, 1.50000000000000000000e+03) (2, 1.50000000000000000000e+03) (3, 1.50000000000000000000e+03) (4, 1.50000000000000000000e+03) (5, 1.50000000000000000000e+03) (6, 1.50000000000000000000e+03) (7, 1.50000000000000000000e+03) (8, 1.50000000000000000000e+03) (9, 1.50000000000000000000e+03) (10, 1.50000000000000000000e+03) (11, 1.50000000000000000000e+03) (12, 1.50000000000000000000e+03) (13, 1.50000000000000000000e+03) (14, 1.50000000000000000000e+03) (15, 1.50000000000000000000e+03) (16, 1.50000000000000000000e+03) (17, 1.50000000000000000000e+03) (18, 1.50000000000000000000e+03) (19, 1.50000000000000000000e+03) (20, 1.50000000000000000000e+03) (21, 1.50000000000000000000e+03) (22, 1.31661728420294388275e-01) (23, 2.15123260859622017840e-03) (24, 2.01396924210081873508e-01) (25, 1.43693722021925401888e-01) (26, -2.95020709675354153578e-01) (27, -7.90026705160878639500e-02) (28, 4.10559014037135905362e-01) (29, 1.50000000000000000000e+03) (30, 1.50000000000000000000e+03) (31, -1.27112028066086346634e-01) (32, 1.90628409651259246582e-02) (33, -8.99519609655079904753e-02) (34, -2.59573418625795970804e-01) (35, -2.01542560189507946600e-02) (36, -4.75944314463314754882e-01) (37, -5.88676983045688106966e-02) (38, 8.09382267493868740038e-02) (39, 1.50000000000000000000e+03) (40, 1.50000000000000000000e+03) (41, 1.27989950185037809627e-01) (42, -6.26756066254983176637e-04) (43, -2.07775255888362000989e-02) (44, -1.51481407290871961102e+00) (45, -2.62773630463165430715e-01) (46, -5.92458488550749659551e-02) (47, 4.06318564758410410986e-02) (48, 4.88169346038897777884e-02) (49, 1.50000000000000000000e+03) (50, 1.50000000000000000000e+03) (51, 4.42449431696289918747e-01) (52, -6.13750624508170475151e-05) (53, -1.66151540845985434824e-01) (54, -1.36053230011911163722e-01) (55, 2.74942788236717972072e-01) (56, -1.39416493062961610594e-01) (57, 2.27307445087729029232e-02) (58, -3.93595047637981643174e-01) (59, 1.50000000000000000000e+03) (60, 1.50000000000000000000e+03) (61, 7.11649441604865744954e-03) (62, -9.57803752830329452328e-02) (63, -1.62115948747390492546e-01) (64, 7.42230145145322539602e-02) (65, -2.72516393161631766129e-02) (66, 7.11533248433648818354e-02) (67, 4.55306563003927966538e-02) (68, 6.93225686926603690274e-01) (69, 1.50000000000000000000e+03) (70, 1.50000000000000000000e+03) (71, 6.09426709562063198544e-02) (72, 6.78780945965673787601e-02) (73, -3.04897200041090943312e-01) (74, -1.63823314800960045945e-01) (75, -9.89259152566732552492e-02) (76, -3.25912129131005290361e+00) (77, -8.26097574072652829358e-02) (78, -7.56876686222910599611e-01) (79, 1.50000000000000000000e+03) (80, 1.50000000000000000000e+03) (81, -1.06501363671610296824e-01) (82, 2.57933038058627585321e-02) (83, -4.03738663588551427441e-01) (84, -1.11803985471630076831e-01) (85, -9.23634250825351582614e-02) (86, -6.60384889322089274621e-01) (87, 4.86485430901009902917e-04) (88, 7.27461459746373551027e-02) (89, 1.50000000000000000000e+03) (90, 1.50000000000000000000e+03) (91, 2.82118161570112623016e-02) (92, 4.33789699430632141874e-02) (93, -9.11120281716762958624e-02) (94, -2.54108856062557723898e-02) (95, -6.88037302810515088991e-02) (96, -7.71700921053410815453e-01) (97, -5.53960497795319140035e-02) (98, 5.76572932126661941155e-01) (99, 1.50000000000000000000e+03) (100, 1.50000000000000000000e+03) (101, -4.49777973543377451726e-01) (102, -1.16331261130987358154e-02) (103, -2.56500525021830683148e-01) (104, -8.45450110957897127406e-02) (105, -8.51050942987513631133e-02) (106, 1.47732202020015232491e-02) (107, 5.96746423007867426991e-02) (108, 4.79711006459983962946e-02) (109, 1.50000000000000000000e+03) (110, 1.50000000000000000000e+03) (111, 3.58936037973335772544e-02) (112, 3.71105660194776532101e-02) (113, -3.70046438097752672380e-01) (114, 4.38596551786916213911e-02) (115, -6.51416676364096475238e-03) (116, -3.68548268654500729702e-02) (117, -2.75496737619690158783e-02) (118, 3.15268691566473469035e-01) (119, 1.50000000000000000000e+03) (120, 1.50000000000000000000e+03) (121, 8.79554338882257980003e-02) (122, 1.39852205775153112105e-02) (123, -1.29506343798881240481e+00) (124, -4.81531025930973174964e-02) (125, -1.01653221014992842242e-01) (126, -6.25633514956605574220e-01) (127, -6.40816777202635051713e-02) (128, 3.96107437442511478576e-01) (129, 1.50000000000000000000e+03) (130, 1.50000000000000000000e+03) (131, 7.10519954451376500870e-01) (132, -4.45756359160441706369e-01) (133, -1.41573679990221856784e+00) (134, -6.21406776864468435306e-01) (135, -2.88886745698422875428e-01) (136, -3.68492447720114510434e-02) (137, 4.14950804594474420561e-02) (138, 3.08848226852312009172e-02) (139, 1.50000000000000000000e+03) (140, 1.50000000000000000000e+03) (141, -4.81048528665334179655e-02) (142, -2.99816870414593740490e-02) (143, -6.02110926554125028276e-02) (144, -8.74014240955354841656e-03) (145, -1.19879059915296959371e-01) (146, -9.33653865501813257088e-02) (147, -7.16160939156227915880e-02) (148, 1.99021567051558101458e-01) (149, 1.50000000000000000000e+03) (150, 1.50000000000000000000e+03) (151, 1.50000000000000000000e+03) (152, 1.50000000000000000000e+03) (153, 1.50000000000000000000e+03) (154, 1.50000000000000000000e+03) (155, 1.50000000000000000000e+03) (156, 1.50000000000000000000e+03) (157, 1.50000000000000000000e+03) (158, 1.50000000000000000000e+03) (159, 1.50000000000000000000e+03) (160, -4.03978626377276273107e-01) (0, 1.50000000000000000000e+03) (1, 1.50000000000000000000e+03) (2, 1.50000000000000000000e+03) (3, 1.50000000000000000000e+03) (4, 1.50000000000000000000e+03) (5, 1.50000000000000000000e+03) (6, 1.50000000000000000000e+03) (7, 1.50000000000000000000e+03) (8, 1.50000000000000000000e+03) (9, 1.50000000000000000000e+03) (10, 1.50000000000000000000e+03) (11, 1.50000000000000000000e+03) (12, 1.50000000000000000000e+03) (13, 1.50000000000000000000e+03) (14, 1.50000000000000000000e+03) (15, 1.50000000000000000000e+03) (16, 1.50000000000000000000e+03) (17, 1.50000000000000000000e+03) (18, 1.50000000000000000000e+03) (19, 1.50000000000000000000e+03) (20, 1.50000000000000000000e+03) (21, 1.50000000000000000000e+03) (22, 3.75831495097299142505e-02) (23, 1.31577290134726548887e-01) (24, -2.92349327840143224932e-01) (25, 4.76585745641660674110e-01) (26, 1.11790246393109482526e+00) (27, 4.80247597981486751273e-01) (28, -1.96392010412469253389e+00) (29, 1.50000000000000000000e+03) (30, 1.50000000000000000000e+03) (31, 7.11112948844108361257e-01) (32, -1.57210920383934671385e+00) (33, -2.80869097729294858734e-01) (34, 1.62949751709175361114e-01) (35, -1.20334743035289709612e-01) (36, 2.63169438118427516382e-02) (37, -4.76690472792737907071e-01) (38, -3.91217752969488241632e-02) (39, 1.50000000000000000000e+03) (40, 1.50000000000000000000e+03) (41, 9.95305066942124838647e-02) (42, 2.12378912977895101255e-01) (43, 1.59205190624334580463e-01) (44, 7.82079537564774746050e-02) (45, 1.84586289796510483185e-01) (46, 2.51470212911043100590e-01) (47, -1.38874691718379683625e-01) (48, -1.61154222450772199871e+00) (49, 1.50000000000000000000e+03) (50, 1.50000000000000000000e+03) (51, -3.70669036841658333659e-02) (52, 2.77647945148954966577e-01) (53, 3.58621424200482374900e-01) (54, 2.59570480972219741478e-01) (55, 1.34279667452876338984e-01) (56, 1.99011664338405835917e-01) (57, -1.12875731715571886449e-01) (58, -4.95191938555822730450e+00) (59, 1.50000000000000000000e+03) (60, 1.50000000000000000000e+03) (61, -4.80439200125134177610e-02) (62, 7.76766407369261779881e-02) (63, 1.25589235464078741167e-01) (64, -1.70407023013954633806e-01) (65, 2.26630288743772632942e-02) (66, -1.31017474736257483886e-02) (67, -3.25128709143660821201e-02) (68, -1.69589349559468270667e-02) (69, 1.50000000000000000000e+03) (70, 1.50000000000000000000e+03) (71, -1.08040704823885169716e-01) (72, -9.31343525648937464734e-02) (73, -1.01671309553894251287e-01) (74, 1.33301816982693388525e-01) (75, 1.97835232988933046316e-01) (76, -2.86955153394488793328e-01) (77, 5.25275893737656984772e-02) (78, -1.24450369707747393599e-01) (79, 1.50000000000000000000e+03) (80, 1.50000000000000000000e+03) (81, 2.07722163884232757791e-01) (82, 7.27646609730593502130e-02) (83, 2.17477960714983868662e-02) (84, 1.20723981124065529724e-01) (85, 3.77059360623703154758e-01) (86, 3.32537032573473195773e-02) (87, 1.45130643203474241076e-01) (88, 8.61812440917298361320e-01) (89, 1.50000000000000000000e+03) (90, 1.50000000000000000000e+03) (91, 9.05365040481921762305e-02) (92, -1.06660704705732550801e-01) (93, 1.67812171062521990617e-02) (94, 2.62572730796375497508e-01) (95, 9.36638776210336511385e-03) (96, 1.45596335957202893674e+00) (97, -6.43185893769383371099e-02) (98, -3.83776568026674147482e-02) (99, 1.50000000000000000000e+03) (100, 1.50000000000000000000e+03) (101, 2.43149793386462885481e-02) (102, 4.90106581292207021949e-02) (103, 2.33351254009273423318e-01) (104, -1.59432084526246908851e-01) (105, -1.52574869421139430736e-01) (106, 1.34824660786295125181e-01) (107, -2.84902627168942615410e-02) (108, -2.76548211208562044749e-01) (109, 1.50000000000000000000e+03) (110, 1.50000000000000000000e+03) (111, 4.90141114087289664347e-01) (112, 1.26944579207694724365e-01) (113, -6.85752436775657336909e-01) (114, -1.98899173180710070463e-02) (115, 1.60776674219876986038e-01) (116, -1.57153401389616858598e-03) (117, -1.61566452139531441246e-01) (118, -1.06352116929349005403e+00) (119, 1.50000000000000000000e+03) (120, 1.50000000000000000000e+03) (121, 3.39436621687390187307e-03) (122, 2.32840037994291204626e-01) (123, 1.95843295712723908242e-01) (124, 3.67969549273932244882e-02) (125, 6.03592096673366551585e-02) (126, 3.07296316989105790241e-02) (127, -1.34592391201377364895e-01) (128, -1.68830812040852040745e-01) (129, 1.50000000000000000000e+03) (130, 1.50000000000000000000e+03) (131, -3.17133964571301341095e+00) (132, 3.14851537392615510313e-01) (133, 3.54346869086756000033e-01) (134, 1.37101305485160307462e+00) (135, 3.64957461317896358910e-01) (136, 3.78544938938533803707e-01) (137, 2.45937550927269432677e-01) (138, -1.55766741828254451363e+00) (139, 1.50000000000000000000e+03) (140, 1.50000000000000000000e+03) (141, 1.56617484251611971402e+00) (142, 5.49969411728346915802e-02) (143, 1.37777826213207388317e-01) (144, 4.78242099517275226495e-02) (145, 3.45978945725845948855e-02) (146, 1.42202875041332110762e-01) (147, 4.93662918812727558038e-01) (148, 7.67239562048334211575e-01) (149, 1.50000000000000000000e+03) (150, 1.50000000000000000000e+03) (151, 1.50000000000000000000e+03) (152, 1.50000000000000000000e+03) (153, 1.50000000000000000000e+03) (154, 1.50000000000000000000e+03) (155, 1.50000000000000000000e+03) (156, 1.50000000000000000000e+03) (157, 1.50000000000000000000e+03) (158, 1.50000000000000000000e+03) (159, 1.50000000000000000000e+03) (160, 1.46077621672818236398e-01) (0, 1.50000000000000000000e+03) (1, 1.50000000000000000000e+03) (2, 1.50000000000000000000e+03) (3, 1.50000000000000000000e+03) (4, 1.50000000000000000000e+03) (5, 1.50000000000000000000e+03) (6, 1.50000000000000000000e+03) (7, 1.50000000000000000000e+03) (8, 1.50000000000000000000e+03) (9, 1.50000000000000000000e+03) (10, 1.50000000000000000000e+03) (11, 1.50000000000000000000e+03) (12, 1.50000000000000000000e+03) (13, 1.50000000000000000000e+03) (14, 1.50000000000000000000e+03) (15, 1.50000000000000000000e+03) (16, 1.50000000000000000000e+03) (17, 1.50000000000000000000e+03) (18, 1.50000000000000000000e+03) (19, 1.50000000000000000000e+03) (20, 1.50000000000000000000e+03) (21, 1.50000000000000000000e+03) (22, 1.01579863855135288375e-01) (23, 9.64773337333323238729e-02) (24, 2.72541151688232008432e-01) (25, 2.08220089954483073003e-01) (26, -3.62965050083202345199e-01) (27, -1.59161549482721209614e-01) (28, 3.90679862901455232649e-01) (29, 1.50000000000000000000e+03) (30, 1.50000000000000000000e+03) (31, -1.10146575789989278893e-01) (32, 4.96351132423028459928e-02) (33, 3.10299688177770004172e-02) (34, -4.98677749222312005628e-01) (35, -4.98955530790967050070e-01) (36, -3.34849152076867162542e-01) (37, -5.38258160389119222344e-01) (38, -6.99512843019135410749e-01) (39, 1.50000000000000000000e+03) (40, 1.50000000000000000000e+03) (41, -1.08342813876820973085e-01) (42, 3.84994212557422180176e-02) (43, -1.23631857834431549414e-01) (44, -4.55738564542806590119e-01) (45, -1.12519655550182645642e-01) (46, 5.14216385403528999931e-02) (47, 3.40519830588542002370e-02) (48, -3.46637895578148391706e-01) (49, 1.50000000000000000000e+03) (50, 1.50000000000000000000e+03) (51, -7.36374479988111951823e-02) (52, 3.22582139739108694765e-02) (53, -1.03837489098776561414e-01) (54, -2.54918666997705545274e-01) (55, 3.84276552070039190134e-01) (56, -7.44451196701504114284e-02) (57, -1.79644252877655424827e-01) (58, -1.26953672046273752239e-01) (59, 1.50000000000000000000e+03) (60, 1.50000000000000000000e+03) (61, 9.30105988349442802665e-02) (62, 1.88959557428970553739e-01) (63, -5.25164738148805026324e-03) (64, -4.94562178533149779391e-02) (65, -7.81596670840206814157e-02) (66, 6.26060165970185877882e-01) (67, 3.25467025052834091348e-02) (68, 1.23825337826738879343e+00) (69, 1.50000000000000000000e+03) (70, 1.50000000000000000000e+03) (71, 2.91666664193872184757e-03) (72, 2.27330041516985159600e-02) (73, -4.35268698597734204903e-01) (74, -1.05291572366937247196e+00) (75, -2.16531714932297059129e-01) (76, 4.85597237831552674958e-01) (77, 4.80085741594547601996e-02) (78, -1.25580507456380274789e-01) (79, 1.50000000000000000000e+03) (80, 1.50000000000000000000e+03) (81,