FANN_FLO_2.1
num_layers=3
learning_rate=0.700000
connection_rate=1.000000
network_type=0
learning_momentum=0.000000
training_algorithm=2
train_error_function=1
train_stop_function=0
cascade_output_change_fraction=0.010000
quickprop_decay=-0.000100
quickprop_mu=1.750000
rprop_increase_factor=1.200000
rprop_decrease_factor=0.500000
rprop_delta_min=0.000000
rprop_delta_max=50.000000
rprop_delta_zero=0.100000
cascade_output_stagnation_epochs=12
cascade_candidate_change_fraction=0.010000
cascade_candidate_stagnation_epochs=12
cascade_max_out_epochs=150
cascade_min_out_epochs=50
cascade_max_cand_epochs=150
cascade_min_cand_epochs=50
cascade_num_candidate_groups=2
bit_fail_limit=3.49999999999999977796e-01
cascade_candidate_limit=1.00000000000000000000e+03
cascade_weight_multiplier=4.00000000000000022204e-01
cascade_activation_functions_count=10
cascade_activation_functions=3 5 7 8 10 11 14 15 16 17 
cascade_activation_steepnesses_count=4
cascade_activation_steepnesses=2.50000000000000000000e-01 5.00000000000000000000e-01 7.50000000000000000000e-01 1.00000000000000000000e+00 
layer_sizes=161 108 2 
scale_included=0
neurons (num_inputs, activation_function, activation_steepness)=(0, 0, 0.00000000000000000000e+00) (0, 0, 0.00000000000000000000e+00) (0, 0, 0.00000000000000000000e+00) (0, 0, 0.00000000000000000000e+00) (0, 0, 0.00000000000000000000e+00) (0, 0, 0.00000000000000000000e+00) (0, 0, 0.00000000000000000000e+00) (0, 0, 0.00000000000000000000e+00) (0, 0, 0.00000000000000000000e+00) (0, 0, 0.00000000000000000000e+00) (0, 0, 0.00000000000000000000e+00) (0, 0, 0.00000000000000000000e+00) (0, 0, 0.00000000000000000000e+00) (0, 0, 0.00000000000000000000e+00) (0, 0, 0.00000000000000000000e+00) (0, 0, 0.00000000000000000000e+00) (0, 0, 0.00000000000000000000e+00) (0, 0, 0.00000000000000000000e+00) (0, 0, 0.00000000000000000000e+00) (0, 0, 0.00000000000000000000e+00) (0, 0, 0.00000000000000000000e+00) (0, 0, 0.00000000000000000000e+00) (0, 0, 0.00000000000000000000e+00) (0, 0, 0.00000000000000000000e+00) (0, 0, 0.00000000000000000000e+00) (0, 0, 0.00000000000000000000e+00) (0, 0, 0.00000000000000000000e+00) (0, 0, 0.00000000000000000000e+00) (0, 0, 0.00000000000000000000e+00) (0, 0, 0.00000000000000000000e+00) (0, 0, 0.00000000000000000000e+00) (0, 0, 0.00000000000000000000e+00) (0, 0, 0.00000000000000000000e+00) (0, 0, 0.00000000000000000000e+00) (0, 0, 0.00000000000000000000e+00) (0, 0, 0.00000000000000000000e+00) (0, 0, 0.00000000000000000000e+00) (0, 0, 0.00000000000000000000e+00) (0, 0, 0.00000000000000000000e+00) (0, 0, 0.00000000000000000000e+00) (0, 0, 0.00000000000000000000e+00) (0, 0, 0.00000000000000000000e+00) (0, 0, 0.00000000000000000000e+00) (0, 0, 0.00000000000000000000e+00) (0, 0, 0.00000000000000000000e+00) (0, 0, 0.00000000000000000000e+00) (0, 0, 0.00000000000000000000e+00) (0, 0, 0.00000000000000000000e+00) (0, 0, 0.00000000000000000000e+00) (0, 0, 0.00000000000000000000e+00) (0, 0, 0.00000000000000000000e+00) (0, 0, 0.00000000000000000000e+00) (0, 0, 0.00000000000000000000e+00) (0, 0, 0.00000000000000000000e+00) (0, 0, 0.00000000000000000000e+00) (0, 0, 0.00000000000000000000e+00) (0, 0, 0.00000000000000000000e+00) (0, 0, 0.00000000000000000000e+00) (0, 0, 0.00000000000000000000e+00) (0, 0, 0.00000000000000000000e+00) (0, 0, 0.00000000000000000000e+00) (0, 0, 0.00000000000000000000e+00) (0, 0, 0.00000000000000000000e+00) (0, 0, 0.00000000000000000000e+00) (0, 0, 0.00000000000000000000e+00) (0, 0, 0.00000000000000000000e+00) (0, 0, 0.00000000000000000000e+00) (0, 0, 0.00000000000000000000e+00) (0, 0, 0.00000000000000000000e+00) (0, 0, 0.00000000000000000000e+00) (0, 0, 0.00000000000000000000e+00) (0, 0, 0.00000000000000000000e+00) (0, 0, 0.00000000000000000000e+00) (0, 0, 0.00000000000000000000e+00) (0, 0, 0.00000000000000000000e+00) (0, 0, 0.00000000000000000000e+00) (0, 0, 0.00000000000000000000e+00) (0, 0, 0.00000000000000000000e+00) (0, 0, 0.00000000000000000000e+00) (0, 0, 0.00000000000000000000e+00) (0, 0, 0.00000000000000000000e+00) (0, 0, 0.00000000000000000000e+00) (0, 0, 0.00000000000000000000e+00) (0, 0, 0.00000000000000000000e+00) (0, 0, 0.00000000000000000000e+00) (0, 0, 0.00000000000000000000e+00) (0, 0, 0.00000000000000000000e+00) (0, 0, 0.00000000000000000000e+00) (0, 0, 0.00000000000000000000e+00) (0, 0, 0.00000000000000000000e+00) (0, 0, 0.00000000000000000000e+00) (0, 0, 0.00000000000000000000e+00) (0, 0, 0.00000000000000000000e+00) (0, 0, 0.00000000000000000000e+00) (0, 0, 0.00000000000000000000e+00) (0, 0, 0.00000000000000000000e+00) (0, 0, 0.00000000000000000000e+00) (0, 0, 0.00000000000000000000e+00) (0, 0, 0.00000000000000000000e+00) (0, 0, 0.00000000000000000000e+00) (0, 0, 0.00000000000000000000e+00) (0, 0, 0.00000000000000000000e+00) (0, 0, 0.00000000000000000000e+00) (0, 0, 0.00000000000000000000e+00) (0, 0, 0.00000000000000000000e+00) (0, 0, 0.00000000000000000000e+00) (0, 0, 0.00000000000000000000e+00) (0, 0, 0.00000000000000000000e+00) (0, 0, 0.00000000000000000000e+00) (0, 0, 0.00000000000000000000e+00) (0, 0, 0.00000000000000000000e+00) (0, 0, 0.00000000000000000000e+00) (0, 0, 0.00000000000000000000e+00) (0, 0, 0.00000000000000000000e+00) (0, 0, 0.00000000000000000000e+00) (0, 0, 0.00000000000000000000e+00) (0, 0, 0.00000000000000000000e+00) (0, 0, 0.00000000000000000000e+00) (0, 0, 0.00000000000000000000e+00) (0, 0, 0.00000000000000000000e+00) (0, 0, 0.00000000000000000000e+00) (0, 0, 0.00000000000000000000e+00) (0, 0, 0.00000000000000000000e+00) (0, 0, 0.00000000000000000000e+00) (0, 0, 0.00000000000000000000e+00) (0, 0, 0.00000000000000000000e+00) (0, 0, 0.00000000000000000000e+00) (0, 0, 0.00000000000000000000e+00) (0, 0, 0.00000000000000000000e+00) (0, 0, 0.00000000000000000000e+00) (0, 0, 0.00000000000000000000e+00) (0, 0, 0.00000000000000000000e+00) (0, 0, 0.00000000000000000000e+00) (0, 0, 0.00000000000000000000e+00) (0, 0, 0.00000000000000000000e+00) (0, 0, 0.00000000000000000000e+00) (0, 0, 0.00000000000000000000e+00) (0, 0, 0.00000000000000000000e+00) (0, 0, 0.00000000000000000000e+00) (0, 0, 0.00000000000000000000e+00) (0, 0, 0.00000000000000000000e+00) (0, 0, 0.00000000000000000000e+00) (0, 0, 0.00000000000000000000e+00) (0, 0, 0.00000000000000000000e+00) (0, 0, 0.00000000000000000000e+00) (0, 0, 0.00000000000000000000e+00) (0, 0, 0.00000000000000000000e+00) (0, 0, 0.00000000000000000000e+00) (0, 0, 0.00000000000000000000e+00) (0, 0, 0.00000000000000000000e+00) (0, 0, 0.00000000000000000000e+00) (0, 0, 0.00000000000000000000e+00) (0, 0, 0.00000000000000000000e+00) (0, 0, 0.00000000000000000000e+00) (0, 0, 0.00000000000000000000e+00) (0, 0, 0.00000000000000000000e+00) (0, 0, 0.00000000000000000000e+00) (0, 0, 0.00000000000000000000e+00) (0, 0, 0.00000000000000000000e+00) (0, 0, 0.00000000000000000000e+00) (0, 0, 0.00000000000000000000e+00) (161, 5, 5.00000000000000000000e-01) (161, 5, 5.00000000000000000000e-01) (161, 5, 5.00000000000000000000e-01) (161, 5, 5.00000000000000000000e-01) (161, 5, 5.00000000000000000000e-01) (161, 5, 5.00000000000000000000e-01) (161, 5, 5.00000000000000000000e-01) (161, 5, 5.00000000000000000000e-01) (161, 5, 5.00000000000000000000e-01) (161, 5, 5.00000000000000000000e-01) (161, 5, 5.00000000000000000000e-01) (161, 5, 5.00000000000000000000e-01) (161, 5, 5.00000000000000000000e-01) (161, 5, 5.00000000000000000000e-01) (161, 5, 5.00000000000000000000e-01) (161, 5, 5.00000000000000000000e-01) (161, 5, 5.00000000000000000000e-01) (161, 5, 5.00000000000000000000e-01) (161, 5, 5.00000000000000000000e-01) (161, 5, 5.00000000000000000000e-01) (161, 5, 5.00000000000000000000e-01) (161, 5, 5.00000000000000000000e-01) (161, 5, 5.00000000000000000000e-01) (161, 5, 5.00000000000000000000e-01) (161, 5, 5.00000000000000000000e-01) (161, 5, 5.00000000000000000000e-01) (161, 5, 5.00000000000000000000e-01) (161, 5, 5.00000000000000000000e-01) (161, 5, 5.00000000000000000000e-01) (161, 5, 5.00000000000000000000e-01) (161, 5, 5.00000000000000000000e-01) (161, 5, 5.00000000000000000000e-01) (161, 5, 5.00000000000000000000e-01) (161, 5, 5.00000000000000000000e-01) (161, 5, 5.00000000000000000000e-01) (161, 5, 5.00000000000000000000e-01) (161, 5, 5.00000000000000000000e-01) (161, 5, 5.00000000000000000000e-01) (161, 5, 5.00000000000000000000e-01) (161, 5, 5.00000000000000000000e-01) (161, 5, 5.00000000000000000000e-01) (161, 5, 5.00000000000000000000e-01) (161, 5, 5.00000000000000000000e-01) (161, 5, 5.00000000000000000000e-01) (161, 5, 5.00000000000000000000e-01) (161, 5, 5.00000000000000000000e-01) (161, 5, 5.00000000000000000000e-01) (161, 5, 5.00000000000000000000e-01) (161, 5, 5.00000000000000000000e-01) (161, 5, 5.00000000000000000000e-01) (161, 5, 5.00000000000000000000e-01) (161, 5, 5.00000000000000000000e-01) (161, 5, 5.00000000000000000000e-01) (161, 5, 5.00000000000000000000e-01) (161, 5, 5.00000000000000000000e-01) (161, 5, 5.00000000000000000000e-01) (161, 5, 5.00000000000000000000e-01) (161, 5, 5.00000000000000000000e-01) (161, 5, 5.00000000000000000000e-01) (161, 5, 5.00000000000000000000e-01) (161, 5, 5.00000000000000000000e-01) (161, 5, 5.00000000000000000000e-01) (161, 5, 5.00000000000000000000e-01) (161, 5, 5.00000000000000000000e-01) (161, 5, 5.00000000000000000000e-01) (161, 5, 5.00000000000000000000e-01) (161, 5, 5.00000000000000000000e-01) (161, 5, 5.00000000000000000000e-01) (161, 5, 5.00000000000000000000e-01) (161, 5, 5.00000000000000000000e-01) (161, 5, 5.00000000000000000000e-01) (161, 5, 5.00000000000000000000e-01) (161, 5, 5.00000000000000000000e-01) (161, 5, 5.00000000000000000000e-01) (161, 5, 5.00000000000000000000e-01) (161, 5, 5.00000000000000000000e-01) (161, 5, 5.00000000000000000000e-01) (161, 5, 5.00000000000000000000e-01) (161, 5, 5.00000000000000000000e-01) (161, 5, 5.00000000000000000000e-01) (161, 5, 5.00000000000000000000e-01) (161, 5, 5.00000000000000000000e-01) (161, 5, 5.00000000000000000000e-01) (161, 5, 5.00000000000000000000e-01) (161, 5, 5.00000000000000000000e-01) (161, 5, 5.00000000000000000000e-01) (161, 5, 5.00000000000000000000e-01) (161, 5, 5.00000000000000000000e-01) (161, 5, 5.00000000000000000000e-01) (161, 5, 5.00000000000000000000e-01) (161, 5, 5.00000000000000000000e-01) (161, 5, 5.00000000000000000000e-01) (161, 5, 5.00000000000000000000e-01) (161, 5, 5.00000000000000000000e-01) (161, 5, 5.00000000000000000000e-01) (161, 5, 5.00000000000000000000e-01) (161, 5, 5.00000000000000000000e-01) (161, 5, 5.00000000000000000000e-01) (161, 5, 5.00000000000000000000e-01) (161, 5, 5.00000000000000000000e-01) (161, 5, 5.00000000000000000000e-01) (161, 5, 5.00000000000000000000e-01) (161, 5, 5.00000000000000000000e-01) (161, 5, 5.00000000000000000000e-01) (161, 5, 5.00000000000000000000e-01) (161, 5, 5.00000000000000000000e-01) (161, 5, 5.00000000000000000000e-01) (0, 5, 0.00000000000000000000e+00) (108, 5, 5.00000000000000000000e-01) (0, 5, 0.00000000000000000000e+00) 
connections (connected_to_neuron, weight)=(0, 1.50000000000000000000e+03) (1, 1.50000000000000000000e+03) (2, 1.50000000000000000000e+03) (3, 1.50000000000000000000e+03) (4, 1.50000000000000000000e+03) (5, 1.50000000000000000000e+03) (6, 1.50000000000000000000e+03) (7, 1.50000000000000000000e+03) (8, 1.50000000000000000000e+03) (9, 1.50000000000000000000e+03) (10, 1.50000000000000000000e+03) (11, 1.50000000000000000000e+03) (12, 1.50000000000000000000e+03) (13, 1.50000000000000000000e+03) (14, 1.50000000000000000000e+03) (15, 1.50000000000000000000e+03) (16, 1.50000000000000000000e+03) (17, 1.50000000000000000000e+03) (18, 1.50000000000000000000e+03) (19, 1.50000000000000000000e+03) (20, 1.50000000000000000000e+03) (21, 1.50000000000000000000e+03) (22, 8.47403127160916147531e-01) (23, 8.01394827124724096201e-01) (24, 5.51524445028268694990e-01) (25, 7.77809988739989077722e-01) (26, 1.36398507394178558627e+00) (27, 9.77773205983232918115e-01) (28, -3.13355559417144713397e-01) (29, 1.50000000000000000000e+03) (30, 1.50000000000000000000e+03) (31, -1.51329722892362045217e-01) (32, 5.09848573628074452913e-01) (33, 3.94582507875947396947e-01) (34, 3.20648397530380213638e-01) (35, 3.00740443470675078430e-01) (36, 3.80657318294435054185e-01) (37, 6.67800771720780783625e-01) (38, 6.22857483977914627715e-01) (39, 1.50000000000000000000e+03) (40, 1.50000000000000000000e+03) (41, 3.88920857295766586592e-01) (42, 4.65655890178474363150e-01) (43, 6.68474812765621706490e-01) (44, 3.72672258528093547358e-01) (45, 7.54355968666176712745e-01) (46, 5.69115140525404350491e-01) (47, 4.65346128293422200972e-01) (48, -1.17355250819218537295e+00) (49, 1.50000000000000000000e+03) (50, 1.50000000000000000000e+03) (51, 2.88108585045818432757e-01) (52, 4.08355630855223361575e-01) (53, 4.43575620668860970408e-01) (54, 3.31458946971262435888e-01) (55, 7.26248715339879669095e-01) (56, 5.15456895147296423332e-01) (57, 4.26608421134763104998e-01) (58, 5.92935774490808920056e-01) (59, 1.50000000000000000000e+03) (60, 1.50000000000000000000e+03) (61, 2.38664293440647962141e-01) (62, 2.78057059736694200947e-01) (63, 6.61643155326024468010e-01) (64, 4.78331634176185793716e-01) (65, 3.50136874394775976516e-01) (66, 6.01187591451839975498e-01) (67, 5.80740863106885440992e-01) (68, 6.53952653989023025005e-01) (69, 1.50000000000000000000e+03) (70, 1.50000000000000000000e+03) (71, 3.79790390596804749990e-01) (72, 4.42385345356049286547e-01) (73, 3.00308661301409707267e-01) (74, 2.88635770524384938085e-01) (75, 2.87419103599466874144e-01) (76, 6.63348803023903310638e-01) (77, 4.18669308449380439541e-01) (78, 6.66903338519013177965e-01) (79, 1.50000000000000000000e+03) (80, 1.50000000000000000000e+03) (81, 3.66114691071528164379e-01) (82, 3.50452211994650930649e-01) (83, 4.05618084038911308475e-01) (84, 3.18750031649424170332e-01) (85, 2.64240928759765514311e-01) (86, 4.00649445408845339411e-01) (87, 1.03365797580200746708e+00) (88, 7.47162862922848280967e-01) (89, 1.50000000000000000000e+03) (90, 1.50000000000000000000e+03) (91, 2.41553459339801629424e-01) (92, 2.77614430094095254731e-01) (93, 6.91205592815158254005e-01) (94, 6.68747108174798210456e-01) (95, 6.83949636446833375558e-01) (96, 6.19879688309506127197e-01) (97, 2.16730914103939659165e-01) (98, -7.30951267837364526692e-01) (99, 1.50000000000000000000e+03) (100, 1.50000000000000000000e+03) (101, 2.26640237372341957212e-01) (102, 4.39318480452766502165e-01) (103, 4.59677221677292580093e-01) (104, 6.99680606902365220812e-01) (105, 3.85996495821695317918e-01) (106, 3.03975528031498909431e-01) (107, 3.73365371710024207541e-01) (108, 3.58923367679346405623e-01) (109, 1.50000000000000000000e+03) (110, 1.50000000000000000000e+03) (111, 4.97214840377245115288e-01) (112, 4.42878446119204738363e-01) (113, 6.33004710769747513943e-01) (114, 3.22860140202920697927e-01) (115, 6.97777532688169999098e-01) (116, 3.10260262346712278880e-01) (117, 2.23879373235422840516e-01) (118, -8.50051017691406674004e-02) (119, 1.50000000000000000000e+03) (120, 1.50000000000000000000e+03) (121, 7.11823857164021522870e-01) (122, 4.45925867232538852836e-01) (123, 5.36802350748969203664e-01) (124, 7.73732629588745779436e-01) (125, 7.19798526587286047196e-01) (126, 3.10966525030914264782e-01) (127, 7.71147267788566015412e-01) (128, 3.15558570082237144216e-01) (129, 1.50000000000000000000e+03) (130, 1.50000000000000000000e+03) (131, 3.95280106205803782871e-01) (132, 2.74203817740214572662e-01) (133, 4.79265684076523978963e-01) (134, 9.35556353331558065989e-01) (135, -8.53483421235718409115e-02) (136, 6.50203191548038184067e-01) (137, 6.24644520847071671454e-01) (138, 3.94359405607889512702e-01) (139, 1.50000000000000000000e+03) (140, 1.50000000000000000000e+03) (141, 9.07803324062517291715e-01) (142, 6.88132080834698123262e-01) (143, 6.37478587561329912425e-01) (144, 4.85073794954499259990e-01) (145, 6.16226134234150957347e-01) (146, 6.11404356890400957347e-01) (147, 6.87188051232805796609e-01) (148, 6.22081214907966195682e-01) (149, 1.50000000000000000000e+03) (150, 1.50000000000000000000e+03) (151, 1.50000000000000000000e+03) (152, 1.50000000000000000000e+03) (153, 1.50000000000000000000e+03) (154, 1.50000000000000000000e+03) (155, 1.50000000000000000000e+03) (156, 1.50000000000000000000e+03) (157, 1.50000000000000000000e+03) (158, 1.50000000000000000000e+03) (159, 1.50000000000000000000e+03) (160, 6.95569883952154133233e-01) (0, 1.50000000000000000000e+03) (1, 1.50000000000000000000e+03) (2, 1.50000000000000000000e+03) (3, 1.50000000000000000000e+03) (4, 1.50000000000000000000e+03) (5, 1.50000000000000000000e+03) (6, 1.50000000000000000000e+03) (7, 1.50000000000000000000e+03) (8, 1.50000000000000000000e+03) (9, 1.50000000000000000000e+03) (10, 1.50000000000000000000e+03) (11, 1.50000000000000000000e+03) (12, 1.50000000000000000000e+03) (13, 1.50000000000000000000e+03) (14, 1.50000000000000000000e+03) (15, 1.50000000000000000000e+03) (16, 1.50000000000000000000e+03) (17, 1.50000000000000000000e+03) (18, 1.50000000000000000000e+03) (19, 1.50000000000000000000e+03) (20, 1.50000000000000000000e+03) (21, 1.50000000000000000000e+03) (22, 4.66761742310234206688e-01) (23, 4.09254421071707674695e-01) (24, 9.93397597606969634532e-02) (25, 3.12117083611999801551e-01) (26, 9.46931086319507731019e-01) (27, 5.19415087916086704034e-01) (28, -8.25556885128826634102e-01) (29, 1.50000000000000000000e+03) (30, 1.50000000000000000000e+03) (31, 1.50930494847602153508e-01) (32, 1.48623440447436139245e-01) (33, -2.28037324090268750387e-01) (34, -5.54148974639311411861e-02) (35, -9.27665988510917166598e-02) (36, -8.69579450567504325109e-02) (37, 2.49322653011869871387e-01) (38, 1.98709392932765488426e-01) (39, 1.50000000000000000000e+03) (40, 1.50000000000000000000e+03) (41, 1.54357363613283060655e-01) (42, -3.53177090376609022562e-03) (43, 1.66040494543522348936e-01) (44, -4.49551487785267017694e-02) (45, 2.20824143529409683273e-01) (46, -6.49161180480283123151e-02) (47, -1.69413041718062151730e-01) (48, -1.16421060284614477642e-01) (49, 1.50000000000000000000e+03) (50, 1.50000000000000000000e+03) (51, 2.69743539183059155562e-01) (52, -9.22894053183429957654e-02) (53, -1.47619527219133295226e-01) (54, -1.32741182562920168042e-01) (55, 1.35530114851232508233e-01) (56, 1.31226887784887530364e-01) (57, -1.36230592329972477472e-01) (58, 9.66384933846552024450e-02) (59, 1.50000000000000000000e+03) (60, 1.50000000000000000000e+03) (61, -9.55938939542484850120e-02) (62, -1.16339155759099782683e-01) (63, 1.33230895359471884776e-01) (64, -8.82762658117940690605e-02) (65, -3.18849203335571720896e-02) (66, -1.49857039945846259865e-01) (67, 2.92744844810457982565e-01) (68, 1.45926999000384027827e-01) (69, 1.50000000000000000000e+03) (70, 1.50000000000000000000e+03) (71, 2.15056314155792266396e-01) (72, -9.89792794808290188335e-02) (73, -1.06734139878615172381e-01) (74, -9.09502836905357880948e-02) (75, 3.14423974995884536465e-01) (76, -5.89826157254439362165e-02) (77, 1.67806939838732155357e-01) (78, -1.86457557880046333014e-03) (79, 1.50000000000000000000e+03) (80, 1.50000000000000000000e+03) (81, -7.08218494599840986403e-02) (82, -1.14171606971009684250e-01) (83, -1.50377706698188201573e-01) (84, -8.78323132939202583236e-02) (85, 1.46419757020552598892e-01) (86, -1.69432415483658505018e-01) (87, 2.07414343327019856655e-01) (88, 3.21079054050116496910e-01) (89, 1.50000000000000000000e+03) (90, 1.50000000000000000000e+03) (91, -1.83519268511907057695e-01) (92, -1.41107782476212556544e-01) (93, 2.23423722674631175522e-01) (94, 2.96145020379038892422e-01) (95, 1.85576049003541077020e-01) (96, 1.25242555415586348522e-01) (97, -1.58481664131539135010e-01) (98, -1.07306145621889240105e-01) (99, 1.50000000000000000000e+03) (100, 1.50000000000000000000e+03) (101, -3.29331321130330936797e-02) (102, -1.42085666024768964011e-01) (103, -8.40116944937389364956e-02) (104, 2.47003433314434445167e-01) (105, 1.97648223395723188212e-01) (106, 6.02544125090868978867e-02) (107, 1.75411401495116164861e-01) (108, -1.24900495400875582996e-01) (109, 1.50000000000000000000e+03) (110, 1.50000000000000000000e+03) (111, 1.69479143821256089675e-01) (112, -1.04096902976000549312e-01) (113, -1.12993996647927572030e-01) (114, -2.08590449661175181273e-01) (115, 1.58365380209143508106e-01) (116, -2.92905119136288270842e-02) (117, -3.83080456873567259946e-02) (118, 2.18362774167677915760e-02) (119, 1.50000000000000000000e+03) (120, 1.50000000000000000000e+03) (121, -1.24069106069032875084e-01) (122, -6.13766837068235315833e-02) (123, 1.27334760825243059612e-01) (124, 2.81583150070902454853e-01) (125, 2.58395159442407151840e-01) (126, 1.07385851503083690206e-01) (127, 2.86760001013765919442e-01) (128, 2.25221006740878970653e-01) (129, 1.50000000000000000000e+03) (130, 1.50000000000000000000e+03) (131, -2.23538708934222118963e-01) (132, -2.09277196660944964091e-01) (133, -1.13913443496203147659e-02) (134, 5.40737857834129087564e-01) (135, -1.44402069169628471945e-01) (136, 2.34448126421298863598e-01) (137, 2.33438676268104050582e-01) (138, -7.10161134167530266881e-02) (139, 1.50000000000000000000e+03) (140, 1.50000000000000000000e+03) (141, 5.46913891691854225918e-01) (142, -2.14939089729597604395e-01) (143, 2.23083860178743209612e-01) (144, 1.30676629890960349645e-01) (145, 1.75043082733906646409e-01) (146, 1.96667841573512441888e-01) (147, 2.41027383936799677322e-01) (148, 6.50980221064816205745e-02) (149, 1.50000000000000000000e+03) (150, 1.50000000000000000000e+03) (151, 1.50000000000000000000e+03) (152, 1.50000000000000000000e+03) (153, 1.50000000000000000000e+03) (154, 1.50000000000000000000e+03) (155, 1.50000000000000000000e+03) (156, 1.50000000000000000000e+03) (157, 1.50000000000000000000e+03) (158, 1.50000000000000000000e+03) (159, 1.50000000000000000000e+03) (160, 1.39013937244409080396e-01) (0, 1.50000000000000000000e+03) (1, 1.50000000000000000000e+03) (2, 1.50000000000000000000e+03) (3, 1.50000000000000000000e+03) (4, 1.50000000000000000000e+03) (5, 1.50000000000000000000e+03) (6, 1.50000000000000000000e+03) (7, 1.50000000000000000000e+03) (8, 1.50000000000000000000e+03) (9, 1.50000000000000000000e+03) (10, 1.50000000000000000000e+03) (11, 1.50000000000000000000e+03) (12, 1.50000000000000000000e+03) (13, 1.50000000000000000000e+03) (14, 1.50000000000000000000e+03) (15, 1.50000000000000000000e+03) (16, 1.50000000000000000000e+03) (17, 1.50000000000000000000e+03) (18, 1.50000000000000000000e+03) (19, 1.50000000000000000000e+03) (20, 1.50000000000000000000e+03) (21, 1.50000000000000000000e+03) (22, -2.97884559223081324397e-01) (23, -2.79226114937688840723e-01) (24, 1.80878634510332952923e-01) (25, 9.61368289293295930076e-02) (26, -5.10309830943314501894e-01) (27, -1.98433491626125557694e-01) (28, 1.15749959907056876318e+00) (29, 1.50000000000000000000e+03) (30, 1.50000000000000000000e+03) (31, -1.56032540800512348200e-01) (32, -4.16187922009264438250e-02) (33, 8.80314862900258704448e-02) (34, 1.29210274630803423346e-01) (35, 1.55059079769448299180e-01) (36, 2.27486997509664806705e-01) (37, -1.52253830829200298425e-01) (38, -3.72264873128651696543e-01) (39, 1.50000000000000000000e+03) (40, 1.50000000000000000000e+03) (41, -3.43943725308277076236e-02) (42, 1.27084122215052108817e-01) (43, -2.05934426728068026291e-01) (44, 2.43752565515223951209e-01) (45, -1.65290006558302227102e-01) (46, -1.60439691254140384680e-02) (47, 2.19537112716991805739e-01) (48, 2.25619630216049277260e-01) (49, 1.50000000000000000000e+03) (50, 1.50000000000000000000e+03) (51, -1.55078448520120371068e-01) (52, -4.49364358491314494493e-02) (53, 1.16797355054369431104e-01) (54, -2.86606959496802371490e-01) (55, -8.76346566654914588268e-02) (56, 1.15944478241765985826e-01) (57, 2.27325792557672268224e-01) (58, -5.06254693017061593863e-02) (59, 1.50000000000000000000e+03) (60, 1.50000000000000000000e+03) (61, -1.13578868481803652024e-01) (62, -1.36465497571045757397e-01) (63, -5.45666455087341767394e-02) (64, 1.72724714679792279437e-01) (65, 1.85131086208115580583e-01) (66, 2.59746201393658074363e-02) (67, -1.39187038819119812683e-01) (68, -1.21624593328429606021e-01) (69, 1.50000000000000000000e+03) (70, 1.50000000000000000000e+03) (71, -4.22312114441412284060e-02) (72, 2.24738933680977193141e-01) (73, -2.39048543203987601605e-03) (74, 1.94850843908775828162e-01) (75, 2.25330842387408913918e-01) (76, 1.15802856943442541993e-01) (77, 1.35599021410254927389e-01) (78, -1.52213436266538992836e-01) (79, 1.50000000000000000000e+03) (80, 1.50000000000000000000e+03) (81, 2.49331525693754246786e-01) (82, 1.85890482763386710729e-01) (83, 1.97265673842003913530e-01) (84, 2.25891125211237608905e-01) (85, -1.66247074339613748473e-01) (86, 2.59807923032587706480e-01) (87, -2.39030386537655403778e-01) (88, 9.74181199844839779134e-02) (89, 1.50000000000000000000e+03) (90, 1.50000000000000000000e+03) (91, 2.28382340135915073986e-01) (92, 2.60048422566635017983e-01) (93, -2.00228520972918155874e-01) (94, -2.30279082548218771986e-01) (95, -9.27771924760182331582e-02) (96, -1.29049254262121798620e-01) (97, 1.45901469869045535832e-01) (98, 1.93711554027345855822e-01) (99, 1.50000000000000000000e+03) (100, 1.50000000000000000000e+03) (101, 2.58882654988676574881e-01) (102, 9.36340749854364662319e-02) (103, 1.20818361864654721938e-01) (104, -2.56907082829930036305e-02) (105, -1.96768073329943782301e-01) (106, -5.40618633945071785929e-02) (107, 2.57961582907649367158e-01) (108, 1.88027919917464481081e-01) (109, 1.50000000000000000000e+03) (110, 1.50000000000000000000e+03) (111, -1.19133663881401202778e-01) (112, 2.62853750905832628249e-01) (113, -2.27892992179350772908e-01) (114, 3.15544176536017850765e-01) (115, -1.17689717649498620800e-01) (116, -1.39809893472970347972e-01) (117, 1.34598463457487355077e-01) (118, -1.06636715313166832719e-01) (119, 1.50000000000000000000e+03) (120, 1.50000000000000000000e+03) (121, -1.62586987665727100705e-01) (122, 2.12182575299664805124e-01) (123, -1.82696606069557315744e-01) (124, -2.20769766754678326004e-02) (125, -8.68996289274528710411e-02) (126, -3.53769059707392460878e-02) (127, -1.98092777561538674336e-01) (128, -2.45293623854667852680e-01) (129, 1.50000000000000000000e+03) (130, 1.50000000000000000000e+03) (131, 4.94584037634499429359e-01) (132, 1.69708583376276533894e-01) (133, 9.84174329717105167425e-02) (134, -6.55360781555812260679e-02) (135, -6.57882430022193737118e-02) (136, -1.16352221832314514649e-01) (137, -1.43957434985578336395e-01) (138, 2.93254952084328279760e-01) (139, 1.50000000000000000000e+03) (140, 1.50000000000000000000e+03) (141, -1.94028167555680697287e-01) (142, -1.36270034388785987733e-01) (143, -5.54135615268861250748e-02) (144, -7.68857324758698973399e-02) (145, -2.60617533961473683835e-02) (146, 3.12807759007269967078e-02) (147, 1.55999525368940412072e-03) (148, 5.92955029629656932277e-02) (149, 1.50000000000000000000e+03) (150, 1.50000000000000000000e+03) (151, 1.50000000000000000000e+03) (152, 1.50000000000000000000e+03) (153, 1.50000000000000000000e+03) (154, 1.50000000000000000000e+03) (155, 1.50000000000000000000e+03) (156, 1.50000000000000000000e+03) (157, 1.50000000000000000000e+03) (158, 1.50000000000000000000e+03) (159, 1.50000000000000000000e+03) (160, -8.01386441431031354421e-02) (0, 1.50000000000000000000e+03) (1, 1.50000000000000000000e+03) (2, 1.50000000000000000000e+03) (3, 1.50000000000000000000e+03) (4, 1.50000000000000000000e+03) (5, 1.50000000000000000000e+03) (6, 1.50000000000000000000e+03) (7, 1.50000000000000000000e+03) (8, 1.50000000000000000000e+03) (9, 1.50000000000000000000e+03) (10, 1.50000000000000000000e+03) (11, 1.50000000000000000000e+03) (12, 1.50000000000000000000e+03) (13, 1.50000000000000000000e+03) (14, 1.50000000000000000000e+03) (15, 1.50000000000000000000e+03) (16, 1.50000000000000000000e+03) (17, 1.50000000000000000000e+03) (18, 1.50000000000000000000e+03) (19, 1.50000000000000000000e+03) (20, 1.50000000000000000000e+03) (21, 1.50000000000000000000e+03) (22, 1.71788388813653630782e-01) (23, 1.66716368819392724010e-01) (24, 6.73867537949536798969e-01) (25, 4.54528950244370066880e-01) (26, -1.37409655967932642362e-01) (27, 2.04312431286734597080e-01) (28, 2.48938468688837177822e+00) (29, 1.50000000000000000000e+03) (30, 1.50000000000000000000e+03) (31, 1.57257511372827396556e+00) (32, 4.41880404416811534141e-01) (33, 7.46160294561706627370e-01) (34, 5.77378936047663882114e-01) (35, 5.36633751470281028517e-01) (36, 6.27905364644945729324e-01) (37, 2.60074437005333003459e-01) (38, 3.79319505654658217786e-01) (39, 1.50000000000000000000e+03) (40, 1.50000000000000000000e+03) (41, 6.68146363795245501471e-01) (42, 6.06904492663436490041e-01) (43, 4.16883806967076886441e-01) (44, 6.13021121423862891398e-01) (45, 2.23361061850602782286e-01) (46, 7.20279493690726635435e-01) (47, 6.82713326500763439952e-01) (48, 2.91101641595854720990e+00) (49, 1.50000000000000000000e+03) (50, 1.50000000000000000000e+03) (51, 6.25172522060853386172e-01) (52, 6.49364584277683176694e-01) (53, 6.01552012231324040314e-01) (54, 7.68514479881431067376e-01) (55, 4.08606472322641800510e-01) (56, 5.90476868843625601890e-01) (57, 6.79756963613985187855e-01) (58, 5.92741604916971920325e-01) (59, 1.50000000000000000000e+03) (60, 1.50000000000000000000e+03) (61, 7.15410808392754393736e-01) (62, 5.75302880973556640676e-01) (63, 4.36797142217964728950e-01) (64, 7.23662174247681311279e-01) (65, 5.77832795476123428635e-01) (66, 5.09092978180788580111e-01) (67, 2.55767676312882830114e-01) (68, 3.69890630581062751503e-01) (69, 1.50000000000000000000e+03) (70, 1.50000000000000000000e+03) (71, 7.04094895987641633539e-01) (72, 6.07190886343052405039e-01) (73, 6.44221452714704323483e-01) (74, 7.28424314382614901398e-01) (75, 7.06441502328825521317e-01) (76, 3.39812246823160857279e-01) (77, 7.29470875221627235163e-01) (78, 4.82239757387956324841e-01) (79, 1.50000000000000000000e+03) (80, 1.50000000000000000000e+03) (81, 6.93966689400933756104e-01) (82, 5.78490216007536250942e-01) (83, 6.55063122035429046264e-01) (84, 6.09944875724055202149e-01) (85, 5.56330569820754794463e-01) (86, 6.55610716885013711241e-01) (87, 1.23358812236021686548e-01) (88, 5.96944505409771619675e-01) (89, 1.50000000000000000000e+03) (90, 1.50000000000000000000e+03) (91, 7.18046771022382013250e-01) (92, 7.72503464754225932509e-01) (93, 2.99969815751557733474e-01) (94, 2.52644875947865388266e-01) (95, 4.23583561658226137592e-01) (96, 4.18634237262063446661e-01) (97, 8.02908180647287972320e-01) (98, 2.05157129354190503889e+00) (99, 1.50000000000000000000e+03) (100, 1.50000000000000000000e+03) (101, 9.36474460781822171107e-01) (102, 5.74441132580437829880e-01) (103, 5.75629616394140897206e-01) (104, 4.61866774108540933952e-01) (105, 6.00489746853811290350e-01) (106, 6.75626909065273006938e-01) (107, 6.24343325742117483124e-01) (108, 7.68077143173903631457e-01) (109, 1.50000000000000000000e+03) (110, 1.50000000000000000000e+03) (111, 4.46665910426783274723e-01) (112, 6.37197088869114192100e-01) (113, 3.03462615418310210913e-01) (114, 6.63625169845362128385e-01) (115, 3.53766386007637712030e-01) (116, 6.10162821761750517879e-01) (117, 6.50374943838741503832e-01) (118, 1.42318642052223820471e+00) (119, 1.50000000000000000000e+03) (120, 1.50000000000000000000e+03) (121, 4.40880524520927907783e-01) (122, 6.05431207421733286189e-01) (123, 4.21583540493681074857e-01) (124, 2.59811966312466668949e-01) (125, 3.97704168681880410041e-01) (126, 2.51809587595546502392e-01) (127, 3.22203365141605635458e-01) (128, 1.00311771793703252698e+00) (129, 1.50000000000000000000e+03) (130, 1.50000000000000000000e+03) (131, 9.93615373645651001056e-01) (132, 8.35172175611189615552e-01) (133, 7.83840324927563503188e-01) (134, 5.49695733697871169454e-01) (135, 4.53508947666207917759e-01) (136, 4.73953732829528684434e-01) (137, 4.94294305597002714414e-01) (138, 5.66683486286096438356e-01) (139, 1.50000000000000000000e+03) (140, 1.50000000000000000000e+03) (141, 2.22768496265077692309e-01) (142, 4.63973658957980261697e-01) (143, 3.94889441660346618423e-01) (144, 5.76078412464452682684e-01) (145, 4.45731730541882253949e-01) (146, 4.77476117542619926670e-01) (147, 4.12520997360517283070e-01) (148, 6.00310913803425716395e-01) (149, 1.50000000000000000000e+03) (150, 1.50000000000000000000e+03) (151, 1.50000000000000000000e+03) (152, 1.50000000000000000000e+03) (153, 1.50000000000000000000e+03) (154, 1.50000000000000000000e+03) (155, 1.50000000000000000000e+03) (156, 1.50000000000000000000e+03) (157, 1.50000000000000000000e+03) (158, 1.50000000000000000000e+03) (159, 1.50000000000000000000e+03) (160, 3.70222353046694430123e-01) (0, 1.50000000000000000000e+03) (1, 1.50000000000000000000e+03) (2, 1.50000000000000000000e+03) (3, 1.50000000000000000000e+03) (4, 1.50000000000000000000e+03) (5, 1.50000000000000000000e+03) (6, 1.50000000000000000000e+03) (7, 1.50000000000000000000e+03) (8, 1.50000000000000000000e+03) (9, 1.50000000000000000000e+03) (10, 1.50000000000000000000e+03) (11, 1.50000000000000000000e+03) (12, 1.50000000000000000000e+03) (13, 1.50000000000000000000e+03) (14, 1.50000000000000000000e+03) (15, 1.50000000000000000000e+03) (16, 1.50000000000000000000e+03) (17, 1.50000000000000000000e+03) (18, 1.50000000000000000000e+03) (19, 1.50000000000000000000e+03) (20, 1.50000000000000000000e+03) (21, 1.50000000000000000000e+03) (22, -8.74804040215952788406e-02) (23, -1.21147402169556078766e-01) (24, 3.00245264085505447760e-01) (25, 4.39600207986501900770e-01) (26, 1.65161714850063412463e+00) (27, 6.49738782142741388981e-01) (28, -1.72455278889939767062e+00) (29, 1.50000000000000000000e+03) (30, 1.50000000000000000000e+03) (31, -5.80884122456471896356e+00) (32, -1.20898196294339163592e-01) (33, 7.42552402327897737022e-02) (34, 7.27924608251459548391e-01) (35, 7.18952440282709437369e-01) (36, 6.89502256265409396718e-01) (37, 2.39294164663526126580e-01) (38, 6.68017071258836334785e-03) (39, 1.50000000000000000000e+03) (40, 1.50000000000000000000e+03) (41, -2.21852517391402243030e-01) (42, 9.88818383094563907454e-02) (43, 1.79637474510142530759e-01) (44, 2.42299382938774554574e+00) (45, 1.16821330290904512594e+00) (46, 1.40093365084018844913e-01) (47, 1.20535939326696497909e-01) (48, -7.89860996570116769000e-01) (49, 1.50000000000000000000e+03) (50, 1.50000000000000000000e+03) (51, -1.62575012089363202250e-01) (52, 1.12625461689653136310e-01) (53, 4.64944684363563787155e-02) (54, 4.86614127770164373032e+00) (55, 3.74062527305401859579e+00) (56, 3.20299773465916870485e-01) (57, 1.10484820029150998533e-01) (58, 6.54051251410908696116e-01) (59, 1.50000000000000000000e+03) (60, 1.50000000000000000000e+03) (61, 5.94062562353461082187e-02) (62, 1.37918170695077585419e-01) (63, -2.73067039280672552160e-01) (64, 6.48741683093995047393e-01) (65, 5.70589562812520822987e-01) (66, 6.82240492666339459760e-02) (67, -6.58979369333145964527e-02) (68, -3.71593145519295564583e-01) (69, 1.50000000000000000000e+03) (70, 1.50000000000000000000e+03) (71, -1.27510744316631535744e-01) (72, 8.27573463272985171413e-02) (73, -4.36257316846994092074e-02) (74, 3.54566938303590983850e-02) (75, 3.99440648481907134570e-01) (76, 1.20995451352448019078e-01) (77, -5.29676047637696156833e-01) (78, -2.20510963866361653363e-01) (79, 1.50000000000000000000e+03) (80, 1.50000000000000000000e+03) (81, -3.63825394639051447054e-01) (82, -1.04951477847864682591e-01) (83, -2.99253211606862556948e+00) (84, -3.22219165878652069601e-01) (85, 2.18112903916068023857e-01) (86, 1.25224036063225363513e+00) (87, -2.36522056260657698168e-01) (88, -6.21995927910880541667e-01) (89, 1.50000000000000000000e+03) (90, 1.50000000000000000000e+03) (91, 4.20016080700401014947e-02) (92, 6.07502744681936851512e-02) (93, 8.91839974745110453114e-01) (94, 5.01805990973306692560e-01) (95, -4.64501807152722379080e-01) (96, -2.05939322884707565198e-01) (97, 2.84381473666418718022e-03) (98, 8.51251601793569512289e-02) (99, 1.50000000000000000000e+03) (100, 1.50000000000000000000e+03) (101, 1.83531856590708024324e-02) (102, 2.29008378527062878005e-01) (103, -1.14014406644160747745e-02) (104, -3.28189308226182197004e+00) (105, -1.94070134455885745517e+00) (106, -6.84233637100213565319e-01) (107, 1.29262158087106709264e-02) (108, 2.03583334549362698906e-01) (109, 1.50000000000000000000e+03) (110, 1.50000000000000000000e+03) (111, 6.10021208664655312237e-02) (112, 2.19194824450040459674e-01) (113, 2.18669284977500183453e-01) (114, 8.81610181801406267432e-01) (115, 1.29882672521727893233e+00) (116, 1.83606167408420700715e-01) (117, 7.29502312569099281570e-02) (118, -1.09731543150646682072e+00) (119, 1.50000000000000000000e+03) (120, 1.50000000000000000000e+03) (121, -9.96859683002045277034e-02) (122, -2.57095426809400506851e-01) (123, 1.91717050434322133778e-01) (124, 6.21761244735625551172e-01) (125, 6.51552069647625242688e-01) (126, 4.17200784062179197420e-01) (127, -8.05747749888626185744e-02) (128, -3.35435423909064722725e-01) (129, 1.50000000000000000000e+03) (130, 1.50000000000000000000e+03) (131, -1.08174344696714919145e+00) (132, 1.17136444957170363090e-01) (133, 2.09237987358523780390e-01) (134, 5.95606535147452445522e-02) (135, 1.20941762447485889886e-01) (136, -1.55345333287387699084e-01) (137, -3.55417399561776981010e-01) (138, -1.10926590944488512314e+00) (139, 1.50000000000000000000e+03) (140, 1.50000000000000000000e+03) (141, 3.06056489577608159536e+00) (142, -4.41595147093782336434e-01) (143, -9.85306194726626394242e-01) (144, -9.99972942028443334550e-01) (145, -1.02078593030961672916e+00) (146, -9.67496136877934453935e-01) (147, 5.14694164830092049101e+00) (148, 7.21516918256054129444e-01) (149, 1.50000000000000000000e+03) (150, 1.50000000000000000000e+03) (151, 1.50000000000000000000e+03) (152, 1.50000000000000000000e+03) (153, 1.50000000000000000000e+03) (154, 1.50000000000000000000e+03) (155, 1.50000000000000000000e+03) (156, 1.50000000000000000000e+03) (157, 1.50000000000000000000e+03) (158, 1.50000000000000000000e+03) (159, 1.50000000000000000000e+03) (160, 3.50074834571312776266e-01) (0, 1.50000000000000000000e+03) (1, 1.50000000000000000000e+03) (2, 1.50000000000000000000e+03) (3, 1.50000000000000000000e+03) (4, 1.50000000000000000000e+03) (5, 1.50000000000000000000e+03) (6, 1.50000000000000000000e+03) (7, 1.50000000000000000000e+03) (8, 1.50000000000000000000e+03) (9, 1.50000000000000000000e+03) (10, 1.50000000000000000000e+03) (11, 1.50000000000000000000e+03) (12, 1.50000000000000000000e+03) (13, 1.50000000000000000000e+03) (14, 1.50000000000000000000e+03) (15, 1.50000000000000000000e+03) (16, 1.50000000000000000000e+03) (17, 1.50000000000000000000e+03) (18, 1.50000000000000000000e+03) (19, 1.50000000000000000000e+03) (20, 1.50000000000000000000e+03) (21, 1.50000000000000000000e+03) (22, -1.25405711433442534908e-01) (23, 7.07368726520199303520e-02) (24, 1.51372213433089736201e-01) (25, 4.20453482451109139539e-01) (26, 1.63762788621778576648e+00) (27, 5.78317305170811368775e-01) (28, -1.59350420267984804745e+00) (29, 1.50000000000000000000e+03) (30, 1.50000000000000000000e+03) (31, 1.70191932275068458225e+00) (32, -7.13728635719805715176e-01) (33, 1.05142218349489291462e+00) (34, 6.85450716126651204974e-01) (35, 8.10584290527909478996e-01) (36, 5.53355393550799878888e-01) (37, -6.09339074201422914445e-02) (38, 3.73380230867370044301e-01) (39, 1.50000000000000000000e+03) (40, 1.50000000000000000000e+03) (41, 7.66413074972972264975e-03) (42, 9.75796499333378974939e-02) (43, 3.00110835349041649156e-01) (44, 6.25378822590059968434e+00) (45, 5.74321170504417000124e-01) (46, 8.29037723402672177553e-02) (47, -1.66840882142261642818e-01) (48, -4.31414848936538974922e-01) (49, 1.50000000000000000000e+03) (50, 1.50000000000000000000e+03) (51, -2.64427072819262490300e-02) (52, 1.92372480674675744305e-01) (53, 6.14305757354034143169e-01) (54, -1.05723525448981625630e+00) (55, 1.82493317868353321920e-01) (56, -2.19537990658900250551e+00) (57, 2.91941513740723634918e-01) (58, 1.28354894617092485376e+00) (59, 1.50000000000000000000e+03) (60, 1.50000000000000000000e+03) (61, 2.18187129907984667110e-01) (62, 3.36430638413066918080e-02) (63, 3.59723599156149687062e+00) (64, 2.02496925620506207366e+00) (65, 1.35150408564129187461e+00) (66, -2.87899735213949903301e-01) (67, -1.05628264023538781524e-01) (68, -7.24090361185878217398e-01) (69, 1.50000000000000000000e+03) (70, 1.50000000000000000000e+03) (71, -4.92388302088472840090e-01) (72, -2.08953453857154164419e-01) (73, 3.18187939599895774911e-01) (74, 5.29931309510561909804e+00) (75, 1.51128337173444482477e-01) (76, 1.84043255099933800167e-01) (77, -3.19471598503771381239e-01) (78, 7.73982545425006551731e-02) (79, 1.50000000000000000000e+03) (80, 1.50000000000000000000e+03) (81, -7.43692728319838347595e-01) (82, -1.92854915967577950076e-01) (83, -4.32666287374766159179e-02) (84, -2.43348728528268332116e-01) (85, -1.19532331579278450207e+00) (86, -1.34993588192594504704e+00) (87, -1.66493302056725134275e-01) (88, -1.75265939190060460184e+00) (89, 1.50000000000000000000e+03) (90, 1.50000000000000000000e+03) (91, 7.36679714326260864921e-02) (92, -6.35631872060572367111e-01) (93, 8.22330158085062934425e-01) (94, 6.95944688167183578287e-01) (95, -3.13768197449349695027e-01) (96, 3.92302164860722502038e-01) (97, -4.86945418593795087414e-01) (98, 1.34966803285095665599e-01) (99, 1.50000000000000000000e+03) (100, 1.50000000000000000000e+03) (101, 1.00324870049399259009e-01) (102, 1.46089128072060286945e-01) (103, 1.08950005800947469226e+00) (104, 5.19470643448759084038e+00) (105, -2.83034604893071151110e+00) (106, 4.12569424656186012346e-01) (107, 6.43002069746630572356e-02) (108, 1.81819803287418257920e-01) (109, 1.50000000000000000000e+03) (110, 1.50000000000000000000e+03) (111, -1.88689861220097543359e+00) (112, -8.01319804333619906123e-02) (113, 2.50288123130243289616e-01) (114, 3.16371925563729217146e+00) (115, 8.00011885727461957707e-01) (116, 1.33709035163227435428e-01) (117, 2.02286691089198777949e-01) (118, -7.75314542768074654866e-02) (119, 1.50000000000000000000e+03) (120, 1.50000000000000000000e+03) (121, -8.53904686718362948561e-01) (122, -3.73127610595858250075e-01) (123, 3.20440666111949268302e-01) (124, 3.21167200427047938582e-01) (125, 1.68243623893222643551e-01) (126, 1.01772897209272808472e-01) (127, -5.67491755101261818872e-01) (128, 5.97578140744711605592e-01) (129, 1.50000000000000000000e+03) (130, 1.50000000000000000000e+03) (131, -1.06078048069643648965e+00) (132, 1.80969480641371333052e-01) (133, 3.84097769836748370587e-01) (134, 2.16946685976851044719e-01) (135, 3.77212866283435810377e-01) (136, 2.43085211975783671567e-01) (137, 1.54492406353369752386e-02) (138, -1.13487178286040846231e+00) (139, 1.50000000000000000000e+03) (140, 1.50000000000000000000e+03) (141, 3.04000214269475987905e+00) (142, -7.67325742158760926159e-01) (143, 2.23397918270333700752e-01) (144, 1.94430630878911631099e-01) (145, 2.74710171149475879115e-01) (146, 1.52066126690615394113e-01) (147, 3.63626830517533505827e+00) (148, 7.58882645382652376576e-01) (149, 1.50000000000000000000e+03) (150, 1.50000000000000000000e+03) (151, 1.50000000000000000000e+03) (152, 1.50000000000000000000e+03) (153, 1.50000000000000000000e+03) (154, 1.50000000000000000000e+03) (155, 1.50000000000000000000e+03) (156, 1.50000000000000000000e+03) (157, 1.50000000000000000000e+03) (158, 1.50000000000000000000e+03) (159, 1.50000000000000000000e+03) (160, 4.24543850482451246009e-01) (0, 1.50000000000000000000e+03) (1, 1.50000000000000000000e+03) (2, 1.50000000000000000000e+03) (3, 1.50000000000000000000e+03) (4, 1.50000000000000000000e+03) (5, 1.50000000000000000000e+03) (6, 1.50000000000000000000e+03) (7, 1.50000000000000000000e+03) (8, 1.50000000000000000000e+03) (9, 1.50000000000000000000e+03) (10, 1.50000000000000000000e+03) (11, 1.50000000000000000000e+03) (12, 1.50000000000000000000e+03) (13, 1.50000000000000000000e+03) (14, 1.50000000000000000000e+03) (15, 1.50000000000000000000e+03) (16, 1.50000000000000000000e+03) (17, 1.50000000000000000000e+03) (18, 1.50000000000000000000e+03) (19, 1.50000000000000000000e+03) (20, 1.50000000000000000000e+03) (21, 1.50000000000000000000e+03) (22, 2.76749926300397686152e-01) (23, 1.52518960328441560703e-01) (24, 2.39952111192833467124e-01) (25, 2.98368692563975523857e-01) (26, 7.62629937481284048140e-01) (27, 3.46329301941098788298e-01) (28, -4.94797276260058260799e-01) (29, 1.50000000000000000000e+03) (30, 1.50000000000000000000e+03) (31, -4.34543074933206041610e-02) (32, 9.75849046140758874524e-02) (33, -2.17648931978490500772e-01) (34, -9.02108345042633708033e-02) (35, -2.81606819127839975991e-02) (36, -1.10803726489857992665e-01) (37, 4.08099476541179950750e-02) (38, -5.36529754817730575311e-02) (39, 1.50000000000000000000e+03) (40, 1.50000000000000000000e+03) (41, 6.70501530189155370287e-02) (42, -9.08563517609974752309e-02) (43, 3.77607655074897602399e-02) (44, -1.49135854424093439174e-01) (45, 1.82097614617261843728e-01) (46, -3.57060113602933812404e-02) (47, -1.70194083200033707826e-01) (48, -2.18394913717833677458e-01) (49, 1.50000000000000000000e+03) (50, 1.50000000000000000000e+03) (51, 2.93678916493186545345e-02) (52, -9.01956924310555741009e-02) (53, -7.52532964001499243833e-02) (54, 1.54484804824308783432e-03) (55, 1.63572999040565714157e-02) (56, -6.43757633325223316278e-02) (57, -7.16385801026215435217e-03) (58, -3.95218712295922133815e-02) (59, 1.50000000000000000000e+03) (60, 1.50000000000000000000e+03) (61, 8.35207496057234488607e-02) (62, 1.72082980205107705096e-01) (63, 1.05448727995404695212e-01) (64, -3.02691251827676872932e-02) (65, -6.72953488957161172213e-02) (66, -1.40076207337577862688e-01) (67, 1.05668476343046283117e-01) (68, 4.61516692880686169032e-02) (69, 1.50000000000000000000e+03) (70, 1.50000000000000000000e+03) (71, 3.92261005836378323641e-02) (72, -1.78135571063886277710e-01) (73, -1.03582279481280709055e-01) (74, -1.78614870094379346588e-01) (75, -1.45792534778922070610e-02) (76, -3.51516319066352209144e-02) (77, -8.87130115573098593229e-02) (78, 3.17302778294187848296e-02) (79, 1.50000000000000000000e+03) (80, 1.50000000000000000000e+03) (81, -1.34846007781685511828e-01) (82, -4.82412226717254741248e-02) (83, -9.84626810927917150984e-02) (84, -1.78933460067506794333e-01) (85, 1.82643356793840583308e-01) (86, -2.30522093970349783998e-02) (87, 1.15952227979640151712e-01) (88, 1.51131829790743105191e-01) (89, 1.50000000000000000000e+03) (90, 1.50000000000000000000e+03) (91, -5.33480101440183054895e-02) (92, -1.71844881625909468026e-01) (93, 1.91382126223572257562e-01) (94, 2.15835383071706840563e-02) (95, 8.52429175623003049234e-02) (96, -1.00135303359998636963e-01) (97, -1.51978044520383187566e-01) (98, -1.94908510954073688204e-01) (99, 1.50000000000000000000e+03) (100, 1.50000000000000000000e+03) (101, -8.87508189436727601418e-02) (102, -6.02842431089550684353e-02) (103, -8.86776475943972242177e-02) (104, 7.92046473001221662535e-02) (105, 1.89192971538643422980e-01) (106, 1.35742578517219047995e-01) (107, -2.04657512132529195714e-01) (108, 1.13707338536899859455e-02) (109, 1.50000000000000000000e+03) (110, 1.50000000000000000000e+03) (111, 9.19196254016146213628e-02) (112, -1.68629165161094884962e-01) (113, -9.28136833922218601467e-02) (114, -1.72374436660146901357e-01) (115, 1.58692162348821719231e-01) (116, -6.93673358943015377909e-02) (117, -1.61586413373078996436e-01) (118, 5.58030037972633841115e-02) (119, 1.50000000000000000000e+03) (120, 1.50000000000000000000e+03) (121, -1.66929856759762858254e-02) (122, -1.61230379998896639071e-02) (123, 4.32154773627946020564e-02) (124, 7.32792662893542723346e-02) (125, 1.49794452858097476566e-01) (126, 6.44487269231638210121e-02) (127, 1.22836951146620174113e-01) (128, -4.39585932791066238967e-03) (129, 1.50000000000000000000e+03) (130, 1.50000000000000000000e+03) (131, -1.78085446452050044641e-01) (132, -1.07215667470987346954e-01) (133, 1.97968757125506003569e-02) (134, 4.91840481811452512328e-01) (135, -7.64228104461422530491e-01) (136, 1.18137811828088676314e-01) (137, 7.62127369126577719483e-02) (138, -1.28479514426965896190e-01) (139, 1.50000000000000000000e+03) (140, 1.50000000000000000000e+03) (141, 3.70118779048452584135e-01) (142, 9.63499827151106796874e-02) (143, 1.63915724626277292675e-01) (144, 1.49493114224171164128e-01) (145, 4.55746586830413774605e-02) (146, 4.13754369528101240139e-02) (147, 3.57655630635471177836e-01) (148, -3.95119715570885470662e-03) (149, 1.50000000000000000000e+03) (150, 1.50000000000000000000e+03) (151, 1.50000000000000000000e+03) (152, 1.50000000000000000000e+03) (153, 1.50000000000000000000e+03) (154, 1.50000000000000000000e+03) (155, 1.50000000000000000000e+03) (156, 1.50000000000000000000e+03) (157, 1.50000000000000000000e+03) (158, 1.50000000000000000000e+03) (159, 1.50000000000000000000e+03) (160, 1.31346989402766040067e-01) (0, 1.50000000000000000000e+03) (1, 1.50000000000000000000e+03) (2, 1.50000000000000000000e+03) (3, 1.50000000000000000000e+03) (4, 1.50000000000000000000e+03) (5, 1.50000000000000000000e+03) (6, 1.50000000000000000000e+03) (7, 1.50000000000000000000e+03) (8, 1.50000000000000000000e+03) (9, 1.50000000000000000000e+03) (10, 1.50000000000000000000e+03) (11, 1.50000000000000000000e+03) (12, 1.50000000000000000000e+03) (13, 1.50000000000000000000e+03) (14, 1.50000000000000000000e+03) (15, 1.50000000000000000000e+03) (16, 1.50000000000000000000e+03) (17, 1.50000000000000000000e+03) (18, 1.50000000000000000000e+03) (19, 1.50000000000000000000e+03) (20, 1.50000000000000000000e+03) (21, 1.50000000000000000000e+03) (22, -1.33332123904211535814e-01) (23, -1.12439801840767961139e-01) (24, 3.20475220255147241755e-02) (25, 6.22012820543299954634e-02) (26, -4.59522471467217197283e-01) (27, -2.44473866205162843057e-01) (28, 1.22982626667739913806e+00) (29, 1.50000000000000000000e+03) (30, 1.50000000000000000000e+03) (31, 2.38630918894109533834e-01) (32, 2.17250488142670977743e-01) (33, 1.44800679805716175919e-01) (34, 1.23698306492572379645e-01) (35, 1.63749806605773162715e+00) (36, -4.64731941383199828599e-02) (37, -1.03538694496922989430e+00) (38, -4.08236235836593686077e-01) (39, 1.50000000000000000000e+03) (40, 1.50000000000000000000e+03) (41, 1.74467093873911904822e+00) (42, 4.32470474583768679788e-02) (43, -8.05429917914932680389e-01) (44, 3.05487852647550350849e-01) (45, 2.47214922257687569340e-01) (46, 3.43448049558972845485e-01) (47, -7.96527290044680008618e-02) (48, -8.85668160847911667410e-02) (49, 1.50000000000000000000e+03) (50, 1.50000000000000000000e+03) (51, 1.48106192140955134073e-01) (52, -8.56225994244551591450e-02) (53, 5.05840936908457772248e-01) (54, -3.59694852718642543721e-01) (55, 9.97910339294881154615e-01) (56, 7.24963890425284973595e-01) (57, -1.85551344422067859830e-01) (58, -9.91180497495844137212e-01) (59, 1.50000000000000000000e+03) (60, 1.50000000000000000000e+03) (61, 1.61232666165895960342e-01) (62, 1.92412832826414165188e-01) (63, -3.92468912844802952922e-01) (64, -1.33358381548688648133e-01) (65, -1.46393024374422475731e-01) (66, -1.32177052117359816741e+00) (67, -8.92649211991103710973e-03) (68, -1.59656200597171871181e+00) (69, 1.50000000000000000000e+03) (70, 1.50000000000000000000e+03) (71, 4.13364251717485350901e-02) (72, 1.90465861368318084557e-01) (73, -1.74774067768227769903e+00) (74, -2.64722895432761784473e-01) (75, 2.49435657213761013962e-01) (76, -1.68818295848572413886e-01) (77, -1.25844015715610407780e-01) (78, -2.59251449159334690364e+00) (79, 1.50000000000000000000e+03) (80, 1.50000000000000000000e+03) (81, -2.60427605812302065402e-01) (82, 1.68809786294625008285e-02) (83, -8.07312224494356134308e-01) (84, 5.17619424489157639591e-02) (85, -1.89785442621027394816e-01) (86, -3.35556064454676050701e+00) (87, -9.07790445058467065920e-01) (88, -7.53039842415442084445e-01) (89, 1.50000000000000000000e+03) (90, 1.50000000000000000000e+03) (91, 1.37539970066018896189e-02) (92, 1.07102897933438551137e-01) (93, -6.03407960376651453238e-01) (94, -2.08245881256925136071e+00) (95, -1.09247995084697180346e-01) (96, -9.12433169562236745520e-02) (97, -1.83734632645201179102e-01) (98, -1.91537913640194373821e-01) (99, 1.50000000000000000000e+03) (100, 1.50000000000000000000e+03) (101, 2.08591354314087568111e-01) (102, 1.36516371396431052121e-01) (103, -6.49569830483628263273e-01) (104, -1.18205545115673804624e+00) (105, -9.87521410608446503776e-02) (106, 1.38436940590797134820e-02) (107, -9.17160222378364253792e-02) (108, -1.68758066452646376954e-01) (109, 1.50000000000000000000e+03) (110, 1.50000000000000000000e+03) (111, 3.85561191825150029189e-01) (112, 1.50558838529526367589e-01) (113, -4.86643063957777788353e-01) (114, 5.77863356567869940195e-02) (115, -1.06968935887617241226e-02) (116, -1.90282678404372324055e-01) (117, -2.06314754319100734925e-01) (118, -1.57104864663627663557e-01) (119, 1.50000000000000000000e+03) (120, 1.50000000000000000000e+03) (121, 9.63930322701591624224e-02) (122, 2.69630705044849205976e-01) (123, 1.78908852893548658836e-01) (124, 2.01540361954248348209e-01) (125, 1.13329487333459988374e-01) (126, 9.25574173996849963730e-02) (127, -2.37844941743787174904e-01) (128, -2.36923454010330347685e+00) (129, 1.50000000000000000000e+03) (130, 1.50000000000000000000e+03) (131, 4.05759676856590867366e-01) (132, 5.38225437998979705512e-01) (133, 2.26818793651155958813e+00) (134, 2.48613494593030781576e-01) (135, -1.18373688713102734327e-01) (136, -5.61564201482733019177e-02) (137, -3.94191636072348527975e-02) (138, 2.35323268058173246109e-01) (139, 1.50000000000000000000e+03) (140, 1.50000000000000000000e+03) (141, -9.31736664274875059366e-02) (142, -1.05180881033562961813e-01) (143, -1.36963521332332138769e-01) (144, -1.16626610250066528596e-01) (145, -1.23975244552683230848e-01) (146, -2.83876547294951986355e-03) (147, -2.12720581304828681990e-01) (148, 1.39184420468708491825e-01) (149, 1.50000000000000000000e+03) (150, 1.50000000000000000000e+03) (151, 1.50000000000000000000e+03) (152, 1.50000000000000000000e+03) (153, 1.50000000000000000000e+03) (154, 1.50000000000000000000e+03) (155, 1.50000000000000000000e+03) (156, 1.50000000000000000000e+03) (157, 1.50000000000000000000e+03) (158, 1.50000000000000000000e+03) (159, 1.50000000000000000000e+03) (160, -8.31293717332853954183e-01) (0, 1.50000000000000000000e+03) (1, 1.50000000000000000000e+03) (2, 1.50000000000000000000e+03) (3, 1.50000000000000000000e+03) (4, 1.50000000000000000000e+03) (5, 1.50000000000000000000e+03) (6, 1.50000000000000000000e+03) (7, 1.50000000000000000000e+03) (8, 1.50000000000000000000e+03) (9, 1.50000000000000000000e+03) (10, 1.50000000000000000000e+03) (11, 1.50000000000000000000e+03) (12, 1.50000000000000000000e+03) (13, 1.50000000000000000000e+03) (14, 1.50000000000000000000e+03) (15, 1.50000000000000000000e+03) (16, 1.50000000000000000000e+03) (17, 1.50000000000000000000e+03) (18, 1.50000000000000000000e+03) (19, 1.50000000000000000000e+03) (20, 1.50000000000000000000e+03) (21, 1.50000000000000000000e+03) (22, 1.95866761679569428845e-01) (23, 1.72099666620412483642e-01) (24, 4.90039402321967687559e-01) (25, 4.83044575989414359807e-01) (26, -6.74145358001987105023e-02) (27, 2.76388841341902169457e-01) (28, 2.48076041633001453945e+00) (29, 1.50000000000000000000e+03) (30, 1.50000000000000000000e+03) (31, 1.47211735601686322106e+00) (32, 3.93442902181669940109e-01) (33, 7.65392463355384911061e-01) (34, 5.24332568846048063804e-01) (35, 7.02136679667664798110e-01) (36, 5.48418283151376861895e-01) (37, 4.23233613712600487133e-01) (38, 4.44901781045245248158e-01) (39, 1.50000000000000000000e+03) (40, 1.50000000000000000000e+03) (41, 6.65808714330638262702e-01) (42, 7.17262157188945370656e-01) (43, 3.68232692860898602749e-01) (44, 7.53179209834381246935e-01) (45, 2.38481479056289524809e-01) (46, 5.75351515175101635435e-01) (47, 5.57768252180923962413e-01) (48, 2.89230304226770362774e+00) (49, 1.50000000000000000000e+03) (50, 1.50000000000000000000e+03) (51, 5.94850257180911445865e-01) (52, 6.89733230660968699155e-01) (53, 6.12302447987878806224e-01) (54, 7.08690373395419848102e-01) (55, 2.94342557797132919895e-01) (56, 4.19376669443707494889e-01) (57, 6.81514771643636829701e-01) (58, 5.24150293342989792578e-01) (59, 1.50000000000000000000e+03) (60, 1.50000000000000000000e+03) (61, 6.51574136980763274352e-01) (62, 7.26187896699646118215e-01) (63, 4.40697282741868034961e-01) (64, 6.38328916334091944762e-01) (65, 6.66779331659480667405e-01) (66, 4.07390094341299413561e-01) (67, 3.73571637351472196631e-01) (68, 3.54058109559696632118e-01) (69, 1.50000000000000000000e+03) (70, 1.50000000000000000000e+03) (71, 7.27544607489239991693e-01) (72, 6.01734341884186285654e-01) (73, 6.74854999126695442868e-01) (74, 6.67114492478909304474e-01) (75, 6.78603376503897237626e-01) (76, 3.18706286811678618509e-01) (77, 6.26461841273444064448e-01) (78, 4.30756603091176470954e-01) (79, 1.50000000000000000000e+03) (80, 1.50000000000000000000e+03) (81, 7.24090655518498493848e-01) (82, 6.33563787311600457031e-01) (83, 6.59106374983357112818e-01) (84, 8.64908340235846506694e-01) (85, 6.01696664865498997976e-01) (86, 7.03550694025976364188e-01) (87, 1.20536103752637138720e-01) (88, 6.03670949385765043260e-01) (89, 1.50000000000000000000e+03) (90, 1.50000000000000000000e+03) (91, 7.90678606959882790406e-01) (92, 7.52422898347976043532e-01) (93, 2.80334805240874673782e-01) (94, 3.10463474993142030112e-01) (95, 2.75567205726467367999e-01) (96, 4.19897662016206152380e-01) (97, 9.27017068856153869660e-01) (98, 1.99701807163064981587e+00) (99, 1.50000000000000000000e+03) (100, 1.50000000000000000000e+03) (101, 8.33709563733348701930e-01) (102, 6.95785121505656412033e-01) (103, 6.16504861279823956899e-01) (104, 4.92378257658556250931e-01) (105, 6.45893793627721812811e-01) (106, 6.39420853632714947246e-01) (107, 6.00429748543135244354e-01) (108, 6.35002189021796281665e-01) (109, 1.50000000000000000000e+03) (110, 1.50000000000000000000e+03) (111, 4.26036027614296319843e-01) (112, 7.17220288188953669639e-01) (113, 2.85750426389447753639e-01) (114, 5.59488916940766967123e-01) (115, 2.98292546945149894544e-01) (116, 5.84771826726607768521e-01) (117, 6.83742860780384154040e-01) (118, 1.26760779979040760779e+00) (119, 1.50000000000000000000e+03) (120, 1.50000000000000000000e+03) (121, 4.75261631016723140597e-01) (122, 7.27818899754001047420e-01) (123, 3.88114698764085663818e-01) (124, 4.18583710343275405830e-01) (125, 2.27996283393362780822e-01) (126, 4.07260035989368218701e-01) (127, 3.98613286191677351766e-01) (128, 9.16624799504994425270e-01) (129, 1.50000000000000000000e+03) (130, 1.50000000000000000000e+03) (131, 1.06742657786787376040e+00) (132, 6.67744205877320862186e-01) (133, 4.72127034904506859281e-01) (134, 4.86429426172437950893e-01) (135, 6.24189482082877500346e-01) (136, 3.90981561620095174892e-01) (137, 3.50232013308013734321e-01) (138, 7.17019117849886589156e-01) (139, 1.50000000000000000000e+03) (140, 1.50000000000000000000e+03) (141, 3.34365169992116517683e-01) (142, 4.32119409421047651065e-01) (143, 4.35026162645520797501e-01) (144, 5.61661911538434921454e-01) (145, 4.51694866052554322433e-01) (146, 4.29130168041886916885e-01) (147, 3.75777833298016950003e-01) (148, 5.75323119344559819055e-01) (149, 1.50000000000000000000e+03) (150, 1.50000000000000000000e+03) (151, 1.50000000000000000000e+03) (152, 1.50000000000000000000e+03) (153, 1.50000000000000000000e+03) (154, 1.50000000000000000000e+03) (155, 1.50000000000000000000e+03) (156, 1.50000000000000000000e+03) (157, 1.50000000000000000000e+03) (158, 1.50000000000000000000e+03) (159, 1.50000000000000000000e+03) (160, 2.98774600630560549508e-01) (0, 1.50000000000000000000e+03) (1, 1.50000000000000000000e+03) (2, 1.50000000000000000000e+03) (3, 1.50000000000000000000e+03) (4, 1.50000000000000000000e+03) (5, 1.50000000000000000000e+03) (6, 1.50000000000000000000e+03) (7, 1.50000000000000000000e+03) (8, 1.50000000000000000000e+03) (9, 1.50000000000000000000e+03) (10, 1.50000000000000000000e+03) (11, 1.50000000000000000000e+03) (12, 1.50000000000000000000e+03) (13, 1.50000000000000000000e+03) (14, 1.50000000000000000000e+03) (15, 1.50000000000000000000e+03) (16, 1.50000000000000000000e+03) (17, 1.50000000000000000000e+03) (18, 1.50000000000000000000e+03) (19, 1.50000000000000000000e+03) (20, 1.50000000000000000000e+03) (21, 1.50000000000000000000e+03) (22, 2.76193209226909541787e-01) (23, 2.36795015867528352294e-01) (24, 1.82354006234887400240e-01) (25, 1.35135408939428929009e-02) (26, -6.11451186875137553400e-01) (27, -8.48647915868908503390e-02) (28, 1.09077596923829944764e+00) (29, 1.50000000000000000000e+03) (30, 1.50000000000000000000e+03) (31, 4.91517220265519194644e-01) (32, 3.96709944058361962949e-01) (33, 2.04545221976635160921e-01) (34, 7.06198239870956812059e-02) (35, 6.86288284591567293580e-02) (36, 1.35098304219754411504e-01) (37, 6.62577483990047788609e-02) (38, -5.56461467178462010352e-01) (39, 1.50000000000000000000e+03) (40, 1.50000000000000000000e+03) (41, -1.12502429167334300208e-01) (42, -6.94053605626716363375e-01) (43, 5.07648575812835178844e-01) (44, 9.48354465570298010846e-01) (45, 1.56596771669462037080e-02) (46, 1.81357900268323463111e-01) (47, 1.93153374232229668728e-01) (48, 3.99674657520782267150e-02) (49, 1.50000000000000000000e+03) (50, 1.50000000000000000000e+03) (51, -9.12166642807950123206e-01) (52, -2.72807727112045206308e-01) (53, 5.23208244429979041357e-01) (54, -3.04566092164157886657e+00) (55, 2.85062864436333683604e-02) (56, 2.77907107630037009116e-01) (57, 1.16194564811707576335e-01) (58, -1.15267542827643537651e-01) (59, 1.50000000000000000000e+03) (60, 1.50000000000000000000e+03) (61, -1.30354877365686433466e-01) (62, -1.73357136318082277748e-01) (63, 3.98462848842230987767e-01) (64, 1.99346637437285367778e-01) (65, 2.43749518181072377665e-01) (66, 2.65943681047873525802e-01) (67, 2.68348160215580444632e-01) (68, 1.03324201889552370198e-02) (69, 1.50000000000000000000e+03) (70, 1.50000000000000000000e+03) (71, -1.02358623209518961872e+00) (72, -8.40317028638348645364e-02) (73, 1.10882816075151324764e-01) (74, -1.00872599088467809758e-01) (75, -1.93152566895261806890e-01) (76, 3.75675424603709104399e-02) (77, 2.55087407431197732421e-01) (78, -1.67577418857841276001e+00) (79, 1.50000000000000000000e+03) (80, 1.50000000000000000000e+03) (81, 1.86822436522079471377e-01) (82, 9.05981866221823445295e-02) (83, 4.58837324730491269431e-01) (84, 2.29589149873725861806e-01) (85, 1.12371951979049519710e-01) (86, 7.81157481051960145280e-01) (87, 1.25596654327642665017e-01) (88, 1.49333818601278456306e+00) (89, 1.50000000000000000000e+03) (90, 1.50000000000000000000e+03) (91, -2.16220755004589726411e+00) (92, -1.98719441929176166006e+00) (93, -6.56861031213353541158e-02) (94, 1.80463401873371787065e-01) (95, -1.25178655792541837499e-01) (96, 1.89032906059023037004e-01) (97, -1.31099832696873064286e+00) (98, -9.09427578192046559558e-01) (99, 1.50000000000000000000e+03) (100, 1.50000000000000000000e+03) (101, -3.88513318954172459652e-01) (102, -6.80163189439344367804e-02) (103, 2.08264513776512338872e-01) (104, -1.01071717012851686884e-02) (105, 1.82071225194932545532e-01) (106, -2.82227721480911464269e-01) (107, 1.15163791266607765107e-01) (108, -1.32082693643152226937e-01) (109, 1.50000000000000000000e+03) (110, 1.50000000000000000000e+03) (111, -2.48288252204358239617e-01) (112, 2.83064093123473123348e-02) (113, -1.48707938598365535521e-01) (114, -1.87317674646164278318e-01) (115, -2.03421319602680839012e-01) (116, 4.75138355070660545199e-01) (117, 1.33332266213277261802e-01) (118, -1.00272804159660511303e+00) (119, 1.50000000000000000000e+03) (120, 1.50000000000000000000e+03) (121, -4.06693841898613517305e-02) (122, 2.63006904892235160442e-01) (123, -2.13408643122278834925e-01) (124, -2.25559271614408807238e-01) (125, -8.54791570842048653578e-02) (126, -1.79487769726363599609e-01) (127, -7.45406678346195228357e-01) (128, 1.56288203893465493799e+00) (129, 1.50000000000000000000e+03) (130, 1.50000000000000000000e+03) (131, 1.04404104016407067723e-01) (132, -7.96287595103622597437e-02) (133, -3.77786901318389167770e+00) (134, -5.91853107900684946574e-02) (135, -2.54737823021874421059e-01) (136, 7.15892449241812070526e-03) (137, -9.00272534691210907232e-02) (138, 1.17229978664583650572e-01) (139, 1.50000000000000000000e+03) (140, 1.50000000000000000000e+03) (141, -1.25192715356705702723e-01) (142, 5.19757463336064373660e-02) (143, 1.96929564247886490502e-01) (144, 5.83492419822644603489e-02) (145, 1.70055781970780334200e-01) (146, 6.25850833161305936114e-02) (147, -2.30565253604318676217e-01) (148, 1.01190035703078121121e-01) (149, 1.50000000000000000000e+03) (150, 1.50000000000000000000e+03) (151, 1.50000000000000000000e+03) (152, 1.50000000000000000000e+03) (153, 1.50000000000000000000e+03) (154, 1.50000000000000000000e+03) (155, 1.50000000000000000000e+03) (156, 1.50000000000000000000e+03) (157, 1.50000000000000000000e+03) (158, 1.50000000000000000000e+03) (159, 1.50000000000000000000e+03) (160, -4.31236724103169655198e-01) (0, 1.50000000000000000000e+03) (1, 1.50000000000000000000e+03) (2, 1.50000000000000000000e+03) (3, 1.50000000000000000000e+03) (4, 1.50000000000000000000e+03) (5, 1.50000000000000000000e+03) (6, 1.50000000000000000000e+03) (7, 1.50000000000000000000e+03) (8, 1.50000000000000000000e+03) (9, 1.50000000000000000000e+03) (10, 1.50000000000000000000e+03) (11, 1.50000000000000000000e+03) (12, 1.50000000000000000000e+03) (13, 1.50000000000000000000e+03) (14, 1.50000000000000000000e+03) (15, 1.50000000000000000000e+03) (16, 1.50000000000000000000e+03) (17, 1.50000000000000000000e+03) (18, 1.50000000000000000000e+03) (19, 1.50000000000000000000e+03) (20, 1.50000000000000000000e+03) (21, 1.50000000000000000000e+03) (22, 6.49263334664087615744e-02) (23, 2.01382636764905975646e-01) (24, 2.27412238068818217673e-01) (25, 1.26361435324104709466e-01) (26, -6.12092056015762553400e-01) (27, -2.66446616353609777583e-01) (28, 1.25923910251380988257e+00) (29, 1.50000000000000000000e+03) (30, 1.50000000000000000000e+03) (31, -2.04283602208078868268e-01) (32, -1.64336177842411734935e-03) (33, 1.00971454816249379266e-02) (34, 2.02288352519018971298e-01) (35, 9.82784530420328407418e-03) (36, 1.24730001025026140948e-01) (37, -1.24794546088892704949e-01) (38, -2.41342514689155129837e-02) (39, 1.50000000000000000000e+03) (40, 1.50000000000000000000e+03) (41, -6.89232110087671795418e-02) (42, -1.90252531161302973484e-01) (43, 7.26745664846628613986e-02) (44, -1.11300357530491250690e-01) (45, -1.48516346350863692738e-01) (46, 1.48987288848526383545e-01) (47, 1.64559756779273577698e-02) (48, -1.20392328421031480357e-01) (49, 1.50000000000000000000e+03) (50, 1.50000000000000000000e+03) (51, -1.44884969754807496622e-01) (52, 2.23722346457716630974e-01) (53, 3.37032194181218353046e-02) (54, -7.86587583889329589049e-01) (55, -5.75341136873135927665e-02) (56, -3.24671579884900141089e-01) (57, -2.37568054606406842133e-02) (58, -9.01106393865921534436e-02) (59, 1.50000000000000000000e+03) (60, 1.50000000000000000000e+03) (61, -2.32211920449472170036e-01) (62, 2.95189372737286681581e-01) (63, 1.58905189328483253952e+00) (64, 2.17274507938437444476e-01) (65, 4.03495259247635240651e-01) (66, 2.25807981670656687800e-01) (67, 3.46478230079377169659e-01) (68, -1.46401315715216773228e+00) (69, 1.50000000000000000000e+03) (70, 1.50000000000000000000e+03) (71, -5.61114403278232143357e-01) (72, 5.57315458503552102476e-02) (73, 1.70472106524912236925e-01) (74, -1.33235731891076514266e-01) (75, -5.79011015042888321780e-01) (76, -2.77675640052406247360e-01) (77, 1.99718761045106218965e-01) (78, 4.25447193452211491760e-01) (79, 1.50000000000000000000e+03) (80, 1.50000000000000000000e+03) (81, -3.21607890470323953824e-01) (82, -1.70533300147469230046e-01) (83, -1.76646372015903874164e+00) (84, -3.02102706650628979879e-02) (85, -1.67663096794302357573e-01) (86, -5.86597487206561796214e-01) (87, -1.45194442986335048307e-01) (88, 1.47059091245567950812e-02) (89, 1.50000000000000000000e+03) (90, 1.50000000000000000000e+03) (91, -5.34014881136141261742e-01) (92, -1.16004044646219023340e-01) (93, 2.58269388447520620300e-01) (94, 2.71036531125818033749e-02) (95, -1.04254114705473771574e-01) (96, 1.91776624640277337797e-01) (97, -1.69745789746774483620e-01) (98, -1.05019341675177749207e-01) (99, 1.50000000000000000000e+03) (100, 1.50000000000000000000e+03) (101, 2.39048341459167479339e-01) (102, -2.10986928313798660639e+00) (103, -1.08839236431328117982e-01) (104, -7.32773913343305993706e-01) (105, -9.03961999007711347609e-01) (106, -5.79108346562812514868e-01) (107, -9.75537762500321564696e-02) (108, 1.36197906588839706687e-01) (109, 1.50000000000000000000e+03) (110, 1.50000000000000000000e+03) (111, -1.57347871086348012337e-01) (112, 2.04333919409924957833e+00) (113, 6.04488674958691962757e-01) (114, -2.46245962480773766812e-01) (115, -8.10811889701102073147e-01) (116, -4.74700482643837684549e-01) (117, -1.88560402364944063036e-01) (118, -1.93547902012473294064e-01) (119, 1.50000000000000000000e+03) (120, 1.50000000000000000000e+03) (121, 4.72442966804638292411e-02) (122, 1.81434769108731508425e+00) (123, 2.73260119092315900691e-01) (124, 1.43779123707778566654e-01) (125, 1.14391719610664063800e-01) (126, 1.41129738959659745134e-01) (127, -1.85264824717346038296e-01) (128, 1.71312853119779534561e-01) (129, 1.50000000000000000000e+03) (130, 1.50000000000000000000e+03) (131, 1.79973725568347925341e-01) (132, -6.77753116866886551328e-02) (133, -1.58782446850510572389e+00) (134, -2.47846304622674817875e-01) (135, -1.19715096937113865683e-01) (136, 9.46143223657564119700e-02) (137, -9.45469159222861593728e-02) (138, 1.86040341495597949528e-01) (139, 1.50000000000000000000e+03) (140, 1.50000000000000000000e+03) (141, -1.02158053348416766326e-01) (142, -1.90175173174284700695e-01) (143, -1.16988286211059569486e-01) (144, -4.50766606469514274913e-02) (145, -6.12448824782714368320e-02) (146, -2.05100102563276626144e-02) (147, -6.82784175709099799834e-02) (148, 2.12322851183315786106e-01) (149, 1.50000000000000000000e+03) (150, 1.50000000000000000000e+03) (151, 1.50000000000000000000e+03) (152, 1.50000000000000000000e+03) (153, 1.50000000000000000000e+03) (154, 1.50000000000000000000e+03) (155, 1.50000000000000000000e+03) (156, 1.50000000000000000000e+03) (157, 1.50000000000000000000e+03) (158, 1.50000000000000000000e+03) (159, 1.50000000000000000000e+03) (160, -3.28746637767467575486e+00) (0, 1.50000000000000000000e+03) (1, 1.50000000000000000000e+03) (2, 1.50000000000000000000e+03) (3, 1.50000000000000000000e+03) (4, 1.50000000000000000000e+03) (5, 1.50000000000000000000e+03) (6, 1.50000000000000000000e+03) (7, 1.50000000000000000000e+03) (8, 1.50000000000000000000e+03) (9, 1.50000000000000000000e+03) (10, 1.50000000000000000000e+03) (11, 1.50000000000000000000e+03) (12, 1.50000000000000000000e+03) (13, 1.50000000000000000000e+03) (14, 1.50000000000000000000e+03) (15, 1.50000000000000000000e+03) (16, 1.50000000000000000000e+03) (17, 1.50000000000000000000e+03) (18, 1.50000000000000000000e+03) (19, 1.50000000000000000000e+03) (20, 1.50000000000000000000e+03) (21, 1.50000000000000000000e+03) (22, 2.82176574642578725793e-01) (23, 3.20952212388435853541e-01) (24, 6.15533785597464633277e-01) (25, 5.04205465406274977447e-01) (26, -1.65095201352816800533e-01) (27, 2.95975031923223885766e-01) (28, 2.47057975673786245352e+00) (29, 1.50000000000000000000e+03) (30, 1.50000000000000000000e+03) (31, 1.43951237480305516137e+00) (32, 5.70811073694610260354e-01) (33, 6.38523395970007179301e-01) (34, 6.79753303593224056378e-01) (35, 5.33358207326832478579e-01) (36, 5.89410927222038694140e-01) (37, 3.79410371525100764689e-01) (38, 3.81559500359381575940e-01) (39, 1.50000000000000000000e+03) (40, 1.50000000000000000000e+03) (41, 5.75678102076495501471e-01) (42, 5.67805369334512310964e-01) (43, 3.07007358051205825333e-01) (44, 8.04337500768522839500e-01) (45, 3.27376733449978529755e-01) (46, 4.45194227447885837456e-01) (47, 6.50877383040298962413e-01) (48, 3.04960285142555154181e+00) (49, 1.50000000000000000000e+03) (50, 1.50000000000000000000e+03) (51, 6.80531412504893684634e-01) (52, 6.00109213183933176694e-01) (53, 6.31178277822499245175e-01) (54, 8.08973210543363796532e-01) (55, 4.54412991063676829917e-01) (56, 3.82398148950032878979e-01) (57, 6.42330201331136829701e-01) (58, 5.16307275764864792578e-01) (59, 1.50000000000000000000e+03) (60, 1.50000000000000000000e+03) (61, 7.88170816668263274352e-01) (62, 6.24564354092815521291e-01) (63, 3.71507831107014907523e-01) (64, 6.16569883130966944762e-01) (65, 5.74457548355266189866e-01) (66, 3.94023395122549413561e-01) (67, 2.74255226631123838477e-01) (68, 4.01598394252937751503e-01) (69, 1.50000000000000000000e+03) (70, 1.50000000000000000000e+03) (71, 6.47808270423543275385e-01) (72, 7.15302461588909643808e-01) (73, 6.93592792095445442868e-01) (74, 6.85016099336685946319e-01) (75, 6.45235452111673879472e-01) (76, 3.29784167671053618509e-01) (77, 6.44455004590886004756e-01) (78, 5.70899431317137606712e-01) (79, 1.50000000000000000000e+03) (80, 1.50000000000000000000e+03) (81, 6.80371170116391255078e-01) (82, 5.60809881061600457031e-01) (83, 6.84533114319572977280e-01) (84, 8.77499895950453634441e-01) (85, 6.56164439793115117361e-01) (86, 6.76792883761150543265e-01) (87, 5.07240965042222435866e-02) (88, 5.83822304652336088182e-01) (89, 1.50000000000000000000e+03) (90, 1.50000000000000000000e+03) (91, 7.93199361893239918153e-01) (92, 7.84686087902190743115e-01) (93, 3.04413174381499673782e-01) (94, 2.54628518525990388266e-01) (95, 3.56884347378574495746e-01) (96, 4.45544639142765097617e-01) (97, 9.08157205574903869660e-01) (98, 1.97868921495383265352e+00) (99, 1.50000000000000000000e+03) (100, 1.50000000000000000000e+03) (101, 9.06445163906822171107e-01) (102, 5.89040742700495889572e-01) (103, 5.68457981809475598745e-01) (104, 3.43025222864351664320e-01) (105, 4.69483878538151599979e-01) (106, 6.57023390460040768168e-01) (107, 7.37655100770822858003e-01) (108, 5.87712146979064153918e-01) (109, 1.50000000000000000000e+03) (110, 1.50000000000000000000e+03) (111, 4.03025773708049872557e-01) (112, 6.70748111279506953331e-01) (113, 4.01628705336354141497e-01) (114, 6.10401653389294640562e-01) (115, 1.67005422290225885584e-01) (116, 5.51742517626885864424e-01) (117, 8.22420852707054228503e-01) (118, 1.41168738814404148840e+00) (119, 1.50000000000000000000e+03) (120, 1.50000000000000000000e+03) (121, 3.24352199738088209369e-01) (122, 7.33678274754001047420e-01) (123, 3.67129352589732282919e-01) (124, 3.69093058931437623116e-01) (125, 3.87626430456633919164e-01) (126, 3.07707275119734502411e-01) (127, 3.48979492658828993612e-01) (128, 1.04187504215578252698e+00) (129, 1.50000000000000000000e+03) (130, 1.50000000000000000000e+03) (131, 1.08667983089979780509e+00) (132, 8.09018829500397385068e-01) (133, 7.64007742254806943016e-01) (134, 6.24242651221603050971e-01) (135, 4.46729554687981533778e-01) (136, 6.69519487175496474940e-01) (137, 3.79301894095171843180e-01) (138, 6.21938103501455619160e-01) (139, 1.50000000000000000000e+03) (140, 1.50000000000000000000e+03) (141, 2.43422794630195227228e-01) (142, 4.56136743405378686234e-01) (143, 3.91196814707221618423e-01) (144, 4.63328165343663889164e-01) (145, 5.71848673156095443915e-01) (146, 4.86271282068112598029e-01) (147, 3.72365966573525719596e-01) (148, 5.19134155990925494351e-01) (149, 1.50000000000000000000e+03) (150, 1.50000000000000000000e+03) (151, 1.50000000000000000000e+03) (152, 1.50000000000000000000e+03) (153, 1.50000000000000000000e+03) (154, 1.50000000000000000000e+03) (155, 1.50000000000000000000e+03) (156, 1.50000000000000000000e+03) (157, 1.50000000000000000000e+03) (158, 1.50000000000000000000e+03) (159, 1.50000000000000000000e+03) (160, 4.10838022155858351159e-01) (0, 1.50000000000000000000e+03) (1, 1.50000000000000000000e+03) (2, 1.50000000000000000000e+03) (3, 1.50000000000000000000e+03) (4, 1.50000000000000000000e+03) (5, 1.50000000000000000000e+03) (6, 1.50000000000000000000e+03) (7, 1.50000000000000000000e+03) (8, 1.50000000000000000000e+03) (9, 1.50000000000000000000e+03) (10, 1.50000000000000000000e+03) (11, 1.50000000000000000000e+03) (12, 1.50000000000000000000e+03) (13, 1.50000000000000000000e+03) (14, 1.50000000000000000000e+03) (15, 1.50000000000000000000e+03) (16, 1.50000000000000000000e+03) (17, 1.50000000000000000000e+03) (18, 1.50000000000000000000e+03) (19, 1.50000000000000000000e+03) (20, 1.50000000000000000000e+03) (21, 1.50000000000000000000e+03) (22, 9.38382133302340437631e-01) (23, 8.59353810009608087839e-01) (24, 6.87706090123617053145e-01) (25, 9.30892262640497847315e-01) (26, 1.34445382394178558627e+00) (27, 9.43343275832724037500e-01) (28, -2.09540864386696612520e-01) (29, 1.50000000000000000000e+03) (30, 1.50000000000000000000e+03) (31, -2.77629767250114511956e-01) (32, 4.92545106831199563935e-01) (33, 3.14400626090554802250e-01) (34, 3.19549764717880213638e-01) (35, 3.39096255136722590784e-01) (36, 3.90032573453635400540e-01) (37, 6.07852044232263022394e-01) (38, 7.54022038484453704932e-01) (39, 1.50000000000000000000e+03) (40, 1.50000000000000000000e+03) (41, 3.90306352362409347823e-01) (42, 3.17798224162927522851e-01) (43, 7.44311001856827081369e-01) (44, 3.85702648920388524445e-01) (45, 6.48396360573597840826e-01) (46, 7.17975110526309467929e-01) (47, 4.07454282590374861073e-01) (48, -1.26134547843230127029e+00) (49, 1.50000000000000000000e+03) (50, 1.50000000000000000000e+03) (51, 3.69169374571327313372e-01) (52, 3.22509683589598361575e-01) (53, 4.27175462263587435441e-01) (54, 4.14131122524399153395e-01) (55, 5.95023129402380002162e-01) (56, 6.63662458573313851495e-01) (57, 3.60183857607662749611e-01) (58, 5.32291244730925150463e-01) (59, 1.50000000000000000000e+03) (60, 1.50000000000000000000e+03) (61, 2.43565419467757449112e-01) (62, 3.82530941160167559101e-01) (63, 6.60642177273408348626e-01) (64, 3.34288657975705838510e-01) (65, 4.52657630818195599876e-01) (66, 5.94522547918991617344e-01) (67, 7.61722320340313174825e-01) (68, 6.37076433285898025005e-01) (69, 1.50000000000000000000e+03) (70, 1.50000000000000000000e+03) (71, 3.69689072237429749990e-01) (72, 3.94014976577378717160e-01) (73, 2.98276195068633065421e-01) (74, 2.85742702628018818700e-01) (75, 4.74198900676551404754e-01) (76, 7.15173752705662191254e-01) (77, 3.87217889453523367305e-01) (78, 5.07546655026352766527e-01) (79, 1.50000000000000000000e+03) (80, 1.50000000000000000000e+03) (81, 4.43257369850433680103e-01) (82, 3.11713193852427572494e-01) (83, 3.66143552293477503312e-01) (84, 3.39641122455503596811e-01) (85, 3.64967250099372753080e-01) (86, 3.55404081100488489220e-01) (87, 9.31051776120248586466e-01) (88, 7.63115575540244117647e-01) (89, 1.50000000000000000000e+03) (90, 1.50000000000000000000e+03) (91, 3.67890138202377203758e-01) (92, 3.24043877923818612885e-01) (93, 6.11170196894881612160e-01) (94, 7.24466096354958732917e-01) (95, 6.89912768232226136789e-01) (96, 6.22876512991265007813e-01) (97, 1.24378620672160711269e-01) (98, -5.41730064510122621968e-01) (99, 1.50000000000000000000e+03) (100, 1.50000000000000000000e+03) (101, 1.69493017595210238024e-01) (102, 4.20580687484046811253e-01) (103, 3.93814178607519549402e-01) (104, 7.41178403676275632250e-01) (105, 4.96537265815954087511e-01) (106, 3.66841738968998909431e-01) (107, 3.02460829949341147849e-01) (108, 3.15008572757471405623e-01) (109, 1.50000000000000000000e+03) (110, 1.50000000000000000000e+03) (111, 6.38987311745557784448e-01) (112, 2.91932395236901620628e-01) (113, 6.17013499832247513943e-01) (114, 3.06291951046974486594e-01) (115, 6.78232717299833920421e-01) (116, 3.21142826235738920726e-01) (117, 2.08199440104674476926e-01) (118, 1.69602362225724535849e-02) (119, 1.50000000000000000000e+03) (120, 1.50000000000000000000e+03) (121, 5.60957151239771301121e-01) (122, 4.45523029240825041430e-01) (123, 5.73185405899478084280e-01) (124, 7.30599087647102907184e-01) (125, 4.31413660829832290577e-01) (126, 3.32812995542910050606e-01) (127, 6.08702199429191126434e-01) (128, 3.10462134535361755638e-01) (129, 1.50000000000000000000e+03) (130, 1.50000000000000000000e+03) (131, 2.70295677958172386735e-01) (132, 3.87670151823988173856e-01) (133, 3.57926536341670875618e-01) (134, 1.02613803515303114722e+00) (135, 2.52064325918280596195e-01) (136, 6.91317205258046074690e-01) (137, 7.28876891716718433578e-01) (138, 6.18517945986886918952e-01) (139, 1.50000000000000000000e+03) (140, 1.50000000000000000000e+03) (141, 8.32589705485990760891e-01) (142, 5.90433101754974765107e-01) (143, 6.45516914659222673656e-01) (144, 4.81375065975865379375e-01) (145, 4.70358220272740379375e-01) (146, 6.07009825640400957347e-01) (147, 7.65026185253372847939e-01) (148, 5.78563148501720636574e-01) (149, 1.50000000000000000000e+03) (150, 1.50000000000000000000e+03) (151, 1.50000000000000000000e+03) (152, 1.50000000000000000000e+03) (153, 1.50000000000000000000e+03) (154, 1.50000000000000000000e+03) (155, 1.50000000000000000000e+03) (156, 1.50000000000000000000e+03) (157, 1.50000000000000000000e+03) (158, 1.50000000000000000000e+03) (159, 1.50000000000000000000e+03) (160, 7.98334773550046561397e-01) (0, 1.50000000000000000000e+03) (1, 1.50000000000000000000e+03) (2, 1.50000000000000000000e+03) (3, 1.50000000000000000000e+03) (4, 1.50000000000000000000e+03) (5, 1.50000000000000000000e+03) (6, 1.50000000000000000000e+03) (7, 1.50000000000000000000e+03) (8, 1.50000000000000000000e+03) (9, 1.50000000000000000000e+03) (10, 1.50000000000000000000e+03) (11, 1.50000000000000000000e+03) (12, 1.50000000000000000000e+03) (13, 1.50000000000000000000e+03) (14, 1.50000000000000000000e+03) (15, 1.50000000000000000000e+03) (16, 1.50000000000000000000e+03) (17, 1.50000000000000000000e+03) (18, 1.50000000000000000000e+03) (19, 1.50000000000000000000e+03) (20, 1.50000000000000000000e+03) (21, 1.50000000000000000000e+03) (22, 8.05111869630465215586e-01) (23, 9.88913133201250960091e-01) (24, 6.62022493393384814375e-01) (25, 7.62184988739988966699e-01) (26, 1.35807686783655334750e+00) (27, 9.69332040893625679345e-01) (28, -3.56153411724702217978e-01) (29, 1.50000000000000000000e+03) (30, 1.50000000000000000000e+03) (31, -1.31896120201668465288e-01) (32, 6.41434268477565350253e-01) (33, 3.49581291643170921635e-01) (34, 3.48089806015554392715e-01) (35, 4.14283176845582634673e-01) (36, 3.10737393057402722096e-01) (37, 6.83157215543164664240e-01) (38, 7.75884828472971244118e-01) (39, 1.50000000000000000000e+03) (40, 1.50000000000000000000e+03) (41, 3.52226520613208526900e-01) (42, 4.57849499654578273589e-01) (43, 6.79845665355228945259e-01) (44, 3.12698500019879421785e-01) (45, 7.65269057583908951514e-01) (46, 6.84423269753350660416e-01) (47, 4.46773127266349379116e-01) (48, -1.33676661803019403152e+00) (49, 1.50000000000000000000e+03) (50, 1.50000000000000000000e+03) (51, 3.89756535754684552142e-01) (52, 4.46679606954670738173e-01) (53, 3.41683521884450447370e-01) (54, 3.64972517747709723768e-01) (55, 6.02225277839880002162e-01) (56, 6.61697129522296090265e-01) (57, 3.37930441129028868996e-01) (58, 4.91196278498148508618e-01) (59, 1.50000000000000000000e+03) (60, 1.50000000000000000000e+03) (61, 2.38835194858380256422e-01) (62, 3.60820731611694200947e-01) (63, 6.58762298931256706780e-01) (64, 3.65080894303830838510e-01) (65, 3.12472073512436498977e-01) (66, 5.75619963008598856113e-01) (67, 5.85550436399617679761e-01) (68, 6.18015158459371383159e-01) (69, 1.50000000000000000000e+03) (70, 1.50000000000000000000e+03) (71, 3.20311623380599153066e-01) (72, 4.23098235981084147550e-01) (73, 2.92673164744650826652e-01) (74, 3.84119170452001057470e-01) (75, 4.55033861614087042913e-01) (76, 6.83020429412929952484e-01) (77, 4.38109005714978738677e-01) (78, 5.35219992634928587449e-01) (79, 1.50000000000000000000e+03) (80, 1.50000000000000000000e+03) (81, 4.21821281884940779694e-01) (82, 3.48221018519497382826e-01) (83, 3.00147378467157388560e-01) (84, 3.08962641907996660162e-01) (85, 3.14173180596739265447e-01) (86, 2.90755501326915966054e-01) (87, 1.08100294352490000627e+00) (88, 6.75810810911600445827e-01) (89, 1.50000000000000000000e+03) (90, 1.50000000000000000000e+03) (91, 3.57471432560153845603e-01) (92, 3.90132740640970088197e-01) (93, 5.87555693451640492775e-01) (94, 7.33700718475815527597e-01) (95, 7.59773614036439504105e-01) (96, 6.82166057812050530273e-01) (97, 1.54981645780736698725e-01) (98, -6.04358244298775049153e-01) (99, 1.50000000000000000000e+03) (100, 1.50000000000000000000e+03) (101, 2.53758160274459965144e-01) (102, 4.18084340652725094944e-01) (103, 2.85110565326269549402e-01) (104, 6.11918154240373990405e-01) (105, 3.62485749163846959764e-01) (106, 2.98482363968998909431e-01) (107, 3.27173962479791968772e-01) (108, 2.57623314380873047469e-01) (109, 1.50000000000000000000e+03) (110, 1.50000000000000000000e+03) (111, 5.69022701705370059777e-01) (112, 3.81855493920258859397e-01) (113, 6.16073556935881394558e-01) (114, 2.75914756761582002920e-01) (115, 6.49130502795679076300e-01) (116, 3.30572757876363920726e-01) (117, 2.35366186661445930817e-01) (118, 9.62380597097346572599e-03) (119, 1.50000000000000000000e+03) (120, 1.50000000000000000000e+03) (121, 5.86457638775963241429e-01) (122, 3.07046471211214699881e-01) (123, 6.26383646596861964895e-01) (124, 6.02120076290272310260e-01) (125, 3.90184420233552264889e-01) (126, 4.36401867200734205898e-01) (127, 7.58543508022941015412e-01) (128, 3.78241668100413430675e-01) (129, 1.50000000000000000000e+03) (130, 1.50000000000000000000e+03) (131, 2.80207796273869103043e-01) (132, 3.86335339920211073839e-01) (133, 6.61858211508056348826e-01) (134, 1.11941881605520165976e+00) (135, 6.15847861570780086282e-01) (136, 7.63143372662697494491e-01) (137, 7.24018487318754067061e-01) (138, 5.04213818451064721415e-01) (139, 1.50000000000000000000e+03) (140, 1.50000000000000000000e+03) (141, 8.83352641958883633144e-01) (142, 6.51480469506573123262e-01) (143, 5.66403140657624315502e-01) (144, 4.74496399396142021221e-01) (145, 5.20022523933133085094e-01) (146, 5.81753482454499315502e-01) (147, 7.37072083690872625894e-01) (148, 6.71177903536143038998e-01) (149, 1.50000000000000000000e+03) (150, 1.50000000000000000000e+03) (151, 1.50000000000000000000e+03) (152, 1.50000000000000000000e+03) (153, 1.50000000000000000000e+03) (154, 1.50000000000000000000e+03) (155, 1.50000000000000000000e+03) (156, 1.50000000000000000000e+03) (157, 1.50000000000000000000e+03) (158, 1.50000000000000000000e+03) (159, 1.50000000000000000000e+03) (160, 6.62995420316471073541e-01) (0, 1.50000000000000000000e+03) (1, 1.50000000000000000000e+03) (2, 1.50000000000000000000e+03) (3, 1.50000000000000000000e+03) (4, 1.50000000000000000000e+03) (5, 1.50000000000000000000e+03) (6, 1.50000000000000000000e+03) (7, 1.50000000000000000000e+03) (8, 1.50000000000000000000e+03) (9, 1.50000000000000000000e+03) (10, 1.50000000000000000000e+03) (11, 1.50000000000000000000e+03) (12, 1.50000000000000000000e+03) (13, 1.50000000000000000000e+03) (14, 1.50000000000000000000e+03) (15, 1.50000000000000000000e+03) (16, 1.50000000000000000000e+03) (17, 1.50000000000000000000e+03) (18, 1.50000000000000000000e+03) (19, 1.50000000000000000000e+03) (20, 1.50000000000000000000e+03) (21, 1.50000000000000000000e+03) (22, 2.56579387446138507123e-01) (23, 2.53057647009584552045e-01) (24, 7.47088578927129876028e-01) (25, 6.37193797990580845791e-01) (26, 3.93288972668347114325e-01) (27, 2.94516546748771701481e-01) (28, 9.50372850485311060353e-01) (29, 1.50000000000000000000e+03) (30, 1.50000000000000000000e+03) (31, 2.82345077728803195427e+00) (32, 1.49566124081562978887e+00) (33, -6.38041634471548824159e-01) (34, 3.30212026429344940315e-01) (35, 3.51581105097030222062e-01) (36, 2.22325976396736069152e-01) (37, -2.19928469421055733379e-01) (38, 2.86699625042541494935e+00) (39, 1.50000000000000000000e+03) (40, 1.50000000000000000000e+03) (41, 6.83227687877613676370e-01) (42, 6.41191726618769330948e-01) (43, -8.29752926192513062809e-01) (44, -8.08719536540050965012e-02) (45, 2.20270988945992729491e-01) (46, 1.59592589832318831888e-01) (47, 2.83079603241223165533e-01) (48, 3.51609868908195732917e-01) (49, 1.50000000000000000000e+03) (50, 1.50000000000000000000e+03) (51, 5.13524959296194127845e-01) (52, 4.29015775169095281427e-01) (53, -2.48815762293287212614e+00) (54, -3.26902644871740200028e-01) (55, 4.25394108633610879000e-01) (56, 1.32225687160601512726e-01) (57, 1.88178520992971581860e-01) (58, 8.19398502994030053515e-01) (59, 1.50000000000000000000e+03) (60, 1.50000000000000000000e+03) (61, -8.98806787056020684012e-01) (62, 5.45170157843993141711e-01) (63, 8.20744166318758461287e-01) (64, 4.31047213287224006972e-01) (65, 5.28400549749402426158e-01) (66, 5.35956478871165042932e-01) (67, 7.09718657355940529818e-01) (68, 4.70246059378853942246e-01) (69, 1.50000000000000000000e+03) (70, 1.50000000000000000000e+03) (71, 6.00130988846287571903e-01) (72, 4.00654169367757495568e-01) (73, 3.75376770316802443883e-01) (74, 6.99083814336279751878e-01) (75, 3.76556365362674116959e-01) (76, 2.77089216820738171165e-01) (77, 6.97932725463115577469e-01) (78, 1.31722089885912829743e-01) (79, 1.50000000000000000000e+03) (80, 1.50000000000000000000e+03) (81, -3.02752288264931446182e-01) (82, -1.45510002412202160693e-01) (83, -6.55932863466649140882e-01) (84, 2.46502843319121311971e-01) (85, 1.71944660954564731981e-01) (86, 5.67650187245907544842e-01) (87, -8.06557004127279375538e-01) (88, -7.76448976368935817050e+00) (89, 1.50000000000000000000e+03) (90, 1.50000000000000000000e+03) (91, 5.87620908077024148297e-02) (92, -7.77923008722563702477e-01) (93, 5.26929434213344927151e-01) (94, 4.47294471143759420073e-01) (95, 4.52250353199198484866e-01) (96, 6.78722950285132298198e-01) (97, 1.76076098352383425549e+00) (98, 8.67788663414336980395e+00) (99, 1.50000000000000000000e+03) (100, 1.50000000000000000000e+03) (101, 1.51609924545462382284e+00) (102, 1.83292140014559346017e-01) (103, 5.88859392554477056869e-01) (104, 1.34610325737940028645e+00) (105, 4.10334057059194623474e-01) (106, 1.83796713063649175268e+00) (107, 8.13707140198381528862e-01) (108, 7.15283732741681332890e-01) (109, 1.50000000000000000000e+03) (110, 1.50000000000000000000e+03) (111, 3.80489069588208106421e-01) (112, 5.44508410856662683486e-01) (113, -3.88383821992894562314e-01) (114, 1.68729346498763677076e+00) (115, 4.33203261002979456151e+00) (116, 5.73267557681685913096e-01) (117, 2.20922437673695098992e-01) (118, 4.11993750016352633381e-01) (119, 1.50000000000000000000e+03) (120, 1.50000000000000000000e+03) (121, -6.93554509165289045924e-01) (122, 3.54775112010042970034e-01) (123, 1.91613779863515382162e-01) (124, 3.78412442034292362258e-01) (125, -2.45916020195640697144e-02) (126, 7.94224928423826970203e-01) (127, 6.37250304918781984576e-01) (128, 3.37696670976922019847e+00) (129, 1.50000000000000000000e+03) (130, 1.50000000000000000000e+03) (131, 7.71727480237553109532e-01) (132, -3.10814633452405386649e+00) (133, -2.02827956591416747045e+00) (134, 4.81283150144940918835e+00) (135, 7.09022747092210470221e-01) (136, 6.67126682177461294287e-01) (137, 6.41618718967082446447e-01) (138, 4.57218202634305292964e-01) (139, 1.50000000000000000000e+03) (140, 1.50000000000000000000e+03) (141, -2.74651355060034796374e-01) (142, 5.14473022104492527795e-01) (143, -9.51010731595876429578e-02) (144, -6.90939945715751818733e-02) (145, -5.52084965246981487774e-02) (146, -1.58205315245991878781e-01) (147, -4.10352359322831927724e-01) (148, 8.22999568657126312488e-01) (149, 1.50000000000000000000e+03) (150, 1.50000000000000000000e+03) (151, 1.50000000000000000000e+03) (152, 1.50000000000000000000e+03) (153, 1.50000000000000000000e+03) (154, 1.50000000000000000000e+03) (155, 1.50000000000000000000e+03) (156, 1.50000000000000000000e+03) (157, 1.50000000000000000000e+03) (158, 1.50000000000000000000e+03) (159, 1.50000000000000000000e+03) (160, -6.98781413834450759737e+00) (0, 1.50000000000000000000e+03) (1, 1.50000000000000000000e+03) (2, 1.50000000000000000000e+03) (3, 1.50000000000000000000e+03) (4, 1.50000000000000000000e+03) (5, 1.50000000000000000000e+03) (6, 1.50000000000000000000e+03) (7, 1.50000000000000000000e+03) (8, 1.50000000000000000000e+03) (9, 1.50000000000000000000e+03) (10, 1.50000000000000000000e+03) (11, 1.50000000000000000000e+03) (12, 1.50000000000000000000e+03) (13, 1.50000000000000000000e+03) (14, 1.50000000000000000000e+03) (15, 1.50000000000000000000e+03) (16, 1.50000000000000000000e+03) (17, 1.50000000000000000000e+03) (18, 1.50000000000000000000e+03) (19, 1.50000000000000000000e+03) (20, 1.50000000000000000000e+03) (21, 1.50000000000000000000e+03) (22, -1.73767160862480896100e-01) (23, -1.87609937280212690780e-01) (24, 1.50269769904489425283e-01) (25, 2.87540164293396335871e-02) (26, -5.96814960876727029770e-01) (27, -1.89310104105383042450e-01) (28, 1.25051107517006010461e+00) (29, 1.50000000000000000000e+03) (30, 1.50000000000000000000e+03) (31, 3.24511310721185664008e-01) (32, -7.04806595773047328546e-02) (33, 2.77637648931378600015e-01) (34, 1.19856284437390256392e-01) (35, 9.45487038786985839467e-02) (36, 3.12971049919719856991e-01) (37, -2.03560935953947863553e-01) (38, -1.52567766329212706200e-01) (39, 1.50000000000000000000e+03) (40, 1.50000000000000000000e+03) (41, 2.35920904202642833791e-01) (42, 2.33490924954367018440e-01) (43, -2.19540793372012821294e-01) (44, 3.15228539928870177267e-01) (45, 2.81380111896749607325e-01) (46, 1.06205696616168285273e-01) (47, 2.30598254804484786851e-01) (48, 2.12977194614343640078e-01) (49, 1.50000000000000000000e+03) (50, 1.50000000000000000000e+03) (51, -1.40539987098988183867e-01) (52, 2.30380900729311388631e-01) (53, 1.43704974904767995847e-01) (54, 2.65409331745436127825e-01) (55, 2.23880188467554475107e-01) (56, 5.39583946344504433723e-02) (57, 1.47981094232050164328e-01) (58, 1.80220163615470080343e-01) (59, 1.50000000000000000000e+03) (60, 1.50000000000000000000e+03) (61, 2.43943231851767805551e-01) (62, 2.27774186252983762424e-01) (63, -1.14029314625799221145e-02) (64, 1.24383206948828317628e-01) (65, 2.76931463419673840054e-01) (66, 3.11135009719778810044e-01) (67, -1.30108233834969583276e-01) (68, -9.46737310293989248189e-02) (69, 1.50000000000000000000e+03) (70, 1.50000000000000000000e+03) (71, -1.01318525863998323833e-01) (72, 2.39678677099110420956e-01) (73, 1.03100174119985829591e-01) (74, 2.83613221951254601549e-01) (75, 2.82044705564917341789e-01) (76, -1.58057739420873616387e-01) (77, 1.13046438293922968388e-01) (78, 5.37050049951228875011e-02) (79, 1.50000000000000000000e+03) (80, 1.50000000000000000000e+03) (81, 2.51210678599010250878e-01) (82, 1.35128465770555983294e-01) (83, 1.66338874279306603299e-01) (84, 2.34516702331345139321e-01) (85, 2.74089745462956002608e-01) (86, 2.20296719966128234924e-01) (87, -8.63219989787297609096e-02) (88, 2.32579878211429980084e+00) (89, 1.50000000000000000000e+03) (90, 1.50000000000000000000e+03) (91, 2.30848051331829506871e-01) (92, 1.82957102940093596644e-01) (93, 1.19969494303265256097e-01) (94, -1.51079590825291126821e-01) (95, -5.40951907109913712746e-02) (96, 5.50602371418505293077e-02) (97, -2.17891589317682765614e-02) (98, 2.90042885333107958168e-01) (99, 1.50000000000000000000e+03) (100, 1.50000000000000000000e+03) (101, 1.33464989505694020533e-01) (102, 2.14349082179885658261e-01) (103, 1.69533591988466875167e-01) (104, -9.70461002186569082761e-02) (105, 1.48212984764058919307e-01) (106, 1.09394488148262372662e-01) (107, 2.85242410977944782502e-01) (108, 1.78085564387790329377e-01) (109, 1.50000000000000000000e+03) (110, 1.50000000000000000000e+03) (111, -9.23831197824616506820e-02) (112, 2.76377540681300548631e-01) (113, -1.76243615631837061142e-02) (114, 1.27182075626736501572e-01) (115, -9.47189937424933459109e-02) (116, 2.17686213541623457823e-01) (117, 2.70188241636695747339e-01) (118, -4.50488182446222157340e-02) (119, 1.50000000000000000000e+03) (120, 1.50000000000000000000e+03) (121, 1.55945815372254076303e-01) (122, 1.29979762170011475808e-01) (123, -1.49563447522516670962e-02) (124, 2.05546192468885308147e-01) (125, 2.57292035790475048795e-01) (126, 1.23661055415844947647e-01) (127, -9.77265822638578307568e-02) (128, 9.58775753151749676739e-01) (129, 1.50000000000000000000e+03) (130, 1.50000000000000000000e+03) (131, 2.82701094981494704950e-01) (132, 2.05247174458490527771e-01) (133, 4.09651291473995260439e-01) (134, 2.77350985243291024013e-03) (135, 4.96977668692487828395e-01) (136, -1.81928195464128611425e-01) (137, -2.34640229257977624144e-02) (138, 1.81578940447565784222e-01) (139, 1.50000000000000000000e+03) (140, 1.50000000000000000000e+03) (141, -1.22812344262955536189e-01) (142, 9.38641396560361551682e-02) (143, 9.40871958169039873665e-02) (144, 2.04475377920532219722e-01) (145, 2.54646283808619089406e-01) (146, 1.04591344717413020637e-01) (147, -4.50430774951312423715e-02) (148, 1.23956148984330785656e-01) (149, 1.50000000000000000000e+03) (150, 1.50000000000000000000e+03) (151, 1.50000000000000000000e+03) (152, 1.50000000000000000000e+03) (153, 1.50000000000000000000e+03) (154, 1.50000000000000000000e+03) (155, 1.50000000000000000000e+03) (156, 1.50000000000000000000e+03) (157, 1.50000000000000000000e+03) (158, 1.50000000000000000000e+03) (159, 1.50000000000000000000e+03) (160, -1.29187238649720842476e-01) (0, 1.50000000000000000000e+03) (1, 1.50000000000000000000e+03) (2, 1.50000000000000000000e+03) (3, 1.50000000000000000000e+03) (4, 1.50000000000000000000e+03) (5, 1.50000000000000000000e+03) (6, 1.50000000000000000000e+03) (7, 1.50000000000000000000e+03) (8, 1.50000000000000000000e+03) (9, 1.50000000000000000000e+03) (10, 1.50000000000000000000e+03) (11, 1.50000000000000000000e+03) (12, 1.50000000000000000000e+03) (13, 1.50000000000000000000e+03) (14, 1.50000000000000000000e+03) (15, 1.50000000000000000000e+03) (16, 1.50000000000000000000e+03) (17, 1.50000000000000000000e+03) (18, 1.50000000000000000000e+03) (19, 1.50000000000000000000e+03) (20, 1.50000000000000000000e+03) (21, 1.50000000000000000000e+03) (22, 1.30260070736311101003e-01) (23, 2.11931211824337439875e-01) (24, 5.54360702012049011422e-01) (25, 5.30529923826548954757e-01) (26, -1.15638418713791435444e-01) (27, 2.82931822012831124535e-01) (28, 2.44192984917870781203e+00) (29, 1.50000000000000000000e+03) (30, 1.50000000000000000000e+03) (31, 1.51808903272413120433e+00) (32, 4.15885526154562645829e-01) (33, 7.80695287159343553895e-01) (34, 5.47477908497875698224e-01) (35, 7.24833098034141642962e-01) (36, 6.36818194154223693459e-01) (37, 3.29227269036583003459e-01) (38, 3.59708910696591277478e-01) (39, 1.50000000000000000000e+03) (40, 1.50000000000000000000e+03) (41, 6.40332638621772143317e-01) (42, 5.89729198204570370656e-01) (43, 3.57990019596482467179e-01) (44, 6.79782676874762015196e-01) (45, 3.24251114219124558780e-01) (46, 3.86360014762241688047e-01) (47, 7.31504824446549295480e-01) (48, 3.04847979560985482550e+00) (49, 1.50000000000000000000e+03) (50, 1.50000000000000000000e+03) (51, 6.26472570143920326480e-01) (52, 6.29351155053192057309e-01) (53, 5.66741118700123780449e-01) (54, 7.32753208133876232644e-01) (55, 4.39474731773991877937e-01) (56, 4.43631757352741185052e-01) (57, 7.28884162369726307240e-01) (58, 6.33012603990954270117e-01) (59, 1.50000000000000000000e+03) (60, 1.50000000000000000000e+03) (61, 7.89245041378727862913e-01) (62, 6.31473530800083282521e-01) (63, 3.76946069489354385063e-01) (64, 6.52128963672100825377e-01) (65, 6.20978548919364548020e-01) (66, 3.68144488872549413561e-01) (67, 3.90801857490498838477e-01) (68, 2.95293465592544990272e-01) (69, 1.50000000000000000000e+03) (70, 1.50000000000000000000e+03) (71, 6.78795823722016633539e-01) (72, 5.91163052076628225961e-01) (73, 5.65284689606927792660e-01) (74, 6.54846426072659304474e-01) (75, 6.32875832971048879472e-01) (76, 4.19841548168509215433e-01) (77, 6.81985523659127124141e-01) (78, 4.35090099184918366326e-01) (79, 1.50000000000000000000e+03) (80, 1.50000000000000000000e+03) (81, 6.44519121570315434155e-01) (82, 5.55243477791832806822e-01) (83, 6.64336579626331857895e-01) (84, 