FANN_FLO_2.1
num_layers=3
learning_rate=0.700000
connection_rate=1.000000
network_type=0
learning_momentum=0.000000
training_algorithm=2
train_error_function=1
train_stop_function=0
cascade_output_change_fraction=0.010000
quickprop_decay=-0.000100
quickprop_mu=1.750000
rprop_increase_factor=1.200000
rprop_decrease_factor=0.500000
rprop_delta_min=0.000000
rprop_delta_max=50.000000
rprop_delta_zero=0.100000
cascade_output_stagnation_epochs=12
cascade_candidate_change_fraction=0.010000
cascade_candidate_stagnation_epochs=12
cascade_max_out_epochs=150
cascade_min_out_epochs=50
cascade_max_cand_epochs=150
cascade_min_cand_epochs=50
cascade_num_candidate_groups=2
bit_fail_limit=3.49999999999999977796e-01
cascade_candidate_limit=1.00000000000000000000e+03
cascade_weight_multiplier=4.00000000000000022204e-01
cascade_activation_functions_count=10
cascade_activation_functions=3 5 7 8 10 11 14 15 16 17 
cascade_activation_steepnesses_count=4
cascade_activation_steepnesses=2.50000000000000000000e-01 5.00000000000000000000e-01 7.50000000000000000000e-01 1.00000000000000000000e+00 
layer_sizes=161 110 2 
scale_included=0
neurons (num_inputs, activation_function, activation_steepness)=(0, 0, 0.00000000000000000000e+00) (0, 0, 0.00000000000000000000e+00) (0, 0, 0.00000000000000000000e+00) (0, 0, 0.00000000000000000000e+00) (0, 0, 0.00000000000000000000e+00) (0, 0, 0.00000000000000000000e+00) (0, 0, 0.00000000000000000000e+00) (0, 0, 0.00000000000000000000e+00) (0, 0, 0.00000000000000000000e+00) (0, 0, 0.00000000000000000000e+00) (0, 0, 0.00000000000000000000e+00) (0, 0, 0.00000000000000000000e+00) (0, 0, 0.00000000000000000000e+00) (0, 0, 0.00000000000000000000e+00) (0, 0, 0.00000000000000000000e+00) (0, 0, 0.00000000000000000000e+00) (0, 0, 0.00000000000000000000e+00) (0, 0, 0.00000000000000000000e+00) (0, 0, 0.00000000000000000000e+00) (0, 0, 0.00000000000000000000e+00) (0, 0, 0.00000000000000000000e+00) (0, 0, 0.00000000000000000000e+00) (0, 0, 0.00000000000000000000e+00) (0, 0, 0.00000000000000000000e+00) (0, 0, 0.00000000000000000000e+00) (0, 0, 0.00000000000000000000e+00) (0, 0, 0.00000000000000000000e+00) (0, 0, 0.00000000000000000000e+00) (0, 0, 0.00000000000000000000e+00) (0, 0, 0.00000000000000000000e+00) (0, 0, 0.00000000000000000000e+00) (0, 0, 0.00000000000000000000e+00) (0, 0, 0.00000000000000000000e+00) (0, 0, 0.00000000000000000000e+00) (0, 0, 0.00000000000000000000e+00) (0, 0, 0.00000000000000000000e+00) (0, 0, 0.00000000000000000000e+00) (0, 0, 0.00000000000000000000e+00) (0, 0, 0.00000000000000000000e+00) (0, 0, 0.00000000000000000000e+00) (0, 0, 0.00000000000000000000e+00) (0, 0, 0.00000000000000000000e+00) (0, 0, 0.00000000000000000000e+00) (0, 0, 0.00000000000000000000e+00) (0, 0, 0.00000000000000000000e+00) (0, 0, 0.00000000000000000000e+00) (0, 0, 0.00000000000000000000e+00) (0, 0, 0.00000000000000000000e+00) (0, 0, 0.00000000000000000000e+00) (0, 0, 0.00000000000000000000e+00) (0, 0, 0.00000000000000000000e+00) (0, 0, 0.00000000000000000000e+00) (0, 0, 0.00000000000000000000e+00) (0, 0, 0.00000000000000000000e+00) (0, 0, 0.00000000000000000000e+00) (0, 0, 0.00000000000000000000e+00) (0, 0, 0.00000000000000000000e+00) (0, 0, 0.00000000000000000000e+00) (0, 0, 0.00000000000000000000e+00) (0, 0, 0.00000000000000000000e+00) (0, 0, 0.00000000000000000000e+00) (0, 0, 0.00000000000000000000e+00) (0, 0, 0.00000000000000000000e+00) (0, 0, 0.00000000000000000000e+00) (0, 0, 0.00000000000000000000e+00) (0, 0, 0.00000000000000000000e+00) (0, 0, 0.00000000000000000000e+00) (0, 0, 0.00000000000000000000e+00) (0, 0, 0.00000000000000000000e+00) (0, 0, 0.00000000000000000000e+00) (0, 0, 0.00000000000000000000e+00) (0, 0, 0.00000000000000000000e+00) (0, 0, 0.00000000000000000000e+00) (0, 0, 0.00000000000000000000e+00) (0, 0, 0.00000000000000000000e+00) (0, 0, 0.00000000000000000000e+00) (0, 0, 0.00000000000000000000e+00) (0, 0, 0.00000000000000000000e+00) (0, 0, 0.00000000000000000000e+00) (0, 0, 0.00000000000000000000e+00) (0, 0, 0.00000000000000000000e+00) (0, 0, 0.00000000000000000000e+00) (0, 0, 0.00000000000000000000e+00) (0, 0, 0.00000000000000000000e+00) (0, 0, 0.00000000000000000000e+00) (0, 0, 0.00000000000000000000e+00) (0, 0, 0.00000000000000000000e+00) (0, 0, 0.00000000000000000000e+00) (0, 0, 0.00000000000000000000e+00) (0, 0, 0.00000000000000000000e+00) (0, 0, 0.00000000000000000000e+00) (0, 0, 0.00000000000000000000e+00) (0, 0, 0.00000000000000000000e+00) (0, 0, 0.00000000000000000000e+00) (0, 0, 0.00000000000000000000e+00) (0, 0, 0.00000000000000000000e+00) (0, 0, 0.00000000000000000000e+00) (0, 0, 0.00000000000000000000e+00) (0, 0, 0.00000000000000000000e+00) (0, 0, 0.00000000000000000000e+00) (0, 0, 0.00000000000000000000e+00) (0, 0, 0.00000000000000000000e+00) (0, 0, 0.00000000000000000000e+00) (0, 0, 0.00000000000000000000e+00) (0, 0, 0.00000000000000000000e+00) (0, 0, 0.00000000000000000000e+00) (0, 0, 0.00000000000000000000e+00) (0, 0, 0.00000000000000000000e+00) (0, 0, 0.00000000000000000000e+00) (0, 0, 0.00000000000000000000e+00) (0, 0, 0.00000000000000000000e+00) (0, 0, 0.00000000000000000000e+00) (0, 0, 0.00000000000000000000e+00) (0, 0, 0.00000000000000000000e+00) (0, 0, 0.00000000000000000000e+00) (0, 0, 0.00000000000000000000e+00) (0, 0, 0.00000000000000000000e+00) (0, 0, 0.00000000000000000000e+00) (0, 0, 0.00000000000000000000e+00) (0, 0, 0.00000000000000000000e+00) (0, 0, 0.00000000000000000000e+00) (0, 0, 0.00000000000000000000e+00) (0, 0, 0.00000000000000000000e+00) (0, 0, 0.00000000000000000000e+00) (0, 0, 0.00000000000000000000e+00) (0, 0, 0.00000000000000000000e+00) (0, 0, 0.00000000000000000000e+00) (0, 0, 0.00000000000000000000e+00) (0, 0, 0.00000000000000000000e+00) (0, 0, 0.00000000000000000000e+00) (0, 0, 0.00000000000000000000e+00) (0, 0, 0.00000000000000000000e+00) (0, 0, 0.00000000000000000000e+00) (0, 0, 0.00000000000000000000e+00) (0, 0, 0.00000000000000000000e+00) (0, 0, 0.00000000000000000000e+00) (0, 0, 0.00000000000000000000e+00) (0, 0, 0.00000000000000000000e+00) (0, 0, 0.00000000000000000000e+00) (0, 0, 0.00000000000000000000e+00) (0, 0, 0.00000000000000000000e+00) (0, 0, 0.00000000000000000000e+00) (0, 0, 0.00000000000000000000e+00) (0, 0, 0.00000000000000000000e+00) (0, 0, 0.00000000000000000000e+00) (0, 0, 0.00000000000000000000e+00) (0, 0, 0.00000000000000000000e+00) (0, 0, 0.00000000000000000000e+00) (0, 0, 0.00000000000000000000e+00) (0, 0, 0.00000000000000000000e+00) (0, 0, 0.00000000000000000000e+00) (0, 0, 0.00000000000000000000e+00) (0, 0, 0.00000000000000000000e+00) (0, 0, 0.00000000000000000000e+00) (0, 0, 0.00000000000000000000e+00) (0, 0, 0.00000000000000000000e+00) (0, 0, 0.00000000000000000000e+00) (0, 0, 0.00000000000000000000e+00) (0, 0, 0.00000000000000000000e+00) (0, 0, 0.00000000000000000000e+00) (0, 0, 0.00000000000000000000e+00) (161, 5, 5.00000000000000000000e-01) (161, 5, 5.00000000000000000000e-01) (161, 5, 5.00000000000000000000e-01) (161, 5, 5.00000000000000000000e-01) (161, 5, 5.00000000000000000000e-01) (161, 5, 5.00000000000000000000e-01) (161, 5, 5.00000000000000000000e-01) (161, 5, 5.00000000000000000000e-01) (161, 5, 5.00000000000000000000e-01) (161, 5, 5.00000000000000000000e-01) (161, 5, 5.00000000000000000000e-01) (161, 5, 5.00000000000000000000e-01) (161, 5, 5.00000000000000000000e-01) (161, 5, 5.00000000000000000000e-01) (161, 5, 5.00000000000000000000e-01) (161, 5, 5.00000000000000000000e-01) (161, 5, 5.00000000000000000000e-01) (161, 5, 5.00000000000000000000e-01) (161, 5, 5.00000000000000000000e-01) (161, 5, 5.00000000000000000000e-01) (161, 5, 5.00000000000000000000e-01) (161, 5, 5.00000000000000000000e-01) (161, 5, 5.00000000000000000000e-01) (161, 5, 5.00000000000000000000e-01) (161, 5, 5.00000000000000000000e-01) (161, 5, 5.00000000000000000000e-01) (161, 5, 5.00000000000000000000e-01) (161, 5, 5.00000000000000000000e-01) (161, 5, 5.00000000000000000000e-01) (161, 5, 5.00000000000000000000e-01) (161, 5, 5.00000000000000000000e-01) (161, 5, 5.00000000000000000000e-01) (161, 5, 5.00000000000000000000e-01) (161, 5, 5.00000000000000000000e-01) (161, 5, 5.00000000000000000000e-01) (161, 5, 5.00000000000000000000e-01) (161, 5, 5.00000000000000000000e-01) (161, 5, 5.00000000000000000000e-01) (161, 5, 5.00000000000000000000e-01) (161, 5, 5.00000000000000000000e-01) (161, 5, 5.00000000000000000000e-01) (161, 5, 5.00000000000000000000e-01) (161, 5, 5.00000000000000000000e-01) (161, 5, 5.00000000000000000000e-01) (161, 5, 5.00000000000000000000e-01) (161, 5, 5.00000000000000000000e-01) (161, 5, 5.00000000000000000000e-01) (161, 5, 5.00000000000000000000e-01) (161, 5, 5.00000000000000000000e-01) (161, 5, 5.00000000000000000000e-01) (161, 5, 5.00000000000000000000e-01) (161, 5, 5.00000000000000000000e-01) (161, 5, 5.00000000000000000000e-01) (161, 5, 5.00000000000000000000e-01) (161, 5, 5.00000000000000000000e-01) (161, 5, 5.00000000000000000000e-01) (161, 5, 5.00000000000000000000e-01) (161, 5, 5.00000000000000000000e-01) (161, 5, 5.00000000000000000000e-01) (161, 5, 5.00000000000000000000e-01) (161, 5, 5.00000000000000000000e-01) (161, 5, 5.00000000000000000000e-01) (161, 5, 5.00000000000000000000e-01) (161, 5, 5.00000000000000000000e-01) (161, 5, 5.00000000000000000000e-01) (161, 5, 5.00000000000000000000e-01) (161, 5, 5.00000000000000000000e-01) (161, 5, 5.00000000000000000000e-01) (161, 5, 5.00000000000000000000e-01) (161, 5, 5.00000000000000000000e-01) (161, 5, 5.00000000000000000000e-01) (161, 5, 5.00000000000000000000e-01) (161, 5, 5.00000000000000000000e-01) (161, 5, 5.00000000000000000000e-01) (161, 5, 5.00000000000000000000e-01) (161, 5, 5.00000000000000000000e-01) (161, 5, 5.00000000000000000000e-01) (161, 5, 5.00000000000000000000e-01) (161, 5, 5.00000000000000000000e-01) (161, 5, 5.00000000000000000000e-01) (161, 5, 5.00000000000000000000e-01) (161, 5, 5.00000000000000000000e-01) (161, 5, 5.00000000000000000000e-01) (161, 5, 5.00000000000000000000e-01) (161, 5, 5.00000000000000000000e-01) (161, 5, 5.00000000000000000000e-01) (161, 5, 5.00000000000000000000e-01) (161, 5, 5.00000000000000000000e-01) (161, 5, 5.00000000000000000000e-01) (161, 5, 5.00000000000000000000e-01) (161, 5, 5.00000000000000000000e-01) (161, 5, 5.00000000000000000000e-01) (161, 5, 5.00000000000000000000e-01) (161, 5, 5.00000000000000000000e-01) (161, 5, 5.00000000000000000000e-01) (161, 5, 5.00000000000000000000e-01) (161, 5, 5.00000000000000000000e-01) (161, 5, 5.00000000000000000000e-01) (161, 5, 5.00000000000000000000e-01) (161, 5, 5.00000000000000000000e-01) (161, 5, 5.00000000000000000000e-01) (161, 5, 5.00000000000000000000e-01) (161, 5, 5.00000000000000000000e-01) (161, 5, 5.00000000000000000000e-01) (161, 5, 5.00000000000000000000e-01) (161, 5, 5.00000000000000000000e-01) (161, 5, 5.00000000000000000000e-01) (161, 5, 5.00000000000000000000e-01) (161, 5, 5.00000000000000000000e-01) (0, 5, 0.00000000000000000000e+00) (110, 5, 5.00000000000000000000e-01) (0, 5, 0.00000000000000000000e+00) 
connections (connected_to_neuron, weight)=(0, 1.50000000000000000000e+03) (1, 1.50000000000000000000e+03) (2, 1.50000000000000000000e+03) (3, 1.50000000000000000000e+03) (4, 1.50000000000000000000e+03) (5, 1.50000000000000000000e+03) (6, 1.50000000000000000000e+03) (7, 1.50000000000000000000e+03) (8, 1.50000000000000000000e+03) (9, 1.50000000000000000000e+03) (10, 1.50000000000000000000e+03) (11, 1.50000000000000000000e+03) (12, 1.50000000000000000000e+03) (13, 1.50000000000000000000e+03) (14, 1.50000000000000000000e+03) (15, 1.50000000000000000000e+03) (16, 1.50000000000000000000e+03) (17, 1.50000000000000000000e+03) (18, 1.50000000000000000000e+03) (19, 1.50000000000000000000e+03) (20, 1.50000000000000000000e+03) (21, 1.50000000000000000000e+03) (22, 2.13003163925148980562e-01) (23, 1.80141834310025755750e-01) (24, 6.89095280756905292918e+00) (25, 3.50823124262274088636e+00) (26, -4.96659793612105771032e-01) (27, 2.89169290319205296580e-01) (28, 4.36490462965700753983e+00) (29, 1.50000000000000000000e+03) (30, 1.50000000000000000000e+03) (31, 1.49999968799998487157e+03) (32, 2.71619861743951895861e+00) (33, 4.17477214454737177718e-01) (34, 5.19045575848306239841e-01) (35, 4.98802119239576749465e-02) (36, 4.76358989693861700765e-01) (37, 5.73275224530949589763e-01) (38, 5.48560983517449862745e-01) (39, 1.50000000000000000000e+03) (40, 1.50000000000000000000e+03) (41, 1.19315678984510284977e+01) (42, 2.88081570507503936796e-01) (43, 2.92981220714775059122e-01) (44, 1.50293505869842269895e+00) (45, 5.48022748965460326787e-01) (46, -2.20641320288981063191e-01) (47, 2.82814549345652366252e-01) (48, -1.49974288913717350624e+03) (49, 1.50000000000000000000e+03) (50, 1.50000000000000000000e+03) (51, 6.15660746866834301727e+02) (52, -2.98571341484250929454e+00) (53, 6.32788720779995039756e-01) (54, 8.38495206832287953702e-01) (55, 2.64757637332759698801e-01) (56, 6.40284674794450170410e-01) (57, 1.70127018895939396970e-01) (58, -4.32337578655106312908e+02) (59, 1.50000000000000000000e+03) (60, 1.50000000000000000000e+03) (61, 7.85608855000753947273e-01) (62, 2.54907433600670807472e-01) (63, -6.62327428682034110352e+02) (64, 2.21073635799453072082e+00) (65, -3.54111330013551324214e+01) (66, 1.49999968799998487157e+03) (67, 8.27596608290891544435e-01) (68, 1.49851113540162623394e+03) (69, 1.50000000000000000000e+03) (70, 1.50000000000000000000e+03) (71, 2.87789691646816736537e+00) (72, 8.34885633960463668934e-01) (73, -9.67356857827169051234e+02) (74, 4.18281604683140869838e+02) (75, 1.49999968799998487157e+03) (76, 1.94196627811534194841e+00) (77, 4.38260505746628759027e+00) (78, -3.05358773885077248167e+01) (79, 1.50000000000000000000e+03) (80, 1.50000000000000000000e+03) (81, 6.30696356604436236815e-01) (82, 7.03158216888786324894e-01) (83, -7.50916703166099874789e-02) (84, 6.60281886124531536275e-01) (85, 4.00961759050411870042e-01) (86, 2.64503165350672586609e-01) (87, 5.24344279502306997998e-01) (88, 3.97734990064123439257e-01) (89, 1.50000000000000000000e+03) (90, 1.50000000000000000000e+03) (91, 3.39476069570956773269e-01) (92, 8.24321190688912519562e-01) (93, -1.41121590715719594300e+03) (94, 1.50000000000000000000e+03) (95, 1.49791357125311446907e+03) (96, 1.44697157566986470556e+03) (97, 4.72512915914976905363e-01) (98, 4.79570733263461834728e-01) (99, 1.50000000000000000000e+03) (100, 1.50000000000000000000e+03) (101, 8.57467322381939789366e-01) (102, 2.74281613888727071604e-01) (103, 1.49999953045979918898e+03) (104, 6.61238394963516782354e+01) (105, 1.46595967628843527564e+03) (106, 1.48969590365659860254e+03) (107, 4.12574854493226450547e-01) (108, 1.21744916655355321922e+01) (109, 1.50000000000000000000e+03) (110, 1.50000000000000000000e+03) (111, 5.98349096577714334444e+00) (112, 4.80727788483284290688e-01) (113, 1.49999956319996317688e+03) (114, 5.39365782613769972897e+00) (115, 4.33763079955695962653e-01) (116, 8.29905617699790987274e-01) (117, 7.84579119442286310182e-01) (118, 2.23409225605312229845e+02) (119, 1.50000000000000000000e+03) (120, 1.50000000000000000000e+03) (121, 4.40184516340827691749e+00) (122, 6.67895960217797735048e-01) (123, 1.31027133437233578306e+00) (124, 7.78288733459440273954e-01) (125, 8.03048423989585313798e-01) (126, 4.91324926542493489734e+00) (127, 5.75175687170800142844e-01) (128, 1.30564125276355434835e+03) (129, 1.50000000000000000000e+03) (130, 1.50000000000000000000e+03) (131, 2.77357579218179317593e+00) (132, 4.91879130874213532643e-01) (133, -1.30066743270196706443e-03) (134, 4.32513491192358434656e-01) (135, 7.33320236151833171334e-01) (136, 5.80914800758318472518e-01) (137, 1.34996724529785394608e+00) (138, 1.29040677163183525877e+00) (139, 1.50000000000000000000e+03) (140, 1.50000000000000000000e+03) (141, 3.99342062880455550555e+00) (142, 7.37127765706503801368e+00) (143, 2.23199221580399864706e+00) (144, 2.15030276118887631043e+00) (145, 2.21182619868887631043e+00) (146, 2.28518436192645291172e+00) (147, 1.60553560833402642061e+00) (148, 3.13282301993291767417e+00) (149, 1.50000000000000000000e+03) (150, 1.50000000000000000000e+03) (151, 1.50000000000000000000e+03) (152, 1.50000000000000000000e+03) (153, 1.50000000000000000000e+03) (154, 1.50000000000000000000e+03) (155, 1.50000000000000000000e+03) (156, 1.50000000000000000000e+03) (157, 1.50000000000000000000e+03) (158, 1.50000000000000000000e+03) (159, 1.50000000000000000000e+03) (160, 5.91764810081720327162e-01) (0, 1.50000000000000000000e+03) (1, 1.50000000000000000000e+03) (2, 1.50000000000000000000e+03) (3, 1.50000000000000000000e+03) (4, 1.50000000000000000000e+03) (5, 1.50000000000000000000e+03) (6, 1.50000000000000000000e+03) (7, 1.50000000000000000000e+03) (8, 1.50000000000000000000e+03) (9, 1.50000000000000000000e+03) (10, 1.50000000000000000000e+03) (11, 1.50000000000000000000e+03) (12, 1.50000000000000000000e+03) (13, 1.50000000000000000000e+03) (14, 1.50000000000000000000e+03) (15, 1.50000000000000000000e+03) (16, 1.50000000000000000000e+03) (17, 1.50000000000000000000e+03) (18, 1.50000000000000000000e+03) (19, 1.50000000000000000000e+03) (20, 1.50000000000000000000e+03) (21, 1.50000000000000000000e+03) (22, 1.54261581233709210714e+00) (23, 1.57327986887662740756e+00) (24, -2.23168627471085034841e+00) (25, 1.86365174733862826173e+00) (26, 2.36553419246480700622e+00) (27, 8.54540057607120151495e-01) (28, -3.55101222417625372874e-01) (29, 1.50000000000000000000e+03) (30, 1.50000000000000000000e+03) (31, -5.26139702726168612124e-01) (32, 2.16634018607432865533e-01) (33, -9.41777839283505641133e-02) (34, 2.45156177835081395822e-01) (35, 2.81240391049357052466e-01) (36, 2.18297450854300828516e-01) (37, 8.95726621009097223602e-02) (38, 3.50335639221132133514e+00) (39, 1.50000000000000000000e+03) (40, 1.50000000000000000000e+03) (41, 1.92456681911418669984e+00) (42, 4.12278664593251298331e-01) (43, 2.24550101894737952346e-01) (44, 1.70910730300159929840e+00) (45, 9.96724176640652936854e-01) (46, 2.25985741825744629319e-01) (47, 3.46882233024804587096e-01) (48, 1.49451398866031172474e+03) (49, 1.50000000000000000000e+03) (50, 1.50000000000000000000e+03) (51, 7.49815144513285347649e-01) (52, 1.97571457219022628138e+00) (53, 8.81508716739539538443e-02) (54, -2.88356384969431396581e-02) (55, 1.17493788104481255985e+00) (56, 1.22475266176051950096e-01) (57, 2.83239964419272849394e-01) (58, 1.47527314340888904276e+00) (59, 1.50000000000000000000e+03) (60, 1.50000000000000000000e+03) (61, 1.59082432085697028645e-01) (62, 3.51934788207381832326e-01) (63, 3.41008718536519994657e+00) (64, 5.14226116070310296235e-02) (65, -1.61102945295437138817e+00) (66, -1.47485141143431383171e+03) (67, 1.73447181019397073110e-01) (68, 5.04625185475546622627e+00) (69, 1.50000000000000000000e+03) (70, 1.50000000000000000000e+03) (71, 5.01099724177651792423e-02) (72, 7.61160995619983016258e-02) (73, 3.24813103116021517636e-01) (74, -8.67735259952432169683e-01) (75, -3.12768954523407316515e+00) (76, -5.38819873166024310152e-01) (77, -4.73012961458553782279e+00) (78, 9.08053751590374105263e+01) (79, 1.50000000000000000000e+03) (80, 1.50000000000000000000e+03) (81, -3.66701739018646999391e-01) (82, 7.26857133249928649699e-02) (83, 2.00048563784632510432e-01) (84, -7.66322653102261219793e-01) (85, -1.81047673758849919645e-01) (86, 1.97310409440722311913e-01) (87, -3.12535009150513909404e-01) (88, 1.55307555721097090284e+00) (89, 1.50000000000000000000e+03) (90, 1.50000000000000000000e+03) (91, 3.77181802111492714413e-01) (92, -5.88478765186565500045e-01) (93, 1.47422739941677264142e+03) (94, -4.97571456891019678892e+01) (95, -1.45197847716014621255e+03) (96, -1.03976981363646223144e+03) (97, 6.01110550664529230680e-01) (98, 1.80240083527368200045e-01) (99, 1.50000000000000000000e+03) (100, 1.50000000000000000000e+03) (101, -9.23619684950556518732e-02) (102, 2.13613444315903650006e-01) (103, -1.39131822412738688399e+03) (104, -4.04007952524419238216e+01) (105, -1.43021749310860855076e+03) (106, -1.45529047366579925438e+03) (107, 2.45759521024891597341e-01) (108, -5.14396750151537643370e-02) (109, 1.50000000000000000000e+03) (110, 1.50000000000000000000e+03) (111, 1.40755770191371198941e+00) (112, 1.38770159769629169988e-01) (113, 1.62739191370115887647e-01) (114, 2.75449236269460107085e-01) (115, 4.70545296126628320721e-01) (116, 9.06420852018378631065e-01) (117, 1.72943055707839327129e-01) (118, 1.02666022965636159370e+02) (119, 1.50000000000000000000e+03) (120, 1.50000000000000000000e+03) (121, 2.48295260069413437076e-01) (122, -2.50168800445657424358e-01) (123, 3.19078572960191764185e-01) (124, 1.42558509644273689876e-01) (125, 3.15629826291400961136e-01) (126, 2.10953777400727737756e-01) (127, -1.29592472984131079627e+00) (128, 2.91393471275947835153e+00) (129, 1.50000000000000000000e+03) (130, 1.50000000000000000000e+03) (131, 1.62963631583012052984e-01) (132, 1.30080006804223446970e+00) (133, 2.25933238423354554314e+00) (134, 2.90353566847189847877e+00) (135, 4.97941926389495026495e-01) (136, 6.62244100626347420580e-01) (137, 2.28053367834473358355e-01) (138, 1.58910324232493238572e-01) (139, 1.50000000000000000000e+03) (140, 1.50000000000000000000e+03) (141, 2.91875642475517738106e+00) (142, 1.39464956345227930612e+00) (143, 7.18497302825282901928e-01) (144, 6.93527814442970624853e-01) (145, 7.06046130950294226203e-01) (146, 6.21195052261281799311e-01) (147, 6.82345962085495738592e+00) (148, 2.17476812235271310669e+00) (149, 1.50000000000000000000e+03) (150, 1.50000000000000000000e+03) (151, 1.50000000000000000000e+03) (152, 1.50000000000000000000e+03) (153, 1.50000000000000000000e+03) (154, 1.50000000000000000000e+03) (155, 1.50000000000000000000e+03) (156, 1.50000000000000000000e+03) (157, 1.50000000000000000000e+03) (158, 1.50000000000000000000e+03) (159, 1.50000000000000000000e+03) (160, 6.22693334182582644565e-02) (0, 1.50000000000000000000e+03) (1, 1.50000000000000000000e+03) (2, 1.50000000000000000000e+03) (3, 1.50000000000000000000e+03) (4, 1.50000000000000000000e+03) (5, 1.50000000000000000000e+03) (6, 1.50000000000000000000e+03) (7, 1.50000000000000000000e+03) (8, 1.50000000000000000000e+03) (9, 1.50000000000000000000e+03) (10, 1.50000000000000000000e+03) (11, 1.50000000000000000000e+03) (12, 1.50000000000000000000e+03) (13, 1.50000000000000000000e+03) (14, 1.50000000000000000000e+03) (15, 1.50000000000000000000e+03) (16, 1.50000000000000000000e+03) (17, 1.50000000000000000000e+03) (18, 1.50000000000000000000e+03) (19, 1.50000000000000000000e+03) (20, 1.50000000000000000000e+03) (21, 1.50000000000000000000e+03) (22, 1.91384514561629220930e-01) (23, 2.05715568504072660039e-01) (24, 6.87446721335604404857e+00) (25, 3.54988164218843849085e+00) (26, -5.16691536363705683499e-01) (27, 1.90200784459895438916e-01) (28, 4.47202133632633103133e+00) (29, 1.50000000000000000000e+03) (30, 1.50000000000000000000e+03) (31, 1.49999968799998487157e+03) (32, 2.53044521269870470448e+00) (33, 5.79581313067924819293e-01) (34, 4.76968733160465285792e-01) (35, 1.07705950484064838513e-01) (36, 3.85595647765372251392e-01) (37, 5.16516715325301078998e-01) (38, 5.52484190633871330434e-01) (39, 1.50000000000000000000e+03) (40, 1.50000000000000000000e+03) (41, 1.17929201987326131018e+01) (42, 2.65307677140456943388e-01) (43, 1.34814728626875129924e-01) (44, 1.81415823658400343632e+00) (45, 5.84034807128934629894e-01) (46, -1.30899310307746929993e-01) (47, 1.87007604003189220609e-01) (48, -1.49974288913717350624e+03) (49, 1.50000000000000000000e+03) (50, 1.50000000000000000000e+03) (51, 6.15572722076176432893e+02) (52, -2.73639206378357480176e+00) (53, 4.35994975680445595589e-01) (54, 9.40738184866327431521e-01) (55, -2.43623269424739413713e-01) (56, 6.63042922164435055699e-01) (57, 2.24216371384456852889e-01) (58, -4.32357765894344424851e+02) (59, 1.50000000000000000000e+03) (60, 1.50000000000000000000e+03) (61, 8.39820756757523212421e-01) (62, 2.35778661568127795300e-01) (63, -6.61460365442426905247e+02) (64, 2.24665062103034918195e+00) (65, -3.55580621969735304333e+01) (66, 1.49999968799998487157e+03) (67, 8.07817286348366803139e-01) (68, 1.49851113540162623394e+03) (69, 1.50000000000000000000e+03) (70, 1.50000000000000000000e+03) (71, 2.82415689529577695893e+00) (72, 7.45755855203145578969e-01) (73, -9.68233483523134964344e+02) (74, 4.18622924785680368132e+02) (75, 1.49999968799998487157e+03) (76, 1.90790617735226364360e+00) (77, 6.88997116050591973391e+00) (78, -3.49014539083790609197e+01) (79, 1.50000000000000000000e+03) (80, 1.50000000000000000000e+03) (81, 3.01148908447313623515e-01) (82, 9.09450919581485939247e-01) (83, 1.21087366709920027374e-01) (84, 7.26927770347046253718e-01) (85, 4.73931066240410980850e-01) (86, 1.98772905327987969848e-01) (87, 5.14337742076206194675e-01) (88, 3.74727033538193365914e-01) (89, 1.50000000000000000000e+03) (90, 1.50000000000000000000e+03) (91, 3.51713618399088101540e-01) (92, 8.45625426011564873541e-01) (93, -1.41121682155725034136e+03) (94, 1.50000000000000000000e+03) (95, 1.49791357125311446907e+03) (96, 1.44665025412107911507e+03) (97, 7.01462075784823446689e-01) (98, 5.91114177984536248722e-01) (99, 1.50000000000000000000e+03) (100, 1.50000000000000000000e+03) (101, 8.73330486223743429619e-01) (102, 2.54586058699097506075e-01) (103, 1.49999953045979918898e+03) (104, 6.60178809681168274892e+01) (105, 1.46595927308839281977e+03) (106, 1.48969590365659860254e+03) (107, 3.74207613462722465947e-01) (108, 1.22676252193981039085e+01) (109, 1.50000000000000000000e+03) (110, 1.50000000000000000000e+03) (111, 6.53042472940789409108e+00) (112, 4.69576272266084282503e-01) (113, 1.49999956319996317688e+03) (114, 2.92051017565926063213e+00) (115, 5.09576759161637915518e-01) (116, 1.11917071494118713915e+00) (117, 9.21442367489439195793e-01) (118, 2.24510511964421056064e+02) (119, 1.50000000000000000000e+03) (120, 1.50000000000000000000e+03) (121, 4.28527085058082768398e+00) (122, 6.27850627807743477682e-01) (123, 1.22660620144839427326e+00) (124, 6.49649124822437307181e-01) (125, 8.19220017474807993274e-01) (126, 4.80748005440516124054e+00) (127, 6.47703801950224811179e-01) (128, 1.30564125276355434835e+03) (129, 1.50000000000000000000e+03) (130, 1.50000000000000000000e+03) (131, 2.73414097921878473940e+00) (132, 5.30135962341319877389e-01) (133, 6.30431154593234701483e-03) (134, 3.79214088459866816017e-01) (135, 8.24628837352424648444e-01) (136, 5.42499271924452353133e-01) (137, 1.21905292971645384803e+00) (138, 1.24058377060464342101e+00) (139, 1.50000000000000000000e+03) (140, 1.50000000000000000000e+03) (141, 4.11719382365406261215e+00) (142, 7.49060749700987749122e+00) (143, 2.19836184471024198572e+00) (144, 2.28924929439200575132e+00) (145, 2.24744021236075575132e+00) (146, 2.32118899463786254600e+00) (147, 1.56840791980691918184e+00) (148, 3.13331130118291767417e+00) (149, 1.50000000000000000000e+03) (150, 1.50000000000000000000e+03) (151, 1.50000000000000000000e+03) (152, 1.50000000000000000000e+03) (153, 1.50000000000000000000e+03) (154, 1.50000000000000000000e+03) (155, 1.50000000000000000000e+03) (156, 1.50000000000000000000e+03) (157, 1.50000000000000000000e+03) (158, 1.50000000000000000000e+03) (159, 1.50000000000000000000e+03) (160, 4.65122129799109718107e-01) (0, 1.50000000000000000000e+03) (1, 1.50000000000000000000e+03) (2, 1.50000000000000000000e+03) (3, 1.50000000000000000000e+03) (4, 1.50000000000000000000e+03) (5, 1.50000000000000000000e+03) (6, 1.50000000000000000000e+03) (7, 1.50000000000000000000e+03) (8, 1.50000000000000000000e+03) (9, 1.50000000000000000000e+03) (10, 1.50000000000000000000e+03) (11, 1.50000000000000000000e+03) (12, 1.50000000000000000000e+03) (13, 1.50000000000000000000e+03) (14, 1.50000000000000000000e+03) (15, 1.50000000000000000000e+03) (16, 1.50000000000000000000e+03) (17, 1.50000000000000000000e+03) (18, 1.50000000000000000000e+03) (19, 1.50000000000000000000e+03) (20, 1.50000000000000000000e+03) (21, 1.50000000000000000000e+03) (22, 1.63463327001275238182e+00) (23, 1.62635080228985984263e+00) (24, -1.95626648719307327795e+00) (25, 2.45191555861594823185e+00) (26, 5.19241479787305326710e+00) (27, 1.58637948024348696130e+00) (28, 6.89253365277313290171e-01) (29, 1.50000000000000000000e+03) (30, 1.50000000000000000000e+03) (31, -1.40759107614409817444e+00) (32, 1.68160784496614812422e-01) (33, 1.11317704342462008071e+02) (34, 2.55454491141850240865e+02) (35, 2.59940781965866108294e+02) (36, 2.60784515729144352747e+01) (37, 4.40756053214307712551e+02) (38, 1.15913557018081392336e+00) (39, 1.50000000000000000000e+03) (40, 1.50000000000000000000e+03) (41, 2.09657206420502628674e+00) (42, 3.24671338146869548069e+00) (43, 1.78246857062615511325e+01) (44, 1.50715457968083494933e+01) (45, 6.81612220271660135040e+02) (46, 4.41419665538114713854e+01) (47, 4.93178887379845853900e+00) (48, -1.18940586277640818480e+03) (49, 1.50000000000000000000e+03) (50, 1.50000000000000000000e+03) (51, -4.13512051799935491658e+01) (52, 2.33960980894574603894e+01) (53, 9.07006417607559569660e+01) (54, 1.50000000000000000000e+03) (55, 1.05367348475825269816e+03) (56, 8.61747749541240409599e+02) (57, 3.23082744773587080545e+01) (58, -7.21797592321731684706e+01) (59, 1.50000000000000000000e+03) (60, 1.50000000000000000000e+03) (61, 1.16047331693236310812e+00) (62, 1.85863008168859522584e+00) (63, 8.30092854940307006473e+02) (64, 1.46602010767449553175e-01) (65, 5.81570795492365348878e+01) (66, -3.78362157396428688827e+00) (67, 9.25767043414513879362e-01) (68, -1.49212093875489077988e+01) (69, 1.50000000000000000000e+03) (70, 1.50000000000000000000e+03) (71, -5.51715029310851035049e-01) (72, 9.74243414126253037821e-01) (73, 1.49999980799998957082e+03) (74, 2.33784087922374965274e+02) (75, -2.17271317055407848784e+02) (76, 2.40916157133913400035e-01) (77, -3.07882463568694919598e-01) (78, -6.44018772153952880899e+01) (79, 1.50000000000000000000e+03) (80, 1.50000000000000000000e+03) (81, 1.50000000000000000000e+03) (82, 1.07276118184480107054e+00) (83, 1.49999979360870906930e+03) (84, 1.30038537270611631591e+00) (85, 1.46863063913035385433e+00) (86, 1.58293456820027311771e+00) (87, 1.80152503417056819579e+00) (88, 3.77103082331147598794e+00) (89, 1.50000000000000000000e+03) (90, 1.50000000000000000000e+03) (91, 2.06226486034938405467e+00) (92, 8.05621040243099773015e-01) (93, 1.49999979360870906930e+03) (94, 9.69299505277804063219e-01) (95, 8.60480772275673100324e-01) (96, 4.60755517684855703919e+02) (97, 1.80014999421922361478e+00) (98, 3.16047415201181269850e+00) (99, 1.50000000000000000000e+03) (100, 1.50000000000000000000e+03) (101, 9.41474038511903255078e-01) (102, 2.13644852997045342491e+00) (103, 1.00349264219865363934e+00) (104, -3.87659831939093502129e+00) (105, -7.25822071115175937450e-01) (106, -1.26704757485986418963e+00) (107, 1.47829981398218746058e+00) (108, -6.83321397399699037578e+00) (109, 1.50000000000000000000e+03) (110, 1.50000000000000000000e+03) (111, 7.96591462971808539351e+00) (112, 1.41631682692664573331e+00) (113, -5.86871420154403722336e+00) (114, 1.62548335210600591871e+00) (115, 3.82157800774531963839e+00) (116, 1.24291556106594436315e+00) (117, 8.61108482620700832477e-01) (118, 4.10938968159581961004e+01) (119, 1.50000000000000000000e+03) (120, 1.50000000000000000000e+03) (121, 1.12526462115484293669e+00) (122, 1.33943415794975262401e+00) (123, 9.45293470082852693714e-01) (124, 8.98537414709065562768e-01) (125, 9.26242536041344877162e-01) (126, 1.06179902074186571781e+00) (127, 1.62343009337242616397e+00) (128, 8.15044236047835646275e+00) (129, 1.50000000000000000000e+03) (130, 1.50000000000000000000e+03) (131, -4.25363754992967135760e-01) (132, 9.60020936321521967116e-01) (133, 1.27089171271684509001e+00) (134, 1.15685091041970022907e+00) (135, 3.10910757829913109163e+00) (136, 1.10666574449775567679e+00) (137, 6.15938613594390282913e-01) (138, 7.66419847047853486366e-01) (139, 1.50000000000000000000e+03) (140, 1.50000000000000000000e+03) (141, 3.47025201875921185390e+00) (142, -6.31224259070508497693e-01) (143, 3.36388215731133921604e-01) (144, 4.94780548225464078538e-01) (145, 3.81871614913709356287e-01) (146, 4.98515911708894754462e-01) (147, 4.77415138530505522851e+00) (148, 2.68830775554906020730e+00) (149, 1.50000000000000000000e+03) (150, 1.50000000000000000000e+03) (151, 1.50000000000000000000e+03) (152, 1.50000000000000000000e+03) (153, 1.50000000000000000000e+03) (154, 1.50000000000000000000e+03) (155, 1.50000000000000000000e+03) (156, 1.50000000000000000000e+03) (157, 1.50000000000000000000e+03) (158, 1.50000000000000000000e+03) (159, 1.50000000000000000000e+03) (160, 1.36018355623229059148e+00) (0, 1.50000000000000000000e+03) (1, 1.50000000000000000000e+03) (2, 1.50000000000000000000e+03) (3, 1.50000000000000000000e+03) (4, 1.50000000000000000000e+03) (5, 1.50000000000000000000e+03) (6, 1.50000000000000000000e+03) (7, 1.50000000000000000000e+03) (8, 1.50000000000000000000e+03) (9, 1.50000000000000000000e+03) (10, 1.50000000000000000000e+03) (11, 1.50000000000000000000e+03) (12, 1.50000000000000000000e+03) (13, 1.50000000000000000000e+03) (14, 1.50000000000000000000e+03) (15, 1.50000000000000000000e+03) (16, 1.50000000000000000000e+03) (17, 1.50000000000000000000e+03) (18, 1.50000000000000000000e+03) (19, 1.50000000000000000000e+03) (20, 1.50000000000000000000e+03) (21, 1.50000000000000000000e+03) (22, 1.33200091772386675082e+00) (23, 1.38206805937597398959e+00) (24, -2.58013392524755857949e+00) (25, 3.91215443738923418504e-01) (26, 4.98448739466214796323e+00) (27, 1.33532721340111093511e+00) (28, 1.25567905454707351431e+00) (29, 1.50000000000000000000e+03) (30, 1.50000000000000000000e+03) (31, -1.24071355719269926787e+00) (32, 8.86902429056984353828e-02) (33, 1.11309879534702616866e+02) (34, 2.55362707878188132327e+02) (35, 2.60017443514501678692e+02) (36, 2.62372100238136596317e+01) (37, 4.40707603832896211316e+02) (38, 1.17380309794268078427e+00) (39, 1.50000000000000000000e+03) (40, 1.50000000000000000000e+03) (41, -2.41144775857921178641e+00) (42, 3.17679941810463395413e+00) (43, 1.78244924715597328202e+01) (44, 1.51606571323839300902e+01) (45, 6.81653785209341094742e+02) (46, 4.41010302774948286242e+01) (47, 4.87252362964601815065e+00) (48, -1.18214766900571930819e+03) (49, 1.50000000000000000000e+03) (50, 1.50000000000000000000e+03) (51, -4.12549207695003090635e+01) (52, 2.34613986517880803717e+01) (53, 9.07746245420772623902e+01) (54, 1.50000000000000000000e+03) (55, 1.05369598866661522152e+03) (56, 8.61755501006084159599e+02) (57, 3.24134085680596939483e+01) (58, -7.21807513332763903691e+01) (59, 1.50000000000000000000e+03) (60, 1.50000000000000000000e+03) (61, 1.05774915885746834121e+00) (62, 1.87470444836030458724e+00) (63, 8.16508718058202020984e+02) (64, 9.35518122857427331107e-02) (65, 5.82477336834871337601e+01) (66, -8.39721003748147332146e+00) (67, 8.98001761248783059166e-01) (68, -1.81394459090878683583e+01) (69, 1.50000000000000000000e+03) (70, 1.50000000000000000000e+03) (71, -2.88313164233543917092e-01) (72, 8.81548282307874742081e-01) (73, 1.10984171385824333811e+03) (74, 2.33725629224966496622e+02) (75, -2.17208494605154385226e+02) (76, 3.20424235708800408950e-01) (77, -4.11213439125785173989e-01) (78, -6.44131793722390995072e+01) (79, 1.50000000000000000000e+03) (80, 1.50000000000000000000e+03) (81, 1.50000000000000000000e+03) (82, 1.21979567506090336160e+00) (83, 1.49999979360870906930e+03) (84, 1.17710059476275530344e+00) (85, 1.42917884072755541069e+00) (86, 1.60511112882837903015e+00) (87, 1.76244301675502978988e+00) (88, 3.64922042806433566398e+00) (89, 1.50000000000000000000e+03) (90, 1.50000000000000000000e+03) (91, 2.09629207188550470420e+00) (92, 8.26485351622201269706e-01) (93, 1.49999979360870906930e+03) (94, 1.08366097315493692399e+00) (95, 9.25922415323230607598e-01) (96, 4.60755517684855703919e+02) (97, 1.86259107688978442496e+00) (98, 3.13926020251001069994e+00) (99, 1.50000000000000000000e+03) (100, 1.50000000000000000000e+03) (101, 9.71939189444924855898e-01) (102, 2.09412350966560056875e+00) (103, 1.22308950843215225035e+00) (104, -4.02718896787715330277e+00) (105, -6.07023530089352614247e-01) (106, -2.10290843277127503796e+00) (107, 1.42425679691989737208e+00) (108, -6.84240404014132241883e+00) (109, 1.50000000000000000000e+03) (110, 1.50000000000000000000e+03) (111, 7.55962725499170051791e+00) (112, 1.26978549978288124400e+00) (113, -2.24950937931026384575e+00) (114, -1.11657242270704770704e+00) (115, 2.13763038969284702162e+00) (116, 1.26568778189632991094e+00) (117, 9.74219010664987727921e-01) (118, -6.08182042538027687328e+01) (119, 1.50000000000000000000e+03) (120, 1.50000000000000000000e+03) (121, 9.12019210690659276608e-01) (122, 1.30826452963570338817e+00) (123, 9.86648484813481774225e-01) (124, 1.01706147780783107137e+00) (125, 9.67436357196583052165e-01) (126, 9.46920871663390006923e-01) (127, 1.64226055632485623548e+00) (128, 8.86898409961154854386e+00) (129, 1.50000000000000000000e+03) (130, 1.50000000000000000000e+03) (131, -2.44400618737066921415e-01) (132, 8.76789057444989583523e-01) (133, 1.00036451613439392183e+00) (134, 1.02457780665090547600e+00) (135, 3.02476259690860604934e+00) (136, 1.06974103033477052627e+00) (137, 5.32544405262857400984e-01) (138, 5.81147630251142466307e-01) (139, 1.50000000000000000000e+03) (140, 1.50000000000000000000e+03) (141, 3.34115175477566994644e+00) (142, -7.03831679455392489331e-01) (143, 5.06224640022341798584e-01) (144, 4.85747345100459915201e-01) (145, 3.37920196662893301820e-01) (146, 4.52440463315049890003e-01) (147, 4.71952492046130700487e+00) (148, 2.08570410365979386214e+00) (149, 1.50000000000000000000e+03) (150, 1.50000000000000000000e+03) (151, 1.50000000000000000000e+03) (152, 1.50000000000000000000e+03) (153, 1.50000000000000000000e+03) (154, 1.50000000000000000000e+03) (155, 1.50000000000000000000e+03) (156, 1.50000000000000000000e+03) (157, 1.50000000000000000000e+03) (158, 1.50000000000000000000e+03) (159, 1.50000000000000000000e+03) (160, 1.21336873786130983177e+00) (0, 1.50000000000000000000e+03) (1, 1.50000000000000000000e+03) (2, 1.50000000000000000000e+03) (3, 1.50000000000000000000e+03) (4, 1.50000000000000000000e+03) (5, 1.50000000000000000000e+03) (6, 1.50000000000000000000e+03) (7, 1.50000000000000000000e+03) (8, 1.50000000000000000000e+03) (9, 1.50000000000000000000e+03) (10, 1.50000000000000000000e+03) (11, 1.50000000000000000000e+03) (12, 1.50000000000000000000e+03) (13, 1.50000000000000000000e+03) (14, 1.50000000000000000000e+03) (15, 1.50000000000000000000e+03) (16, 1.50000000000000000000e+03) (17, 1.50000000000000000000e+03) (18, 1.50000000000000000000e+03) (19, 1.50000000000000000000e+03) (20, 1.50000000000000000000e+03) (21, 1.50000000000000000000e+03) (22, 1.27910365863757480298e+00) (23, 1.36886806740479771705e+00) (24, -3.26350544837296485667e+00) (25, -7.85103868760200440668e-01) (26, 4.73822907441799401340e+00) (27, 1.06913877018265979224e+00) (28, 1.21285507845686213457e+00) (29, 1.50000000000000000000e+03) (30, 1.50000000000000000000e+03) (31, -1.34969797326917362312e+00) (32, 2.72854198042644102706e-01) (33, 1.11347901219787402738e+02) (34, 2.55349779305479728464e+02) (35, 2.59957056935885930216e+02) (36, 2.61666197372331268411e+01) (37, 4.40772689699619434123e+02) (38, 1.24617564298357530461e+00) (39, 1.50000000000000000000e+03) (40, 1.50000000000000000000e+03) (41, -1.56456081601041763207e+00) (42, 3.21189565159491907664e+00) (43, 1.78336343292387198289e+01) (44, 1.50232750979018838677e+01) (45, 6.81664159250317084116e+02) (46, 4.40203458459081531373e+01) (47, 4.82146621417214849004e+00) (48, -3.79885349242027643868e+02) (49, 1.50000000000000000000e+03) (50, 1.50000000000000000000e+03) (51, -4.14112128268487467153e+01) (52, 2.35240814929975421421e+01) (53, 9.05969072812445830323e+01) (54, 1.50000000000000000000e+03) (55, 1.05352254312304353334e+03) (56, 8.61700741514389960685e+02) (57, 3.24033147938676791000e+01) (58, -7.21275342656387721263e+01) (59, 1.50000000000000000000e+03) (60, 1.50000000000000000000e+03) (61, 1.08728451832270800459e+00) (62, 1.85267649207550411106e+00) (63, 8.29916650650962878899e+02) (64, 2.18520628161453983607e-01) (65, -3.46232022031450270561e+01) (66, -4.06594312252010681163e+00) (67, 8.48227955840340608340e-01) (68, -1.51226346659541981410e+01) (69, 1.50000000000000000000e+03) (70, 1.50000000000000000000e+03) (71, -5.83359693355766983913e-01) (72, 8.17688033684670023682e-01) (73, 3.60514489002989932942e+01) (74, 2.33848046933645292711e+02) (75, -2.18151589503268581893e+02) (76, 3.26355302167117000689e-01) (77, -4.95646974857292255123e-01) (78, -6.55433013434233835426e+00) (79, 1.50000000000000000000e+03) (80, 1.50000000000000000000e+03) (81, -5.20327475719552179356e+00) (82, 1.04493289975546410631e+00) (83, 1.23780284418298629134e+03) (84, 1.25961313523565321404e+00) (85, 1.52404636339677357348e+00) (86, 1.56988065785856245604e+00) (87, 1.66052266755399835496e+00) (88, 3.80254244209250513720e+00) (89, 1.50000000000000000000e+03) (90, 1.50000000000000000000e+03) (91, 1.94723337985029942843e+00) (92, 8.64052760063942937308e-01) (93, 1.49999979360870906930e+03) (94, 1.05405240563368463036e+00) (95, 9.77701349968558841574e-01) (96, 4.60757130254533024072e+02) (97, 1.87838567833326464118e+00) (98, 3.01437936380533821890e+00) (99, 1.50000000000000000000e+03) (100, 1.50000000000000000000e+03) (101, 8.30449682295652302777e-01) (102, 2.09035193273527664104e+00) (103, 1.17621362448629684927e+00) (104, -3.82269185978843717422e+00) (105, -6.50384753565917739238e-01) (106, -5.58937576516232992319e-01) (107, 1.50552565635407753497e+00) (108, -6.87727096563440642996e+00) (109, 1.50000000000000000000e+03) (110, 1.50000000000000000000e+03) (111, 7.67149347554077198907e+00) (112, 1.38555036142202725458e+00) (113, -5.80667048161771948145e+00) (114, 2.44560047326030760573e+00) (115, 2.22078139202978031008e+00) (116, 1.22575177797052492501e+00) (117, 9.31390345381441053796e-01) (118, -4.27521168082539593236e-01) (119, 1.50000000000000000000e+03) (120, 1.50000000000000000000e+03) (121, 1.22990295467284993514e+00) (122, 1.21274842849334962835e+00) (123, 9.93964141585998106621e-01) (124, 9.17582534519758352687e-01) (125, 9.86507144021760873365e-01) (126, 1.05338448818035046450e+00) (127, 1.51287732600843982667e+00) (128, 8.15041930056504604352e+00) (129, 1.50000000000000000000e+03) (130, 1.50000000000000000000e+03) (131, -3.19286422568152261636e-01) (132, 9.01346646280064001111e-01) (133, 8.50633967958723147262e-01) (134, 7.38936852803070642892e-01) (135, 3.03308003334435793974e+00) (136, 8.71252135504342994921e-01) (137, 4.75258107137445928725e-01) (138, 6.69597739734120511734e-01) (139, 1.50000000000000000000e+03) (140, 1.50000000000000000000e+03) (141, 3.32013597598379206488e+00) (142, -7.04228713168342457251e-01) (143, 3.33353633382165837062e-01) (144, 4.07010855474349342309e-01) (145, 4.54532826640505371874e-01) (146, 4.64231321909331917652e-01) (147, 4.66205462331096232020e+00) (148, 2.13558452512274543622e+00) (149, 1.50000000000000000000e+03) (150, 1.50000000000000000000e+03) (151, 1.50000000000000000000e+03) (152, 1.50000000000000000000e+03) (153, 1.50000000000000000000e+03) (154, 1.50000000000000000000e+03) (155, 1.50000000000000000000e+03) (156, 1.50000000000000000000e+03) (157, 1.50000000000000000000e+03) (158, 1.50000000000000000000e+03) (159, 1.50000000000000000000e+03) (160, 1.23993337510086476527e+00) (0, 1.50000000000000000000e+03) (1, 1.50000000000000000000e+03) (2, 1.50000000000000000000e+03) (3, 1.50000000000000000000e+03) (4, 1.50000000000000000000e+03) (5, 1.50000000000000000000e+03) (6, 1.50000000000000000000e+03) (7, 1.50000000000000000000e+03) (8, 1.50000000000000000000e+03) (9, 1.50000000000000000000e+03) (10, 1.50000000000000000000e+03) (11, 1.50000000000000000000e+03) (12, 1.50000000000000000000e+03) (13, 1.50000000000000000000e+03) (14, 1.50000000000000000000e+03) (15, 1.50000000000000000000e+03) (16, 1.50000000000000000000e+03) (17, 1.50000000000000000000e+03) (18, 1.50000000000000000000e+03) (19, 1.50000000000000000000e+03) (20, 1.50000000000000000000e+03) (21, 1.50000000000000000000e+03) (22, 1.37392147541874609651e+00) (23, 1.50161922634476341365e+00) (24, -2.67947828183238589972e+00) (25, 3.23220834732026729430e-01) (26, 4.98147352884202909706e+00) (27, 1.19107349016141594866e+00) (28, 1.34329738126961717448e+00) (29, 1.50000000000000000000e+03) (30, 1.50000000000000000000e+03) (31, -1.37298670673384304308e+00) (32, 2.23905854796935338547e-01) (33, 1.11349194629828218694e+02) (34, 2.55408616590389669909e+02) (35, 2.59956119566648112595e+02) (36, 2.61023796066564237606e+01) (37, 4.40757453605676289499e+02) (38, 1.23288748539319503728e+00) (39, 1.50000000000000000000e+03) (40, 1.50000000000000000000e+03) (41, -2.47423614921932033539e+00) (42, 3.28821775698912510677e+00) (43, 1.77450999277539764876e+01) (44, 1.51655728074865763233e+01) (45, 6.81727530245793218455e+02) (46, 4.40402233045431188430e+01) (47, 4.89880162433732557759e+00) (48, -1.18289503220773781322e+03) (49, 1.50000000000000000000e+03) (50, 1.50000000000000000000e+03) (51, -4.16337974744519243586e+01) (52, 2.35468528886118768639e+01) (53, 9.07329581889101319803e+01) (54, 1.50000000000000000000e+03) (55, 1.05367928570725575810e+03) (56, 8.61604777043925309954e+02) (57, 3.23947775742342898297e+01) (58, -7.20767022454587902303e+01) (59, 1.50000000000000000000e+03) (60, 1.50000000000000000000e+03) (61, 9.75896108121732774876e-01) (62, 1.71911780783943868300e+00) (63, 8.29943177120267705504e+02) (64, 6.20247714224463272958e-02) (65, 5.80844111489049694796e+01) (66, -7.92794816829453541374e+00) (67, 1.00410983591238078816e+00) (68, -1.81327579998792352001e+01) (69, 1.50000000000000000000e+03) (70, 1.50000000000000000000e+03) (71, -3.13119951813376096172e-01) (72, 9.54032854930288554129e-01) (73, 1.10984171385824333811e+03) (74, 2.33901180130638209675e+02) (75, -2.18034746453374850717e+02) (76, 3.80620520085941438371e-01) (77, -3.49022522447290983738e-01) (78, -6.43426800103553233612e+01) (79, 1.50000000000000000000e+03) (80, 1.50000000000000000000e+03) (81, 1.49864772308174315185e+03) (82, 1.09848498167630181932e+00) (83, 1.49999979360870906930e+03) (84, 1.15763557609688660932e+00) (85, 1.40642628738702968327e+00) (86, 1.68152353852765434894e+00) (87, 1.85626216415959710559e+00) (88, 3.63865253112685405057e+00) (89, 1.50000000000000000000e+03) (90, 1.50000000000000000000e+03) (91, 1.90691522845072580772e+00) (92, 8.54711047994979322695e-01) (93, 1.49999979360870906930e+03) (94, 1.15910644214649849459e+00) (95, 8.98056043131571613003e-01) (96, 4.60755562766410491804e+02) (97, 1.73467426412277125891e+00) (98, 3.07774317194157109867e+00) (99, 1.50000000000000000000e+03) (100, 1.50000000000000000000e+03) (101, 8.56319464272690566986e-01) (102, 2.18129701949500365288e+00) (103, 1.18560591479265053927e+00) (104, -3.96802470316525557337e+00) (105, -2.57591409259999681858e-01) (106, -2.30105799132471844359e+00) (107, 1.51100098054732989716e+00) (108, -6.94075329148679465163e+00) (109, 1.50000000000000000000e+03) (110, 1.50000000000000000000e+03) (111, 7.44831475752600269402e+00) (112, 1.32255922381343249405e+00) (113, -2.12198175327796967338e+00) (114, -1.03046846038750650187e+00) (115, 2.14358892221221752905e+00) (116, 1.28676256876301287058e+00) (117, 8.92762222387710857596e-01) (118, -6.09442846703423342092e+01) (119, 1.50000000000000000000e+03) (120, 1.50000000000000000000e+03) (121, 1.06506718172488801244e+00) (122, 1.19139664631232045089e+00) (123, 8.43352494464601254442e-01) (124, 9.94400884424510911330e-01) (125, 8.50021656086048738032e-01) (126, 1.09959388819197956266e+00) (127, 1.48545138834269008221e+00) (128, 8.79562529028348549787e+00) (129, 1.50000000000000000000e+03) (130, 1.50000000000000000000e+03) (131, -3.66840884274498069129e-01) (132, 8.46966613073222296393e-01) (133, 9.36288467121568657170e-01) (134, 9.99862108025433071745e-01) (135, 2.99920879895617620292e+00) (136, 1.01913246151449388144e+00) (137, 5.60885383765046485749e-01) (138, 6.56973960315780258767e-01) (139, 1.50000000000000000000e+03) (140, 1.50000000000000000000e+03) (141, 3.28365394529759546671e+00) (142, -7.08821998291192523212e-01) (143, 4.77509958932388123287e-01) (144, 5.05415229389666653681e-01) (145, 4.73792923877225879981e-01) (146, 4.76710407326209451018e-01) (147, 4.70430511092812331242e+00) (148, 2.03031802290721685722e+00) (149, 1.50000000000000000000e+03) (150, 1.50000000000000000000e+03) (151, 1.50000000000000000000e+03) (152, 1.50000000000000000000e+03) (153, 1.50000000000000000000e+03) (154, 1.50000000000000000000e+03) (155, 1.50000000000000000000e+03) (156, 1.50000000000000000000e+03) (157, 1.50000000000000000000e+03) (158, 1.50000000000000000000e+03) (159, 1.50000000000000000000e+03) (160, 1.33651458984476700920e+00) (0, 1.50000000000000000000e+03) (1, 1.50000000000000000000e+03) (2, 1.50000000000000000000e+03) (3, 1.50000000000000000000e+03) (4, 1.50000000000000000000e+03) (5, 1.50000000000000000000e+03) (6, 1.50000000000000000000e+03) (7, 1.50000000000000000000e+03) (8, 1.50000000000000000000e+03) (9, 1.50000000000000000000e+03) (10, 1.50000000000000000000e+03) (11, 1.50000000000000000000e+03) (12, 1.50000000000000000000e+03) (13, 1.50000000000000000000e+03) (14, 1.50000000000000000000e+03) (15, 1.50000000000000000000e+03) (16, 1.50000000000000000000e+03) (17, 1.50000000000000000000e+03) (18, 1.50000000000000000000e+03) (19, 1.50000000000000000000e+03) (20, 1.50000000000000000000e+03) (21, 1.50000000000000000000e+03) (22, 1.35754893605235649190e+00) (23, 1.31602061424965555148e+00) (24, -3.49310072974992991135e+00) (25, 1.90380066864953145789e+00) (26, 2.22586744143774062366e+00) (27, 9.19578017468208996910e-01) (28, -3.16655176005640692782e-01) (29, 1.50000000000000000000e+03) (30, 1.50000000000000000000e+03) (31, 2.96920683798198269121e-02) (32, -1.36846781882119961082e+00) (33, -3.21198220598402417458e-01) (34, 2.81011539236064797342e-02) (35, 8.23268824413245642324e-02) (36, -6.48636351439721980938e-02) (37, 2.34082072222528053684e-01) (38, 3.66699558397403715948e-02) (39, 1.50000000000000000000e+03) (40, 1.50000000000000000000e+03) (41, 6.38931130827576909681e-02) (42, 4.81322080929596107790e-01) (43, -6.00736894498935056902e-03) (44, -5.04716535733252258389e-01) (45, 7.74567062121369054317e-02) (46, 1.76503657363173832584e-01) (47, 1.77445288335790402057e-01) (48, -2.36846766881254083836e-01) (49, 1.50000000000000000000e+03) (50, 1.50000000000000000000e+03) (51, 2.40972022655722345474e-01) (52, 3.83620206355946125054e-01) (53, 1.44555579227055752689e-01) (54, 6.03301911987404126947e-01) (55, 9.48341932293011113941e-01) (56, 1.20189721575529859243e-01) (57, -5.58777470568044207222e-02) (58, 1.14697908836505160224e+01) (59, 1.50000000000000000000e+03) (60, 1.50000000000000000000e+03) (61, -3.54507534363860343785e-01) (62, 3.19648977967422698310e-01) (63, -1.02171784250019381801e+00) (64, -1.13633887868922212050e+00) (65, 1.50704314226298624613e-01) (66, 1.87958664687746551669e-01) (67, 4.57845607200657728209e-02) (68, -1.70414895790377691753e+01) (69, 1.50000000000000000000e+03) (70, 1.50000000000000000000e+03) (71, 1.81718742221789852920e-01) (72, -6.44506113168173744299e-01) (73, 1.87476986205773660243e-01) (74, 2.79406616324814727204e-01) (75, 1.90215354724953988885e-01) (76, -1.16691405361285027720e-01) (77, -2.51675051083087986115e+00) (78, 9.06954048735783835422e-02) (79, 1.50000000000000000000e+03) (80, 1.50000000000000000000e+03) (81, 9.21174166897263835274e-01) (82, 1.88392986236541604139e-01) (83, 4.27127469998872966173e-01) (84, 1.62958998744708233319e-01) (85, 1.83908067261197877285e-01) (86, 2.79842297344838120132e-01) (87, 1.26220181810003766187e-02) (88, 1.79042086663796018442e+00) (89, 1.50000000000000000000e+03) (90, 1.50000000000000000000e+03) (91, 5.73618773727574346455e-02) (92, -1.60679321495746685322e+00) (93, 3.62001680865524089192e-01) (94, 1.36041076498503027414e-01) (95, 1.02048817555410376023e+00) (96, -1.04439793592878873985e-01) (97, 6.29282470007058392092e-01) (98, 3.91719260606040453609e-01) (99, 1.50000000000000000000e+03) (100, 1.50000000000000000000e+03) (101, 1.82420107548157517385e-01) (102, 2.89131692118415939419e-01) (103, 4.48133409099115087582e-01) (104, -2.33734967368521034947e-01) (105, 5.47851560425101857810e-01) (106, 7.11648193183942345819e-01) (107, 1.31953600290312694776e-01) (108, -7.44554002625583910557e-01) (109, 1.50000000000000000000e+03) (110, 1.50000000000000000000e+03) (111, 7.71914903937051422034e-01) (112, -6.45662222736282653823e-02) (113, 1.32508344398986233070e-01) (114, -5.23317711691947094754e-03) (115, 2.74011095696552908763e-01) (116, 3.61366898501441713432e-01) (117, 5.50681621914291194453e-02) (118, -6.06165076793913487618e-02) (119, 1.50000000000000000000e+03) (120, 1.50000000000000000000e+03) (121, 7.92058609011861980420e-01) (122, -1.58003965888142472451e-01) (123, 9.36249457907249310606e-02) (124, 1.84449156692428284376e-01) (125, 1.94710980645495856933e-01) (126, 3.36904853237433923874e-02) (127, -5.42173646608872683572e-01) (128, -5.29072252751441141072e+00) (129, 1.50000000000000000000e+03) (130, 1.50000000000000000000e+03) (131, 2.58792169888592438198e-01) (132, 6.40191810166416241934e-01) (133, 1.84470115941280354832e+00) (134, 5.82712576825547001746e-01) (135, 5.17306262672934558111e-01) (136, 5.68137755118119924802e-01) (137, 3.00197687206054997233e-01) (138, 3.47399088247911880245e-01) (139, 1.50000000000000000000e+03) (140, 1.50000000000000000000e+03) (141, 3.02961458203231037700e+00) (142, -1.37288845616920052173e+00) (143, -1.63066824809613319935e-01) (144, -3.19011656479025018651e-01) (145, -3.19225279525900240696e-01) (146, -3.20030940608168612549e-01) (147, 4.04784874122426607812e+00) (148, 2.19288946918403038211e+00) (149, 1.50000000000000000000e+03) (150, 1.50000000000000000000e+03) (151, 1.50000000000000000000e+03) (152, 1.50000000000000000000e+03) (153, 1.50000000000000000000e+03) (154, 1.50000000000000000000e+03) (155, 1.50000000000000000000e+03) (156, 1.50000000000000000000e+03) (157, 1.50000000000000000000e+03) (158, 1.50000000000000000000e+03) (159, 1.50000000000000000000e+03) (160, 1.71678741633902121055e-01) (0, 1.50000000000000000000e+03) (1, 1.50000000000000000000e+03) (2, 1.50000000000000000000e+03) (3, 1.50000000000000000000e+03) (4, 1.50000000000000000000e+03) (5, 1.50000000000000000000e+03) (6, 1.50000000000000000000e+03) (7, 1.50000000000000000000e+03) (8, 1.50000000000000000000e+03) (9, 1.50000000000000000000e+03) (10, 1.50000000000000000000e+03) (11, 1.50000000000000000000e+03) (12, 1.50000000000000000000e+03) (13, 1.50000000000000000000e+03) (14, 1.50000000000000000000e+03) (15, 1.50000000000000000000e+03) (16, 1.50000000000000000000e+03) (17, 1.50000000000000000000e+03) (18, 1.50000000000000000000e+03) (19, 1.50000000000000000000e+03) (20, 1.50000000000000000000e+03) (21, 1.50000000000000000000e+03) (22, 1.95418936899639128502e-01) (23, 2.22384268185832456588e-01) (24, 6.84966252809121822764e+00) (25, 3.41411503913581793057e+00) (26, -4.75157119986159670599e-01) (27, 1.51779149875229835143e-01) (28, 4.36217025912735500981e+00) (29, 1.50000000000000000000e+03) (30, 1.50000000000000000000e+03) (31, 1.49999968799998487157e+03) (32, 2.25227359891305489725e+00) (33, 6.58347382692276550387e-01) (34, 4.50631271442837266772e-01) (35, -7.14083803950970718438e-03) (36, 5.61138261022320006255e-01) (37, 5.75609224232760507967e-01) (38, 4.72259868748029443264e-01) (39, 1.50000000000000000000e+03) (40, 1.50000000000000000000e+03) (41, 1.19071744300824420293e+01) (42, 1.69192419491974332946e-01) (43, 1.62651599200594160211e-01) (44, 1.60972371224992460981e+00) (45, 4.48721609369773233311e-01) (46, -1.46812809683864842203e-01) (47, 2.08799357903812127235e-01) (48, -1.49974288913717350624e+03) (49, 1.50000000000000000000e+03) (50, 1.50000000000000000000e+03) (51, 6.15520485679827629610e+02) (52, -3.15196706300998963357e+00) (53, 4.00625217616002837762e-01) (54, 9.71805987577307295311e-01) (55, 3.07025325231146062332e-01) (56, 5.18540496816821572246e-01) (57, 1.06699283775882239333e-01) (58, -4.32300795685461139328e+02) (59, 1.50000000000000000000e+03) (60, 1.50000000000000000000e+03) (61, 6.92286576325017000144e-01) (62, 2.36211067834925181330e-01) (63, -6.61205425335554309640e+02) (64, 2.20756943800202698469e+00) (65, -3.55015985754167857635e+01) (66, 1.49999968799998487157e+03) (67, 7.41588039791638009568e-01) (68, 1.49851113540162623394e+03) (69, 1.50000000000000000000e+03) (70, 1.50000000000000000000e+03) (71, 2.88762885223120413514e+00) (72, 8.85513028646418010048e-01) (73, -9.68652052135893541163e+02) (74, 4.18891280603511916070e+02) (75, 1.49999968799998487157e+03) (76, 1.89934942092745484565e+00) (77, 6.86215134075751809206e+00) (78, -3.48908215796899625616e+01) (79, 1.50000000000000000000e+03) (80, 1.50000000000000000000e+03) (81, 3.63014379490450289634e-01) (82, 8.75225200928761104535e-01) (83, -1.19740028091456951476e-01) (84, 8.20525007831471531183e-01) (85, 5.72501251675294975385e-01) (86, 1.48792713151688793527e-01) (87, 4.64905880352438516390e-01) (88, 4.60531059669250120159e-01) (89, 1.50000000000000000000e+03) (90, 1.50000000000000000000e+03) (91, 3.88808192955198139718e-01) (92, 8.87538264828207412727e-01) (93, -1.41121573435717527900e+03) (94, 1.50000000000000000000e+03) (95, 1.49791357125311446907e+03) (96, 1.44671603833484323332e+03) (97, 5.90439126566174588007e-01) (98, 4.91626865846530702875e-01) (99, 1.50000000000000000000e+03) (100, 1.50000000000000000000e+03) (101, 1.00613933258974519447e+00) (102, 1.31385078193743759511e-01) (103, 1.49999953045979918898e+03) (104, 6.59653544466249002198e+01) (105, 1.46595886988835036391e+03) (106, 1.48969590365659860254e+03) (107, 4.14361418383026702816e-01) (108, 1.22650495238834249534e+01) (109, 1.50000000000000000000e+03) (110, 1.50000000000000000000e+03) (111, 6.74275044602883255607e+00) (112, 4.31600193576970769804e-01) (113, 1.49999956319996317688e+03) (114, 2.85507438613375175152e+00) (115, 3.58829761964537641283e-01) (116, 7.81497831721646440961e-01) (117, 9.37060674259708070721e-01) (118, 2.24352905688505728676e+02) (119, 1.50000000000000000000e+03) (120, 1.50000000000000000000e+03) (121, 4.43031087538069368037e+00) (122, 5.37034257638883127939e-01) (123, 1.24000729597632419754e+00) (124, 7.93599403069191300375e-01) (125, 7.53301877929865471017e-01) (126, 4.91981325428556015567e+00) (127, 6.53758124419357766755e-01) (128, 1.30564125276355434835e+03) (129, 1.50000000000000000000e+03) (130, 1.50000000000000000000e+03) (131, 2.72458286778957026186e+00) (132, 4.88625954065859902098e-01) (133, 1.84929798336944589687e-01) (134, 2.71310858960046585864e-01) (135, 7.82014079337736367492e-01) (136, 4.81726566101303876888e-01) (137, 1.29511494590563036589e+00) (138, 1.34737088594019627230e+00) (139, 1.50000000000000000000e+03) (140, 1.50000000000000000000e+03) (141, 4.07448752780616985092e+00) (142, 7.40424274719083541640e+00) (143, 2.16161868064774242981e+00) (144, 2.30472781597747067295e+00) (145, 2.23190066306962320297e+00) (146, 2.23509280472173088583e+00) (147, 1.54500093738504462593e+00) (148, 3.08827345789592655478e+00) (149, 1.50000000000000000000e+03) (150, 1.50000000000000000000e+03) (151, 1.50000000000000000000e+03) (152, 1.50000000000000000000e+03) (153, 1.50000000000000000000e+03) (154, 1.50000000000000000000e+03) (155, 1.50000000000000000000e+03) (156, 1.50000000000000000000e+03) (157, 1.50000000000000000000e+03) (158, 1.50000000000000000000e+03) (159, 1.50000000000000000000e+03) (160, 5.14123472403652859164e-01) (0, 1.50000000000000000000e+03) (1, 1.50000000000000000000e+03) (2, 1.50000000000000000000e+03) (3, 1.50000000000000000000e+03) (4, 1.50000000000000000000e+03) (5, 1.50000000000000000000e+03) (6, 1.50000000000000000000e+03) (7, 1.50000000000000000000e+03) (8, 1.50000000000000000000e+03) (9, 1.50000000000000000000e+03) (10, 1.50000000000000000000e+03) (11, 1.50000000000000000000e+03) (12, 1.50000000000000000000e+03) (13, 1.50000000000000000000e+03) (14, 1.50000000000000000000e+03) (15, 1.50000000000000000000e+03) (16, 1.50000000000000000000e+03) (17, 1.50000000000000000000e+03) (18, 1.50000000000000000000e+03) (19, 1.50000000000000000000e+03) (20, 1.50000000000000000000e+03) (21, 1.50000000000000000000e+03) (22, 2.43709949544408804867e-01) (23, 1.75027092686621588147e-01) (24, 7.03109563206858467765e+00) (25, 3.45592412116707059511e+00) (26, -5.71537730005118316257e-01) (27, 2.91543551936865763530e-01) (28, 4.47761214769813609138e+00) (29, 1.50000000000000000000e+03) (30, 1.50000000000000000000e+03) (31, 1.49999968799998487157e+03) (32, 2.35024209711358755825e+00) (33, 4.55183398994205790089e-01) (34, 3.01005395538267495059e-01) (35, 1.37908623235699412390e-01) (36, 5.33441549524364178048e-01) (37, 5.66357150983263890609e-01) (38, 6.23428115602883803348e-01) (39, 1.50000000000000000000e+03) (40, 1.50000000000000000000e+03) (41, 1.17974938219928340288e+01) (42, 1.49029760113800979759e-01) (43, 1.86609796409299338871e-01) (44, 1.64037382898127370723e+00) (45, 5.05816051759702678403e-01) (46, 3.25253433431848815172e-02) (47, 3.08668983936566498905e-01) (48, -1.49974288913717350624e+03) (49, 1.50000000000000000000e+03) (50, 1.50000000000000000000e+03) (51, 6.15607187972615520266e+02) (52, -3.07676514409097778824e+00) (53, 5.03567923358571145620e-01) (54, 8.71707611838361873247e-01) (55, 3.57562866914552690556e-01) (56, 6.69451516278956049177e-01) (57, 2.37670977366754798688e-01) (58, -4.32443672884216880448e+02) (59, 1.50000000000000000000e+03) (60, 1.50000000000000000000e+03) (61, 7.60761923337253009869e-01) (62, 2.54008917907309339501e-01) (63, -6.61353857764717645296e+02) (64, 2.24805329667522091341e+00) (65, -3.54332521360196679439e+01) (66, 1.49999968799998487157e+03) (67, 7.98600977754616914162e-01) (68, 1.49851113540162623394e+03) (69, 1.50000000000000000000e+03) (70, 1.50000000000000000000e+03) (71, 2.75838080684632114270e+00) (72, 8.79104337240168010048e-01) (73, -9.68529960581784848728e+02) (74, 4.18551560468201785170e+02) (75, 1.49999968799998487157e+03) (76, 2.00306645747273259772e+00) (77, 5.59499485386362849226e+00) (78, -3.26028198454439248621e+01) (79, 1.50000000000000000000e+03) (80, 1.50000000000000000000e+03) (81, 4.90131054035561064541e-01) (82, 8.70403423585011104535e-01) (83, -8.02690483687170386329e-02) (84, 7.49188747001550137128e-01) (85, 5.17740505017483587658e-01) (86, 1.88938590304214365512e-01) (87, 5.16208790569246511737e-01) (88, 4.03813010594042898216e-01) (89, 1.50000000000000000000e+03) (90, 1.50000000000000000000e+03) (91, 4.20725280206353802193e-01) (92, 8.34529231625091294511e-01) (93, -1.41121620475720646937e+03) (94, 1.50000000000000000000e+03) (95, 1.49791357125311446907e+03) (96, 1.44719773642241943890e+03) (97, 6.39815844222603735680e-01) (98, 6.47784004771399080091e-01) (99, 1.50000000000000000000e+03) (100, 1.50000000000000000000e+03) (101, 9.41155910854478250371e-01) (102, 1.92464088039345393444e-01) (103, 1.49999953045979918898e+03) (104, 6.59454569856874002198e+01) (105, 1.46595886988835036391e+03) (106, 1.48969590365659860254e+03) (107, 4.73309639835719997425e-01) (108, 1.22358503110938894309e+01) (109, 1.50000000000000000000e+03) (110, 1.50000000000000000000e+03) (111, 6.84584142300553821769e+00) (112, 3.99211226032957389176e-01) (113, 1.49999956319996317688e+03) (114, 2.99873893989523310211e+00) (115, 3.87033616058779172953e-01) (116, 6.88400912363941408501e-01) (117, 8.52099191023683144586e-01) (118, 2.23303262464586140368e+02) (119, 1.50000000000000000000e+03) (120, 1.50000000000000000000e+03) (121, 4.40854801817020192090e+00) (122, 5.56562913890579546994e-01) (123, 1.27799557871647539997e+00) (124, 7.20877152166117363130e-01) (125, 6.48176603580046695186e-01) (126, 4.88006639916529483259e+00) (127, 6.65812103568242275031e-01) (128, 1.30564125276355434835e+03) (129, 1.50000000000000000000e+03) (130, 1.50000000000000000000e+03) (131, 2.77878209399015041470e+00) (132, 4.43881082509193169994e-01) (133, 6.44751204937285132823e-02) (134, 4.05224231538310830647e-01) (135, 8.18085856681492584741e-01) (136, 5.71912115211443472518e-01) (137, 1.28979267581028178569e+00) (138, 1.28624416950523534631e+00) (139, 1.50000000000000000000e+03) (140, 1.50000000000000000000e+03) (141, 4.14767478962600932846e+00) (142, 7.38361897012913459548e+00) (143, 2.29417482852114851255e+00) (144, 2.19257571264280004542e+00) (145, 2.31916872500552306846e+00) (146, 2.19889895334018437012e+00) (147, 1.64265719483562477876e+00) (148, 3.13032668055217566661e+00) (149, 1.50000000000000000000e+03) (150, 1.50000000000000000000e+03) (151, 1.50000000000000000000e+03) (152, 1.50000000000000000000e+03) (153, 1.50000000000000000000e+03) (154, 1.50000000000000000000e+03) (155, 1.50000000000000000000e+03) (156, 1.50000000000000000000e+03) (157, 1.50000000000000000000e+03) (158, 1.50000000000000000000e+03) (159, 1.50000000000000000000e+03) (160, 4.42154047642151881714e-01) (0, 1.50000000000000000000e+03) (1, 1.50000000000000000000e+03) (2, 1.50000000000000000000e+03) (3, 1.50000000000000000000e+03) (4, 1.50000000000000000000e+03) (5, 1.50000000000000000000e+03) (6, 1.50000000000000000000e+03) (7, 1.50000000000000000000e+03) (8, 1.50000000000000000000e+03) (9, 1.50000000000000000000e+03) (10, 1.50000000000000000000e+03) (11, 1.50000000000000000000e+03) (12, 1.50000000000000000000e+03) (13, 1.50000000000000000000e+03) (14, 1.50000000000000000000e+03) (15, 1.50000000000000000000e+03) (16, 1.50000000000000000000e+03) (17, 1.50000000000000000000e+03) (18, 1.50000000000000000000e+03) (19, 1.50000000000000000000e+03) (20, 1.50000000000000000000e+03) (21, 1.50000000000000000000e+03) (22, 2.66799552134016237925e-01) (23, 3.51504137507355318704e-01) (24, 7.00612614368662089959e+00) (25, 3.39234989645660256485e+00) (26, -5.90061903652285835165e-01) (27, 1.48971532687729585342e-01) (28, 4.47739243007633280769e+00) (29, 1.50000000000000000000e+03) (30, 1.50000000000000000000e+03) (31, 1.49999968799998487157e+03) (32, 2.31601309721942483222e+00) (33, 4.72225549407728539819e-01) (34, 4.77895408645139796455e-01) (35, 2.69536013609894022081e-02) (36, 4.63641668583259169978e-01) (37, 4.82053051797915965704e-01) (38, 5.65232245223513563026e-01) (39, 1.50000000000000000000e+03) (40, 1.50000000000000000000e+03) (41, 1.19221454997246034679e+01) (42, 2.66534032124510433803e-01) (43, 2.59175069593794937806e-01) (44, 1.65464922845680240115e+00) (45, 5.50878164668333059062e-01) (46, 5.96181510975502954031e-02) (47, 1.99900747625549324304e-01) (48, -1.49974288913717350624e+03) (49, 1.50000000000000000000e+03) (50, 1.50000000000000000000e+03) (51, 6.15515915998469154147e+02) (52, -2.71259114281263613577e+00) (53, 4.81088154376795640310e-01) (54, 8.79866842703893925481e-01) (55, 2.16349799234801298820e-01) (56, 6.64405765564196171269e-01) (57, 1.57755491032415345876e-01) (58, -4.32295804804836848234e+02) (59, 1.50000000000000000000e+03) (60, 1.50000000000000000000e+03) (61, 7.29756063962278433976e-01) (62, 1.97146361344153919770e-01) (63, -6.62542392044552457264e+02) (64, 2.22589595408137919108e+00) (65, -3.55158266041256709400e+01) (66, 1.49999968799998487157e+03) (67, 8.61155734010812468071e-01) (68, 1.49851113540162623394e+03) (69, 1.50000000000000000000e+03) (70, 1.50000000000000000000e+03) (71, 2.93548652420728828361e+00) (72, 7.64616281997247515534e-01) (73, -9.67396331848578938661e+02) (74, 4.18974148500681337737e+02) (75, 1.49999968799998487157e+03) (76, 1.88700163633663864360e+00) (77, 6.23259934862409537004e+00) (78, -3.46945592650504792687e+01) (79, 1.50000000000000000000e+03) (80, 1.50000000000000000000e+03) (81, 2.65549410498114979440e-01) (82, 8.55434806300236161292e-01) (83, -1.91386436084153739590e-02) (84, 7.71472792985032129742e-01) (85, 5.21191015562831205798e-01) (86, 1.77795125105094709017e-01) (87, 6.63888595875883558151e-01) (88, 3.53084801474235487895e-01) (89, 1.50000000000000000000e+03) (90, 1.50000000000000000000e+03) (91, 2.34111331910735104289e-01) (92, 9.04261897640707301704e-01) (93, -1.41121543675716475263e+03) (94, 1.50000000000000000000e+03) (95, 1.49791357125311446907e+03) (96, 1.44690392208993989698e+03) (97, 6.38599546624203151524e-01) (98, 4.43595850597387708625e-01) (99, 1.50000000000000000000e+03) (100, 1.50000000000000000000e+03) (101, 8.23106678189216123265e-01) (102, 8.50914450050669068926e-02) (103, 1.49999953045979918898e+03) (104, 6.61391498590158590787e+01) (105, 1.46595967628843527564e+03) (106, 1.48969590365659860254e+03) (107, 5.40758684683054213771e-01) (108, 1.23018354244762289085e+01) (109, 1.50000000000000000000e+03) (110, 1.50000000000000000000e+03) (111, 6.81226376395664701136e+00) (112, 4.51519759086608296617e-01) (113, 1.49999956319996317688e+03) (114, 2.83922355903585899028e+00) (115, 3.28367569162922090520e-01) (116, 7.92788068151112357285e-01) (117, 9.13474724260125547914e-01) (118, 2.23334414806100966189e+02) (119, 1.50000000000000000000e+03) (120, 1.50000000000000000000e+03) (121, 4.30623988498415144477e+00) (122, 6.94696455209808827469e-01) (123, 1.13357030979610939880e+00) (124, 7.59982686726286105205e-01) (125, 7.93732806312824834549e-01) (126, 4.90193079912450979663e+00) (127, 6.95250156766839766398e-01) (128, 1.30564125276355434835e+03) (129, 1.50000000000000000000e+03) (130, 1.50000000000000000000e+03) (131, 2.78639928447038265347e+00) (132, 5.93362289641340634461e-01) (133, 8.86895684324169042423e-02) (134, 4.40707840556821550670e-01) (135, 8.28077323680550980711e-01) (136, 4.91937746996864766480e-01) (137, 1.38586812122387170731e+00) (138, 1.21111600163744936864e+00) (139, 1.50000000000000000000e+03) (140, 1.50000000000000000000e+03) (141, 4.10520041545093761215e+00) (142, 7.39196247300827735671e+00) (143, 2.21142947017325086634e+00) (144, 2.15878664790762631043e+00) (145, 2.33212039708270246763e+00) (146, 2.32870242833270246763e+00) (147, 1.53704805727072768562e+00) (148, 3.12653028936307819663e+00) (149, 1.50000000000000000000e+03) (150, 1.50000000000000000000e+03) (151, 1.50000000000000000000e+03) (152, 1.50000000000000000000e+03) (153, 1.50000000000000000000e+03) (154, 1.50000000000000000000e+03) (155, 1.50000000000000000000e+03) (156, 1.50000000000000000000e+03) (157, 1.50000000000000000000e+03) (158, 1.50000000000000000000e+03) (159, 1.50000000000000000000e+03) (160, 4.99808606182121528683e-01) (0, 1.50000000000000000000e+03) (1, 1.50000000000000000000e+03) (2, 1.50000000000000000000e+03) (3, 1.50000000000000000000e+03) (4, 1.50000000000000000000e+03) (5, 1.50000000000000000000e+03) (6, 1.50000000000000000000e+03) (7, 1.50000000000000000000e+03) (8, 1.50000000000000000000e+03) (9, 1.50000000000000000000e+03) (10, 1.50000000000000000000e+03) (11, 1.50000000000000000000e+03) (12, 1.50000000000000000000e+03) (13, 1.50000000000000000000e+03) (14, 1.50000000000000000000e+03) (15, 1.50000000000000000000e+03) (16, 1.50000000000000000000e+03) (17, 1.50000000000000000000e+03) (18, 1.50000000000000000000e+03) (19, 1.50000000000000000000e+03) (20, 1.50000000000000000000e+03) (21, 1.50000000000000000000e+03) (22, 9.79096421905348290871e-01) (23, 9.98578840800116052101e-01) (24, -3.65435160339814890662e+00) (25, 1.81899842106566445032e+00) (26, 2.32744825496481011484e+00) (27, 1.83054963120616376315e+00) (28, -3.95628566167626039007e-01) (29, 1.50000000000000000000e+03) (30, 1.50000000000000000000e+03) (31, -4.07604661855566818840e-01) (32, -1.97215120295915424808e-01) (33, -2.27593971452850929449e-01) (34, 1.30953872681464994487e-01) (35, 6.52508383487361287578e-02) (36, -2.80085366479009417739e-02) (37, 1.85315149779501558980e-01) (38, 7.47176678511351055612e-01) (39, 1.50000000000000000000e+03) (40, 1.50000000000000000000e+03) (41, -1.01580114560684875435e+00) (42, -1.15469294588967999471e-02) (43, 2.77040426744224951849e-02) (44, -3.15645845520358403480e-01) (45, 1.64524399017850708749e-01) (46, 7.71829447849589345143e-02) (47, 4.71036329772760165024e-02) (48, 4.26019851318777953431e-01) (49, 1.50000000000000000000e+03) (50, 1.50000000000000000000e+03) (51, -2.94316743520975920845e-01) (52, -1.60113699313814383807e+00) (53, 5.68643872167029634790e-02) (54, 9.08602229550158124738e-01) (55, 3.70810605345342214623e-01) (56, 9.46978610303248757862e-02) (57, 6.58434832801763070265e-02) (58, 7.83905762388480975567e-01) (59, 1.50000000000000000000e+03) (60, 1.50000000000000000000e+03) (61, -4.35608975385916252776e-01) (62, 2.38947091438134473496e-01) (63, 8.15685570655977687515e-01) (64, -1.74282042375858231553e-01) (65, 3.54558765467440431540e-02) (66, -3.18488875393888815069e-01) (67, 1.62551953359781148345e-01) (68, -3.43148088085280522641e-01) (69, 1.50000000000000000000e+03) (70, 1.50000000000000000000e+03) (71, 1.98172785285438690650e-01) (72, -1.48168864673507622021e-01) (73, 6.43734479758420796713e-01) (74, 1.79700308968632621598e-01) (75, 3.60457087146450361193e-01) (76, 3.08178078581771097699e-01) (77, -1.04176688671628681071e+00) (78, 3.64554514961487763358e+00) (79, 1.50000000000000000000e+03) (80, 1.50000000000000000000e+03) (81, 2.17822614647553436384e+00) (82, 1.72939549286121097005e-01) (83, 2.98868137995500937620e-01) (84, 2.11740522954044690929e-01) (85, 2.15309416779331130876e-01) (86, 4.92419986526644981595e-01) (87, -6.17828301402188612146e-02) (88, 2.18248387428599449622e-01) (89, 1.50000000000000000000e+03) (90, 1.50000000000000000000e+03) (91, 5.31634275610404438694e-01) (92, -2.52691140814718495644e-01) (93, 1.74885503173300482782e-01) (94, 2.96635933949405072863e-01) (95, 2.42465890090925645373e-01) (96, 3.44270255292107085765e-01) (97, 8.04377979009319316051e-02) (98, -1.70262799366783701416e+00) (99, 1.50000000000000000000e+03) (100, 1.50000000000000000000e+03) (101, 9.40393533049518892675e-02) (102, 4.21934765194750649453e-01) (103, -1.74821863783020559069e-01) (104, -1.08927766482223464806e-01) (105, 1.04338917948538056901e-01) (106, 2.56011114906212443321e-02) (107, 1.14454831980608351394e-01) (108, -4.17065690190642657242e-01) (109, 1.50000000000000000000e+03) (110, 1.50000000000000000000e+03) (111, -2.54254785177654296646e+00) (112, -6.67291381734562011330e-02) (113, -7.51219753758139652255e-01) (114, 1.51985849536713669289e-02) (115, 1.58421256128757736992e-01) (116, 3.25652350777744736821e-01) (117, -7.30487432833407390742e-02) (118, 3.27447653987601050574e+00) (119, 1.50000000000000000000e+03) (120, 1.50000000000000000000e+03) (121, -5.29267382744272405631e-03) (122, -1.02770774143316212523e+00) (123, 1.19178474180598376053e-01) (124, 4.15286888793276812160e-02) (125, 2.31749086423665873191e-01) (126, -5.15526484818894181750e-01) (127, -1.25326366428743285475e+00) (128, 1.40806634760471349743e+00) (129, 1.50000000000000000000e+03) (130, 1.50000000000000000000e+03) (131, -7.65905669754456119858e-02) (132, 4.15066926083681453363e-01) (133, 5.77645210254485430568e+00) (134, 1.07157461879281123984e+00) (135, 8.27975772982719515625e-01) (136, 5.83473558068656972253e-01) (137, 1.71622482619733063292e-01) (138, -9.62345180335087424517e-02) (139, 1.50000000000000000000e+03) (140, 1.50000000000000000000e+03) (141, 2.91499055859478550801e+00) (142, -1.65455743195972160287e+00) (143, -8.17836157468960878170e-01) (144, -7.49458468941853306333e-01) (145, -7.07277066496979300858e-01) (146, -8.76661844042941784672e-01) (147, 2.22404070634076056479e+00) (148, 2.04680792472520245440e+00) (149, 1.50000000000000000000e+03) (150, 1.50000000000000000000e+03) (151, 1.50000000000000000000e+03) (152, 1.50000000000000000000e+03) (153, 1.50000000000000000000e+03) (154, 1.50000000000000000000e+03) (155, 1.50000000000000000000e+03) (156, 1.50000000000000000000e+03) (157, 1.50000000000000000000e+03) (158, 1.50000000000000000000e+03) (159, 1.50000000000000000000e+03) (160, 1.83972267090038915649e-01) (0, 1.50000000000000000000e+03) (1, 1.50000000000000000000e+03) (2, 1.50000000000000000000e+03) (3, 1.50000000000000000000e+03) (4, 1.50000000000000000000e+03) (5, 1.50000000000000000000e+03) (6, 1.50000000000000000000e+03) (7, 1.50000000000000000000e+03) (8, 1.50000000000000000000e+03) (9, 1.50000000000000000000e+03) (10, 1.50000000000000000000e+03) (11, 1.50000000000000000000e+03) (12, 1.50000000000000000000e+03) (13, 1.50000000000000000000e+03) (14, 1.50000000000000000000e+03) (15, 1.50000000000000000000e+03) (16, 1.50000000000000000000e+03) (17, 1.50000000000000000000e+03) (18, 1.50000000000000000000e+03) (19, 1.50000000000000000000e+03) (20, 1.50000000000000000000e+03) (21, 1.50000000000000000000e+03) (22, 2.78042224935033999156e-01) (23, 2.79519280186632357310e-01) (24, 6.94955266331975440863e+00) (25, 3.54157475146234812513e+00) (26, -4.61943008658038445358e-01) (27, 2.94485458389044330030e-01) (28, 4.47954697407218915828e+00) (29, 1.50000000000000000000e+03) (30, 1.50000000000000000000e+03) (31, 1.49999968799998487157e+03) (32, 3.35500917040133961322e+00) (33, 4.85068750638033951983e-01) (34, 5.44063759408327629608e-01) (35, -3.26062412091088715815e-01) (36, 4.24708012228677989075e-01) (37, 4.09657363772729543605e-01) (38, 6.05123267173252710194e-01) (39, 1.50000000000000000000e+03) (40, 1.50000000000000000000e+03) (41, 1.18478124987877642127e+01) (42, 2.58268451639157459176e-01) (43, 2.74944356698825442820e-01) (44, 1.65168440672728555896e+00) (45, 5.07989832805069707611e-01) (46, -5.33654639563399535440e-02) (47, 2.00857250127179864929e-01) (48, -1.49974288913717350624e+03) (49, 1.50000000000000000000e+03) (50, 1.50000000000000000000e+03) (51, 6.15610511272303824626e+02) (52, -3.29656048803621892773e+00) (53, 5.85476000038728572328e-01) (54, 8.95850183659827048466e-01) (55, 3.42643908975442668119e-01) (56, 5.38776660862172018795e-01) (57, 1.43634829012240977653e-01) (58, -4.29872894762325927331e+02) (59, 1.50000000000000000000e+03) (60, 1.50000000000000000000e+03) (61, 6.89005591585877152916e-01) (62, 1.87309580344400677943e-01) (63, -6.62211424211090729841e+02) (64, 2.18251968172366694887e+00) (65, -3.55616240213587033736e+01) (66, 1.49999968799998487157e+03) (67, 7.31127105202975524634e-01) (68, 1.49851113540162623394e+03) (69, 1.50000000000000000000e+03) (70, 1.50000000000000000000e+03) (71, 2.90731278219413802333e+00) (72, 8.42209909616855267878e-01) (73, -9.67667517620344938223e+02) (74, 4.18335501694690435670e+02) (75, 1.49999968799998487157e+03) (76, 2.31486046087653907222e+00) (77, 5.40983678055967320830e+00) (78, -3.22721015449738786174e+01) (79, 1.50000000000000000000e+03) (80, 1.50000000000000000000e+03) (81, 4.28248024827765250144e-01) (82, 7.47326049254164792579e-01) (83, -4.40220647939175858260e-03) (84, 8.13008334125558285166e-01) (85, 4.95087519726411073862e-01) (86, 1.02250930024694694498e-01) (87, 5.50987870929658729580e-01) (88, 4.63856757504378602874e-01) (89, 1.50000000000000000000e+03) (90, 1.50000000000000000000e+03) (91, 3.15437929725826626814e-01) (92, 7.49783948711212455684e-01) (93, -1.41121537915716362477e+03) (94, 1.50000000000000000000e+03) (95, 1.49791357125311446907e+03) (96, 1.44685844404289537124e+03) (97, 2.86938915518118231596e-01) (98, -5.74552046120982429223e-01) (99, 1.50000000000000000000e+03) (100, 1.50000000000000000000e+03) (101, 8.81897364906785719008e-01) (102, 8.09087536093459208653e-02) (103, 1.49999953045979918898e+03) (104, 6.60018089344316791767e+01) (105, 1.46595927308839281977e+03) (106, 1.48969590365659860254e+03) (107, 3.91381510586748193603e-01) (108, 1.21800500076864981480e+01) (109, 1.50000000000000000000e+03) (110, 1.50000000000000000000e+03) (111, 6.47718079901470744630e+00) (112, 3.69938079886305004607e-01) (113, 1.49999956319996317688e+03) (114, 2.80472960421211237048e+00) (115, 5.74169228495938432921e-01) (116, 8.31480708007124924563e-01) (117, 8.67036538647280252690e-01) (118, 2.24075790048971981605e+02) (119, 1.50000000000000000000e+03) (120, 1.50000000000000000000e+03) (121, 4.35036218081864944907e+00) (122, 7.87276448986097610039e-01) (123, 7.82909094910268499312e-01) (124, 6.53052047429082183072e-01) (125, 7.43196136626917969181e-01) (126, 4.91582812614457687062e+00) (127, 6.38858576502997266289e-01) (128, 1.30564125276355434835e+03) (129, 1.50000000000000000000e+03) (130, 1.50000000000000000000e+03) (131, 2.74356480138332026186e+00) (132, 6.06307837341268807130e-01) (133, 4.28155427597421492369e-02) (134, 3.13237182542384806627e-01) (135, 7.38386154120583393379e-01) (136, 6.01562997097925711287e-01) (137, 1.28476337744516566630e+00) (138, 1.18287503037017582841e+00) (139, 1.50000000000000000000e+03) (140, 1.50000000000000000000e+03) (141, 4.13851340671241985092e+00) (142, 7.40590290046060317763e+00) (143, 2.15079714446438519104e+00) (144, 2.22855593352689140829e+00) (145, 2.16487185745609966858e+00) (146, 2.18727785810006825074e+00) (147, 1.64178438912101753999e+00) (148, 3.11796095938604178599e+00) (149, 1.50000000000000000000e+03) (150, 1.50000000000000000000e+03) (151, 1.50000000000000000000e+03) (152, 1.50000000000000000000e+03) (153, 1.50000000000000000000e+03) (154, 1.50000000000000000000e+03) (155, 1.50000000000000000000e+03) (156, 1.50000000000000000000e+03) (157, 1.50000000000000000000e+03) (158, 1.50000000000000000000e+03) (159, 1.50000000000000000000e+03) (160, 5.00847252829646039096e-01) (0, 1.50000000000000000000e+03) (1, 1.50000000000000000000e+03) (2, 1.50000000000000000000e+03) (3, 1.50000000000000000000e+03) (4, 1.50000000000000000000e+03) (5, 1.50000000000000000000e+03) (6, 1.50000000000000000000e+03) (7, 1.50000000000000000000e+03) (8, 1.50000000000000000000e+03) (9, 1.50000000000000000000e+03) (10, 1.50000000000000000000e+03) (11, 1.50000000000000000000e+03) (12, 1.50000000000000000000e+03) (13, 1.50000000000000000000e+03) (14, 1.50000000000000000000e+03) (15, 1.50000000000000000000e+03) (16, 1.50000000000000000000e+03) (17, 1.50000000000000000000e+03) (18, 1.50000000000000000000e+03) (19, 1.50000000000000000000e+03) (20, 1.50000000000000000000e+03) (21, 1.50000000000000000000e+03) (22, -4.03657230742221276310e-02) (23, -1.91193866737152280699e-02) (24, 5.73452514118134093479e+00) (25, 2.93480354522406194917e+00) (26, -2.22198157125302087067e+00) (27, -5.99781744543763095656e-02) (28, 3.86350703354807123446e+00) (29, 1.50000000000000000000e+03) (30, 1.50000000000000000000e+03) (31, 2.61746012541640205029e-01) (32, 2.95586277542740805124e-01) (33, -5.54695901254293044502e+00) (34, -5.35677778534388426834e+00) (35, -3.18979280553900785833e+01) (36, -1.79103697865139430689e+01) (37, -1.24037756377105935712e+02) (38, -1.76343160450829206098e-01) (39, 1.50000000000000000000e+03) (40, 1.50000000000000000000e+03) (41, 5.53229324626082652472e-01) (42, -5.02140122220164797362e-01) (43, -1.11315497362906477008e+01) (44, -3.53743592019043262553e+00) (45, -3.32819617131304568147e+01) (46, -3.04192023960550841366e+01) (47, -2.66269814346230715429e+00) (48, 3.12119258591847952289e+01) (49, 1.50000000000000000000e+03) (50, 1.50000000000000000000e+03) (51, 1.53270017311527624315e+01) (52, -1.51274101089039572088e+01) (53, -4.20436248090946307343e+01) (54, -1.42952718864333269266e+03) (55, -2.22782337206475951064e+01) (56, -2.00775557076201124573e+02) (57, -2.23812468490872227278e+01) (58, 1.17937953026247924981e+02) (59, 1.50000000000000000000e+03) (60, 1.50000000000000000000e+03) (61, -4.32384418636061890195e-02) (62, -8.21352411095755852166e-01) (63, -5.36081905549239123854e-02) (64, 2.25250428122973633815e-01) (65, -1.88225238632308244924e+00) (66, 1.22633198355521622069e+00) (67, -7.61611999340493662364e-03) (68, 6.22525236977995266585e+00) (69, 1.50000000000000000000e+03) (70, 1.50000000000000000000e+03) (71, 5.00837949916240754433e-01) (72, 3.13533822714267759735e-02) (73, -6.09652186483841562747e-01) (74, -4.29965668367081761403e+01) (75, 4.39300528362312761033e+01) (76, -1.57308022242299588855e-01) (77, 1.00070843614350390993e+00) (78, -4.30223260914169269853e+00) (79, 1.50000000000000000000e+03) (80, 1.50000000000000000000e+03) (81, -9.97276942155452678085e-02) (82, 7.65268212602337877248e-02) (83, -4.35655969876140913843e-01) (84, 1.08051243143743744279e-01) (85, -2.14935170401469172186e-02) (86, -7.70550310431445284465e-01) (87, 2.29787793471811024881e-01) (88, -1.25601189361686394613e-02) (89, 1.50000000000000000000e+03) (90, 1.50000000000000000000e+03) (91, -8.48302049804815716527e-01) (92, -8.15329968036502227002e-03) (93, 3.06472543857432526693e+01) (94, -8.24445032114846376725e-02) (95, -4.76734681174793700764e-02) (96, -4.98462962675325442774e+01) (97, -5.62751853001326018955e-01) (98, -1.13618477249297034071e+00) (99, 1.50000000000000000000e+03) (100, 1.50000000000000000000e+03) (101, 1.17030246425991676928e-01) (102, -8.30522237923222550471e-01) (103, -9.40647031304288949727e-01) (104, 9.01616427843406120779e-01) (105, 2.11100029100302322149e+00) (106, -1.41941608883684411424e+00) (107, -4.14862021861422403113e-01) (108, 1.95089022039200665759e+00) (109, 1.50000000000000000000e+03) (110, 1.50000000000000000000e+03) (111, -1.23460416662523151388e+01) (112, -2.77322999141198234252e-01) (113, 1.47939178885368360916e+00) (114, 3.74032436551389901869e-01) (115, -2.25940439784641977639e+00) (116, -8.58416807478873056247e-01) (117, 2.90533741228151502767e-02) (118, -1.26992216714383965304e+00) (119, 1.50000000000000000000e+03) (120, 1.50000000000000000000e+03) (121, -1.54258330617211059099e-01) (122, -3.32290991945285996145e-01) (123, -5.13632294313126416818e-02) (124, -1.85157676708641648171e-03) (125, -1.32493533187768908199e-01) (126, -1.85014847182401430403e-02) (127, -7.01898035182595414483e-01) (128, -5.18434148194597810289e+00) (129, 1.50000000000000000000e+03) (130, 1.50000000000000000000e+03) (131, 1.95846715058947906662e-01) (132, -3.25554041135416194486e-01) (133, -6.26659326811048855710e-01) (134, -1.91208518065561938748e-01) (135, -1.14815753444786361470e+00) (136, 4.91467658448862254605e-01) (137, 5.51304443092301837970e-02) (138, -2.02025640517664334395e-01) (139, 1.50000000000000000000e+03) (140, 1.50000000000000000000e+03) (141, 3.45496608338762278834e+00) (142, 5.45219732975341209169e-01) (143, 3.96489871722168152335e-01) (144, 2.60546265226342499410e-01) (145, 4.48351441007558804142e-01) (146, 4.12114871722166375978e-01) (147, 2.54363583005644455781e+00) (148, 2.52657671454827426061e+00) (149, 1.50000000000000000000e+03) (150, 1.50000000000000000000e+03) (151, 1.50000000000000000000e+03) (152, 1.50000000000000000000e+03) (153, 1.50000000000000000000e+03) (154, 1.50000000000000000000e+03) (155, 1.50000000000000000000e+03) (156, 1.50000000000000000000e+03) (157, 1.50000000000000000000e+03) (158, 1.50000000000000000000e+03) (159, 1.50000000000000000000e+03) (160, -7.49305295223661738113e-01) (0, 1.50000000000000000000e+03) (1, 1.50000000000000000000e+03) (2, 1.50000000000000000000e+03) (3, 1.50000000000000000000e+03) (4, 1.50000000000000000000e+03) (5, 1.50000000000000000000e+03) (6, 1.50000000000000000000e+03) (7, 1.50000000000000000000e+03) (8, 1.50000000000000000000e+03) (9, 1.50000000000000000000e+03) (10, 1.50000000000000000000e+03) (11, 1.50000000000000000000e+03) (12, 1.50000000000000000000e+03) (13, 1.50000000000000000000e+03) (14, 1.50000000000000000000e+03) (15, 1.50000000000000000000e+03) (16, 1.50000000000000000000e+03) (17, 1.50000000000000000000e+03) (18, 1.50000000000000000000e+03) (19, 1.50000000000000000000e+03) (20, 1.50000000000000000000e+03) (21, 1.50000000000000000000e+03) (22, 1.38442117103285911028e+00) (23, 1.45997049041934112701e+00) (24, -2.32211307901818431176e+00) (25, 1.38550976056525909641e+00) (26, 5.10591180508657060955e+00) (27, 1.43725924635477420033e+00) (28, 1.27621134073809350262e+00) (29, 1.50000000000000000000e+03) (30, 1.50000000000000000000e+03) (31, -1.19170954384451244223e+00) (32, 1.13223945686915239417e-01) (33, 1.11421959396863101688e+02) (34, 2.55474055318473546095e+02) (35, 2.59987716120792413221e+02) (36, 2.62488809519174175477e+01) (37, 4.40781371934184107886e+02) (38, 1.18046438819984644830e+00) (39, 1.50000000000000000000e+03) (40, 1.50000000000000000000e+03) (41, -2.27419427089199732706e+00) (42, 3.23750297045001511620e+00) (43, 1.77428203450033628030e+01) (44, 1.50187466371016924427e+01) (45, 6.81752011452925557933e+02) (46, 4.40561412762733510817e+01) (47, 4.85827293359591916300e+00) (48, -1.18928028857085473646e+03) (49, 1.50000000000000000000e+03) (50, 1.50000000000000000000e+03) (51, -4.19469401700152246804e+01) (52, 2.35388405828443190160e+01) (53, 9.06265397063419300139e+01) (54, 1.50000000000000000000e+03) (55, 1.05366573006829071346e+03) (56, 8.61759916210787082491e+02) (57, 3.24551198742218787174e+01) (58, -7.22690420505079629265e+01) (59, 1.50000000000000000000e+03) (60, 1.50000000000000000000e+03) (61, 1.01559586632143816765e+00) (62, 1.81838042650324926974e+00) (63, 8.29980153556719756125e+02) (64, 1.88015762791591656278e-01) (65, 5.81304888866599682729e+01) (66, -4.53064193855668850830e+00) (67, 9.70245062378549238957e-01) (68, -1.49711200934569479415e+01) (69, 1.50000000000000000000e+03) (70, 1.50000000000000000000e+03) (71, -4.99315956882398437333e-01) (72, 9.40223967393456705466e-01) (73, 1.10985414918664514516e+03) (74, 2.33806948874892924550e+02) (75, -2.17764440139299523480e+02) (76, 4.11332040064034454296e-01) (77, -3.31315012295808508647e-01) (78, -6.43991787341265933264e+01) (79, 1.50000000000000000000e+03) (80, 1.50000000000000000000e+03) (81, 1.50000000000000000000e+03) (82, 1.12952074557890513873e+00) (83, 1.49999979360870906930e+03) (84, 1.16550233144170212185e+00) (85, 1.48462631340108064393e+00) (86, 1.59800023206491847994e+00) (87, 1.82550446516657105533e+00) (88, 3.66402280178980710446e+00) (89, 1.50000000000000000000e+03) (90, 1.50000000000000000000e+03) (91, 2.01484324240914158821e+00) (92, 8.81784526666831047770e-01) (93, 1.49999979360870906930e+03) (94, 9.56399763478285813711e-01) (95, 9.56714569938429515439e-01) (96, 4.60755562766410491804e+02) (97, 1.78554707058243633533e+00) (98, 3.05387728807907610218e+00) (99, 1.50000000000000000000e+03) (100, 1.50000000000000000000e+03) (101, 1.01028627814569094134e+00) (102, 2.04075994637687418987e+00) (103, 1.08516811842231497565e+00) (104, -4.19695411541582430459e+00) (105, -7.59459426722283836853e-01) (106, -1.48073416256497614185e+00) (107, 1.46406622033835276397e+00) (108, -6.95780949320472519304e+00) (109, 1.50000000000000000000e+03) (110, 1.50000000000000000000e+03) (111, 7.61142349493400782734e+00) (112, 1.29082021101159472032e+00) (113, -5.62081538977753947250e+00) (114, 2.39877054536869316337e+00) (115, 2.09106925809744392808e+00) (116, 1.34379156675569766399e+00) (117, 8.64337695846651099529e-01) (118, -6.27257146887938503710e+01) (119, 1.50000000000000000000e+03) (120, 1.50000000000000000000e+03) (121, 1.15774134680372786654e+00) (122, 1.19288085551048617106e+00) (123, 8.52075756104375359179e-01) (124, 9.89376076764682643727e-01) (125, 9.64890025350331859144e-01) (126, 9.31029413372955416683e-01) (127, 1.60922571048128459914e+00) (128, 8.32081870816154101078e+00) (129, 1.50000000000000000000e+03) (130, 1.50000000000000000000e+03) (131, -2.75935121065543964569e-01) (132, 8.24847628675921651364e-01) (133, 1.09162070900225516290e+00) (134, 9.69522376219031478684e-01) (135, 3.06330979588724661156e+00) (136, 1.09002426983297473484e+00) (137, 5.15017463843200240525e-01) (138, 6.54093103921015051050e-01) (139, 1.50000000000000000000e+03) (140, 1.50000000000000000000e+03) (141, 3.24884242973788417430e+00) (142, -6.42940649144826403827e-01) (143, 4.94874460885521116893e-01) (144, 4.80970649311532438830e-01) (145, 4.46205025801630683624e-01) (146, 5.16200153419969165469e-01) (147, 4.75397551661402406609e+00) (148, 2.25576451895552176907e+00) (149, 1.50000000000000000000e+03) (150, 1.50000000000000000000e+03) (151, 1.50000000000000000000e+03) (152, 1.50000000000000000000e+03) (153, 1.50000000000000000000e+03) (154, 1.50000000000000000000e+03) (155, 1.50000000000000000000e+03) (156, 1.50000000000000000000e+03) (157, 1.50000000000000000000e+03) (158, 1.50000000000000000000e+03) (159, 1.50000000000000000000e+03) (160, 1.36567969905063857361e+00) (0, 1.50000000000000000000e+03) (1, 1.50000000000000000000e+03) (2, 1.50000000000000000000e+03) (3, 1.50000000000000000000e+03) (4, 1.50000000000000000000e+03) (5, 1.50000000000000000000e+03) (6, 1.50000000000000000000e+03) (7, 1.50000000000000000000e+03) (8, 1.50000000000000000000e+03) (9, 1.50000000000000000000e+03) (10, 1.50000000000000000000e+03) (11, 1.50000000000000000000e+03) (12, 1.50000000000000000000e+03) (13, 1.50000000000000000000e+03) (14, 1.50000000000000000000e+03) (15, 1.50000000000000000000e+03) (16, 1.50000000000000000000e+03) (17, 1.50000000000000000000e+03) (18, 1.50000000000000000000e+03) (19, 1.50000000000000000000e+03) (20, 1.50000000000000000000e+03) (21, 1.50000000000000000000e+03) (22, 2.57027825108507357310e-01) (23, 3.40780263534475325038e-01) (24, 6.83996404027297710826e+00) (25, 3.54119633647383036390e+00) (26, -4.53770392295470781363e-01) (27, 2.89944433823348002299e-01) (28, 4.40989975131485145710e+00) (29, 1.50000000000000000000e+03) (30, 1.50000000000000000000e+03) (31, 1.49999968799998487157e+03) (32, 2.56435471255101266053e+00) (33, 6.76226627316506956333e-01) (34, 4.34628121526270838615e-01) (35, -4.03403700080713245590e-01) (36, 5.63163185932356813446e-01) (37, 3.72282111746167931887e-01) (38, 5.47065574272020960223e-01) (39, 1.50000000000000000000e+03) (40, 1.50000000000000000000e+03) (41, 1.18245944026438323249e+01) (42, 1.84388400771099580933e-01) (43, 3.50359379133713400023e-01) (44, 1.52452400110176444770e+00) (45, 6.97895641803080168941e-01) (46, -5.20581760790191500066e-02) (47, 2.26374062584121710229e-01) (48, -1.49974288913717350624e+03) (49, 1.50000000000000000000e+03) (50, 1.50000000000000000000e+03) (51, 6.15639949794135986849e+02) (52, -3.20203177686796935930e+00) (53, 5.13721825099265116954e-01) (54, 9.57725657499770566261e-01) (55, 2.69897169023984417890e-01) (56, 4.75032913513544208239e-01) (57, 6.26288659399399511019e-02) (58, -4.29986676505077639376e+02) (59, 1.50000000000000000000e+03) (60, 1.50000000000000000000e+03) (61, 7.52687427257359709110e-01) (62, 3.04424889345334515056e-01) (63, -6.61160774319684946931e+02) (64, 2.09951892067967493816e+00) (65, -3.54322193811568766364e+01) (66, 1.49999968799998487157e+03) (67, 7.63867944898489414918e-01) (68, 1.49851113540162623394e+03) (69, 1.50000000000000000000e+03) (70, 1.50000000000000000000e+03) (71, 2.95955627899272943893e+00) (72, 8.29727801206709747461e-01) (73, -9.68868550777802965968e+02) (74, 4.17678370882069827985e+02) (75, 1.49999968799998487157e+03) (76, 3.27021720031161056141e+00) (77, 4.33604743729855535150e+00) (78, -3.33721686168806357387e+01) (79, 1.50000000000000000000e+03) (80, 1.50000000000000000000e+03) (81, 8.02622251746744175271e-01) (82, 5.84287335580158218029e-01) (83, -3.69525464626563659998e-01) (84, 8.11734531783856572140e-01) (85, 4.57064830168287361545e-01) (86, 2.57796008035116763768e-01) (87, 7.21389233900144644096e-01) (88, 2.79102232792115489968e-01) (89, 1.50000000000000000000e+03) (90, 1.50000000000000000000e+03) (91, 4.10861987865546451903e-01) (92, 9.06682024572181610722e-01) (93, -1.41121635678281563742e+03) (94, 1.50000000000000000000e+03) (95, 1.49791357125311446907e+03) (96, 1.44727876465454664867e+03) (97, 5.28425837696322453496e-01) (98, 8.65197300406384650628e-01) (99, 1.50000000000000000000e+03) (100, 1.50000000000000000000e+03) (101, 8.43409180095368693486e-01) (102, 1.79675188917502864916e-01) (103, 1.49999953045979918898e+03) (104, 6.60288306766381936086e+01) (105, 1.46595927308839281977e+03) (106, 1.48969590365659860254e+03) (107, 4.27559011463455762581e-01) (108, 1.22257184751563894309e+01) (109, 1.50000000000000000000e+03) (110, 1.50000000000000000000e+03) (111, 6.04732762973855386690e+00) (112, 3.68180437177473729449e-01) (113, 1.49999956319996317688e+03) (114, 2.73895811387664878112e+00) (115, 3.96945781987847856609e-01) (116, 1.60563317363401747428e+00) (117, 8.00897888479305208875e-01) (118, 2.24074514701912306691e+02) (119, 1.50000000000000000000e+03) (120, 1.50000000000000000000e+03) (121, 4.46764727235955394491e+00) (122, 7.65391475760211159596e-01) (123, 1.14488400496051423438e+00) (124, 8.09323016330460887069e-01) (125, 6.83295057434042840683e-01) (126, 4.83334928600806623677e+00) (127, 7.08424850854844634362e-01) (128, 1.30564125276355434835e+03) (129, 1.50000000000000000000e+03) (130, 1.50000000000000000000e+03) (131, 2.66005650358230250063e+00) (132, 5.53060772989260374111e-01) (133, 1.49492795558924085331e-01) (134, 3.03765495774377281002e-01) (135, 6.64083319587887577207e-01) (136, 4.45306887621912173003e-01) (137, 1.40400165720504999101e+00) (138, 1.31214749130785790499e+00) (139, 1.50000000000000000000e+03) (140, 1.50000000000000000000e+03) (141, 3.98610862155614142921e+00) (142, 7.54254841497862749122e+00) (143, 2.27654177784098887827e+00) (144, 2.22250124900712231479e+00) (145, 2.23478151946439096420e+00) (146, 2.22628542869462364706e+00) (147, 1.66652803550430350654e+00) (148, 3.05447218538444342784e+00) (149, 1.50000000000000000000e+03) (150, 1.50000000000000000000e+03) (151, 1.50000000000000000000e+03) (152, 1.50000000000000000000e+03) (153, 1.50000000000000000000e+03) (154, 1.50000000000000000000e+03) (155, 1.50000000000000000000e+03) (156, 1.50000000000000000000e+03) (157, 1.50000000000000000000e+03) (158, 1.50000000000000000000e+03) (159, 1.50000000000000000000e+03) (160, 5.60728404001151536917e-01) (0, 1.50000000000000000000e+03) (1, 1.50000000000000000000e+03) (2, 1.50000000000000000000e+03) (3, 1.50000000000000000000e+03) (4, 1.50000000000000000000e+03) (5, 1.50000000000000000000e+03) (6, 1.50000000000000000000e+03) (7, 1.50000000000000000000e+03) (8, 1.50000000000000000000e+03) (9, 1.50000000000000000000e+03) (10, 1.50000000000000000000e+03) (11, 1.50000000000000000000e+03) (12, 1.50000000000000000000e+03) (13, 1.50000000000000000000e+03) (14, 1.50000000000000000000e+03) (15, 1.50000000000000000000e+03) (16, 1.50000000000000000000e+03) (17, 1.50000000000000000000e+03) (18, 1.50000000000000000000e+03) (19, 1.50000000000000000000e+03) (20, 1.50000000000000000000e+03) (21, 1.50000000000000000000e+03) (22, -3.50759210881562699669e-01) (23, -2.74330991205570806635e-01) (24, 6.26215400822475043441e+00) (25, 2.74052253340421314576e+00) (26, -2.21075110250302486747e+00) (27, -2.95461388984795181312e-01) (28, 3.87313227470846399569e+00) (29, 1.50000000000000000000e+03) (30, 1.50000000000000000000e+03) (31, 2.57878021903293008776e+00) (32, 2.55625161427419811400e-01) (33, -1.31220091029352552425e+01) (34, -3.13233297496151443795e+01) (35, -1.83876259170717503366e+02) (36, -1.79385249967000177662e+01) (37, -2.97794229909273894918e+02) (38, -1.78010495073857660797e-01) (39, 1.50000000000000000000e+03) (40, 1.50000000000000000000e+03) (41, 1.57838623335628880362e+00) (42, -1.37424783272103501197e+00) (43, -1.10846808383161565814e+01) (44, -9.52344833127421708241e+00) (45, -8.02277759737220463876e+01) (46, -3.04780647022327002560e+01) (47, -2.46440026451877258751e+00) (48, -1.49974288913717350624e+03) (49, 1.50000000000000000000e+03) (50, 1.50000000000000000000e+03) (51, 3.02613243235752911175e+01) (52, -1.51160584998762175246e+01) (53, -4.20422759410822024506e+01) (54, -1.42952718864333269266e+03) (55, -5.37273988764391461359e+01) (56, -6.80390284343069424722e+02) (57, -2.24575970719961510724e+01) (58, -4.38742180524049217638e+02) (59, 1.50000000000000000000e+03) (60, 1.50000000000000000000e+03) (61, -1.91803360673242183354e-02) (62, -7.25556794232864565863e-01) (63, -6.65516729220338675077e+02) (64, 1.85736570048705140756e-01) (65, -1.18446920840740466119e+00) (66, 6.00493601138136767759e+00) (67, 4.62987128029996586331e-02) (68, 6.89985046309783278673e+00) (69, 1.50000000000000000000e+03) (70, 1.50000000000000000000e+03) (71, 7.21292504246826449155e-01) (72, 8.25182150171590717003e-02) (73, -7.49679851969363575392e+00) (74, -8.43854454596507252973e+01) (75, 8.07076768649186959692e+01) (76, 2.76814110313748085179e-01) (77, 5.18422461912626197922e-01) (78, 6.18416909666708924931e-01) (79, 1.50000000000000000000e+03) (80, 1.50000000000000000000e+03) (81, -1.20909697517259107080e+00) (82, -6.20451055474608229034e-02) (83, -4.84502006221722084089e-02) (84, 