FANN_FLO_2.1
num_layers=3
learning_rate=0.700000
connection_rate=1.000000
network_type=0
learning_momentum=0.000000
training_algorithm=2
train_error_function=1
train_stop_function=0
cascade_output_change_fraction=0.010000
quickprop_decay=-0.000100
quickprop_mu=1.750000
rprop_increase_factor=1.200000
rprop_decrease_factor=0.500000
rprop_delta_min=0.000000
rprop_delta_max=50.000000
rprop_delta_zero=0.100000
cascade_output_stagnation_epochs=12
cascade_candidate_change_fraction=0.010000
cascade_candidate_stagnation_epochs=12
cascade_max_out_epochs=150
cascade_min_out_epochs=50
cascade_max_cand_epochs=150
cascade_min_cand_epochs=50
cascade_num_candidate_groups=2
bit_fail_limit=3.49999999999999977796e-01
cascade_candidate_limit=1.00000000000000000000e+03
cascade_weight_multiplier=4.00000000000000022204e-01
cascade_activation_functions_count=10
cascade_activation_functions=3 5 7 8 10 11 14 15 16 17 
cascade_activation_steepnesses_count=4
cascade_activation_steepnesses=2.50000000000000000000e-01 5.00000000000000000000e-01 7.50000000000000000000e-01 1.00000000000000000000e+00 
layer_sizes=161 108 2 
scale_included=0
neurons (num_inputs, activation_function, activation_steepness)=(0, 0, 0.00000000000000000000e+00) (0, 0, 0.00000000000000000000e+00) (0, 0, 0.00000000000000000000e+00) (0, 0, 0.00000000000000000000e+00) (0, 0, 0.00000000000000000000e+00) (0, 0, 0.00000000000000000000e+00) (0, 0, 0.00000000000000000000e+00) (0, 0, 0.00000000000000000000e+00) (0, 0, 0.00000000000000000000e+00) (0, 0, 0.00000000000000000000e+00) (0, 0, 0.00000000000000000000e+00) (0, 0, 0.00000000000000000000e+00) (0, 0, 0.00000000000000000000e+00) (0, 0, 0.00000000000000000000e+00) (0, 0, 0.00000000000000000000e+00) (0, 0, 0.00000000000000000000e+00) (0, 0, 0.00000000000000000000e+00) (0, 0, 0.00000000000000000000e+00) (0, 0, 0.00000000000000000000e+00) (0, 0, 0.00000000000000000000e+00) (0, 0, 0.00000000000000000000e+00) (0, 0, 0.00000000000000000000e+00) (0, 0, 0.00000000000000000000e+00) (0, 0, 0.00000000000000000000e+00) (0, 0, 0.00000000000000000000e+00) (0, 0, 0.00000000000000000000e+00) (0, 0, 0.00000000000000000000e+00) (0, 0, 0.00000000000000000000e+00) (0, 0, 0.00000000000000000000e+00) (0, 0, 0.00000000000000000000e+00) (0, 0, 0.00000000000000000000e+00) (0, 0, 0.00000000000000000000e+00) (0, 0, 0.00000000000000000000e+00) (0, 0, 0.00000000000000000000e+00) (0, 0, 0.00000000000000000000e+00) (0, 0, 0.00000000000000000000e+00) (0, 0, 0.00000000000000000000e+00) (0, 0, 0.00000000000000000000e+00) (0, 0, 0.00000000000000000000e+00) (0, 0, 0.00000000000000000000e+00) (0, 0, 0.00000000000000000000e+00) (0, 0, 0.00000000000000000000e+00) (0, 0, 0.00000000000000000000e+00) (0, 0, 0.00000000000000000000e+00) (0, 0, 0.00000000000000000000e+00) (0, 0, 0.00000000000000000000e+00) (0, 0, 0.00000000000000000000e+00) (0, 0, 0.00000000000000000000e+00) (0, 0, 0.00000000000000000000e+00) (0, 0, 0.00000000000000000000e+00) (0, 0, 0.00000000000000000000e+00) (0, 0, 0.00000000000000000000e+00) (0, 0, 0.00000000000000000000e+00) (0, 0, 0.00000000000000000000e+00) (0, 0, 0.00000000000000000000e+00) (0, 0, 0.00000000000000000000e+00) (0, 0, 0.00000000000000000000e+00) (0, 0, 0.00000000000000000000e+00) (0, 0, 0.00000000000000000000e+00) (0, 0, 0.00000000000000000000e+00) (0, 0, 0.00000000000000000000e+00) (0, 0, 0.00000000000000000000e+00) (0, 0, 0.00000000000000000000e+00) (0, 0, 0.00000000000000000000e+00) (0, 0, 0.00000000000000000000e+00) (0, 0, 0.00000000000000000000e+00) (0, 0, 0.00000000000000000000e+00) (0, 0, 0.00000000000000000000e+00) (0, 0, 0.00000000000000000000e+00) (0, 0, 0.00000000000000000000e+00) (0, 0, 0.00000000000000000000e+00) (0, 0, 0.00000000000000000000e+00) (0, 0, 0.00000000000000000000e+00) (0, 0, 0.00000000000000000000e+00) (0, 0, 0.00000000000000000000e+00) (0, 0, 0.00000000000000000000e+00) (0, 0, 0.00000000000000000000e+00) (0, 0, 0.00000000000000000000e+00) (0, 0, 0.00000000000000000000e+00) (0, 0, 0.00000000000000000000e+00) (0, 0, 0.00000000000000000000e+00) (0, 0, 0.00000000000000000000e+00) (0, 0, 0.00000000000000000000e+00) (0, 0, 0.00000000000000000000e+00) (0, 0, 0.00000000000000000000e+00) (0, 0, 0.00000000000000000000e+00) (0, 0, 0.00000000000000000000e+00) (0, 0, 0.00000000000000000000e+00) (0, 0, 0.00000000000000000000e+00) (0, 0, 0.00000000000000000000e+00) (0, 0, 0.00000000000000000000e+00) (0, 0, 0.00000000000000000000e+00) (0, 0, 0.00000000000000000000e+00) (0, 0, 0.00000000000000000000e+00) (0, 0, 0.00000000000000000000e+00) (0, 0, 0.00000000000000000000e+00) (0, 0, 0.00000000000000000000e+00) (0, 0, 0.00000000000000000000e+00) (0, 0, 0.00000000000000000000e+00) (0, 0, 0.00000000000000000000e+00) (0, 0, 0.00000000000000000000e+00) (0, 0, 0.00000000000000000000e+00) (0, 0, 0.00000000000000000000e+00) (0, 0, 0.00000000000000000000e+00) (0, 0, 0.00000000000000000000e+00) (0, 0, 0.00000000000000000000e+00) (0, 0, 0.00000000000000000000e+00) (0, 0, 0.00000000000000000000e+00) (0, 0, 0.00000000000000000000e+00) (0, 0, 0.00000000000000000000e+00) (0, 0, 0.00000000000000000000e+00) (0, 0, 0.00000000000000000000e+00) (0, 0, 0.00000000000000000000e+00) (0, 0, 0.00000000000000000000e+00) (0, 0, 0.00000000000000000000e+00) (0, 0, 0.00000000000000000000e+00) (0, 0, 0.00000000000000000000e+00) (0, 0, 0.00000000000000000000e+00) (0, 0, 0.00000000000000000000e+00) (0, 0, 0.00000000000000000000e+00) (0, 0, 0.00000000000000000000e+00) (0, 0, 0.00000000000000000000e+00) (0, 0, 0.00000000000000000000e+00) (0, 0, 0.00000000000000000000e+00) (0, 0, 0.00000000000000000000e+00) (0, 0, 0.00000000000000000000e+00) (0, 0, 0.00000000000000000000e+00) (0, 0, 0.00000000000000000000e+00) (0, 0, 0.00000000000000000000e+00) (0, 0, 0.00000000000000000000e+00) (0, 0, 0.00000000000000000000e+00) (0, 0, 0.00000000000000000000e+00) (0, 0, 0.00000000000000000000e+00) (0, 0, 0.00000000000000000000e+00) (0, 0, 0.00000000000000000000e+00) (0, 0, 0.00000000000000000000e+00) (0, 0, 0.00000000000000000000e+00) (0, 0, 0.00000000000000000000e+00) (0, 0, 0.00000000000000000000e+00) (0, 0, 0.00000000000000000000e+00) (0, 0, 0.00000000000000000000e+00) (0, 0, 0.00000000000000000000e+00) (0, 0, 0.00000000000000000000e+00) (0, 0, 0.00000000000000000000e+00) (0, 0, 0.00000000000000000000e+00) (0, 0, 0.00000000000000000000e+00) (0, 0, 0.00000000000000000000e+00) (0, 0, 0.00000000000000000000e+00) (0, 0, 0.00000000000000000000e+00) (0, 0, 0.00000000000000000000e+00) (0, 0, 0.00000000000000000000e+00) (0, 0, 0.00000000000000000000e+00) (0, 0, 0.00000000000000000000e+00) (0, 0, 0.00000000000000000000e+00) (0, 0, 0.00000000000000000000e+00) (0, 0, 0.00000000000000000000e+00) (0, 0, 0.00000000000000000000e+00) (0, 0, 0.00000000000000000000e+00) (0, 0, 0.00000000000000000000e+00) (0, 0, 0.00000000000000000000e+00) (0, 0, 0.00000000000000000000e+00) (161, 5, 5.00000000000000000000e-01) (161, 5, 5.00000000000000000000e-01) (161, 5, 5.00000000000000000000e-01) (161, 5, 5.00000000000000000000e-01) (161, 5, 5.00000000000000000000e-01) (161, 5, 5.00000000000000000000e-01) (161, 5, 5.00000000000000000000e-01) (161, 5, 5.00000000000000000000e-01) (161, 5, 5.00000000000000000000e-01) (161, 5, 5.00000000000000000000e-01) (161, 5, 5.00000000000000000000e-01) (161, 5, 5.00000000000000000000e-01) (161, 5, 5.00000000000000000000e-01) (161, 5, 5.00000000000000000000e-01) (161, 5, 5.00000000000000000000e-01) (161, 5, 5.00000000000000000000e-01) (161, 5, 5.00000000000000000000e-01) (161, 5, 5.00000000000000000000e-01) (161, 5, 5.00000000000000000000e-01) (161, 5, 5.00000000000000000000e-01) (161, 5, 5.00000000000000000000e-01) (161, 5, 5.00000000000000000000e-01) (161, 5, 5.00000000000000000000e-01) (161, 5, 5.00000000000000000000e-01) (161, 5, 5.00000000000000000000e-01) (161, 5, 5.00000000000000000000e-01) (161, 5, 5.00000000000000000000e-01) (161, 5, 5.00000000000000000000e-01) (161, 5, 5.00000000000000000000e-01) (161, 5, 5.00000000000000000000e-01) (161, 5, 5.00000000000000000000e-01) (161, 5, 5.00000000000000000000e-01) (161, 5, 5.00000000000000000000e-01) (161, 5, 5.00000000000000000000e-01) (161, 5, 5.00000000000000000000e-01) (161, 5, 5.00000000000000000000e-01) (161, 5, 5.00000000000000000000e-01) (161, 5, 5.00000000000000000000e-01) (161, 5, 5.00000000000000000000e-01) (161, 5, 5.00000000000000000000e-01) (161, 5, 5.00000000000000000000e-01) (161, 5, 5.00000000000000000000e-01) (161, 5, 5.00000000000000000000e-01) (161, 5, 5.00000000000000000000e-01) (161, 5, 5.00000000000000000000e-01) (161, 5, 5.00000000000000000000e-01) (161, 5, 5.00000000000000000000e-01) (161, 5, 5.00000000000000000000e-01) (161, 5, 5.00000000000000000000e-01) (161, 5, 5.00000000000000000000e-01) (161, 5, 5.00000000000000000000e-01) (161, 5, 5.00000000000000000000e-01) (161, 5, 5.00000000000000000000e-01) (161, 5, 5.00000000000000000000e-01) (161, 5, 5.00000000000000000000e-01) (161, 5, 5.00000000000000000000e-01) (161, 5, 5.00000000000000000000e-01) (161, 5, 5.00000000000000000000e-01) (161, 5, 5.00000000000000000000e-01) (161, 5, 5.00000000000000000000e-01) (161, 5, 5.00000000000000000000e-01) (161, 5, 5.00000000000000000000e-01) (161, 5, 5.00000000000000000000e-01) (161, 5, 5.00000000000000000000e-01) (161, 5, 5.00000000000000000000e-01) (161, 5, 5.00000000000000000000e-01) (161, 5, 5.00000000000000000000e-01) (161, 5, 5.00000000000000000000e-01) (161, 5, 5.00000000000000000000e-01) (161, 5, 5.00000000000000000000e-01) (161, 5, 5.00000000000000000000e-01) (161, 5, 5.00000000000000000000e-01) (161, 5, 5.00000000000000000000e-01) (161, 5, 5.00000000000000000000e-01) (161, 5, 5.00000000000000000000e-01) (161, 5, 5.00000000000000000000e-01) (161, 5, 5.00000000000000000000e-01) (161, 5, 5.00000000000000000000e-01) (161, 5, 5.00000000000000000000e-01) (161, 5, 5.00000000000000000000e-01) (161, 5, 5.00000000000000000000e-01) (161, 5, 5.00000000000000000000e-01) (161, 5, 5.00000000000000000000e-01) (161, 5, 5.00000000000000000000e-01) (161, 5, 5.00000000000000000000e-01) (161, 5, 5.00000000000000000000e-01) (161, 5, 5.00000000000000000000e-01) (161, 5, 5.00000000000000000000e-01) (161, 5, 5.00000000000000000000e-01) (161, 5, 5.00000000000000000000e-01) (161, 5, 5.00000000000000000000e-01) (161, 5, 5.00000000000000000000e-01) (161, 5, 5.00000000000000000000e-01) (161, 5, 5.00000000000000000000e-01) (161, 5, 5.00000000000000000000e-01) (161, 5, 5.00000000000000000000e-01) (161, 5, 5.00000000000000000000e-01) (161, 5, 5.00000000000000000000e-01) (161, 5, 5.00000000000000000000e-01) (161, 5, 5.00000000000000000000e-01) (161, 5, 5.00000000000000000000e-01) (161, 5, 5.00000000000000000000e-01) (161, 5, 5.00000000000000000000e-01) (161, 5, 5.00000000000000000000e-01) (161, 5, 5.00000000000000000000e-01) (161, 5, 5.00000000000000000000e-01) (161, 5, 5.00000000000000000000e-01) (0, 5, 0.00000000000000000000e+00) (108, 5, 5.00000000000000000000e-01) (0, 5, 0.00000000000000000000e+00) 
connections (connected_to_neuron, weight)=(0, 1.50000000000000000000e+03) (1, 1.50000000000000000000e+03) (2, 1.50000000000000000000e+03) (3, 1.50000000000000000000e+03) (4, 1.50000000000000000000e+03) (5, 1.50000000000000000000e+03) (6, 1.50000000000000000000e+03) (7, 1.50000000000000000000e+03) (8, 1.50000000000000000000e+03) (9, 1.50000000000000000000e+03) (10, 1.50000000000000000000e+03) (11, 1.50000000000000000000e+03) (12, 1.50000000000000000000e+03) (13, 1.50000000000000000000e+03) (14, 1.50000000000000000000e+03) (15, 1.50000000000000000000e+03) (16, 1.50000000000000000000e+03) (17, 1.50000000000000000000e+03) (18, 1.50000000000000000000e+03) (19, 1.50000000000000000000e+03) (20, 1.50000000000000000000e+03) (21, 1.50000000000000000000e+03) (22, 1.29606481185720268101e-01) (23, 2.16148230722717410446e-01) (24, 2.20020894797034349821e-01) (25, 3.87320763775941406815e-02) (26, -8.36244437040378318926e-01) (27, 4.78942537728781758677e-02) (28, 1.04293254778124588888e+00) (29, 1.50000000000000000000e+03) (30, 1.50000000000000000000e+03) (31, -3.02100452607265923533e-01) (32, -3.75807577749186841332e-02) (33, 6.30117012114073254958e-02) (34, 7.63242533235818920723e-02) (35, -6.79806766734244033445e-02) (36, 7.20827839665238445654e-02) (37, -5.42500444597291478499e-02) (38, -1.50059811769402584591e-01) (39, 1.50000000000000000000e+03) (40, 1.50000000000000000000e+03) (41, 1.59493288581648379187e-01) (42, -3.27091371846523759626e-01) (43, 2.36854810598034828950e-02) (44, -4.21753400637138009532e-01) (45, -6.32858977104775233258e-01) (46, -2.05924196792775893172e+00) (47, 8.78927070946814159580e-02) (48, -1.65730469021326551685e-03) (49, 1.50000000000000000000e+03) (50, 1.50000000000000000000e+03) (51, 8.47730190992392190763e-02) (52, -1.24319636582222170507e-01) (53, 8.82129082954844045972e-01) (54, 4.52776464548371518348e-02) (55, 5.78034484159713687901e-02) (56, -4.87756358098193343320e-01) (57, -9.41274806613404818600e-03) (58, 2.89217578831945654194e-01) (59, 1.50000000000000000000e+03) (60, 1.50000000000000000000e+03) (61, 1.81363934059317749581e-01) (62, -8.91811485437869477799e-02) (63, -1.23571413710127378516e-01) (64, -2.69245760292993296936e-01) (65, -3.03697672143557195756e-01) (66, -1.01870646532500927495e-01) (67, 1.23749574192023661934e-01) (68, -1.45220079317688165882e-02) (69, 1.50000000000000000000e+03) (70, 1.50000000000000000000e+03) (71, -1.95532251000432671928e-01) (72, -5.43296410290407087718e-03) (73, -2.08396555610872363795e-01) (74, -1.48885158449081511645e-01) (75, -1.58261415480517336762e-01) (76, -2.97789170683022741404e-01) (77, 1.34050280692453189363e-02) (78, -2.19702249000699623149e-01) (79, 1.50000000000000000000e+03) (80, 1.50000000000000000000e+03) (81, -1.84286599024234665212e-01) (82, -1.02897351093116498633e-01) (83, -3.55594729277467214157e-01) (84, 7.36252784317312919393e-02) (85, -1.00384238102540115922e-01) (86, -2.24869741543327644751e-01) (87, 1.12633001702379439285e-02) (88, -5.31178651826902048505e-01) (89, 1.50000000000000000000e+03) (90, 1.50000000000000000000e+03) (91, -7.13948033209860083437e-02) (92, -2.59631358354436236890e-01) (93, -1.63029000487831837729e-01) (94, -1.33379252165927553175e-01) (95, -5.66335716576587266946e-02) (96, -2.82537529723406843907e-01) (97, -1.01224138495302068419e-02) (98, 1.86936207250381347666e-01) (99, 1.50000000000000000000e+03) (100, 1.50000000000000000000e+03) (101, -9.13802926147217892128e-02) (102, -1.00364360347954720276e-01) (103, -2.41655059560609869473e-01) (104, -2.89352349334839158146e-02) (105, 1.94121756398518474640e-01) (106, -3.24796072422473547370e-01) (107, 7.32895646553029106451e-02) (108, -3.89472086814935461452e-02) (109, 1.50000000000000000000e+03) (110, 1.50000000000000000000e+03) (111, -5.10890976025732412857e-01) (112, -1.54927026194036893125e-01) (113, 1.78364171482320088558e-01) (114, -1.77837191270293598633e-01) (115, 6.78261945367181900979e-02) (116, 1.09721417515326907788e-01) (117, -5.83773651571066545807e-02) (118, 2.40522194667693423042e-01) (119, 1.50000000000000000000e+03) (120, 1.50000000000000000000e+03) (121, -2.88929790549775043773e-02) (122, -1.62098858727196676321e-01) (123, -2.03276721137817417695e-01) (124, -2.60942991334256524372e-01) (125, -3.02128299472391115277e-01) (126, -2.25286439789696563141e-01) (127, -1.58064926401213418083e-01) (128, -2.37707290867043619098e-01) (129, 1.50000000000000000000e+03) (130, 1.50000000000000000000e+03) (131, 3.40754072260419232920e-02) (132, -6.97345353269257173245e-01) (133, -1.48748739677602093145e+00) (134, -4.85627772355728737352e-01) (135, -4.35819268126750924974e-01) (136, 4.01838672912164185380e-01) (137, 1.53466509108240806158e-01) (138, -1.01960688234900398452e-01) (139, 1.50000000000000000000e+03) (140, 1.50000000000000000000e+03) (141, 6.73582822874297493243e-01) (142, -3.67260839191167143269e-01) (143, -1.03685209089892360623e+00) (144, -1.11752225765948942637e+00) (145, -1.02085477048539341460e+00) (146, -9.94042038265774308137e-01) (147, -9.10618452849404069749e-02) (148, 1.36514526339729436177e-01) (149, 1.50000000000000000000e+03) (150, 1.50000000000000000000e+03) (151, 1.50000000000000000000e+03) (152, 1.50000000000000000000e+03) (153, 1.50000000000000000000e+03) (154, 1.50000000000000000000e+03) (155, 1.50000000000000000000e+03) (156, 1.50000000000000000000e+03) (157, 1.50000000000000000000e+03) (158, 1.50000000000000000000e+03) (159, 1.50000000000000000000e+03) (160, -4.07368052048590112424e-01) (0, 1.50000000000000000000e+03) (1, 1.50000000000000000000e+03) (2, 1.50000000000000000000e+03) (3, 1.50000000000000000000e+03) (4, 1.50000000000000000000e+03) (5, 1.50000000000000000000e+03) (6, 1.50000000000000000000e+03) (7, 1.50000000000000000000e+03) (8, 1.50000000000000000000e+03) (9, 1.50000000000000000000e+03) (10, 1.50000000000000000000e+03) (11, 1.50000000000000000000e+03) (12, 1.50000000000000000000e+03) (13, 1.50000000000000000000e+03) (14, 1.50000000000000000000e+03) (15, 1.50000000000000000000e+03) (16, 1.50000000000000000000e+03) (17, 1.50000000000000000000e+03) (18, 1.50000000000000000000e+03) (19, 1.50000000000000000000e+03) (20, 1.50000000000000000000e+03) (21, 1.50000000000000000000e+03) (22, 5.35517241405362165452e-01) (23, 5.08326071845429217078e-01) (24, 4.11014438712646812402e-01) (25, 6.38011925906076027282e-01) (26, 1.82896310326825850545e+00) (27, 9.87558523549541544817e-01) (28, 1.47481553973074885899e-01) (29, 1.50000000000000000000e+03) (30, 1.50000000000000000000e+03) (31, 3.00432705815340983513e-01) (32, 3.95897200017518158255e-01) (33, -3.57639763644637509454e-01) (34, 4.28441736935258499219e-01) (35, 4.23130309301397278254e-01) (36, 3.92789781141624660954e-01) (37, 3.89077707142106765659e-01) (38, 7.38632992806811827791e-01) (39, 1.50000000000000000000e+03) (40, 1.50000000000000000000e+03) (41, -2.89267542731574867076e+00) (42, 1.01971171985665409743e+00) (43, 5.23689584048578571362e-01) (44, 3.69165615522457968289e-01) (45, 9.63750717783117827331e-01) (46, -7.72286627219018750878e-01) (47, 5.74270725196388331923e-01) (48, 5.51359707922495001498e-01) (49, 1.50000000000000000000e+03) (50, 1.50000000000000000000e+03) (51, -1.75573119765643115286e+00) (52, 7.21090941799520046551e-01) (53, 2.92242018608173781402e-01) (54, 4.82312225671465422128e-01) (55, 6.21636000797329280054e-01) (56, 3.98787378359588162713e-01) (57, 6.31656230798273932159e-01) (58, -2.06753363806422596483e+00) (59, 1.50000000000000000000e+03) (60, 1.50000000000000000000e+03) (61, 4.75254780701776569085e-01) (62, 5.54351675472397054101e-01) (63, 6.52190159105821343211e-01) (64, 1.97755710301519643801e-01) (65, 4.46042936279203161565e-01) (66, 4.15088027058988173756e-01) (67, 4.50385072879472991847e-01) (68, 4.16108655568353025256e-01) (69, 1.50000000000000000000e+03) (70, 1.50000000000000000000e+03) (71, 4.25753143881571538554e-01) (72, 4.12050395451231399324e-01) (73, 4.20642677274494891648e-01) (74, 4.52359428506055427643e-01) (75, 6.61415733167874386744e-01) (76, 5.11640173615918070205e-01) (77, 3.97605536996544273176e-01) (78, 3.18144621067614985499e-01) (79, 1.50000000000000000000e+03) (80, 1.50000000000000000000e+03) (81, 3.46319540014498661318e-01) (82, 5.35000473741414350748e-01) (83, 4.77672609595077679590e-01) (84, 4.58903442038888498278e-01) (85, -9.01908687280895238203e-01) (86, 8.91368334909406256905e-01) (87, 7.29933218801303129730e-01) (88, 7.66027503280069188563e-01) (89, 1.50000000000000000000e+03) (90, 1.50000000000000000000e+03) (91, 4.29718820145528646037e-01) (92, 2.96001276102458188433e-01) (93, 6.01648645683741434276e-01) (94, 6.05186906557112380689e-01) (95, 3.94971961902859602933e-01) (96, 5.76476938362465163301e-01) (97, 5.75831130447051586785e-01) (98, 4.36315352360005570542e-01) (99, 1.50000000000000000000e+03) (100, 1.50000000000000000000e+03) (101, 4.73727576176484588277e-01) (102, 4.42095665069311472006e-01) (103, 6.53874103609071055665e-01) (104, -4.34828638356631991257e+00) (105, 3.36603316724145618100e-01) (106, 5.12781746117041081767e-01) (107, 5.49197132451172298495e-01) (108, 4.38474933184862580848e-01) (109, 1.50000000000000000000e+03) (110, 1.50000000000000000000e+03) (111, -4.04709935948204702072e+00) (112, 4.51808321060476691944e-01) (113, 2.55945985245912888129e-01) (114, -1.60111400553797467161e+00) (115, 4.63191478317998395209e-01) (116, 4.14783346111139594736e-01) (117, 4.17542997834990992079e-01) (118, -2.36346512381637285927e+00) (119, 1.50000000000000000000e+03) (120, 1.50000000000000000000e+03) (121, 4.03263304350477358451e-01) (122, 5.05868843689755265380e-01) (123, 4.57642781329615722097e-01) (124, 4.34441786320191869475e-01) (125, 4.66246724337534168559e-01) (126, 7.27400309720182991491e-01) (127, 4.34104342254377717492e-01) (128, -7.33526469115376111851e-01) (129, 1.50000000000000000000e+03) (130, 1.50000000000000000000e+03) (131, -1.24921649472134443926e+00) (132, 5.31276530213252939916e-01) (133, 8.15781554450274559720e-01) (134, 7.58861868142495454848e-01) (135, 1.37513552197085564543e+00) (136, 5.29792189110146805042e-01) (137, 3.89314759525263842654e-01) (138, -1.42846669742174858797e+00) (139, 1.50000000000000000000e+03) (140, 1.50000000000000000000e+03) (141, 1.16327474293220145540e+00) (142, 1.27009177747659407487e+00) (143, 2.82178581476273215856e+00) (144, 3.00167474120916999425e+00) (145, 2.86222771152915633763e+00) (146, 2.92514274984659827794e+00) (147, 2.74550106083815492752e+00) (148, 1.98085072175537546535e+00) (149, 1.50000000000000000000e+03) (150, 1.50000000000000000000e+03) (151, 1.50000000000000000000e+03) (152, 1.50000000000000000000e+03) (153, 1.50000000000000000000e+03) (154, 1.50000000000000000000e+03) (155, 1.50000000000000000000e+03) (156, 1.50000000000000000000e+03) (157, 1.50000000000000000000e+03) (158, 1.50000000000000000000e+03) (159, 1.50000000000000000000e+03) (160, 8.73433729825728644158e-01) (0, 1.50000000000000000000e+03) (1, 1.50000000000000000000e+03) (2, 1.50000000000000000000e+03) (3, 1.50000000000000000000e+03) (4, 1.50000000000000000000e+03) (5, 1.50000000000000000000e+03) (6, 1.50000000000000000000e+03) (7, 1.50000000000000000000e+03) (8, 1.50000000000000000000e+03) (9, 1.50000000000000000000e+03) (10, 1.50000000000000000000e+03) (11, 1.50000000000000000000e+03) (12, 1.50000000000000000000e+03) (13, 1.50000000000000000000e+03) (14, 1.50000000000000000000e+03) (15, 1.50000000000000000000e+03) (16, 1.50000000000000000000e+03) (17, 1.50000000000000000000e+03) (18, 1.50000000000000000000e+03) (19, 1.50000000000000000000e+03) (20, 1.50000000000000000000e+03) (21, 1.50000000000000000000e+03) (22, 6.69210290472996183198e-01) (23, 6.90560391109478421967e-01) (24, 4.32977801668887385400e-01) (25, 5.53289019554986105653e-01) (26, 1.75695993242036574422e+00) (27, 1.03493946069009479238e+00) (28, 2.15743274213191255084e-01) (29, 1.50000000000000000000e+03) (30, 1.50000000000000000000e+03) (31, 2.07315176099992504177e-01) (32, 5.49951260156900767484e-01) (33, -1.55117085258729825448e+00) (34, 5.37694116158809465311e-01) (35, 4.59263437304131827421e-01) (36, 5.12531714604306354310e-01) (37, 4.56945877364522468067e-01) (38, 7.46804390397056705453e-01) (39, 1.50000000000000000000e+03) (40, 1.50000000000000000000e+03) (41, -4.00826806276885427849e+00) (42, 1.05113262127438633620e+00) (43, 6.24971316369363871779e-01) (44, 7.14267619716685953080e-01) (45, 1.01274546916420438158e+00) (46, -9.53916277768030451689e-01) (47, 5.31636234751538427901e-01) (48, 3.05580779551874404110e-01) (49, 1.50000000000000000000e+03) (50, 1.50000000000000000000e+03) (51, -1.09452008041523954351e-01) (52, 6.51036323027776364647e-01) (53, 2.88264890491214009760e-01) (54, 5.43530927829129928419e-01) (55, 5.76467694365416893909e-01) (56, 5.21161362745096723437e-01) (57, 5.44656842169125021691e-01) (58, -1.47641468145946963553e+00) (59, 1.50000000000000000000e+03) (60, 1.50000000000000000000e+03) (61, 3.94714326556724615092e-01) (62, 5.69988894424576009179e-01) (63, 6.19976139112641932982e-01) (64, 2.42437980867527297368e-01) (65, 8.31098010758893668282e-01) (66, 5.67218348473825129119e-01) (67, 5.54480531863756342936e-01) (68, 1.83423125910848916487e-01) (69, 1.50000000000000000000e+03) (70, 1.50000000000000000000e+03) (71, 3.98500881231024395301e-01) (72, 3.74406944467611912941e-01) (73, 3.75122654763012652879e-01) (74, 6.15150828441212049746e-01) (75, 5.64624642854153591109e-01) (76, 5.49451452912793070205e-01) (77, 2.65634092819489964210e-01) (78, 2.82024079151101614293e-01) (79, 1.50000000000000000000e+03) (80, 1.50000000000000000000e+03) (81, 3.77563467271273434100e-01) (82, 4.17501721491794874908e-01) (83, 3.15627598633375583415e-01) (84, 4.15323132712333120686e-01) (85, -5.40521337186707140354e-01) (86, 3.86281285218317338437e-01) (87, 4.30732229468873850653e-01) (88, 5.12535307919574911750e-01) (89, 1.50000000000000000000e+03) (90, 1.50000000000000000000e+03) (91, 5.28113594045910184072e-01) (92, 1.94365529444584184127e-01) (93, 7.13349091097330245681e-01) (94, 6.15629203910783906473e-01) (95, 5.90041019054314608283e-01) (96, 4.71885269627823455973e-01) (97, 4.19092841746617872367e-01) (98, 4.65061315836902633425e-01) (99, 1.50000000000000000000e+03) (100, 1.50000000000000000000e+03) (101, 3.84964329916150149735e-01) (102, 4.88175645928743351387e-01) (103, 7.14033555066597158678e-01) (104, -3.06544652450375876285e+00) (105, 4.30429452273110135785e-01) (106, 5.43572907496938095839e-01) (107, 5.75500174957580434842e-01) (108, 5.43773077649799430056e-01) (109, 1.50000000000000000000e+03) (110, 1.50000000000000000000e+03) (111, -3.99792593441224575201e+00) (112, 4.02717749359006893517e-01) (113, 1.87539137637512287604e-01) (114, -5.11697837255105980603e-01) (115, 4.22980795578187185324e-01) (116, 3.66632457865686045562e-01) (117, 5.44284032614935076033e-01) (118, -3.10754207863309650506e+00) (119, 1.50000000000000000000e+03) (120, 1.50000000000000000000e+03) (121, 3.80958525510118661828e-01) (122, 3.88657431590100965746e-01) (123, 4.77988597887599897529e-01) (124, 6.98802948047306471402e-01) (125, 8.31179034420151729989e-01) (126, 7.80034805415119492089e-01) (127, 3.28354824575187553837e-01) (128, -8.53176141890137240686e-01) (129, 1.50000000000000000000e+03) (130, 1.50000000000000000000e+03) (131, -1.35229001572774021334e+00) (132, 3.98178617483795849186e-01) (133, 5.57214646921046719008e-01) (134, 5.49714399933521891128e-01) (135, 6.72363986573522587342e-01) (136, 6.36329293830358078132e-01) (137, 3.57795779479477660256e-01) (138, -1.34759611256676326008e+00) (139, 1.50000000000000000000e+03) (140, 1.50000000000000000000e+03) (141, 1.15017049786555847213e+00) (142, 1.35048118028335206731e+00) (143, 2.85029534220757163610e+00) (144, 2.82851189345183051671e+00) (145, 2.98047111898722327794e+00) (146, 2.86661003500284827794e+00) (147, 2.65507136737769044998e+00) (148, 1.88254749686395128627e+00) (149, 1.50000000000000000000e+03) (150, 1.50000000000000000000e+03) (151, 1.50000000000000000000e+03) (152, 1.50000000000000000000e+03) (153, 1.50000000000000000000e+03) (154, 1.50000000000000000000e+03) (155, 1.50000000000000000000e+03) (156, 1.50000000000000000000e+03) (157, 1.50000000000000000000e+03) (158, 1.50000000000000000000e+03) (159, 1.50000000000000000000e+03) (160, 3.97027563103821978796e-01) (0, 1.50000000000000000000e+03) (1, 1.50000000000000000000e+03) (2, 1.50000000000000000000e+03) (3, 1.50000000000000000000e+03) (4, 1.50000000000000000000e+03) (5, 1.50000000000000000000e+03) (6, 1.50000000000000000000e+03) (7, 1.50000000000000000000e+03) (8, 1.50000000000000000000e+03) (9, 1.50000000000000000000e+03) (10, 1.50000000000000000000e+03) (11, 1.50000000000000000000e+03) (12, 1.50000000000000000000e+03) (13, 1.50000000000000000000e+03) (14, 1.50000000000000000000e+03) (15, 1.50000000000000000000e+03) (16, 1.50000000000000000000e+03) (17, 1.50000000000000000000e+03) (18, 1.50000000000000000000e+03) (19, 1.50000000000000000000e+03) (20, 1.50000000000000000000e+03) (21, 1.50000000000000000000e+03) (22, 2.64310649405796016520e-01) (23, 2.28153413902595164631e-01) (24, 3.37551769415497637805e-01) (25, 1.02104882092198395727e-01) (26, -8.70955131144794170162e-01) (27, 1.23622167624562809274e-01) (28, 9.23199881020517976182e-01) (29, 1.50000000000000000000e+03) (30, 1.50000000000000000000e+03) (31, 2.02866536942201067251e-02) (32, -6.65591666995870245849e-01) (33, -5.13868708169376131600e-01) (34, -2.60003887204748540540e-01) (35, -2.41541194964049105165e-01) (36, 3.98781351092360666910e-02) (37, 4.22333135128488083160e-03) (38, 5.36543081846037068355e-03) (39, 1.50000000000000000000e+03) (40, 1.50000000000000000000e+03) (41, 4.08493495931338320565e-03) (42, -3.75781502680813561668e-01) (43, 7.30968327863014688539e-02) (44, 4.70593589372108045410e-01) (45, 3.06985030030740915774e-02) (46, -9.69184193900552437562e-01) (47, 1.23974519388810100473e-01) (48, -2.46605184991493753266e-01) (49, 1.50000000000000000000e+03) (50, 1.50000000000000000000e+03) (51, 4.76756207600168735450e-01) (52, -9.56046179163208692531e-02) (53, -4.30819980475844077628e-01) (54, 4.22086453196446678704e-02) (55, 3.53857671882776891881e-01) (56, -9.19498383939175267798e-01) (57, 7.82733455105804748486e-02) (58, -2.00008115480939940856e-01) (59, 1.50000000000000000000e+03) (60, 1.50000000000000000000e+03) (61, -4.79726394931811517264e-01) (62, 9.93279081730807089645e-02) (63, -7.35094160913609240282e-01) (64, -1.13901549426158890665e-01) (65, 1.98000191076075748864e-01) (66, 4.71130571844174950158e-02) (67, -7.26828909783603788197e-02) (68, -1.17654695968582201360e+00) (69, 1.50000000000000000000e+03) (70, 1.50000000000000000000e+03) (71, -2.98944431875675264987e-01) (72, 1.24741127876804372421e-02) (73, 1.36735707686599289312e-01) (74, -3.11545145422176206207e-01) (75, -8.80865835214114101248e-02) (76, 1.54513319103648849584e-01) (77, 1.51211415957493312129e-02) (78, -4.13212782990514837511e-01) (79, 1.50000000000000000000e+03) (80, 1.50000000000000000000e+03) (81, -8.21595796563825309100e-01) (82, -4.61579384361244071666e-01) (83, 4.19491585233141284217e-01) (84, -2.01690103742735271641e-01) (85, 6.37482255381303097863e-02) (86, 3.58150159905509524183e-01) (87, -2.19053579369630324614e-01) (88, -3.41768392611743943021e+00) (89, 1.50000000000000000000e+03) (90, 1.50000000000000000000e+03) (91, 1.55794921676826431112e-01) (92, 1.38697529387584783667e-01) (93, 6.77575864988439746650e-02) (94, -4.01607006189407880759e-02) (95, 2.94400058159917432654e-01) (96, 4.69757356967451938923e-02) (97, 8.15421593328697763559e-02) (98, 2.11015730585535132846e-01) (99, 1.50000000000000000000e+03) (100, 1.50000000000000000000e+03) (101, -9.73181919076953894088e-02) (102, -6.49606812184936981136e-03) (103, -3.55708909032986242416e-01) (104, 2.72965481402197840399e-01) (105, 2.85770151473336508907e-01) (106, -2.54135902345356302912e-02) (107, 1.27659414392415210271e-02) (108, 7.55229854553059881672e-02) (109, 1.50000000000000000000e+03) (110, 1.50000000000000000000e+03) (111, 2.09077432319011746742e+00) (112, 4.28895707958596092424e-02) (113, 1.58684595163395586459e-01) (114, 1.91033489899452457728e+00) (115, 1.09662775268344359070e+00) (116, 3.07307895491027369128e-02) (117, -4.33306461910153761785e-01) (118, 1.29826500534830885369e-01) (119, 1.50000000000000000000e+03) (120, 1.50000000000000000000e+03) (121, -7.85428888476337599966e-02) (122, -5.32711787553343030233e-01) (123, -3.30429884501269421904e-01) (124, -2.99461580269767047024e-01) (125, -3.18083226991461964772e-01) (126, -1.96869148215606970531e-01) (127, -1.17675785214616815400e-01) (128, 1.33169208597187282983e+00) (129, 1.50000000000000000000e+03) (130, 1.50000000000000000000e+03) (131, 9.49803768340777981871e-02) (132, -8.72171821920256884475e-01) (133, -1.91854695418388243588e+00) (134, -6.79760111464755234501e-01) (135, -4.28221394810228361827e-01) (136, 8.82356220790764533835e-02) (137, 1.95370846458468472306e-01) (138, -1.41505692728089133015e-01) (139, 1.50000000000000000000e+03) (140, 1.50000000000000000000e+03) (141, 5.27196102634182373059e-01) (142, -3.29095553007809848989e-01) (143, -9.65068637672970686125e-01) (144, -1.14162503862744069139e+00) (145, -1.07258207285767248607e+00) (146, -1.11589872399335554576e+00) (147, -1.05452315572825350287e+00) (148, 1.27011348041255328623e-01) (149, 1.50000000000000000000e+03) (150, 1.50000000000000000000e+03) (151, 1.50000000000000000000e+03) (152, 1.50000000000000000000e+03) (153, 1.50000000000000000000e+03) (154, 1.50000000000000000000e+03) (155, 1.50000000000000000000e+03) (156, 1.50000000000000000000e+03) (157, 1.50000000000000000000e+03) (158, 1.50000000000000000000e+03) (159, 1.50000000000000000000e+03) (160, -3.63092106326891039814e-01) (0, 1.50000000000000000000e+03) (1, 1.50000000000000000000e+03) (2, 1.50000000000000000000e+03) (3, 1.50000000000000000000e+03) (4, 1.50000000000000000000e+03) (5, 1.50000000000000000000e+03) (6, 1.50000000000000000000e+03) (7, 1.50000000000000000000e+03) (8, 1.50000000000000000000e+03) (9, 1.50000000000000000000e+03) (10, 1.50000000000000000000e+03) (11, 1.50000000000000000000e+03) (12, 1.50000000000000000000e+03) (13, 1.50000000000000000000e+03) (14, 1.50000000000000000000e+03) (15, 1.50000000000000000000e+03) (16, 1.50000000000000000000e+03) (17, 1.50000000000000000000e+03) (18, 1.50000000000000000000e+03) (19, 1.50000000000000000000e+03) (20, 1.50000000000000000000e+03) (21, 1.50000000000000000000e+03) (22, 2.43620049043696579316e-01) (23, 2.26524095817597470592e-01) (24, 2.74298718693741561125e-01) (25, 1.75408112199034987855e-01) (26, -7.76722951920325255237e-01) (27, 4.39715173424293087612e-02) (28, 9.39258232865066933215e-01) (29, 1.50000000000000000000e+03) (30, 1.50000000000000000000e+03) (31, -3.66642057237152207971e-01) (32, -2.90950450810577909699e-01) (33, -4.12729893829952565465e-02) (34, 5.57382744732653964692e-02) (35, 2.13217018640994362966e-02) (36, 4.13378317813073228870e-02) (37, -3.51425874898622037090e-01) (38, 4.39079454371994581940e-01) (39, 1.50000000000000000000e+03) (40, 1.50000000000000000000e+03) (41, 4.50097875985213724537e-01) (42, -3.71378479731406696551e-01) (43, -5.06001346395297812997e-02) (44, -1.75945232279037730438e-02) (45, -4.13328083099669674194e-01) (46, -1.17709310223895702308e+00) (47, 1.25117670506682238107e-01) (48, -3.50773127707017999370e-04) (49, 1.50000000000000000000e+03) (50, 1.50000000000000000000e+03) (51, 4.17642589056657187463e-01) (52, -1.00379747570662369860e-01) (53, 1.52699258439832563639e+00) (54, -2.30544068370952037750e-01) (55, 8.93839947101779053185e-01) (56, -1.70974468868183526737e+00) (57, 5.71538418195950484457e-02) (58, 7.10195116060550329928e-02) (59, 1.50000000000000000000e+03) (60, 1.50000000000000000000e+03) (61, -7.38670506669844684211e-01) (62, -3.45984046730116845403e-01) (63, -1.32362435729097949189e-01) (64, -9.64796410512971380768e-02) (65, -8.13527516090989805120e-02) (66, -2.74024347279460955829e-01) (67, -2.10959544976267843186e-01) (68, 1.17671457288426783983e+00) (69, 1.50000000000000000000e+03) (70, 1.50000000000000000000e+03) (71, -8.64329182847716204208e-02) (72, -1.43936282532930531763e-01) (73, -4.51452452632154555001e-01) (74, -1.29232384261294356437e-02) (75, -4.82329134001552792266e-02) (76, -2.87231408259355502910e-01) (77, -1.00836394283412025819e-01) (78, -2.95185159323261003816e-01) (79, 1.50000000000000000000e+03) (80, 1.50000000000000000000e+03) (81, -2.36426772884228891813e-01) (82, -2.21139765802754739710e-01) (83, -4.75058897084318421111e-01) (84, -2.20318771060606169443e-02) (85, -8.77435081753433904206e-02) (86, -7.06451402435949282754e-01) (87, -2.69327256412944304742e-01) (88, -5.50427189941693262298e-01) (89, 1.50000000000000000000e+03) (90, 1.50000000000000000000e+03) (91, -5.89640104329987105314e-02) (92, -1.24654681532093816743e-01) (93, -5.92133485247969132415e-02) (94, 2.68689311935249697250e-01) (95, 2.12395305036126094689e-02) (96, 2.92866397005643874785e-01) (97, -2.20140380640891780706e-01) (98, 8.14576525652053740068e-01) (99, 1.50000000000000000000e+03) (100, 1.50000000000000000000e+03) (101, -1.89628857668591582764e-01) (102, -1.64202563369294590734e-01) (103, -3.90940831836670887878e-01) (104, -1.61129949345560602447e-01) (105, 6.74297074323016554231e-01) (106, -6.46623156517737829319e-01) (107, -1.43271560969353339843e-01) (108, -1.05719949813016064755e-01) (109, 1.50000000000000000000e+03) (110, 1.50000000000000000000e+03) (111, 1.41026579222277348435e-01) (112, 9.99250063688889716973e-02) (113, -1.16815246951717588431e+00) (114, -2.21315159682549611464e-01) (115, -3.70503541823118051624e-02) (116, 1.88027915080539870241e-01) (117, -1.15935235805770697759e-01) (118, 1.08047883538744809995e-01) (119, 1.50000000000000000000e+03) (120, 1.50000000000000000000e+03) (121, -3.30654149543856912263e-01) (122, -4.34673929266929048865e-01) (123, 1.12880383433773587298e-01) (124, -3.63781907328702081017e-01) (125, -3.28897915700959220242e-01) (126, 3.16194569851592846566e-02) (127, -1.58524217864895490548e-02) (128, -7.19328679882847155103e-02) (129, 1.50000000000000000000e+03) (130, 1.50000000000000000000e+03) (131, 2.88554061247328741402e-01) (132, -3.48902965194987702002e-01) (133, -1.23764829406428344960e+00) (134, -3.96718457332023322071e-01) (135, -2.66696344795550543960e-01) (136, 1.81555764444577633077e-01) (137, -2.32049195919095202489e-01) (138, -8.03284659856651345189e-02) (139, 1.50000000000000000000e+03) (140, 1.50000000000000000000e+03) (141, 6.13786683276404732013e-01) (142, 2.96321035035403135272e-01) (143, -4.75102037971348478695e-01) (144, -3.97984118049472479495e-01) (145, -4.27891344611973367673e-01) (146, -4.50840563361973478695e-01) (147, 1.07277091515252144538e-02) (148, 1.68734979363640180683e-01) (149, 1.50000000000000000000e+03) (150, 1.50000000000000000000e+03) (151, 1.50000000000000000000e+03) (152, 1.50000000000000000000e+03) (153, 1.50000000000000000000e+03) (154, 1.50000000000000000000e+03) (155, 1.50000000000000000000e+03) (156, 1.50000000000000000000e+03) (157, 1.50000000000000000000e+03) (158, 1.50000000000000000000e+03) (159, 1.50000000000000000000e+03) (160, -4.63059576947267237390e-01) (0, 1.50000000000000000000e+03) (1, 1.50000000000000000000e+03) (2, 1.50000000000000000000e+03) (3, 1.50000000000000000000e+03) (4, 1.50000000000000000000e+03) (5, 1.50000000000000000000e+03) (6, 1.50000000000000000000e+03) (7, 1.50000000000000000000e+03) (8, 1.50000000000000000000e+03) (9, 1.50000000000000000000e+03) (10, 1.50000000000000000000e+03) (11, 1.50000000000000000000e+03) (12, 1.50000000000000000000e+03) (13, 1.50000000000000000000e+03) (14, 1.50000000000000000000e+03) (15, 1.50000000000000000000e+03) (16, 1.50000000000000000000e+03) (17, 1.50000000000000000000e+03) (18, 1.50000000000000000000e+03) (19, 1.50000000000000000000e+03) (20, 1.50000000000000000000e+03) (21, 1.50000000000000000000e+03) (22, 1.68721820728784166477e-01) (23, 9.78844198751467609032e-02) (24, 1.10034237686967117931e+00) (25, 2.00797341177124041844e-02) (26, -6.95820844860369436269e-01) (27, 4.89791092286345902673e-02) (28, 9.58527028712959694445e-01) (29, 1.50000000000000000000e+03) (30, 1.50000000000000000000e+03) (31, -2.41196496689394773716e-01) (32, 6.44478074944178358496e-02) (33, -1.67647052393531781345e-01) (34, -2.61452731085572931402e-01) (35, -2.51544561664988286509e-01) (36, -3.95974643164555468490e-04) (37, 1.32381012451638080396e-01) (38, -2.06497384726093413665e-01) (39, 1.50000000000000000000e+03) (40, 1.50000000000000000000e+03) (41, -3.59654273285712200448e-02) (42, -3.76766689646687857884e-01) (43, -1.00998751219802979096e-01) (44, -1.74755366765165537357e-01) (45, -2.93438928862350123516e-01) (46, -5.80167767830638170246e-01) (47, 1.06278338122706456081e-01) (48, 9.36160048726551452525e-02) (49, 1.50000000000000000000e+03) (50, 1.50000000000000000000e+03) (51, -8.27172298108220654944e-02) (52, -6.68227083397086307759e-02) (53, -4.42519921622856679533e-02) (54, 1.23233689575215021872e-01) (55, -1.11311094587796241551e-01) (56, -4.48819803790472315885e-01) (57, -7.72445139912156519824e-02) (58, 3.95763250379076114704e-01) (59, 1.50000000000000000000e+03) (60, 1.50000000000000000000e+03) (61, -1.87730026870914890047e-01) (62, 1.50194287733570575050e-01) (63, -8.35803525073481115570e-03) (64, -6.97605321447686416159e-02) (65, -1.47906974427948534334e-01) (66, -6.31802652141337378611e-02) (67, 7.02922645686921837571e-02) (68, 2.97846428376629890344e-01) (69, 1.50000000000000000000e+03) (70, 1.50000000000000000000e+03) (71, -2.53975692203328884400e-01) (72, -1.70318966207523792011e-01) (73, -2.80558424169178866059e-01) (74, -2.63069809097270568277e-01) (75, -1.51313779977553491962e-01) (76, -1.05214336341133779529e-01) (77, -2.10796935798869849998e-01) (78, -3.80978957830207354274e-01) (79, 1.50000000000000000000e+03) (80, 1.50000000000000000000e+03) (81, -7.31400700441988266265e-02) (82, -4.59578535929733023035e-02) (83, 3.23020942726262694222e-01) (84, 4.78522666384509839932e-02) (85, -1.96530762199298297821e-01) (86, -2.64194817894928823954e-01) (87, -2.09355168105716971105e-01) (88, -5.22517349363779803895e-01) (89, 1.50000000000000000000e+03) (90, 1.50000000000000000000e+03) (91, 6.88646013117708566398e-02) (92, 1.05979300278817717418e-02) (93, -2.02098516047713505639e-01) (94, -2.87871710279772985430e-01) (95, 2.44555233299994113222e-03) (96, 1.04599566507579139901e-02) (97, 3.53745082324686058173e-02) (98, -6.57481100105391735866e-01) (99, 1.50000000000000000000e+03) (100, 1.50000000000000000000e+03) (101, 5.10451428447403817573e-03) (102, -6.76308912091006936285e-02) (103, -2.35356011710955076444e-01) (104, 2.14396943072247353479e-01) (105, 9.10207060317467231414e-02) (106, -4.47609560407036255469e-01) (107, 1.43728871796593576926e-02) (108, -1.90834067068998441963e-01) (109, 1.50000000000000000000e+03) (110, 1.50000000000000000000e+03) (111, 2.36929079965489675086e-02) (112, 1.90012441331590190008e-02) (113, 1.31826600827481321687e-01) (114, -9.17081446826689405949e-02) (115, -8.24629354524125807169e-02) (116, 8.06082078068097451773e-02) (117, -8.65451277197960971987e-02) (118, 2.31980508060198375997e-01) (119, 1.50000000000000000000e+03) (120, 1.50000000000000000000e+03) (121, -1.66058392819042777155e-01) (122, 1.09186086319575742509e-01) (123, -2.85280431420913249685e-01) (124, -3.59167012401359897478e-01) (125, -3.09484346955780309507e-01) (126, -1.91713657975353973795e-01) (127, 2.34589621148230051406e-02) (128, 2.53795411429193873420e-01) (129, 1.50000000000000000000e+03) (130, 1.50000000000000000000e+03) (131, -2.21165626662816694470e-01) (132, -4.42371470449139547743e-01) (133, -1.27855578955235094085e+00) (134, -3.52081582084089406148e-01) (135, -2.44469566537986821020e-01) (136, 3.95651454018113413191e-01) (137, 1.48766200475486137789e-01) (138, 1.52077893329806840272e-01) (139, 1.50000000000000000000e+03) (140, 1.50000000000000000000e+03) (141, 5.97636782422771073442e-01) (142, 1.53885685212579198522e-01) (143, -1.09459134871130636668e+00) (144, -1.12896024370556569139e+00) (145, -1.14048368418579793016e+00) (146, -1.14959013396864628831e+00) (147, -1.01377577500566284918e+00) (148, 1.17343385251718917983e-01) (149, 1.50000000000000000000e+03) (150, 1.50000000000000000000e+03) (151, 1.50000000000000000000e+03) (152, 1.50000000000000000000e+03) (153, 1.50000000000000000000e+03) (154, 1.50000000000000000000e+03) (155, 1.50000000000000000000e+03) (156, 1.50000000000000000000e+03) (157, 1.50000000000000000000e+03) (158, 1.50000000000000000000e+03) (159, 1.50000000000000000000e+03) (160, -4.32315409034983999526e-01) (0, 1.50000000000000000000e+03) (1, 1.50000000000000000000e+03) (2, 1.50000000000000000000e+03) (3, 1.50000000000000000000e+03) (4, 1.50000000000000000000e+03) (5, 1.50000000000000000000e+03) (6, 1.50000000000000000000e+03) (7, 1.50000000000000000000e+03) (8, 1.50000000000000000000e+03) (9, 1.50000000000000000000e+03) (10, 1.50000000000000000000e+03) (11, 1.50000000000000000000e+03) (12, 1.50000000000000000000e+03) (13, 1.50000000000000000000e+03) (14, 1.50000000000000000000e+03) (15, 1.50000000000000000000e+03) (16, 1.50000000000000000000e+03) (17, 1.50000000000000000000e+03) (18, 1.50000000000000000000e+03) (19, 1.50000000000000000000e+03) (20, 1.50000000000000000000e+03) (21, 1.50000000000000000000e+03) (22, 7.32598205508479760617e-01) (23, 8.56249337496051698970e-01) (24, 9.40114043001163524060e-01) (25, 7.50945117075104584536e-01) (26, -2.03749423606675555964e-01) (27, 3.51808970395215359073e-01) (28, 1.32207051870566139051e+00) (29, 1.50000000000000000000e+03) (30, 1.50000000000000000000e+03) (31, 1.50000000000000000000e+03) (32, 1.50000000000000000000e+03) (33, 1.50000000000000000000e+03) (34, 1.50000000000000000000e+03) (35, 1.50000000000000000000e+03) (36, 1.50000000000000000000e+03) (37, 7.11708953185918979933e-01) (38, 4.70028643344928276360e-01) (39, 1.50000000000000000000e+03) (40, 1.50000000000000000000e+03) (41, 1.50000000000000000000e+03) (42, 5.08140836595605160930e-01) (43, 5.27805152312717296148e-01) (44, 3.89076301411958591636e-01) (45, 2.23649273746932664153e-01) (46, 1.50000000000000000000e+03) (47, 1.09519488985288182548e+00) (48, 7.33730178052900638974e-01) (49, 1.50000000000000000000e+03) (50, 1.50000000000000000000e+03) (51, 1.50000000000000000000e+03) (52, 1.50000000000000000000e+03) (53, 6.94395596847586560330e-01) (54, 1.50000000000000000000e+03) (55, 1.50000000000000000000e+03) (56, 1.01023597189452818412e+01) (57, 1.50000000000000000000e+03) (58, 1.50000000000000000000e+03) (59, 1.50000000000000000000e+03) (60, 1.50000000000000000000e+03) (61, 1.50000000000000000000e+03) (62, 6.28214534449892725299e-01) (63, 5.23569730705363833856e-01) (64, 9.76059375331056022773e-01) (65, 8.61610112126925509202e-01) (66, 5.76246410930422170438e-01) (67, 7.03118558343300836810e-01) (68, 1.50000000000000000000e+03) (69, 1.50000000000000000000e+03) (70, 1.50000000000000000000e+03) (71, 1.50000000000000000000e+03) (72, 6.12208903223174671915e-01) (73, 5.85288785977643111202e-01) (74, 1.50000000000000000000e+03) (75, 1.50000000000000000000e+03) (76, 7.27359790461890254321e-01) (77, 9.40596243671629639316e-01) (78, 1.50000000000000000000e+03) (79, 1.50000000000000000000e+03) (80, 1.50000000000000000000e+03) (81, 1.50000000000000000000e+03) (82, 7.59030114388759780120e-01) (83, 9.06090679835504730910e-01) (84, 1.50000000000000000000e+03) (85, 1.50000000000000000000e+03) (86, 1.50000000000000000000e+03) (87, 1.50000000000000000000e+03) (88, 1.50000000000000000000e+03) (89, 1.50000000000000000000e+03) (90, 1.50000000000000000000e+03) (91, 1.50000000000000000000e+03) (92, 1.50000000000000000000e+03) (93, 5.22655158412419829084e-01) (94, 8.09962741990262968805e-01) (95, 8.93541785280598688246e-01) (96, 1.15092565569114779755e+00) (97, 5.70259276484175514632e-01) (98, 1.50000000000000000000e+03) (99, 1.50000000000000000000e+03) (100, 1.50000000000000000000e+03) (101, 1.50000000000000000000e+03) (102, 6.63677906851628640617e-01) (103, 8.76643377867570516848e-01) (104, 1.50000000000000000000e+03) (105, 1.50000000000000000000e+03) (106, 2.87695689353393397880e+01) (107, 5.81437083002069199367e-01) (108, 1.50000000000000000000e+03) (109, 1.50000000000000000000e+03) (110, 1.50000000000000000000e+03) (111, 1.50000000000000000000e+03) (112, 6.46822351268217521358e-01) (113, 1.50000000000000000000e+03) (114, 4.61226972389246925310e-01) (115, 4.91302661758681757931e-01) (116, 2.09599465042135449266e+02) (117, 7.76919124289718099341e-01) (118, 1.50000000000000000000e+03) (119, 1.50000000000000000000e+03) (120, 1.50000000000000000000e+03) (121, 1.50000000000000000000e+03) (122, 1.50000000000000000000e+03) (123, 6.51360380715431119825e-01) (124, 6.36288773546067720766e-01) (125, 6.06929823921900757355e-01) (126, 8.17762264889106860188e-01) (127, 7.85225295607582363111e-01) (128, 1.50000000000000000000e+03) (129, 1.50000000000000000000e+03) (130, 1.50000000000000000000e+03) (131, 1.48290197299459935998e+00) (132, 6.32510804356692823980e-01) (133, 1.50000000000000000000e+03) (134, -2.52430133994963543098e-02) (135, -1.16256539860962138100e+00) (136, 7.52587173255699348751e-01) (137, 9.90827799429005118270e-01) (138, 1.53483103246569774214e+00) (139, 1.50000000000000000000e+03) (140, 1.50000000000000000000e+03) (141, 1.17206295043543895495e+00) (142, 4.51723701598678806235e-01) (143, -4.38561727812764423629e-01) (144, -2.82891554346579032764e-01) (145, -3.20495320072648526288e-01) (146, -3.95617389640090244551e-01) (147, -4.29602804512782709967e-01) (148, 6.84158464809549227148e-01) (149, 1.50000000000000000000e+03) (150, 1.50000000000000000000e+03) (151, 1.50000000000000000000e+03) (152, 1.50000000000000000000e+03) (153, 1.50000000000000000000e+03) (154, 1.50000000000000000000e+03) (155, 1.50000000000000000000e+03) (156, 1.50000000000000000000e+03) (157, 1.50000000000000000000e+03) (158, 1.50000000000000000000e+03) (159, 1.50000000000000000000e+03) (160, 3.06072893819072600063e-01) (0, 1.50000000000000000000e+03) (1, 1.50000000000000000000e+03) (2, 1.50000000000000000000e+03) (3, 1.50000000000000000000e+03) (4, 1.50000000000000000000e+03) (5, 1.50000000000000000000e+03) (6, 1.50000000000000000000e+03) (7, 1.50000000000000000000e+03) (8, 1.50000000000000000000e+03) (9, 1.50000000000000000000e+03) (10, 1.50000000000000000000e+03) (11, 1.50000000000000000000e+03) (12, 1.50000000000000000000e+03) (13, 1.50000000000000000000e+03) (14, 1.50000000000000000000e+03) (15, 1.50000000000000000000e+03) (16, 1.50000000000000000000e+03) (17, 1.50000000000000000000e+03) (18, 1.50000000000000000000e+03) (19, 1.50000000000000000000e+03) (20, 1.50000000000000000000e+03) (21, 1.50000000000000000000e+03) (22, 8.53588198723087221431e-01) (23, 8.45275213422069460201e-01) (24, 9.66932884697027650311e-01) (25, 6.39055464167256448427e-01) (26, -1.24629540128999891091e-01) (27, 2.36782116416572985251e-01) (28, 1.34226095137339362928e+00) (29, 1.50000000000000000000e+03) (30, 1.50000000000000000000e+03) (31, 1.50000000000000000000e+03) (32, 1.50000000000000000000e+03) (33, 1.50000000000000000000e+03) (34, 1.50000000000000000000e+03) (35, 1.50000000000000000000e+03) (36, 1.50000000000000000000e+03) (37, 7.74550741120222374647e-01) (38, 5.92532311414767809410e-01) (39, 1.50000000000000000000e+03) (40, 1.50000000000000000000e+03) (41, 1.50000000000000000000e+03) (42, 3.88963584541378581960e-01) (43, 5.29998466132788559335e-01) (44, 3.92103636221261875328e-01) (45, 3.76619815065235674645e-01) (46, 1.50000000000000000000e+03) (47, 1.08173663789975704752e+00) (48, 7.61983345920561050413e-01) (49, 1.50000000000000000000e+03) (50, 1.50000000000000000000e+03) (51, 1.50000000000000000000e+03) (52, 1.50000000000000000000e+03) (53, 7.04980693790869694659e-01) (54, 1.50000000000000000000e+03) (55, 1.50000000000000000000e+03) (56, 1.02139258825447729606e+01) (57, 1.50000000000000000000e+03) (58, 1.50000000000000000000e+03) (59, 1.50000000000000000000e+03) (60, 1.50000000000000000000e+03) (61, 1.50000000000000000000e+03) (62, 7.41367612111889173754e-01) (63, 5.71708155459506817131e-01) (64, 9.15665088221680800729e-01) (65, 9.50428475972268427263e-01) (66, 6.07844323241976125516e-01) (67, 7.51165437813650416210e-01) (68, 1.50000000000000000000e+03) (69, 1.50000000000000000000e+03) (70, 1.50000000000000000000e+03) (71, 1.50000000000000000000e+03) (72, 5.88856846481459861309e-01) (73, 7.68626183851044642026e-01) (74, 1.50000000000000000000e+03) (75, 1.50000000000000000000e+03) (76, 5.90427417415015254321e-01) (77, 9.48134085468504528293e-01) (78, 1.50000000000000000000e+03) (79, 1.50000000000000000000e+03) (80, 1.50000000000000000000e+03) (81, 1.50000000000000000000e+03) (82, 7.19145866295964220072e-01) (83, 9.12597033452219208449e-01) (84, 1.50000000000000000000e+03) (85, 1.50000000000000000000e+03) (86, 1.50000000000000000000e+03) (87, 1.50000000000000000000e+03) (88, 1.50000000000000000000e+03) (89, 1.50000000000000000000e+03) (90, 1.50000000000000000000e+03) (91, 1.50000000000000000000e+03) (92, 1.50000000000000000000e+03) (93, 4.39482546520308270388e-01) (94, 8.14546473283941252497e-01) (95, 7.53154823880091917054e-01) (96, 1.23626501190495563520e+00) (97, 5.68898189519568275863e-01) (98, 1.50000000000000000000e+03) (99, 1.50000000000000000000e+03) (100, 1.50000000000000000000e+03) (101, 1.50000000000000000000e+03) (102, 5.61962811510422821648e-01) (103, 8.37678532627454508486e-01) (104, 1.50000000000000000000e+03) (105, 1.50000000000000000000e+03) (106, 2.86511424261378131462e+01) (107, 7.49942945357303991649e-01) (108, 1.50000000000000000000e+03) (109, 1.50000000000000000000e+03) (110, 1.50000000000000000000e+03) (111, 1.50000000000000000000e+03) (112, 7.59651939621850402773e-01) (113, 1.50000000000000000000e+03) (114, 1.90788277811476270074e+00) (115, 4.14843600320322136721e-01) (116, 2.09609231678721727121e+02) (117, 6.12960381075123406092e-01) (118, 1.50000000000000000000e+03) (119, 1.50000000000000000000e+03) (120, 1.50000000000000000000e+03) (121, 1.50000000000000000000e+03) (122, 1.50000000000000000000e+03) (123, 1.50000000000000000000e+03) (124, 1.50000000000000000000e+03) (125, 1.50000000000000000000e+03) (126, 1.50000000000000000000e+03) (127, 7.81160355691448482496e-01) (128, 1.50000000000000000000e+03) (129, 1.50000000000000000000e+03) (130, 1.50000000000000000000e+03) (131, 2.70656625267163297721e+00) (132, 5.94842345757551016483e-01) (133, 1.50000000000000000000e+03) (134, 1.43991951282087249364e-01) (135, -2.28167723727978977166e+00) (136, 7.11619758107154387616e-01) (137, 8.29391477949011135529e-01) (138, 2.46338621309422256545e+00) (139, 1.50000000000000000000e+03) (140, 1.50000000000000000000e+03) (141, 1.26091183185891231311e+00) (142, 2.90517642440867973619e-01) (143, -3.51147172561165843430e-01) (144, -4.15990924051282295881e-01) (145, -4.30206013432023415266e-01) (146, -2.74712843409082863033e-01) (147, -4.61896507919832222111e-01) (148, 7.72488539954317765535e-01) (149, 1.50000000000000000000e+03) (150, 1.50000000000000000000e+03) (151, 1.50000000000000000000e+03) (152, 1.50000000000000000000e+03) (153, 1.50000000000000000000e+03) (154, 1.50000000000000000000e+03) (155, 1.50000000000000000000e+03) (156, 1.50000000000000000000e+03) (157, 1.50000000000000000000e+03) (158, 1.50000000000000000000e+03) (159, 1.50000000000000000000e+03) (160, 3.71392398725314598629e-01) (0, 1.50000000000000000000e+03) (1, 1.50000000000000000000e+03) (2, 1.50000000000000000000e+03) (3, 1.50000000000000000000e+03) (4, 1.50000000000000000000e+03) (5, 1.50000000000000000000e+03) (6, 1.50000000000000000000e+03) (7, 1.50000000000000000000e+03) (8, 1.50000000000000000000e+03) (9, 1.50000000000000000000e+03) (10, 1.50000000000000000000e+03) (11, 1.50000000000000000000e+03) (12, 1.50000000000000000000e+03) (13, 1.50000000000000000000e+03) (14, 1.50000000000000000000e+03) (15, 1.50000000000000000000e+03) (16, 1.50000000000000000000e+03) (17, 1.50000000000000000000e+03) (18, 1.50000000000000000000e+03) (19, 1.50000000000000000000e+03) (20, 1.50000000000000000000e+03) (21, 1.50000000000000000000e+03) (22, 7.68956852556953340816e-01) (23, 8.02111153902301587948e-01) (24, 9.75422880891888555155e-01) (25, 7.13194872934479695559e-01) (26, -1.55794096870709608549e-01) (27, 1.86074105623844993085e-01) (28, 1.33817769793015250990e+00) (29, 1.50000000000000000000e+03) (30, 1.50000000000000000000e+03) (31, 1.50000000000000000000e+03) (32, 1.50000000000000000000e+03) (33, 1.50000000000000000000e+03) (34, 1.50000000000000000000e+03) (35, 1.50000000000000000000e+03) (36, 1.50000000000000000000e+03) (37, 7.45516320272329835461e-01) (38, 4.85452228074361336052e-01) (39, 1.50000000000000000000e+03) (40, 1.50000000000000000000e+03) (41, 1.50000000000000000000e+03) (42, 4.37462121932806036195e-01) (43, 5.13897396384386917489e-01) (44, 3.74290604856631736741e-01) (45, 3.65926458670467913414e-01) (46, 1.50000000000000000000e+03) (47, 1.25209627605603190936e+00) (48, 6.67445990914819820006e-01) (49, 1.50000000000000000000e+03) (50, 1.50000000000000000000e+03) (51, 1.50000000000000000000e+03) (52, 1.50000000000000000000e+03) (53, 7.29311266752852183082e-01) (54, 2.55056630440021024242e+02) (55, 1.50000000000000000000e+03) (56, 1.02386731451876773491e+01) (57, 1.50000000000000000000e+03) (58, 1.50000000000000000000e+03) (59, 1.50000000000000000000e+03) (60, 1.50000000000000000000e+03) (61, 1.50000000000000000000e+03) (62, 7.12143976319156379873e-01) (63, 6.16074619478328533440e-01) (64, 9.09622607752930800729e-01) (65, 8.95856936808678838702e-01) (66, 5.64185865545538400845e-01) (67, 6.80730860050568598041e-01) (68, 1.50000000000000000000e+03) (69, 1.50000000000000000000e+03) (70, 1.50000000000000000000e+03) (71, 1.50000000000000000000e+03) (72, 6.98298991113802003383e-01) (73, 7.72147924287598597104e-01) (74, 1.50000000000000000000e+03) (75, 1.50000000000000000000e+03) (76, 6.71738457041613612475e-01) (77, 1.07297540300295124460e+00) (78, 1.50000000000000000000e+03) (79, 1.50000000000000000000e+03) (80, 1.50000000000000000000e+03) (81, 1.50000000000000000000e+03) (82, 7.43984948373134891142e-01) (83, 9.77776470851129841932e-01) (84, 1.50000000000000000000e+03) (85, 1.50000000000000000000e+03) (86, 1.50000000000000000000e+03) (87, 1.50000000000000000000e+03) (88, 1.50000000000000000000e+03) (89, 1.50000000000000000000e+03) (90, 1.50000000000000000000e+03) (91, 1.50000000000000000000e+03) (92, 1.50000000000000000000e+03) (93, 5.12163213562928709699e-01) (94, 8.12825284857923491266e-01) (95, 7.81115027468100908692e-01) (96, 1.16865027028155421540e+00) (97, 5.68953122650309395247e-01) (98, 1.50000000000000000000e+03) (99, 1.50000000000000000000e+03) (100, 1.50000000000000000000e+03) (101, 1.50000000000000000000e+03) (102, 5.88665699820378307550e-01) (103, 1.00739288660608994341e+00) (104, 1.50000000000000000000e+03) (105, 1.50000000000000000000e+03) (106, 2.85863963294075809074e+01) (107, 6.73356028314569532434e-01) (108, 1.50000000000000000000e+03) (109, 1.50000000000000000000e+03) (110, 1.50000000000000000000e+03) (111, 1.50000000000000000000e+03) (112, 6.56374353221342521358e-01) (113, 1.50000000000000000000e+03) (114, 7.32425176704346085899e+01) (115, 8.03499188341906034339e-01) (116, 2.09569976745660625284e+02) (117, 6.84847583636027379406e-01) (118, 1.50000000000000000000e+03) (119, 1.50000000000000000000e+03) (120, 1.50000000000000000000e+03) (121, 1.50000000000000000000e+03) (122, 1.50000000000000000000e+03) (123, 1.50000000000000000000e+03) (124, 1.50000000000000000000e+03) (125, 1.50000000000000000000e+03) (126, 1.50000000000000000000e+03) (127, 7.22664256726042619761e-01) (128, 1.50000000000000000000e+03) (129, 1.50000000000000000000e+03) (130, 1.50000000000000000000e+03) (131, 2.80883246993405588654e+00) (132, 6.89975060120977534694e-01) (133, 1.50000000000000000000e+03) (134, 1.26647294657878162205e-01) (135, 1.13256065282297674335e-02) (136, 6.88987919189422148847e-01) (137, 8.26519951622671666946e-01) (138, 1.39195891618623468489e+00) (139, 1.50000000000000000000e+03) (140, 1.50000000000000000000e+03) (141, 1.26625850260571559680e+00) (142, 3.03267880621028496080e-01) (143, -3.47704788258549724045e-01) (144, -4.35436723342416176497e-01) (145, -3.92254350295541065474e-01) (146, -2.84118366947667955191e-01) (147, -3.76752457500501403143e-01) (148, 7.35678246160639481843e-01) (149, 1.50000000000000000000e+03) (150, 1.50000000000000000000e+03) (151, 1.50000000000000000000e+03) (152, 1.50000000000000000000e+03) (153, 1.50000000000000000000e+03) (154, 1.50000000000000000000e+03) (155, 1.50000000000000000000e+03) (156, 1.50000000000000000000e+03) (157, 1.50000000000000000000e+03) (158, 1.50000000000000000000e+03) (159, 1.50000000000000000000e+03) (160, 3.91816586024741009275e-01) (0, 1.50000000000000000000e+03) (1, 1.50000000000000000000e+03) (2, 1.50000000000000000000e+03) (3, 1.50000000000000000000e+03) (4, 1.50000000000000000000e+03) (5, 1.50000000000000000000e+03) (6, 1.50000000000000000000e+03) (7, 1.50000000000000000000e+03) (8, 1.50000000000000000000e+03) (9, 1.50000000000000000000e+03) (10, 1.50000000000000000000e+03) (11, 1.50000000000000000000e+03) (12, 1.50000000000000000000e+03) (13, 1.50000000000000000000e+03) (14, 1.50000000000000000000e+03) (15, 1.50000000000000000000e+03) (16, 1.50000000000000000000e+03) (17, 1.50000000000000000000e+03) (18, 1.50000000000000000000e+03) (19, 1.50000000000000000000e+03) (20, 1.50000000000000000000e+03) (21, 1.50000000000000000000e+03) (22, 3.17178411274166849321e-02) (23, -5.82723947376980883073e-02) (24, 2.44557347082753895329e-01) (25, 1.93523334653109807535e-01) (26, -7.71180956752592794423e-01) (27, 8.65088639028085415461e-02) (28, 9.56299245509835138535e-01) (29, 1.50000000000000000000e+03) (30, 1.50000000000000000000e+03) (31, -3.47073516396628534153e-01) (32, 2.97402689117956808840e-02) (33, -3.22861065669928726241e-01) (34, -2.44529187663362429506e-01) (35, -2.41022394811571533113e-01) (36, 1.13477882767108073647e-01) (37, 9.81667504390128647929e-02) (38, 1.54651438535424365882e-03) (39, 1.50000000000000000000e+03) (40, 1.50000000000000000000e+03) (41, 1.23599624377994751767e-01) (42, -3.15698493378203326465e-01) (43, -2.32715163123922291755e-01) (44, 8.54902806499142853269e-01) (45, 7.07425473986988823105e-02) (46, -6.50069409806046327738e-01) (47, 3.15071444428997610859e-03) (48, -1.12489833830949459426e-01) (49, 1.50000000000000000000e+03) (50, 1.50000000000000000000e+03) (51, 2.01719807093981295942e-01) (52, -1.14783744594892669899e-01) (53, -2.08871699688281564633e-01) (54, 9.08996492291305052680e-02) (55, 4.28010805756403045486e-02) (56, -9.89744599671506408711e-01) (57, 7.84557827400195195722e-02) (58, -2.59032631671903754156e-02) (59, 1.50000000000000000000e+03) (60, 1.50000000000000000000e+03) (61, -3.31107486571748155235e-01) (62, -5.77401555105753055974e-02) (63, 1.40675281106192623382e-01) (64, -5.87771629278964896637e-02) (65, 1.51694528996738298154e-01) (66, -1.13264863677703919720e+00) (67, -1.66304349536801565623e-01) (68, 8.77806426752116703005e-02) (69, 1.50000000000000000000e+03) (70, 1.50000000000000000000e+03) (71, -1.65120883924800815334e-01) (72, -2.05501569155715296811e-01) (73, -2.35706797698955229647e-02) (74, -1.37572586340737809674e-02) (75, -1.32652215981163057457e-01) (76, -4.67894368104748645254e-02) (77, -6.04434471802733214174e-03) (78, 1.26889360891932756470e-01) (79, 1.50000000000000000000e+03) (80, 1.50000000000000000000e+03) (81, -1.89482760570560876401e-01) (82, -2.53780473210493573433e-01) (83, 2.09573349156633836898e-01) (84, -4.25135674029407592545e-02) (85, -1.50449346382812654266e-01) (86, -5.18037759782263629305e-01) (87, -2.77319354740570622742e-01) (88, -4.14066393394492748836e-01) (89, 1.50000000000000000000e+03) (90, 1.50000000000000000000e+03) (91, 1.72452026435851085706e-01) (92, 2.00465937419332385083e-01) (93, -7.93688055736938569140e-02) (94, -1.73534401363796220163e-01) (95, 4.86058273918269223568e-02) (96, 1.17124363682575283185e-02) (97, 1.31077646890801646773e-01) (98, 6.56430902378348557491e-01) (99, 1.50000000000000000000e+03) (100, 1.50000000000000000000e+03) (101, -6.85651343911938382369e-01) (102, -1.93944330896782562990e-01) (103, -1.84868517336450988164e-01) (104, 1.37039465462665988049e-01) (105, 1.43819895133728697934e-01) (106, -3.15341141149123205256e-01) (107, 1.43313555043966464608e-02) (108, 4.48817270099048717946e-02) (109, 1.50000000000000000000e+03) (110, 1.50000000000000000000e+03) (111, 7.92705427656889782817e-01) (112, 6.96404553600219050624e-02) (113, 6.76664214271293362746e-02) (114, 6.25239272957251901452e-01) (115, 9.85678981752586724774e-01) (116, 6.15471065683384777056e-02) (117, -3.14615672936107371171e-01) (118, -3.22540487636597761334e-01) (119, 1.50000000000000000000e+03) (120, 1.50000000000000000000e+03) (121, 5.48145041161732307633e-02) (122, -1.63041573706581721659e+00) (123, -2.03290233982780343958e-01) (124, -3.13647920074220265541e-01) (125, -2.38524306763338994619e-01) (126, -3.05739026556037241100e-01) (127, -3.83425365087503577932e-01) (128, 7.51737231196003108380e-01) (129, 1.50000000000000000000e+03) (130, 1.50000000000000000000e+03) (131, 9.47536884017657760060e-02) (132, -8.06585215760036500221e-01) (133, -3.84759754443113999312e-01) (134, -5.02112029231321366218e-01) (135, -4.50088456901050204539e-01) (136, 6.48805585631095482063e-03) (137, 2.56329523400037548320e-02) (138, -1.10505646038658422725e-01) (139, 1.50000000000000000000e+03) (140, 1.50000000000000000000e+03) (141, 5.53911191269865099684e-01) (142, -2.29364100244765334313e-01) (143, -1.11425077477460554576e+00) (144, -1.01309110159065429713e+00) (145, -1.09432890200977972484e+00) (146, -9.62749301735470575103e-01) (147, -1.09149601433663007155e-01) (148, 1.33938838275630384134e-01) (149, 1.50000000000000000000e+03) (150, 1.50000000000000000000e+03) (151, 1.50000000000000000000e+03) (152, 1.50000000000000000000e+03) (153, 1.50000000000000000000e+03) (154, 1.50000000000000000000e+03) (155, 1.50000000000000000000e+03) (156, 1.50000000000000000000e+03) (157, 1.50000000000000000000e+03) (158, 1.50000000000000000000e+03) (159, 1.50000000000000000000e+03) (160, -3.04489240635779423449e-01) (0, 1.50000000000000000000e+03) (1, 1.50000000000000000000e+03) (2, 1.50000000000000000000e+03) (3, 1.50000000000000000000e+03) (4, 1.50000000000000000000e+03) (5, 1.50000000000000000000e+03) (6, 1.50000000000000000000e+03) (7, 1.50000000000000000000e+03) (8, 1.50000000000000000000e+03) (9, 1.50000000000000000000e+03) (10, 1.50000000000000000000e+03) (11, 1.50000000000000000000e+03) (12, 1.50000000000000000000e+03) (13, 1.50000000000000000000e+03) (14, 1.50000000000000000000e+03) (15, 1.50000000000000000000e+03) (16, 1.50000000000000000000e+03) (17, 1.50000000000000000000e+03) (18, 1.50000000000000000000e+03) (19, 1.50000000000000000000e+03) (20, 1.50000000000000000000e+03) (21, 1.50000000000000000000e+03) (22, 8.19054504336604871639e-01) (23, 7.65746397377738863277e-01) (24, 9.44988046127022807141e-01) (25, 7.33513470489640106997e-01) (26, -1.83150050921723150932e-01) (27, 2.57375379625438938103e-01) (28, 1.48650533166867004908e+00) (29, 1.50000000000000000000e+03) (30, 1.50000000000000000000e+03) (31, 1.50000000000000000000e+03) (32, 1.50000000000000000000e+03) (33, 1.50000000000000000000e+03) (34, 1.50000000000000000000e+03) (35, 1.50000000000000000000e+03) (36, 1.50000000000000000000e+03) (37, 7.60852447166493361941e-01) (38, 4.86343339865495216667e-01) (39, 1.50000000000000000000e+03) (40, 1.50000000000000000000e+03) (41, 1.50000000000000000000e+03) (42, 4.26103477119506302007e-01) (43, 5.07292330869234198154e-01) (44, 3.66626131109304698175e-01) (45, 3.10446206879726294137e-01) (46, 1.50000000000000000000e+03) (47, 1.10137749547852870080e+00) (48, 7.71407175535676836731e-01) (49, 1.50000000000000000000e+03) (50, 1.50000000000000000000e+03) (51, 1.50000000000000000000e+03) (52, 1.50000000000000000000e+03) (53, 5.98717156100567082788e-01) (54, 6.10932645223325576644e-01) (55, 1.50000000000000000000e+03) (56, 1.01624157716714318411e+01) (57, 1.50000000000000000000e+03) (58, 1.50000000000000000000e+03) (59, 1.50000000000000000000e+03) (60, 1.50000000000000000000e+03) (61, 1.50000000000000000000e+03) (62, 6.51743587184267836321e-01) (63, 4.42032863980980628149e-01) (64, 9.42996626720082442574e-01) (65, 9.25489505168053949724e-01) (66, 4.95588455671345795572e-01) (67, 7.96886864419828810924e-01) (68, 1.50000000000000000000e+03) (69, 1.50000000000000000000e+03) (70, 1.50000000000000000000e+03) (71, 1.50000000000000000000e+03) (72, 6.22603185862201313761e-01) (73, 6.78483367545884119565e-01) (74, 1.50000000000000000000e+03) (75, 1.50000000000000000000e+03) (76, 6.85868095713488612475e-01) (77, 1.04111505144045102256e+00) (78, 1.50000000000000000000e+03) (79, 1.50000000000000000000e+03) (80, 1.50000000000000000000e+03) (81, 1.50000000000000000000e+03) (82, 6.72324269406116337144e-01) (83, 8.87819425468259315615e-01) (84, 1.50000000000000000000e+03) (85, 1.50000000000000000000e+03) (86, 1.50000000000000000000e+03) (87, 1.50000000000000000000e+03) (88, 1.50000000000000000000e+03) (89, 1.50000000000000000000e+03) (90, 1.50000000000000000000e+03) (91, 1.50000000000000000000e+03) (92, 1.50000000000000000000e+03) (93, 4.60130739134586908001e-01) (94, 6.52339443524056261658e-01) (95, 7.55498571644917626955e-01) (96, 1.13721716108751391694e+00) (97, 6.76509279464409196692e-01) (98, 1.50000000000000000000e+03) (99, 1.50000000000000000000e+03) (100, 1.50000000000000000000e+03) (101, 1.50000000000000000000e+03) (102, 6.24829029898503307550e-01) (103, 9.73103347745768565424e-01) (104, 1.50000000000000000000e+03) (105, 1.50000000000000000000e+03) (106, 2.85963633734034381462e+01) (107, 6.64231272455194532434e-01) (108, 1.50000000000000000000e+03) (109, 1.50000000000000000000e+03) (110, 1.50000000000000000000e+03) (111, 1.50000000000000000000e+03) (112, 7.23409260860369496271e-01) (113, 1.50000000000000000000e+03) (114, 7.32243963236032868735e+01) (115, 6.53175693073084984164e-01) (116, 2.09505203356919111002e+02) (117, 7.84994078441825338111e-01) (118, 1.50000000000000000000e+03) (119, 1.50000000000000000000e+03) (120, 1.50000000000000000000e+03) (121, 1.50000000000000000000e+03) (122, 1.50000000000000000000e+03) (123, 1.50000000000000000000e+03) (124, 1.50000000000000000000e+03) (125, 1.50000000000000000000e+03) (126, 1.50000000000000000000e+03) (127, 7.92592235986725124341e-01) (128, 1.50000000000000000000e+03) (129, 1.50000000000000000000e+03) (130, 1.50000000000000000000e+03) (131, 2.81282417064292200592e+00) (132, 6.01172402038818387560e-01) (133, 1.50000000000000000000e+03) (134, 1.53911695974518730745e-01) (135, 4.33080284032269363648e-02) (136, 6.78453252710788268232e-01) (137, 9.21594411533064650222e-01) (138, 1.35712615549459170161e+00) (139, 1.50000000000000000000e+03) (140, 1.50000000000000000000e+03) (141, 1.11227290541247469946e+00) (142, 2.72603816630912487717e-01) (143, -2.97179890385161404875e-01) (144, -3.04626179447656797450e-01) (145, -3.05901808252816598266e-01) (146, -3.57476522734639201584e-01) (147, -3.79999532283349761297e-01) (148, 6.13955831071031576940e-01) (149, 1.50000000000000000000e+03) (150, 1.50000000000000000000e+03) (151, 1.50000000000000000000e+03) (152, 1.50000000000000000000e+03) (153, 1.50000000000000000000e+03) (154, 1.50000000000000000000e+03) (155, 1.50000000000000000000e+03) (156, 1.50000000000000000000e+03) (157, 1.50000000000000000000e+03) (158, 1.50000000000000000000e+03) (159, 1.50000000000000000000e+03) (160, 3.90609662335174967485e-01) (0, 1.50000000000000000000e+03) (1, 1.50000000000000000000e+03) (2, 1.50000000000000000000e+03) (3, 1.50000000000000000000e+03) (4, 1.50000000000000000000e+03) (5, 1.50000000000000000000e+03) (6, 1.50000000000000000000e+03) (7, 1.50000000000000000000e+03) (8, 1.50000000000000000000e+03) (9, 1.50000000000000000000e+03) (10, 1.50000000000000000000e+03) (11, 1.50000000000000000000e+03) (12, 1.50000000000000000000e+03) (13, 1.50000000000000000000e+03) (14, 1.50000000000000000000e+03) (15, 1.50000000000000000000e+03) (16, 1.50000000000000000000e+03) (17, 1.50000000000000000000e+03) (18, 1.50000000000000000000e+03) (19, 1.50000000000000000000e+03) (20, 1.50000000000000000000e+03) (21, 1.50000000000000000000e+03) (22, 5.04151352483547143812e-01) (23, 5.70514873403785482964e-01) (24, 3.71158481681390484130e-01) (25, 5.39189898461236105653e-01) (26, 1.70263253760706656514e+00) (27, 1.07561019114775158201e+00) (28, 2.96016716183559014386e-01) (29, 1.50000000000000000000e+03) (30, 1.50000000000000000000e+03) (31, 5.02445149349561193119e-01) (32, 3.60018099290961512970e-01) (33, 4.20954110468483355678e-01) (34, 2.99631864970010652893e-01) (35, -1.45357015715721105131e+00) (36, 4.65844231684388543346e-01) (37, 5.45681677295579703468e-01) (38, 7.28935778304699133479e-01) (39, 1.50000000000000000000e+03) (40, 1.50000000000000000000e+03) (41, -2.60162630865588662132e+00) (42, 6.29734899587440888347e-01) (43, 6.61513068886587229933e-01) (44, 2.87711134793661615916e-01) (45, 1.06245073648685406376e+00) (46, 6.02569613810594373327e-01) (47, 5.49655280433395843076e-01) (48, 5.49650505551762758039e-01) (49, 1.50000000000000000000e+03) (50, 1.50000000000000000000e+03) (51, -1.93450372275745641204e+00) (52, 7.36135729012757478174e-01) (53, 2.69855049187260775945e-01) (54, 4.07940828603190641655e-01) (55, -5.38330777790385628379e-01) (56, 4.90205579505097743809e-01) (57, 5.19031185658962113116e-01) (58, -1.28021275182147364902e+00) (59, 1.50000000000000000000e+03) (60, 1.50000000000000000000e+03) (61, 3.67881736807102399656e-01) (62, 5.86761343441147054101e-01) (63, -2.12291829166348422486e-01) (64, 2.28519933111706069484e-01) (65, 3.75222473082839458325e-01) (66, 4.56750626950412352834e-01) (67, 5.00879460625238581706e-01) (68, 4.54815557081349297608e-01) (69, 1.50000000000000000000e+03) (70, 1.50000000000000000000e+03) (71, 5.53699343971034485534e-01) (72, 4.19501652495784971286e-01) (73, 5.01599710014464239549e-01) (74, 4.98951212385125797422e-01) (75, 5.76818553008897727530e-01) (76, 4.04195131813929575681e-01) (77, 3.17107495549687701253e-01) (78, 3.07545971942611240380e-01) (79, 1.50000000000000000000e+03) (80, 1.50000000000000000000e+03) (81, 5.33415126877110346015e-01) (82, 7.27910548414921421134e-01) (83, 7.77834674894388400368e-01) (84, 4.20799861150675302834e-01) (85, -1.00038572415953419537e+00) (86, 1.99039909566796668905e+00) (87, 8.03779655838293471959e-01) (88, 8.24862503257761447983e-01) (89, 1.50000000000000000000e+03) (90, 1.50000000000000000000e+03) (91, 5.05652656545910184072e-01) (92, 1.68932175364854775257e-01) (93, 6.34766319974875203869e-01) (94, 3.16796117313908998092e-01) (95, 3.97184686716510637616e-01) (96, 5.72514676026467883574e-01) (97, 4.96570870580343493028e-01) (98, 4.28425040228900821937e-01) (99, 1.50000000000000000000e+03) (100, 1.50000000000000000000e+03) (101, 5.24116678035242533618e-01) (102, 4.85493509791401767206e-01) (103, 6.83527236479480659881e-01) (104, -4.67083186289672180891e+00) (105, 2.09408226120636170586e-01) (106, 4.62286308980019822190e-01) (107, 4.13231567559991130878e-01) (108, 5.41894137012174814672e-01) (109, 1.50000000000000000000e+03) (110, 1.50000000000000000000e+03) (111, -4.16106911763596354348e+00) (112, 5.68042137560764937021e-01) (113, 3.48182215987919763123e-01) (114, -1.22935360712024022156e+00) (115, 4.66741289835813255582e-01) (116, 4.76485268881010448627e-01) (117, 4.07185331074307987897e-01) (118, -2.41244974797935407551e+00) (119, 1.50000000000000000000e+03) (120, 1.50000000000000000000e+03) (121, 4.24639792848318098351e-01) (122, 4.39148717895138096523e-01) (123, 5.13520053569943457639e-01) (124, 4.39354801499880376348e-01) (125, 1.89556403631319259073e-01) (126, 7.52690318480587983174e-01) (127, 4.10672944279910800969e-01) (128, -6.46135266126104057527e-01) (129, 1.50000000000000000000e+03) (130, 1.50000000000000000000e+03) (131, -1.37058567740058867557e+00) (132, 4.34206954009725032417e-01) (133, 6.20837718665240956284e-01) (134, 8.80112036645696260706e-01) (135, 6.60686113940596064786e-01) (136, 5.14690017283902734313e-01) (137, 3.85840429903023807157e-01) (138, -1.28919634984699471580e+00) (139, 1.50000000000000000000e+03) (140, 1.50000000000000000000e+03) (141, 1.17847249683845056722e+00) (142, 1.36209617349795930608e+00) (143, 2.85739983215989745702e+00) (144, 2.98669670492472327794e+00) (145, 2.95129021972479499425e+00) (146, 2.96635979384245551671e+00) (147, 2.77419978832667224466e+00) (148, 2.00509388283764922178e+00) (149, 1.50000000000000000000e+03) (150, 1.50000000000000000000e+03) (151, 1.50000000000000000000e+03) (152, 1.50000000000000000000e+03) (153, 1.50000000000000000000e+03) (154, 1.50000000000000000000e+03) (155, 1.50000000000000000000e+03) (156, 1.50000000000000000000e+03) (157, 1.50000000000000000000e+03) (158, 1.50000000000000000000e+03) (159, 1.50000000000000000000e+03) (160, 7.03426302829597616117e-01) (0, 1.50000000000000000000e+03) (1, 1.50000000000000000000e+03) (2, 1.50000000000000000000e+03) (3, 1.50000000000000000000e+03) (4, 1.50000000000000000000e+03) (5, 1.50000000000000000000e+03) (6, 1.50000000000000000000e+03) (7, 1.50000000000000000000e+03) (8, 1.50000000000000000000e+03) (9, 1.50000000000000000000e+03) (10, 1.50000000000000000000e+03) (11, 1.50000000000000000000e+03) (12, 1.50000000000000000000e+03) (13, 1.50000000000000000000e+03) (14, 1.50000000000000000000e+03) (15, 1.50000000000000000000e+03) (16, 1.50000000000000000000e+03) (17, 1.50000000000000000000e+03) (18, 1.50000000000000000000e+03) (19, 1.50000000000000000000e+03) (20, 1.50000000000000000000e+03) (21, 1.50000000000000000000e+03) (22, 6.86705870033988086121e-01) (23, 7.76970764102229982662e-01) (24, 8.09089868608910856018e-01) (25, 7.09734182555336934328e-01) (26, -1.54829738421727508557e-01) (27, 3.61788218442091968896e-01) (28, 1.42405416277390273194e+00) (29, 1.50000000000000000000e+03) (30, 1.50000000000000000000e+03) (31, 1.50000000000000000000e+03) (32, 1.50000000000000000000e+03) (33, 1.50000000000000000000e+03) (34, 1.50000000000000000000e+03) (35, 1.50000000000000000000e+03) (36, 1.50000000000000000000e+03) (37, 6.19143306042411190049e-01) (38, 6.11117516492892809410e-01) (39, 1.50000000000000000000e+03) (40, 1.50000000000000000000e+03) (41, 1.50000000000000000000e+03) (42, 4.12150841890871977302e-01) (43, 4.78827290092459334492e-01) (44, 2.80345622875077749026e-01) (45, 3.62009867214895697529e-01) (46, 1.50000000000000000000e+03) (47, 1.21438264406845841670e+00) (48, 6.93898632848976237852e-01) (49, 1.50000000000000000000e+03) (50, 1.50000000000000000000e+03) (51, 1.50000000000000000000e+03) (52, 1.50000000000000000000e+03) (53, 5.42360213897089660229e-01) (54, 1.50000000000000000000e+03) (55, 4.16539752351161567390e+01) (56, 5.50232827916197098084e-01) (57, 1.50000000000000000000e+03) (58, 1.50000000000000000000e+03) (59, 1.50000000000000000000e+03) (60, 1.50000000000000000000e+03) (61, 1.50000000000000000000e+03) (62, 6.39744076955633844683e-01) (63, 6.08603907412631817131e-01) (64, 9.11087451502930800729e-01) (65, 8.39057621892550176135e-01) (66, 6.37489095652368886746e-01) (67, 7.14971582706818931108e-01) (68, 1.50000000000000000000e+03) (69, 1.50000000000000000000e+03) (70, 1.50000000000000000000e+03) (71, 1.50000000000000000000e+03) (72, 6.43532142430442433145e-01) (73, 6.99278042300026880795e-01) (74, 1.50000000000000000000e+03) (75, 1.50000000000000000000e+03) (76, 5.91757986801497493090e-01) (77, 1.01732964657947766440e+00) (78, 1.50000000000000000000e+03) (79, 1.50000000000000000000e+03) (80, 1.50000000000000000000e+03) (81, 1.50000000000000000000e+03) (82, 7.56552792481700042693e-01) (83, 9.15068957280344208449e-01) (84, 1.50000000000000000000e+03) (85, 1.50000000000000000000e+03) (86, 1.50000000000000000000e+03) (87, 1.50000000000000000000e+03) (88, 1.50000000000000000000e+03) (89, 1.50000000000000000000e+03) (90, 1.50000000000000000000e+03) (91, 1.50000000000000000000e+03) (92, 1.50000000000000000000e+03) (93, 5.71208617758714343182e-01) (94, 8.00129972357923602289e-01) (95, 8.07482214968100797670e-01) (96, 1.27978918778729555683e+00) (97, 5.99586669062300514632e-01) (98, 1.50000000000000000000e+03) (99, 1.50000000000000000000e+03) (100, 1.50000000000000000000e+03) (101, 1.50000000000000000000e+03) (102, 6.00323410938838009088e-01) (103, 1.03131866785608994341e+00) (104, 1.50000000000000000000e+03) (105, 1.50000000000000000000e+03) (106, 2.86187510679708800865e+01) (107, 6.48581856902578079982e-01) (108, 1.50000000000000000000e+03) (109, 1.50000000000000000000e+03) (110, 1.50000000000000000000e+03) (111, 1.50000000000000000000e+03) (112, 7.53932948461457863587e-01) (113, 1.50000000000000000000e+03) (114, 1.13850622028941805830e+00) (115, 3.23309111358327183616e-01) (116, 2.09690145982382119882e+02) (117, 7.50777763887610971594e-01) (118, 1.50000000000000000000e+03) (119, 1.50000000000000000000e+03) (120, 1.50000000000000000000e+03) (121, 1.50000000000000000000e+03) (122, 1.50000000000000000000e+03) (123, 7.40644358769779955765e+01) (124, 1.05798673793073461091e+00) (125, 1.50000000000000000000e+03) (126, 1.50000000000000000000e+03) (127, 7.39125439111725124341e-01) (128, 1.50000000000000000000e+03) (129, 1.50000000000000000000e+03) (130, 1.50000000000000000000e+03) (131, 2.89098579024655588654e+00) (132, 6.10055617586529486118e-01) (133, 1.50000000000000000000e+03) (134, -1.40721603157629410186e-01) (135, -1.80792709940522544620e+00) (136, 7.49296763040511626386e-01) (137, 8.75173950887310203584e-01) (138, 1.44398875793411596291e+00) (139, 1.50000000000000000000e+03) (140, 1.50000000000000000000e+03) (141, 1.18593013495520671619e+00) (142, 3.82705136480403829147e-01) (143, -4.44744584670540843430e-01) (144, -3.38091751149174613023e-01) (145, -3.93212602993724125167e-01) (146, -2.83788768163221349905e-01) (147, -3.82263935090108641912e-01) (148, 6.02066179653299338170e-01) (149, 1.50000000000000000000e+03) (150, 1.50000000000000000000e+03) (151, 1.50000000000000000000e+03) (152, 1.50000000000000000000e+03) (153, 1.50000000000000000000e+03) (154, 1.50000000000000000000e+03) (155, 1.50000000000000000000e+03) (156, 1.50000000000000000000e+03) (157, 1.50000000000000000000e+03) (158, 1.50000000000000000000e+03) (159, 1.50000000000000000000e+03) (160, 3.34593035029352448007e-01) (0, 1.50000000000000000000e+03) (1, 1.50000000000000000000e+03) (2, 1.50000000000000000000e+03) (3, 1.50000000000000000000e+03) (4, 1.50000000000000000000e+03) (5, 1.50000000000000000000e+03) (6, 1.50000000000000000000e+03) (7, 1.50000000000000000000e+03) (8, 1.50000000000000000000e+03) (9, 1.50000000000000000000e+03) (10, 1.50000000000000000000e+03) (11, 1.50000000000000000000e+03) (12, 1.50000000000000000000e+03) (13, 1.50000000000000000000e+03) (14, 1.50000000000000000000e+03) (15, 1.50000000000000000000e+03) (16, 1.50000000000000000000e+03) (17, 1.50000000000000000000e+03) (18, 1.50000000000000000000e+03) (19, 1.50000000000000000000e+03) (20, 1.50000000000000000000e+03) (21, 1.50000000000000000000e+03) (22, -1.01303677098647237909e-01) (23, -4.68419967459519012709e-02) (24, 2.22712993079575372057e-01) (25, 1.29326561779704307664e-01) (26, -7.92323536367709135853e-01) (27, -6.64497504848660103249e-02) (28, 9.29468192312451035875e-01) (29, 1.50000000000000000000e+03) (30, 1.50000000000000000000e+03) (31, -1.32657957317963204336e-01) (32, -6.93382526332422588489e-01) (33, -2.63369200671839609473e-01) (34, -2.40009113567381388021e-01) (35, -2.24052018111270595524e-01) (36, 1.17598872847024457644e-01) (37, -6.27668838034248111057e-01) (38, -2.88659864241469610313e-01) (39, 1.50000000000000000000e+03) (40, 1.50000000000000000000e+03) (41, 1.75756925926490947809e-01) (42, -3.00600088424261280284e-01) (43, -2.94816237550998450079e-01) (44, 4.85694896397518893760e-01) (45, -1.30002359165716313560e-01) (46, -7.39704538182854642869e-01) (47, -2.53538927032562089181e-01) (48, 2.06415074705797896293e-01) (49, 1.50000000000000000000e+03) (50, 1.50000000000000000000e+03) (51, 4.17150229911201042565e-01) (52, -6.41109567019765153040e-02) (53, -3.85414350180576181781e-01) (54, -2.62639339682081453253e-02) (55, -2.22381909449570119852e-01) (56, 4.58980264005134641625e-02) (57, -2.03724844520444731133e-01) (58, -1.65060000299882936314e-01) (59, 1.50000000000000000000e+03) (60, 1.50000000000000000000e+03) (61, -5.67064136046350475429e-02) (62, 1.05992807749945253115e-01) (63, -1.77214716100480451644e-01) (64, 1.82322410724307548691e-01) (65, 1.29070308280486600871e-01) (66, -3.61564683474055015289e-01) (67, -2.33261877252637001012e-01) (68, -1.12727427004592952592e-02) (69, 1.50000000000000000000e+03) (70, 1.50000000000000000000e+03) (71, -3.20236720307729080814e-02) (72, -2.36009255989281935273e-01) (73, 1.30821781204631337747e-01) (74, -1.47230155487853925367e-01) (75, -1.54758666521987192644e-01) (76, 1.37887999796481502957e-01) (77, -9.02044532403674798049e-02) (78, -2.01471766856381656607e-01) (79, 1.50000000000000000000e+03) (80, 1.50000000000000000000e+03) (81, -3.03601232805619569710e-01) (82, 3.90952626962910790298e-02) (83, 6.50902670733989885399e-01) (84, -3.81649174678596880828e-01) (85, -3.20709642571934683275e-01) (86, -4.79421588318787894600e-01) (87, -1.70088653057802297042e-01) (88, -1.02642219349111130100e+00) (89, 1.50000000000000000000e+03) (90, 1.50000000000000000000e+03) (91, 1.21682787771309003366e-01) (92, 9.90721206968113998759e-02) (93, 1.60897582683779294399e-01) (94, -1.57957649024457830178e-01) (95, 1.21888510840585828632e-01) (96, -2.34059851138794967895e-02) (97, 1.28869558365177938608e-01) (98, 6.44389157661623079854e-01) (99, 1.50000000000000000000e+03) (100, 1.50000000000000000000e+03) (101, -8.12470041708257817437e-02) (102, 3.11677276697922382709e-02) (103, -2.16778041234008039817e-01) (104, 1.60866416678286355824e-01) (105, 1.61521908475723285914e-01) (106, -4.12155172739197384058e-01) (107, 1.16449894236566514616e-01) (108, -4.45614054291524272489e-02) (109, 1.50000000000000000000e+03) (110, 1.50000000000000000000e+03) (111, 1.58266228137972808643e-01) (112, 4.70346943790183949496e-02) (113, 1.44690869341880440357e-01) (114, 4.30404947311016250477e-01) (115, 4.54335383292791689103e-02) (116, 4.22417718378750237096e-02) (117, -1.25954021211064470798e-01) (118, -6.63328932351524014344e-02) (119, 1.50000000000000000000e+03) (120, 1.50000000000000000000e+03) (121, -3.72901351224226962344e-01) (122, -1.31109348756705212935e-01) (123, -2.04785520953586985815e-01) (124, -3.41452794269236858948e-01) (125, -3.60895838014263725668e-01) (126, -2.74901651848373340670e-01) (127, -8.87661654421939283477e-02) (128, 5.32805494254893541317e-01) (129, 1.50000000000000000000e+03) (130, 1.50000000000000000000e+03) (131, -2.48552084480875706829e-02) (132, -3.79988787903645430788e-01) (133, -1.50819647475362450528e+00) (134, -3.37489006587892936828e-01) (135, -4.28313069691313108578e-01) (136, 3.31562623986017379618e-01) (137, 9.15984551445060829478e-02) (138, -4.34080675552772771164e-02) (139, 1.50000000000000000000e+03) (140, 1.50000000000000000000e+03) (141, 5.97728335157146073442e-01) (142, 1.97982659536421551350e-01) (143, 1.52101958041741119887e-01) (144, 2.75478424375643349276e-01) (145, 2.42366852110014630028e-01) (146, 2.02388824766246200326e-01) (147, 2.58346574618742719220e-01) (148, 2.80611557089795737863e-02) (149, 1.50000000000000000000e+03) (150, 1.50000000000000000000e+03) (151, 1.50000000000000000000e+03) (152, 1.50000000000000000000e+03) (153, 1.50000000000000000000e+03) (154, 1.50000000000000000000e+03) (155, 1.50000000000000000000e+03) (156, 1.50000000000000000000e+03) (157, 1.50000000000000000000e+03) (158, 1.50000000000000000000e+03) (159, 1.50000000000000000000e+03) (160, -3.51398073490932161267e-01) (0, 1.50000000000000000000e+03) (1, 1.50000000000000000000e+03) (2, 1.50000000000000000000e+03) (3, 1.50000000000000000000e+03) (4, 1.50000000000000000000e+03) (5, 1.50000000000000000000e+03) (6, 1.50000000000000000000e+03) (7, 1.50000000000000000000e+03) (8, 1.50000000000000000000e+03) (9, 1.50000000000000000000e+03) (10, 1.50000000000000000000e+03) (11, 1.50000000000000000000e+03) (12, 1.50000000000000000000e+03) (13, 1.50000000000000000000e+03) (14, 1.50000000000000000000e+03) (15, 1.50000000000000000000e+03) (16, 1.50000000000000000000e+03) (17, 1.50000000000000000000e+03) (18, 1.50000000000000000000e+03) (19, 1.50000000000000000000e+03) (20, 1.50000000000000000000e+03) (21, 1.50000000000000000000e+03) (22, 5.87732817577237165452e-01) (23, 5.85669826315754926682e-01) (24, 3.26120638394393813631e-01) (25, 6.03881054610148071404e-01) (26, 1.83987008270990126668e+00) (27, 1.00304313970999570138e+00) (28, 3.35213490547076720105e-01) (29, 1.50000000000000000000e+03) (30, 1.50000000000000000000e+03) (31, 2.84442425258355335860e-01) (32, 5.16543857569582431921e-01) (33, 4.49631419775825894036e-03) (34, 4.68209779478259646712e-01) (35, 3.16608947540033269785e-01) (36, 3.89605248784983759780e-01) (37, 4.44786027823445728746e-01) (38, 8.26500577270696590304e-01) (39, 1.50000000000000000000e+03) (40, 1.50000000000000000000e+03) (41, -2.96397279168334604194e+00) (42, 1.01407206247845738112e+00) (43, 6.40736707659551707472e-01) (44, 3.64366283666530010876e-01) (45, 1.09329167260851334298e+00) (46, -6.78021195451249281128e-01) (47, 4.53975071166723587179e-01) (48, 5.68411571443998231423e-01) (49, 1.50000000000000000000e+03) (50, 1.50000000000000000000e+03) (51, -1.64238467457223569212e+00) (52, 6.48532352519868404706e-01) (53, 2.69987073027882107379e-01) (54, 5.52991336586539539155e-01) (55, 6.72215456900173924382e-01) (56, -1.64880431389586683266e-02) (57, 6.01108164377433085157e-01) (58, -2.07565032768380453021e+00) (59, 1.50000000000000000000e+03) (60, 1.50000000000000000000e+03) (61, 4.12583886734717186773e-01) (62, 5.06652708313602651025e-01) (63, 6.62108371996446454233e-01) (64, 1.99631990678335424771e-01) (65, 4.49174042775054627175e-01) (66, 6.09949931538102840811e-01) (67, 4.36877960538856913164e-01) (68, 7.80224894344857977657e-01) (69, 1.50000000000000000000e+03) (70, 1.50000000000000000000e+03) (71, 5.35840650292161435608e-01) (72, 3.74282207284708678952e-01) (73, 5.23944686678053717088e-01) (74, 5.76030329656574413555e-01) (75, 5.32235030777688411519e-01) (76, 5.40340146129626219818e-01) (77, 3.73085947236899806434e-01) (78, 4.20063369966693078705e-01) (79, 1.50000000000000000000e+03) (80, 1.50000000000000000000e+03) (81, 3.38555871119730844576e-01) (82, 4.19252903082526773293e-01) (83, 6.23175919428987090676e-01) (84, 3.10396326424131063781e-01) (85, -6.83649362013110772907e-01) (86, 5.34451615201205210148e-01) (87, 7.48658807719035035433e-01) (88, 8.55651953695283351564e-01) (89, 1.50000000000000000000e+03) (90, 1.50000000000000000000e+03) (91, 5.18305247416767422841e-01) (92, 2.35906055298237188333e-01) (93, 7.03552948519205356703e-01) (94, 1.10712130014698972857e+00) (95, 4.55114866523952332766e-01) (96, 5.54462057586156520372e-01) (97, 4.77125071289245583639e-01) (98, 3.41278628273225137502e-01) (99, 1.50000000000000000000e+03) (100, 1.50000000000000000000e+03) (101, 4.80075416880655858609e-01) (102, 5.15577535151115817769e-01) (103, 6.33417990818876952552e-01) (104, -4.96140140170001942010e+00) (105, 1.37946674536662899913e-01) (106, 5.54333393622884140761e-01) (107, 5.25185087349555601577e-01) (108, 3.67343439594923770741e-01) (109, 1.50000000000000000000e+03) (110, 1.50000000000000000000e+03) (111, -4.01517677694607311167e+00) (112, 3.93254234486360709777e-01) (113, 2.99004962495913628739e-01) (114, -1.26911656479044543389e+00) (115, 5.59770556437555910634e-01) (116, 4.34617794870203522084e-01) (117, 4.12599153904031346052e-01) (118, -2.31605106416556560944e+00) (119, 1.50000000000000000000e+03) (120, 1.50000000000000000000e+03) (121, 5.54272846656140294463e-01) (122, 3.99178298900911610048e-01) (123, 3.74595246839288464891e-01) (124, 3.50493972359276872997e-01) (125, 4.73342229001752212714e-01) (126, 8.15326813663994176551e-01) (127, 4.24326505752797566995e-01) (128, -5.69887082005162581844e-01) (129, 1.50000000000000000000e+03) (130, 1.50000000000000000000e+03) (131, -1.48865586889394219128e+00) (132, 5.11170992292011683311e-01) (133, 7.49978485914639891874e-01) (134, 8.97229292929452526550e-01) (135, 8.62651674554578251630e-01) (136, 5.64947124026201286107e-01) (137, 2.66921324928689640554e-01) (138, -1.43697879446123311098e+00) (139, 1.50000000000000000000e+03) (140, 1.50000000000000000000e+03) (141, 1.21521566090095189949e+00) (142, 1.26119895819120131364e+00) (143, 2.88614128500284827794e+00) (144, 2.96035394042791999425e+00) (145, 2.83671501994194663610e+00) (146, 2.83277825236382163610e+00) (147, 2.68116389667456544998e+00) (148, 1.84258167729650890188e+00) (149, 1.50000000000000000000e+03) (150, 1.50000000000000000000e+03) (151, 1.50000000000000000000e+03) (152, 1.50000000000000000000e+03) (153, 1.50000000000000000000e+03) (154, 1.50000000000000000000e+03) (155, 1.50000000000000000000e+03) (156, 1.50000000000000000000e+03) (157, 1.50000000000000000000e+03) (158, 1.50000000000000000000e+03) (159, 1.50000000000000000000e+03) (160, 7.82826939085336848123e-01) (0, 1.50000000000000000000e+03) (1, 1.50000000000000000000e+03) (2, 1.50000000000000000000e+03) (3, 1.50000000000000000000e+03) (4, 1.50000000000000000000e+03) (5, 1.50000000000000000000e+03) (6, 1.50000000000000000000e+03) (7, 1.50000000000000000000e+03) (8, 1.50000000000000000000e+03) (9, 1.50000000000000000000e+03) (10, 1.50000000000000000000e+03) (11, 1.50000000000000000000e+03) (12, 1.50000000000000000000e+03) (13, 1.50000000000000000000e+03) (14, 1.50000000000000000000e+03) (15, 1.50000000000000000000e+03) (16, 1.50000000000000000000e+03) (17, 1.50000000000000000000e+03) (18, 1.50000000000000000000e+03) (19, 1.50000000000000000000e+03) (20, 1.50000000000000000000e+03) (21, 1.50000000000000000000e+03) (22, 7.57067201139221102046e-01) (23, 7.92083074750194460201e-01) (24, 8.24342555645901753358e-01) (25, 7.64732952911515218020e-01) (26, -1.69624669237422059931e-01) (27, 2.98287240389469632262e-01) (28, 1.41018086877804549317e+00) (29, 1.50000000000000000000e+03) (30, 1.50000000000000000000e+03) (31, 1.50000000000000000000e+03) (32, 1.50000000000000000000e+03) (33, 1.50000000000000000000e+03) (34, 1.50000000000000000000e+03) (35, 1.50000000000000000000e+03) (36, 1.50000000000000000000e+03) (37, 7.37661371703604129557e-01) (38, 5.51101644372035570640e-01) (39, 1.50000000000000000000e+03) (40, 1.50000000000000000000e+03) (41, 1.50000000000000000000e+03) (42, 5.42631794451783444622e-01) (43, 6.18438407539038559335e-01) (44, 3.45046626604792239235e-01) (45, 3.24888288163877936299e-01) (46, 1.50000000000000000000e+03) (47, 1.11034211821482431404e+00) (48, 7.77480173582541955746e-01) (49, 1.50000000000000000000e+03) (50, 1.50000000000000000000e+03) (51, 1.50000000000000000000e+03) (52, 1.50000000000000000000e+03) (53, 6.86171828268764882885e-01) (54, 1.03284226764943265486e+00) (55, 1.50000000000000000000e+03) (56, 1.00692225504076713349e+01) (57, 1.50000000000000000000e+03) (58, 1.50000000000000000000e+03) (59, 1.50000000000000000000e+03) (60, 1.50000000000000000000e+03) (61, 1.50000000000000000000e+03) (62, 7.42038998830639395798e-01) (63, 6.22446683830364055900e-01) (64, 8.99667775258671920113e-01) (65, 9.06123062010858015825e-01) (66, 4.68433916890945267752e-01) (67, 6.34026754017720239887e-01) (68, 1.50000000000000000000e+03) (69, 1.50000000000000000000e+03) (70, 1.50000000000000000000e+03) (71, 1.50000000000000000000e+03) (72, 6.04463540404933441508e-01) (73, 6.95060514493268000180e-01) (74, 1.50000000000000000000e+03) (75, 1.50000000000000000000e+03) (76, 6.35233324128024134936e-01) (77, 1.06300224953100452829e+00) (78, 1.50000000000000000000e+03) (79, 1.50000000000000000000e+03) (80, 1.50000000000000000000e+03) (81, 1.50000000000000000000e+03) (82, 6.14359184495723353869e-01) (83, 8.49835292123125807251e-01) (84, 1.50000000000000000000e+03) (85, 1.50000000000000000000e+03) (86, 1.50000000000000000000e+03) (87, 1.50000000000000000000e+03) (88, 1.50000000000000000000e+03) (89, 1.50000000000000000000e+03) (90, 1.50000000000000000000e+03) (91, 1.50000000000000000000e+03) (92, 1.50000000000000000000e+03) (93, 4.54985476207779515612e-01) (94, 8.36995206732923602289e-01) (95, 8.14055705766574155824e-01) (96, 1.26332189965081309602e+00) (97, 6.74812499140426846900e-01) (98, 1.50000000000000000000e+03) (99, 1.50000000000000000000e+03) (100, 1.50000000000000000000e+03) (101, 1.50000000000000000000e+03) (102, 6.99529959122996980447e-01) (103, 9.80311590758196849116e-01) (104, 1.50000000000000000000e+03) (105, 1.50000000000000000000e+03) (106, 2.86729930120753131462e+01) (107, 7.56687330122928325515e-01) (108, 1.50000000000000000000e+03) (109, 1.50000000000000000000e+03) (110, 1.50000000000000000000e+03) (111, 1.50000000000000000000e+03) (112, 7.63216401687547119082e-01) (113, 1.50000000000000000000e+03) (114, 5.02845237019744373264e-01) (115, 4.34655934733245041812e-01) (116, 2.09587886675975056505e+02) (117, 7.99483818575110638527e-01) (118, 1.50000000000000000000e+03) (119, 1.50000000000000000000e+03) (120, 1.50000000000000000000e+03) (121, 1.50000000000000000000e+03) (122, 1.50000000000000000000e+03) (123, 1.50000000000000000000e+03) (124, 1.50000000000000000000e+03) (125, 1.50000000000000000000e+03) (126, 1.50000000000000000000e+03) (127, 8.05702590529457363111e-01) (128, 1.50000000000000000000e+03) (129, 1.50000000000000000000e+03) (130, 1.50000000000000000000e+03) (131, 1.49888235361035260240e+00) (132, 7.46474521293106541009e-01) (133, 1.50000000000000000000e+03) (134, 3.90575853395404709589e-02) (135, -8.16469436410809823457e-01) (136, 6.96554127692825653106e-01) (137, 1.07034072603179541971e+00) (138, 1.44638265784192787677e+00) (139, 1.50000000000000000000e+03) (140, 1.50000000000000000000e+03) (141, 1.08593623549059969946e+00) (142, 3.13869688006711555772e-01) (143, -4.31274128666398415266e-01) (144, -4.00848103275773304244e-01) (145, -4.33501911869523415266e-01) (146, -2.90404988041415013100e-01) (147, -4.40357199789090880682e-01) (148, 6.91519303163183218786e-01) (149, 1.50000000000000000000e+03) (150, 1.50000000000000000000e+03) (151, 1.50000000000000000000e+03) (152, 1.50000000000000000000e+03) (153, 1.50000000000000000000e+03) (154, 1.50000000000000000000e+03) (155, 1.50000000000000000000e+03) (156, 1.50000000000000000000e+03) (157, 1.50000000000000000000e+03) (158, 1.50000000000000000000e+03) (159, 1.50000000000000000000e+03) (160, 3.85461326023795958218e-01) (0, 1.50000000000000000000e+03) (1, 1.50000000000000000000e+03) (2, 1.50000000000000000000e+03) (3, 1.50000000000000000000e+03) (4, 1.50000000000000000000e+03) (5, 1.50000000000000000000e+03) (6, 1.50000000000000000000e+03) (7, 1.50000000000000000000e+03) (8, 1.50000000000000000000e+03) (9, 1.50000000000000000000e+03) (10, 1.50000000000000000000e+03) (11, 1.50000000000000000000e+03) (12, 1.50000000000000000000e+03) (13, 1.50000000000000000000e+03) (14, 1.50000000000000000000e+03) (15, 1.50000000000000000000e+03) (16, 1.50000000000000000000e+03) (17, 1.50000000000000000000e+03) (18, 1.50000000000000000000e+03) (19, 1.50000000000000000000e+03) (20, 1.50000000000000000000e+03) (21, 1.50000000000000000000e+03) (22, 2.12568618411571541582e-01) (23, 8.56215879864930112797e-02) (24, 3.33507341940756152354e-01) (25, 1.47319721371856005021e-01) (26, -7.27620161266619436269e-01) (27, 1.41599670164640395464e-01) (28, 9.87982601079678390832e-01) (29, 1.50000000000000000000e+03) (30, 1.50000000000000000000e+03) (31, -3.27003023149363858391e-01) (32, -2.56491737636604544281e-01) (33, 1.65013460491450991707e-01) (34, 9.30893976668059758284e-02) (35, -5.52401275570991515118e-02) (36, 8.09925869873925119435e-01) (37, 1.31788017041255894890e-01) (38, -2.25707466055075800515e-01) (39, 1.50000000000000000000e+03) (40, 1.50000000000000000000e+03) (41, 2.14583782662245675654e-01) (42, -3.45536193085040577166e-01) (43, -4.18788021329272522331e-02) (44, -3.82798400527863749709e-02) (45, -7.21720023683437017503e-01) (46, -3.75009840328753440986e+00) (47, -1.20629516998856253784e-01) (48, -8.51768408254316017336e-02) (49, 1.50000000000000000000e+03) (50, 1.50000000000000000000e+03) (51, 1.42729103289490094619e-01) (52, -4.36068662177940685742e-02) (53, 1.75372712231988070464e+00) (54, 5.64986648867926433137e-02) (55, 1.11021045659090607238e-02) (56, -6.72267193914877325689e-01) (57, -8.91023349144492854412e-02) (58, -3.72075388248712668471e-01) (59, 1.50000000000000000000e+03) (60, 1.50000000000000000000e+03) (61, 4.77751437337063569050e-03) (62, 1.86648032208554595646e-02) (63, -5.01037171423280525140e-01) (64, -3.62856696227660480147e-01) (65, -1.30326807278753176167e-01) (66, -1.39222485869962501331e-02) (67, 9.28227068830085183526e-02) (68, 5.84626299569873664197e-02) (69, 1.50000000000000000000e+03) (70, 1.50000000000000000000e+03) (71, 6.09973147857027601926e-03) (72, 1.35609303250057711132e-01) (73, -3.58423668111768733979e-01) (74, -7.44838789073640379634e-03) (75, -1.30014680582711733559e-01) (76, -4.26170219469672151291e-01) (77, -8.85466381414370604097e-03) (78, -2.34469284710200343014e-01) (79, 1.50000000000000000000e+03) (80, 1.50000000000000000000e+03) (81, -1.96303930173184176811e-01) (82, -5.06646825750069196292e-02) (83, 