FANN_FLO_2.1
num_layers=3
learning_rate=0.700000
connection_rate=1.000000
network_type=0
learning_momentum=0.000000
training_algorithm=2
train_error_function=1
train_stop_function=0
cascade_output_change_fraction=0.010000
quickprop_decay=-0.000100
quickprop_mu=1.750000
rprop_increase_factor=1.200000
rprop_decrease_factor=0.500000
rprop_delta_min=0.000000
rprop_delta_max=50.000000
rprop_delta_zero=0.100000
cascade_output_stagnation_epochs=12
cascade_candidate_change_fraction=0.010000
cascade_candidate_stagnation_epochs=12
cascade_max_out_epochs=150
cascade_min_out_epochs=50
cascade_max_cand_epochs=150
cascade_min_cand_epochs=50
cascade_num_candidate_groups=2
bit_fail_limit=3.49999999999999977796e-01
cascade_candidate_limit=1.00000000000000000000e+03
cascade_weight_multiplier=4.00000000000000022204e-01
cascade_activation_functions_count=10
cascade_activation_functions=3 5 7 8 10 11 14 15 16 17 
cascade_activation_steepnesses_count=4
cascade_activation_steepnesses=2.50000000000000000000e-01 5.00000000000000000000e-01 7.50000000000000000000e-01 1.00000000000000000000e+00 
layer_sizes=161 108 2 
scale_included=0
neurons (num_inputs, activation_function, activation_steepness)=(0, 0, 0.00000000000000000000e+00) (0, 0, 0.00000000000000000000e+00) (0, 0, 0.00000000000000000000e+00) (0, 0, 0.00000000000000000000e+00) (0, 0, 0.00000000000000000000e+00) (0, 0, 0.00000000000000000000e+00) (0, 0, 0.00000000000000000000e+00) (0, 0, 0.00000000000000000000e+00) (0, 0, 0.00000000000000000000e+00) (0, 0, 0.00000000000000000000e+00) (0, 0, 0.00000000000000000000e+00) (0, 0, 0.00000000000000000000e+00) (0, 0, 0.00000000000000000000e+00) (0, 0, 0.00000000000000000000e+00) (0, 0, 0.00000000000000000000e+00) (0, 0, 0.00000000000000000000e+00) (0, 0, 0.00000000000000000000e+00) (0, 0, 0.00000000000000000000e+00) (0, 0, 0.00000000000000000000e+00) (0, 0, 0.00000000000000000000e+00) (0, 0, 0.00000000000000000000e+00) (0, 0, 0.00000000000000000000e+00) (0, 0, 0.00000000000000000000e+00) (0, 0, 0.00000000000000000000e+00) (0, 0, 0.00000000000000000000e+00) (0, 0, 0.00000000000000000000e+00) (0, 0, 0.00000000000000000000e+00) (0, 0, 0.00000000000000000000e+00) (0, 0, 0.00000000000000000000e+00) (0, 0, 0.00000000000000000000e+00) (0, 0, 0.00000000000000000000e+00) (0, 0, 0.00000000000000000000e+00) (0, 0, 0.00000000000000000000e+00) (0, 0, 0.00000000000000000000e+00) (0, 0, 0.00000000000000000000e+00) (0, 0, 0.00000000000000000000e+00) (0, 0, 0.00000000000000000000e+00) (0, 0, 0.00000000000000000000e+00) (0, 0, 0.00000000000000000000e+00) (0, 0, 0.00000000000000000000e+00) (0, 0, 0.00000000000000000000e+00) (0, 0, 0.00000000000000000000e+00) (0, 0, 0.00000000000000000000e+00) (0, 0, 0.00000000000000000000e+00) (0, 0, 0.00000000000000000000e+00) (0, 0, 0.00000000000000000000e+00) (0, 0, 0.00000000000000000000e+00) (0, 0, 0.00000000000000000000e+00) (0, 0, 0.00000000000000000000e+00) (0, 0, 0.00000000000000000000e+00) (0, 0, 0.00000000000000000000e+00) (0, 0, 0.00000000000000000000e+00) (0, 0, 0.00000000000000000000e+00) (0, 0, 0.00000000000000000000e+00) (0, 0, 0.00000000000000000000e+00) (0, 0, 0.00000000000000000000e+00) (0, 0, 0.00000000000000000000e+00) (0, 0, 0.00000000000000000000e+00) (0, 0, 0.00000000000000000000e+00) (0, 0, 0.00000000000000000000e+00) (0, 0, 0.00000000000000000000e+00) (0, 0, 0.00000000000000000000e+00) (0, 0, 0.00000000000000000000e+00) (0, 0, 0.00000000000000000000e+00) (0, 0, 0.00000000000000000000e+00) (0, 0, 0.00000000000000000000e+00) (0, 0, 0.00000000000000000000e+00) (0, 0, 0.00000000000000000000e+00) (0, 0, 0.00000000000000000000e+00) (0, 0, 0.00000000000000000000e+00) (0, 0, 0.00000000000000000000e+00) (0, 0, 0.00000000000000000000e+00) (0, 0, 0.00000000000000000000e+00) (0, 0, 0.00000000000000000000e+00) (0, 0, 0.00000000000000000000e+00) (0, 0, 0.00000000000000000000e+00) (0, 0, 0.00000000000000000000e+00) (0, 0, 0.00000000000000000000e+00) (0, 0, 0.00000000000000000000e+00) (0, 0, 0.00000000000000000000e+00) (0, 0, 0.00000000000000000000e+00) (0, 0, 0.00000000000000000000e+00) (0, 0, 0.00000000000000000000e+00) (0, 0, 0.00000000000000000000e+00) (0, 0, 0.00000000000000000000e+00) (0, 0, 0.00000000000000000000e+00) (0, 0, 0.00000000000000000000e+00) (0, 0, 0.00000000000000000000e+00) (0, 0, 0.00000000000000000000e+00) (0, 0, 0.00000000000000000000e+00) (0, 0, 0.00000000000000000000e+00) (0, 0, 0.00000000000000000000e+00) (0, 0, 0.00000000000000000000e+00) (0, 0, 0.00000000000000000000e+00) (0, 0, 0.00000000000000000000e+00) (0, 0, 0.00000000000000000000e+00) (0, 0, 0.00000000000000000000e+00) (0, 0, 0.00000000000000000000e+00) (0, 0, 0.00000000000000000000e+00) (0, 0, 0.00000000000000000000e+00) (0, 0, 0.00000000000000000000e+00) (0, 0, 0.00000000000000000000e+00) (0, 0, 0.00000000000000000000e+00) (0, 0, 0.00000000000000000000e+00) (0, 0, 0.00000000000000000000e+00) (0, 0, 0.00000000000000000000e+00) (0, 0, 0.00000000000000000000e+00) (0, 0, 0.00000000000000000000e+00) (0, 0, 0.00000000000000000000e+00) (0, 0, 0.00000000000000000000e+00) (0, 0, 0.00000000000000000000e+00) (0, 0, 0.00000000000000000000e+00) (0, 0, 0.00000000000000000000e+00) (0, 0, 0.00000000000000000000e+00) (0, 0, 0.00000000000000000000e+00) (0, 0, 0.00000000000000000000e+00) (0, 0, 0.00000000000000000000e+00) (0, 0, 0.00000000000000000000e+00) (0, 0, 0.00000000000000000000e+00) (0, 0, 0.00000000000000000000e+00) (0, 0, 0.00000000000000000000e+00) (0, 0, 0.00000000000000000000e+00) (0, 0, 0.00000000000000000000e+00) (0, 0, 0.00000000000000000000e+00) (0, 0, 0.00000000000000000000e+00) (0, 0, 0.00000000000000000000e+00) (0, 0, 0.00000000000000000000e+00) (0, 0, 0.00000000000000000000e+00) (0, 0, 0.00000000000000000000e+00) (0, 0, 0.00000000000000000000e+00) (0, 0, 0.00000000000000000000e+00) (0, 0, 0.00000000000000000000e+00) (0, 0, 0.00000000000000000000e+00) (0, 0, 0.00000000000000000000e+00) (0, 0, 0.00000000000000000000e+00) (0, 0, 0.00000000000000000000e+00) (0, 0, 0.00000000000000000000e+00) (0, 0, 0.00000000000000000000e+00) (0, 0, 0.00000000000000000000e+00) (0, 0, 0.00000000000000000000e+00) (0, 0, 0.00000000000000000000e+00) (0, 0, 0.00000000000000000000e+00) (0, 0, 0.00000000000000000000e+00) (0, 0, 0.00000000000000000000e+00) (0, 0, 0.00000000000000000000e+00) (0, 0, 0.00000000000000000000e+00) (0, 0, 0.00000000000000000000e+00) (0, 0, 0.00000000000000000000e+00) (0, 0, 0.00000000000000000000e+00) (0, 0, 0.00000000000000000000e+00) (0, 0, 0.00000000000000000000e+00) (0, 0, 0.00000000000000000000e+00) (0, 0, 0.00000000000000000000e+00) (0, 0, 0.00000000000000000000e+00) (0, 0, 0.00000000000000000000e+00) (0, 0, 0.00000000000000000000e+00) (0, 0, 0.00000000000000000000e+00) (0, 0, 0.00000000000000000000e+00) (0, 0, 0.00000000000000000000e+00) (0, 0, 0.00000000000000000000e+00) (0, 0, 0.00000000000000000000e+00) (161, 5, 5.00000000000000000000e-01) (161, 5, 5.00000000000000000000e-01) (161, 5, 5.00000000000000000000e-01) (161, 5, 5.00000000000000000000e-01) (161, 5, 5.00000000000000000000e-01) (161, 5, 5.00000000000000000000e-01) (161, 5, 5.00000000000000000000e-01) (161, 5, 5.00000000000000000000e-01) (161, 5, 5.00000000000000000000e-01) (161, 5, 5.00000000000000000000e-01) (161, 5, 5.00000000000000000000e-01) (161, 5, 5.00000000000000000000e-01) (161, 5, 5.00000000000000000000e-01) (161, 5, 5.00000000000000000000e-01) (161, 5, 5.00000000000000000000e-01) (161, 5, 5.00000000000000000000e-01) (161, 5, 5.00000000000000000000e-01) (161, 5, 5.00000000000000000000e-01) (161, 5, 5.00000000000000000000e-01) (161, 5, 5.00000000000000000000e-01) (161, 5, 5.00000000000000000000e-01) (161, 5, 5.00000000000000000000e-01) (161, 5, 5.00000000000000000000e-01) (161, 5, 5.00000000000000000000e-01) (161, 5, 5.00000000000000000000e-01) (161, 5, 5.00000000000000000000e-01) (161, 5, 5.00000000000000000000e-01) (161, 5, 5.00000000000000000000e-01) (161, 5, 5.00000000000000000000e-01) (161, 5, 5.00000000000000000000e-01) (161, 5, 5.00000000000000000000e-01) (161, 5, 5.00000000000000000000e-01) (161, 5, 5.00000000000000000000e-01) (161, 5, 5.00000000000000000000e-01) (161, 5, 5.00000000000000000000e-01) (161, 5, 5.00000000000000000000e-01) (161, 5, 5.00000000000000000000e-01) (161, 5, 5.00000000000000000000e-01) (161, 5, 5.00000000000000000000e-01) (161, 5, 5.00000000000000000000e-01) (161, 5, 5.00000000000000000000e-01) (161, 5, 5.00000000000000000000e-01) (161, 5, 5.00000000000000000000e-01) (161, 5, 5.00000000000000000000e-01) (161, 5, 5.00000000000000000000e-01) (161, 5, 5.00000000000000000000e-01) (161, 5, 5.00000000000000000000e-01) (161, 5, 5.00000000000000000000e-01) (161, 5, 5.00000000000000000000e-01) (161, 5, 5.00000000000000000000e-01) (161, 5, 5.00000000000000000000e-01) (161, 5, 5.00000000000000000000e-01) (161, 5, 5.00000000000000000000e-01) (161, 5, 5.00000000000000000000e-01) (161, 5, 5.00000000000000000000e-01) (161, 5, 5.00000000000000000000e-01) (161, 5, 5.00000000000000000000e-01) (161, 5, 5.00000000000000000000e-01) (161, 5, 5.00000000000000000000e-01) (161, 5, 5.00000000000000000000e-01) (161, 5, 5.00000000000000000000e-01) (161, 5, 5.00000000000000000000e-01) (161, 5, 5.00000000000000000000e-01) (161, 5, 5.00000000000000000000e-01) (161, 5, 5.00000000000000000000e-01) (161, 5, 5.00000000000000000000e-01) (161, 5, 5.00000000000000000000e-01) (161, 5, 5.00000000000000000000e-01) (161, 5, 5.00000000000000000000e-01) (161, 5, 5.00000000000000000000e-01) (161, 5, 5.00000000000000000000e-01) (161, 5, 5.00000000000000000000e-01) (161, 5, 5.00000000000000000000e-01) (161, 5, 5.00000000000000000000e-01) (161, 5, 5.00000000000000000000e-01) (161, 5, 5.00000000000000000000e-01) (161, 5, 5.00000000000000000000e-01) (161, 5, 5.00000000000000000000e-01) (161, 5, 5.00000000000000000000e-01) (161, 5, 5.00000000000000000000e-01) (161, 5, 5.00000000000000000000e-01) (161, 5, 5.00000000000000000000e-01) (161, 5, 5.00000000000000000000e-01) (161, 5, 5.00000000000000000000e-01) (161, 5, 5.00000000000000000000e-01) (161, 5, 5.00000000000000000000e-01) (161, 5, 5.00000000000000000000e-01) (161, 5, 5.00000000000000000000e-01) (161, 5, 5.00000000000000000000e-01) (161, 5, 5.00000000000000000000e-01) (161, 5, 5.00000000000000000000e-01) (161, 5, 5.00000000000000000000e-01) (161, 5, 5.00000000000000000000e-01) (161, 5, 5.00000000000000000000e-01) (161, 5, 5.00000000000000000000e-01) (161, 5, 5.00000000000000000000e-01) (161, 5, 5.00000000000000000000e-01) (161, 5, 5.00000000000000000000e-01) (161, 5, 5.00000000000000000000e-01) (161, 5, 5.00000000000000000000e-01) (161, 5, 5.00000000000000000000e-01) (161, 5, 5.00000000000000000000e-01) (161, 5, 5.00000000000000000000e-01) (161, 5, 5.00000000000000000000e-01) (161, 5, 5.00000000000000000000e-01) (161, 5, 5.00000000000000000000e-01) (161, 5, 5.00000000000000000000e-01) (0, 5, 0.00000000000000000000e+00) (108, 5, 5.00000000000000000000e-01) (0, 5, 0.00000000000000000000e+00) 
connections (connected_to_neuron, weight)=(0, 1.50000000000000000000e+03) (1, 1.50000000000000000000e+03) (2, 1.50000000000000000000e+03) (3, 1.50000000000000000000e+03) (4, 1.50000000000000000000e+03) (5, 1.50000000000000000000e+03) (6, 1.50000000000000000000e+03) (7, 1.50000000000000000000e+03) (8, 1.50000000000000000000e+03) (9, 1.50000000000000000000e+03) (10, 1.50000000000000000000e+03) (11, 1.50000000000000000000e+03) (12, 1.50000000000000000000e+03) (13, 1.50000000000000000000e+03) (14, 1.50000000000000000000e+03) (15, 1.50000000000000000000e+03) (16, 1.50000000000000000000e+03) (17, 1.50000000000000000000e+03) (18, 1.50000000000000000000e+03) (19, 1.50000000000000000000e+03) (20, 1.50000000000000000000e+03) (21, 1.50000000000000000000e+03) (22, 1.13658367057725886301e-02) (23, -8.78834293822388229467e-02) (24, 3.15454213275756123469e-01) (25, 4.39381105494612150819e-02) (26, 4.38136763053145750213e-01) (27, 2.49038158690752270408e-01) (28, 1.22640159807405293990e-01) (29, 1.50000000000000000000e+03) (30, 1.50000000000000000000e+03) (31, 3.94721401005720048949e-02) (32, -1.62399550041616852480e-01) (33, -6.00720137765129100216e-02) (34, 1.75269931167381758097e-02) (35, -4.65884997893812810577e-02) (36, 9.97242249620824104672e-03) (37, 1.43220752974756761200e-02) (38, -5.21002105648882135602e-02) (39, 1.50000000000000000000e+03) (40, 1.50000000000000000000e+03) (41, -1.06142248284279393233e-02) (42, 3.85468685334911728702e-02) (43, -6.15480422913022573450e-02) (44, -1.04779374072018358066e-01) (45, 9.00834732044338837298e-02) (46, 4.90425957694442214707e-03) (47, -1.02224636477319760774e-01) (48, -1.86863782493900232318e-01) (49, 1.50000000000000000000e+03) (50, 1.50000000000000000000e+03) (51, -1.65577204730622845608e-01) (52, -7.95489697917075994082e-02) (53, 7.98097264207391354773e-02) (54, -3.93713857324844290764e-02) (55, 1.33992821598329842070e-01) (56, 1.12116825757276855624e-01) (57, 9.13358061999187537117e-02) (58, 1.52981669664548382281e-02) (59, 1.50000000000000000000e+03) (60, 1.50000000000000000000e+03) (61, 1.04939586333435252996e-01) (62, 4.63773107145587573652e-02) (63, -6.82856772121271521359e-02) (64, 3.60784296408948670920e-02) (65, -1.08550728589944245339e-01) (66, -3.49146790494344813616e-03) (67, -8.92328729071654447313e-02) (68, -3.85247734395757282511e-02) (69, 1.50000000000000000000e+03) (70, 1.50000000000000000000e+03) (71, -1.50047374105140879363e-01) (72, -2.17902519185121483491e-02) (73, -1.07351415803656632941e-01) (74, 3.55481658289406657336e-02) (75, -5.75118042969518586394e-02) (76, 1.77421496612182698349e-02) (77, -1.08391815323545470662e-01) (78, -8.42997843479147968004e-02) (79, 1.50000000000000000000e+03) (80, 1.50000000000000000000e+03) (81, -7.58791688526608693044e-02) (82, -1.39385583726669461113e-02) (83, 6.24845415776716026079e-02) (84, -9.84401271165341040792e-02) (85, 6.26489101594022990138e-02) (86, 1.62182519729637375505e-01) (87, 1.03257519660129956640e-01) (88, -1.67660145590151112016e-02) (89, 1.50000000000000000000e+03) (90, 1.50000000000000000000e+03) (91, -1.08600783493693037185e-01) (92, -4.75572194664966377275e-02) (93, -4.17214983594583338489e-03) (94, 8.46539690213039819344e-02) (95, 8.58001971454330353284e-02) (96, 1.06294977652795025191e-01) (97, -7.57188386557372528074e-03) (98, 4.78991954578305359491e-02) (99, 1.50000000000000000000e+03) (100, 1.50000000000000000000e+03) (101, -1.58022297605445505297e-01) (102, 1.86879378808021447134e-02) (103, -1.34454208911833072992e-01) (104, -9.20329657157349240171e-02) (105, 1.31808392787691019965e-01) (106, 8.32226334186095262346e-02) (107, 9.21082142039908041697e-02) (108, 8.53906190392148684021e-02) (109, 1.50000000000000000000e+03) (110, 1.50000000000000000000e+03) (111, -2.99799510147972306240e-02) (112, -1.23768203592870412733e-02) (113, -2.31950381662177601561e-01) (114, -9.41189426127680556222e-02) (115, 2.09589487965733643760e-02) (116, -8.56269463938595654096e-02) (117, -1.84399618226545867518e-03) (118, -4.87153489553324853256e-02) (119, 1.50000000000000000000e+03) (120, 1.50000000000000000000e+03) (121, 2.48955030905275744024e-02) (122, -4.14489368634137073100e-02) (123, -5.04898825154184924258e-02) (124, -1.37180283066334174347e-01) (125, -8.71844821640493927717e-02) (126, -3.54927088750144059670e-02) (127, 8.37176945425731483530e-02) (128, -6.33209759379704806292e-03) (129, 1.50000000000000000000e+03) (130, 1.50000000000000000000e+03) (131, -1.23919338904918407973e-01) (132, 1.63331744420375402083e-01) (133, 5.62728835827964513072e-01) (134, 6.87958133680664163379e-01) (135, 2.48948028955346956081e-01) (136, 1.24935522523294692543e-01) (137, 8.22398506968483739010e-02) (138, -1.76885154790643872591e-01) (139, 1.50000000000000000000e+03) (140, 1.50000000000000000000e+03) (141, 1.38615567881471807299e-01) (142, -2.72831846676449413236e-02) (143, 1.56579105178667549181e-01) (144, 1.55303461472345916139e-01) (145, 1.40722168604686531657e-01) (146, 9.97675787609367537012e-02) (147, 5.89258564276340587873e-02) (148, 3.06857827684902217946e-01) (149, 1.50000000000000000000e+03) (150, 1.50000000000000000000e+03) (151, 1.50000000000000000000e+03) (152, 1.50000000000000000000e+03) (153, 1.50000000000000000000e+03) (154, 1.50000000000000000000e+03) (155, 1.50000000000000000000e+03) (156, 1.50000000000000000000e+03) (157, 1.50000000000000000000e+03) (158, 1.50000000000000000000e+03) (159, 1.50000000000000000000e+03) (160, 6.90631290265565772613e-02) (0, 1.50000000000000000000e+03) (1, 1.50000000000000000000e+03) (2, 1.50000000000000000000e+03) (3, 1.50000000000000000000e+03) (4, 1.50000000000000000000e+03) (5, 1.50000000000000000000e+03) (6, 1.50000000000000000000e+03) (7, 1.50000000000000000000e+03) (8, 1.50000000000000000000e+03) (9, 1.50000000000000000000e+03) (10, 1.50000000000000000000e+03) (11, 1.50000000000000000000e+03) (12, 1.50000000000000000000e+03) (13, 1.50000000000000000000e+03) (14, 1.50000000000000000000e+03) (15, 1.50000000000000000000e+03) (16, 1.50000000000000000000e+03) (17, 1.50000000000000000000e+03) (18, 1.50000000000000000000e+03) (19, 1.50000000000000000000e+03) (20, 1.50000000000000000000e+03) (21, 1.50000000000000000000e+03) (22, -2.70018601569115557215e-01) (23, -3.07390430721220797583e-01) (24, 1.97686542705782342111e-01) (25, 6.97182487545946333318e-02) (26, 1.37326975394049255463e-01) (27, -4.48018602980272823144e-02) (28, 7.88820351448455137078e-02) (29, 1.50000000000000000000e+03) (30, 1.50000000000000000000e+03) (31, -5.68375714285981187279e-02) (32, -7.51160162809196424449e-02) (33, -1.07427053844366945934e-01) (34, 1.50984074241693553425e-02) (35, 9.77831722233611991268e-03) (36, 1.15559454415592455234e-02) (37, -1.37538247664618668020e-01) (38, -8.52908403365726930367e-02) (39, 1.50000000000000000000e+03) (40, 1.50000000000000000000e+03) (41, -6.60051461895766328203e-02) (42, -3.12036350461453032556e-02) (43, 1.35141327896543123055e-01) (44, -7.40547740365265355633e-02) (45, 1.95465878840876877698e-01) (46, 1.56981107680966736062e-01) (47, -1.38560234756131495093e-01) (48, -7.71402737227094958961e-01) (49, 1.50000000000000000000e+03) (50, 1.50000000000000000000e+03) (51, -6.73464028360893224301e-02) (52, -2.64981192763397606360e-02) (53, 3.96606630334362733614e-02) (54, 8.83739991566821481150e-02) (55, 5.63892531137261884822e-02) (56, -2.43862457709821296714e-02) (57, -3.50612760565561162873e-02) (58, -1.02782009465620619015e-01) (59, 1.50000000000000000000e+03) (60, 1.50000000000000000000e+03) (61, -2.94948685279503297618e-01) (62, -5.66835860322621176710e-02) (63, 4.05686734714643601474e-02) (64, 1.46649684688880010963e-01) (65, 1.80021087588440910354e-02) (66, 6.79014983671302474466e-02) (67, -1.45680660538936079806e-01) (68, -6.25914322282678514675e-02) (69, 1.50000000000000000000e+03) (70, 1.50000000000000000000e+03) (71, -1.86309952124178390687e-01) (72, -9.18607103349764336775e-02) (73, -5.27478780183800108339e-02) (74, -7.60990696555438606019e-03) (75, 8.57134431408048264034e-02) (76, -9.17115667562744540930e-02) (77, -1.37957578357787297163e-01) (78, -4.64471686995768934247e-03) (79, 1.50000000000000000000e+03) (80, 1.50000000000000000000e+03) (81, -1.40776126108514282320e-01) (82, -5.12784124781083330835e-02) (83, -3.09961875342531258115e-02) (84, 8.36994075205529756978e-03) (85, 1.99193485956917520907e-01) (86, 1.99563839552504458663e-02) (87, -2.26058963773999484215e-03) (88, 1.69740357451068246686e-01) (89, 1.50000000000000000000e+03) (90, 1.50000000000000000000e+03) (91, -4.87095233712302178031e-02) (92, -2.37639669746061543698e-01) (93, -6.85840414944951723419e-03) (94, 1.55718384163204826010e-02) (95, 5.57173793335027020546e-02) (96, -4.80182712099938083239e-02) (97, -9.92794996608117458203e-02) (98, -1.19402210662197291735e-01) (99, 1.50000000000000000000e+03) (100, 1.50000000000000000000e+03) (101, -1.01204849494940282706e-01) (102, 7.17351876180125774818e-02) (103, -9.43847956223991119140e-02) (104, 2.57887559442098457385e-01) (105, 1.69037271853093445939e-01) (106, 1.28766821095951694565e-01) (107, 1.35519821138648965952e-01) (108, -5.29767017268479162295e-02) (109, 1.50000000000000000000e+03) (110, 1.50000000000000000000e+03) (111, -1.27466803719997218147e-01) (112, -4.87879959034160648468e-02) (113, -7.00101510782714875347e-01) (114, -8.76449420907396858915e-01) (115, -1.25061147144196860292e-01) (116, 4.85655011376540171608e-02) (117, -2.44995350041557424792e-01) (118, -1.64315274358338203609e-01) (119, 1.50000000000000000000e+03) (120, 1.50000000000000000000e+03) (121, -6.25201252867462059504e-02) (122, -1.43272700598597618749e-01) (123, -2.68619395907068791995e-01) (124, -6.23780692598933372839e-02) (125, -8.64765529148278505600e-02) (126, -1.75147460585299369340e-01) (127, -1.33937843704382553156e-01) (128, -8.19587314518018250631e-02) (129, 1.50000000000000000000e+03) (130, 1.50000000000000000000e+03) (131, 1.46876971168922714622e-02) (132, 2.16291550935805848566e-01) (133, 2.28658839590438422995e-01) (134, 2.09383929539838975487e-01) (135, 9.58521097857170829848e-03) (136, 1.22405227817735870466e-01) (137, -2.73197903124685337328e-02) (138, -1.44470132877299123342e-01) (139, 1.50000000000000000000e+03) (140, 1.50000000000000000000e+03) (141, 1.37597116526483376209e-01) (142, -8.39813215832071469080e-02) (143, 8.06643237441071747629e-02) (144, 1.70056419548319320834e-01) (145, 6.30129520862588304864e-02) (146, 1.58050792393016142912e-01) (147, 1.12376114218998823802e+00) (148, 1.40243969321567907294e-01) (149, 1.50000000000000000000e+03) (150, 1.50000000000000000000e+03) (151, 1.50000000000000000000e+03) (152, 1.50000000000000000000e+03) (153, 1.50000000000000000000e+03) (154, 1.50000000000000000000e+03) (155, 1.50000000000000000000e+03) (156, 1.50000000000000000000e+03) (157, 1.50000000000000000000e+03) (158, 1.50000000000000000000e+03) (159, 1.50000000000000000000e+03) (160, 1.66903621424541626084e-01) (0, 1.50000000000000000000e+03) (1, 1.50000000000000000000e+03) (2, 1.50000000000000000000e+03) (3, 1.50000000000000000000e+03) (4, 1.50000000000000000000e+03) (5, 1.50000000000000000000e+03) (6, 1.50000000000000000000e+03) (7, 1.50000000000000000000e+03) (8, 1.50000000000000000000e+03) (9, 1.50000000000000000000e+03) (10, 1.50000000000000000000e+03) (11, 1.50000000000000000000e+03) (12, 1.50000000000000000000e+03) (13, 1.50000000000000000000e+03) (14, 1.50000000000000000000e+03) (15, 1.50000000000000000000e+03) (16, 1.50000000000000000000e+03) (17, 1.50000000000000000000e+03) (18, 1.50000000000000000000e+03) (19, 1.50000000000000000000e+03) (20, 1.50000000000000000000e+03) (21, 1.50000000000000000000e+03) (22, -1.13209278921200511697e-02) (23, -2.83680462876873366873e-02) (24, 2.90081901802859976058e-01) (25, 7.79102807533851721145e-02) (26, 4.10500048773493997345e-01) (27, 2.65542058980288375736e-01) (28, 3.01124610682471614831e-03) (29, 1.50000000000000000000e+03) (30, 1.50000000000000000000e+03) (31, -1.70533477208269536318e-02) (32, -1.34555311015312012435e-01) (33, -6.04420505102623087379e-02) (34, 2.15186938256047531615e-02) (35, -3.19782775271433075681e-02) (36, -2.54966418627891391879e-02) (37, 4.15557276995722271740e-02) (38, -8.34832858647147207920e-02) (39, 1.50000000000000000000e+03) (40, 1.50000000000000000000e+03) (41, -1.78894170246947162295e-02) (42, -2.82122680075479930276e-03) (43, -1.47829085527864823729e-02) (44, 2.86646183827379379128e-02) (45, 1.46429723935762728937e-01) (46, 8.11081887073048790615e-02) (47, -1.53494219192385774296e-03) (48, -1.69500199942766160977e-01) (49, 1.50000000000000000000e+03) (50, 1.50000000000000000000e+03) (51, -8.71531602571708474692e-02) (52, 9.54449326531303515742e-02) (53, -7.81658112652046516144e-02) (54, 5.24221023418518228265e-02) (55, 8.19321764717224620966e-02) (56, 4.38402265386567055461e-02) (57, -2.98933217083085581156e-02) (58, 4.97113275926750267097e-02) (59, 1.50000000000000000000e+03) (60, 1.50000000000000000000e+03) (61, -1.53001003307847105450e-01) (62, -2.95137966062274451073e-02) (63, -1.33141448795361133639e-01) (64, -5.73060483503151085749e-02) (65, -1.20081488307473449595e-01) (66, 5.92747753744048769264e-02) (67, 7.81286194748273023214e-03) (68, 6.04886144210734291726e-03) (69, 1.50000000000000000000e+03) (70, 1.50000000000000000000e+03) (71, -1.49763795927838144761e-01) (72, -8.77463805496780380189e-02) (73, 2.61553600788291158719e-02) (74, -3.45224946094569509758e-02) (75, 2.99574483270919310340e-02) (76, 8.63669134832888325815e-03) (77, -1.55946597358509353448e-01) (78, 2.01324199293167645231e-02) (79, 1.50000000000000000000e+03) (80, 1.50000000000000000000e+03) (81, -1.53050411932632746126e-01) (82, 4.29401126774059047064e-02) (83, 7.11900478601611569340e-02) (84, -8.98330836949193384244e-02) (85, -1.00027391245756571564e-02) (86, 5.98906603528260375602e-02) (87, 1.46776611479529778270e-01) (88, 2.73493999665752780814e-03) (89, 1.50000000000000000000e+03) (90, 1.50000000000000000000e+03) (91, -1.78292946483414177505e-02) (92, -1.59478126853960899822e-01) (93, -7.09497043562815621343e-02) (94, 8.97998120548787470696e-02) (95, 2.75032130133938922112e-02) (96, -3.74120776042499159075e-02) (97, 6.15565400636375950616e-02) (98, 5.58459847225076452815e-02) (99, 1.50000000000000000000e+03) (100, 1.50000000000000000000e+03) (101, -8.03951986061396811634e-02) (102, -4.82593344550941438786e-02) (103, -8.55087391985031863850e-02) (104, -1.68390466255219584113e-01) (105, 4.44219652262630090855e-02) (106, -1.07654014555912617285e-02) (107, 1.70520076458130026564e-01) (108, -5.20087381927429662221e-02) (109, 1.50000000000000000000e+03) (110, 1.50000000000000000000e+03) (111, 1.70049152466857401989e-02) (112, 8.91916822136756132222e-02) (113, -2.14118465190298812306e-01) (114, -1.73769821519012851452e-01) (115, -2.85344608966689450291e-02) (116, -2.23701089662405212810e-02) (117, -6.66558839073631281824e-02) (118, -4.83670973952161215026e-03) (119, 1.50000000000000000000e+03) (120, 1.50000000000000000000e+03) (121, -1.19614837790030334452e-01) (122, 9.99967861719922371244e-03) (123, -1.08581610662167107884e-01) (124, -3.87009744168126043617e-02) (125, 2.11618395461778026345e-02) (126, -1.20188915993650974334e-01) (127, 7.83575071691775676408e-02) (128, 6.38619059715730547078e-02) (129, 1.50000000000000000000e+03) (130, 1.50000000000000000000e+03) (131, -1.41868874024127789024e-02) (132, 1.02864459791094986496e-01) (133, 5.64588603117904708206e-01) (134, 1.02381572403391207793e+00) (135, 2.29891131568874779179e-01) (136, 1.38147735437417679139e-01) (137, 5.23063435495923628737e-02) (138, -2.01321936036181675655e-01) (139, 1.50000000000000000000e+03) (140, 1.50000000000000000000e+03) (141, 2.17137296397097750988e-01) (142, -8.78943352357667434527e-02) (143, 1.16404250463271199956e-01) (144, 1.17631048163199483647e-01) (145, 1.11271187862181722417e-01) (146, 5.38981409871831657066e-02) (147, 9.06298855837595757068e-02) (148, 2.23929356417670283319e-01) (149, 1.50000000000000000000e+03) (150, 1.50000000000000000000e+03) (151, 1.50000000000000000000e+03) (152, 1.50000000000000000000e+03) (153, 1.50000000000000000000e+03) (154, 1.50000000000000000000e+03) (155, 1.50000000000000000000e+03) (156, 1.50000000000000000000e+03) (157, 1.50000000000000000000e+03) (158, 1.50000000000000000000e+03) (159, 1.50000000000000000000e+03) (160, 1.89174218226332874204e-01) (0, 1.50000000000000000000e+03) (1, 1.50000000000000000000e+03) (2, 1.50000000000000000000e+03) (3, 1.50000000000000000000e+03) (4, 1.50000000000000000000e+03) (5, 1.50000000000000000000e+03) (6, 1.50000000000000000000e+03) (7, 1.50000000000000000000e+03) (8, 1.50000000000000000000e+03) (9, 1.50000000000000000000e+03) (10, 1.50000000000000000000e+03) (11, 1.50000000000000000000e+03) (12, 1.50000000000000000000e+03) (13, 1.50000000000000000000e+03) (14, 1.50000000000000000000e+03) (15, 1.50000000000000000000e+03) (16, 1.50000000000000000000e+03) (17, 1.50000000000000000000e+03) (18, 1.50000000000000000000e+03) (19, 1.50000000000000000000e+03) (20, 1.50000000000000000000e+03) (21, 1.50000000000000000000e+03) (22, 1.08478872325029812584e-01) (23, 5.51951809187804579016e-02) (24, 1.53830508057503811958e-01) (25, 9.99378664088359514039e-02) (26, 4.94612596111482449857e-01) (27, 2.52370669281306136966e-01) (28, 1.55776140175065747062e-01) (29, 1.50000000000000000000e+03) (30, 1.50000000000000000000e+03) (31, -7.75040344775860950977e-02) (32, -1.46758728650988407027e-01) (33, 1.43433505721925654008e-02) (34, 1.14800262654948817542e-01) (35, 5.74672739374601712625e-02) (36, 2.63818935872245745322e-02) (37, -4.12246936176595135670e-02) (38, 5.75399792031493564903e-02) (39, 1.50000000000000000000e+03) (40, 1.50000000000000000000e+03) (41, 2.79016362439889926972e-02) (42, 1.00636383819931257699e-01) (43, 2.73618668378400424490e-02) (44, -4.42287426338128369929e-02) (45, 2.63130556108347291033e-01) (46, 7.71409035510548790615e-02) (47, -4.72685802996991588643e-02) (48, -1.74410464366994866214e-01) (49, 1.50000000000000000000e+03) (50, 1.50000000000000000000e+03) (51, -6.91568169031610280317e-02) (52, 5.19561924399915761597e-02) (53, -2.82652254961910133491e-02) (54, -7.21428981847229700008e-02) (55, -4.57374074813944112017e-02) (56, 8.91248704769706107109e-02) (57, -2.11764644294844435468e-02) (58, 7.97314786199700142877e-02) (59, 1.50000000000000000000e+03) (60, 1.50000000000000000000e+03) (61, 5.86741496464414924450e-02) (62, -2.68282497312273687795e-02) (63, -2.74775657829137119614e-02) (64, -4.94037288806024876830e-02) (65, -5.00665255109712936665e-02) (66, -1.49676766590598364637e-01) (67, -6.99879527863340733518e-02) (68, -1.13583621401600054490e-02) (69, 1.50000000000000000000e+03) (70, 1.50000000000000000000e+03) (71, 4.85813108306084942556e-02) (72, 2.38230922502476218094e-02) (73, 8.03581342779775484320e-03) (74, -8.09778870934563382855e-02) (75, -9.76728219297184757641e-02) (76, 1.55641815827044956155e-02) (77, -1.20673436052896460025e-01) (78, -3.74074673061896706416e-02) (79, 1.50000000000000000000e+03) (80, 1.50000000000000000000e+03) (81, -3.96841638224259413148e-02) (82, -4.06318287646076081732e-02) (83, 3.72207223477673404544e-02) (84, 9.79661736956324163961e-03) (85, -8.76425309790559159406e-02) (86, -6.99465329741257003070e-04) (87, 4.07890663766970959503e-02) (88, 4.53747128784728545603e-02) (89, 1.50000000000000000000e+03) (90, 1.50000000000000000000e+03) (91, -6.25929983308381315821e-02) (92, -1.81426371276635106655e-01) (93, 1.05793296290610447374e-01) (94, 7.09779056152121251566e-02) (95, 6.25999963104725554164e-02) (96, 7.81543796106655853234e-04) (97, -1.01474734317236456316e-01) (98, -7.24893447701551174589e-02) (99, 1.50000000000000000000e+03) (100, 1.50000000000000000000e+03) (101, -4.63264735373104183380e-02) (102, -1.68262289863454761463e-02) (103, -1.13849029659262163117e-01) (104, -8.20740912864984656361e-02) (105, -6.03876095565853074354e-02) (106, 3.99289858060078699936e-03) (107, 1.59528673429725292854e-01) (108, 3.50559570705617773445e-03) (109, 1.50000000000000000000e+03) (110, 1.50000000000000000000e+03) (111, -4.49741799317658272339e-02) (112, -1.90715071501496094553e-02) (113, -1.26397705216597155964e-01) (114, -4.22085422221392114750e-02) (115, -1.10918990536000114377e-01) (116, -4.38117623370967851359e-02) (117, 7.21807904848612569282e-02) (118, -2.15276089159880633372e-02) (119, 1.50000000000000000000e+03) (120, 1.50000000000000000000e+03) (121, 5.12024071057432597631e-02) (122, -7.38872077619991962649e-02) (123, -3.25027117836644086415e-03) (124, -4.93495677854110595395e-02) (125, -1.72319313051786486557e-02) (126, -4.20922116647507726928e-02) (127, 5.33198476189878436959e-02) (128, -1.82620285835904429261e-02) (129, 1.50000000000000000000e+03) (130, 1.50000000000000000000e+03) (131, -9.75065363407534163587e-02) (132, -1.73201080522692265652e-03) (133, 4.79150577614009753891e-01) (134, 7.64262753942523742623e-01) (135, 1.73590387208177238110e-01) (136, 2.32269389179561962233e-02) (137, 1.18489062150407858942e-01) (138, -2.39032904917069799478e-01) (139, 1.50000000000000000000e+03) (140, 1.50000000000000000000e+03) (141, 1.50230561096079073824e-01) (142, -7.11541378021688167288e-03) (143, 6.84092692776511607233e-02) (144, 7.09605417891334133706e-02) (145, 3.37718181057775068687e-02) (146, 2.48667910440762383872e-02) (147, 2.36630383124263876660e-01) (148, 2.31277986994996104242e-01) (149, 1.50000000000000000000e+03) (150, 1.50000000000000000000e+03) (151, 1.50000000000000000000e+03) (152, 1.50000000000000000000e+03) (153, 1.50000000000000000000e+03) (154, 1.50000000000000000000e+03) (155, 1.50000000000000000000e+03) (156, 1.50000000000000000000e+03) (157, 1.50000000000000000000e+03) (158, 1.50000000000000000000e+03) (159, 1.50000000000000000000e+03) (160, 1.56215233851335427717e-01) (0, 1.50000000000000000000e+03) (1, 1.50000000000000000000e+03) (2, 1.50000000000000000000e+03) (3, 1.50000000000000000000e+03) (4, 1.50000000000000000000e+03) (5, 1.50000000000000000000e+03) (6, 1.50000000000000000000e+03) (7, 1.50000000000000000000e+03) (8, 1.50000000000000000000e+03) (9, 1.50000000000000000000e+03) (10, 1.50000000000000000000e+03) (11, 1.50000000000000000000e+03) (12, 1.50000000000000000000e+03) (13, 1.50000000000000000000e+03) (14, 1.50000000000000000000e+03) (15, 1.50000000000000000000e+03) (16, 1.50000000000000000000e+03) (17, 1.50000000000000000000e+03) (18, 1.50000000000000000000e+03) (19, 1.50000000000000000000e+03) (20, 1.50000000000000000000e+03) (21, 1.50000000000000000000e+03) (22, 6.19249416544294661868e-01) (23, 5.29649799718718172770e-01) (24, 6.62956328085275492512e-01) (25, 7.45185220572249673587e-01) (26, 6.50819172442799742662e-02) (27, 3.50318248998100933989e-01) (28, 6.25769594357927116945e-01) (29, 1.50000000000000000000e+03) (30, 1.50000000000000000000e+03) (31, 3.69343119562819344193e-01) (32, 6.48134322796520612187e-01) (33, 4.91218777399878181456e-01) (34, 3.33533993184581767366e-01) (35, 3.93445863828743580548e-01) (36, 5.13320326911197888364e-01) (37, 4.86263864069510443056e-01) (38, 4.73943073672121739648e-01) (39, 1.50000000000000000000e+03) (40, 1.50000000000000000000e+03) (41, 5.33868251288522888132e-01) (42, 5.90358784180698537014e-01) (43, 4.86151428131367302488e-01) (44, 3.74972632381701420634e-01) (45, 2.35445684994119913691e-01) (46, 3.90888623947003133186e-01) (47, 4.67737316385812118558e-01) (48, 5.84997731805115273040e-01) (49, 1.50000000000000000000e+03) (50, 1.50000000000000000000e+03) (51, 5.95139905577558248062e-01) (52, 3.49477655568743938996e-01) (53, 3.26364698555583199191e-01) (54, 4.55114670368416907031e-01) (55, 5.17648242224390764399e-01) (56, 3.28706849296202641142e-01) (57, 4.78655356546641708171e-01) (58, 6.52865237848224366779e-01) (59, 1.50000000000000000000e+03) (60, 1.50000000000000000000e+03) (61, 4.36967007392880801842e-01) (62, 5.28041456759002825194e-01) (63, 4.38750317541286849465e-01) (64, 4.40737587049233270342e-01) (65, 5.82040371180372662074e-01) (66, 4.87093052473038967687e-01) (67, 5.16248185993678165850e-01) (68, 5.68340064308234249602e-01) (69, 1.50000000000000000000e+03) (70, 1.50000000000000000000e+03) (71, 5.65990036414518948860e-01) (72, 5.88746136938903541491e-01) (73, 3.28725888672407373647e-01) (74, 3.96824986952166225418e-01) (75, 4.10946026982238810099e-01) (76, 4.60440893420806296454e-01) (77, 5.43870992645910100727e-01) (78, 5.61162903659317091609e-01) (79, 1.50000000000000000000e+03) (80, 1.50000000000000000000e+03) (81, 4.68839210265052042104e-01) (82, 4.04065749125545159437e-01) (83, 3.64935687843994716051e-01) (84, 4.98161424816625619805e-01) (85, 5.08645113136736992665e-01) (86, 3.58412629768690815801e-01) (87, 5.40539955216376877267e-01) (88, 3.88867948784757111458e-01) (89, 1.50000000000000000000e+03) (90, 1.50000000000000000000e+03) (91, 4.36589651509002474317e-01) (92, 6.42578705030557917333e-01) (93, 3.83073390941819802435e-01) (94, 5.02534377441950508292e-01) (95, 4.25666103972937248656e-01) (96, 3.10785570099996966142e-01) (97, 4.25817731841200919352e-01) (98, 5.55386332478081112818e-01) (99, 1.50000000000000000000e+03) (100, 1.50000000000000000000e+03) (101, 6.04039280156457469850e-01) (102, 4.70728615111236037283e-01) (103, 5.93410278334141172429e-01) (104, 6.40281904839496207593e-01) (105, 4.75059407321401061530e-01) (106, 4.39468764187369687058e-01) (107, 2.98848033231111254171e-01) (108, 5.30457491111384737970e-01) (109, 1.50000000000000000000e+03) (110, 1.50000000000000000000e+03) (111, 5.34336932561913835471e-01) (112, 5.44033328315244535389e-01) (113, 7.54995705082728063573e-01) (114, 7.28600730001878749142e-01) (115, 4.28213458152131187795e-01) (116, 4.58074624466370483589e-01) (117, 4.10920829290137790135e-01) (118, 5.77822470203504967579e-01) (119, 1.50000000000000000000e+03) (120, 1.50000000000000000000e+03) (121, 5.61775390450653167029e-01) (122, 4.40792438688845322758e-01) (123, 4.67145902624727771268e-01) (124, 5.11602892215104576579e-01) (125, 2.91406245550986375825e-01) (126, 5.41692113065597613542e-01) (127, 4.13718452416628523771e-01) (128, 6.94102509428932590296e-01) (129, 1.50000000000000000000e+03) (130, 1.50000000000000000000e+03) (131, 7.03326460735773539845e-01) (132, 4.93560764127101703203e-01) (133, 6.31407550198604505809e-01) (134, 6.32036055107565025724e-02) (135, 2.26195993834686109869e-01) (136, 4.96122687574562237778e-01) (137, 5.73675936366037309000e-01) (138, 7.96242674562227970014e-01) (139, 1.50000000000000000000e+03) (140, 1.50000000000000000000e+03) (141, 6.68661091460230228023e-01) (142, 4.14357606032591918588e-01) (143, 3.50602095694395321512e-01) (144, 4.77481985212417914255e-01) (145, 4.84079876662346419991e-01) (146, 3.17331837237926739359e-01) (147, 2.79695884914348547046e-01) (148, 3.26171867264846093715e-01) (149, 1.50000000000000000000e+03) (150, 1.50000000000000000000e+03) (151, 1.50000000000000000000e+03) (152, 1.50000000000000000000e+03) (153, 1.50000000000000000000e+03) (154, 1.50000000000000000000e+03) (155, 1.50000000000000000000e+03) (156, 1.50000000000000000000e+03) (157, 1.50000000000000000000e+03) (158, 1.50000000000000000000e+03) (159, 1.50000000000000000000e+03) (160, 3.30339963725424123897e-01) (0, 1.50000000000000000000e+03) (1, 1.50000000000000000000e+03) (2, 1.50000000000000000000e+03) (3, 1.50000000000000000000e+03) (4, 1.50000000000000000000e+03) (5, 1.50000000000000000000e+03) (6, 1.50000000000000000000e+03) (7, 1.50000000000000000000e+03) (8, 1.50000000000000000000e+03) (9, 1.50000000000000000000e+03) (10, 1.50000000000000000000e+03) (11, 1.50000000000000000000e+03) (12, 1.50000000000000000000e+03) (13, 1.50000000000000000000e+03) (14, 1.50000000000000000000e+03) (15, 1.50000000000000000000e+03) (16, 1.50000000000000000000e+03) (17, 1.50000000000000000000e+03) (18, 1.50000000000000000000e+03) (19, 1.50000000000000000000e+03) (20, 1.50000000000000000000e+03) (21, 1.50000000000000000000e+03) (22, 6.04931365578635027447e-01) (23, 6.00652795165045549908e-01) (24, 5.35278680123704372895e-03) (25, 1.84827774676600053994e-01) (26, -8.29986005861774844838e-01) (27, -1.06442218233355756496e-01) (28, 1.60193636642419701133e-01) (29, 1.50000000000000000000e+03) (30, 1.50000000000000000000e+03) (31, 3.19415915378603643138e-01) (32, 1.62050898335699272712e-01) (33, 4.47280060824700453903e-02) (34, -3.78518652860657250914e-02) (35, -1.79385719045979455388e-02) (36, -5.01143093027526936867e-02) (37, -4.75352101990790879005e-03) (38, -3.50248359673810752413e-02) (39, 1.50000000000000000000e+03) (40, 1.50000000000000000000e+03) (41, 1.19431550193376048719e-01) (42, -3.65194142387190792687e-02) (43, -1.38632435080748239731e-01) (44, -3.36717599882380147491e-01) (45, -2.68513094802441343312e-01) (46, -4.73273111100191296030e-02) (47, -3.09276718294485865324e-03) (48, 7.67971190304295586726e-02) (49, 1.50000000000000000000e+03) (50, 1.50000000000000000000e+03) (51, 7.04983951892513560633e-02) (52, -4.51539811135396110253e-02) (53, -9.22483308097870879916e-02) (54, -8.30240594691907918268e-01) (55, -1.31334787997055502107e-01) (56, -3.06725655777716106620e-02) (57, 3.56409835196500879295e-02) (58, -5.33531079786387696373e-01) (59, 1.50000000000000000000e+03) (60, 1.50000000000000000000e+03) (61, -4.02245767962918429617e-02) (62, -3.07496181247747593646e-02) (63, 1.27007522393185579013e-01) (64, 3.61898439298143012599e-02) (65, -9.47723192052834229049e-02) (66, 3.43579843522022823632e-02) (67, 4.95845834418803532717e-02) (68, 3.49589231553407209230e-01) (69, 1.50000000000000000000e+03) (70, 1.50000000000000000000e+03) (71, -1.15072761278292010068e-01) (72, 5.39150668847400774131e-02) (73, -7.16712892495422054795e-02) (74, 1.33056731513278125867e-01) (75, -3.99455746195651398289e-02) (76, 3.76412538128989282438e-01) (77, 3.83101996464662621078e-03) (78, -1.46815582043352055308e+00) (79, 1.50000000000000000000e+03) (80, 1.50000000000000000000e+03) (81, -7.72570071471306574207e-02) (82, -1.55655200835781049040e-01) (83, 3.88654455242270768789e-02) (84, -6.82718179783086409618e-02) (85, -2.09799971273731983290e-01) (86, -1.29658437188387071215e-01) (87, -3.19928665850101531798e-02) (88, 1.00565626833383686689e-01) (89, 1.50000000000000000000e+03) (90, 1.50000000000000000000e+03) (91, -1.85280264489766505198e-01) (92, -1.54389291487281449244e-01) (93, 8.61404531779640797451e-03) (94, -2.27892579666625821888e-01) (95, 3.32264564592202396587e-02) (96, 2.78243456095539978823e-02) (97, -2.29029692068686077655e-03) (98, -6.61264225537088051743e-02) (99, 1.50000000000000000000e+03) (100, 1.50000000000000000000e+03) (101, -1.82590915445411117179e-01) (102, 3.48144053726381144664e-02) (103, -3.34370354258561042204e-01) (104, -2.03498763823381972893e-01) (105, -4.00862201218250072121e-02) (106, -1.58702686893002875568e-01) (107, 2.81375654108603212578e-02) (108, 5.76733174601394144032e-02) (109, 1.50000000000000000000e+03) (110, 1.50000000000000000000e+03) (111, 9.60720748379196298750e-02) (112, 1.27336683790299966951e-02) (113, -8.81341564730401955119e-02) (114, -1.04088694697068204209e-01) (115, -8.86094159978399742439e-02) (116, -6.64401747743271955254e-03) (117, -7.11386263928606987772e-02) (118, 1.03375176536893154111e-01) (119, 1.50000000000000000000e+03) (120, 1.50000000000000000000e+03) (121, 2.23039039409700587391e-02) (122, 8.97856127186606456370e-02) (123, 2.79439410799440339506e-02) (124, 5.03221242077616925936e-02) (125, 9.26216241975842818901e-02) (126, -6.33791112041141718736e-02) (127, 1.30233502838257103607e-01) (128, -2.87152151063774195572e-02) (129, 1.50000000000000000000e+03) (130, 1.50000000000000000000e+03) (131, 1.54692951025446973068e-01) (132, -1.84923554295942177417e-01) (133, -1.02656209969299627716e+00) (134, -3.92979657946325222628e-01) (135, -4.93919093895849536935e-01) (136, 7.02023022337111557434e-02) (137, 2.81539898881676353692e-01) (138, 3.15472894471244436065e-01) (139, 1.50000000000000000000e+03) (140, 1.50000000000000000000e+03) (141, 2.33291426612389635187e-01) (142, -1.53183155211255184885e-02) (143, -8.36731373006006223791e-02) (144, -4.26208926969638413063e-02) (145, 1.88720272249114501273e-02) (146, -1.26263472312083152582e-01) (147, -1.59069341626896176844e-01) (148, -9.83884654506736178181e-02) (149, 1.50000000000000000000e+03) (150, 1.50000000000000000000e+03) (151, 1.50000000000000000000e+03) (152, 1.50000000000000000000e+03) (153, 1.50000000000000000000e+03) (154, 1.50000000000000000000e+03) (155, 1.50000000000000000000e+03) (156, 1.50000000000000000000e+03) (157, 1.50000000000000000000e+03) (158, 1.50000000000000000000e+03) (159, 1.50000000000000000000e+03) (160, -6.87287873116624870029e-01) (0, 1.50000000000000000000e+03) (1, 1.50000000000000000000e+03) (2, 1.50000000000000000000e+03) (3, 1.50000000000000000000e+03) (4, 1.50000000000000000000e+03) (5, 1.50000000000000000000e+03) (6, 1.50000000000000000000e+03) (7, 1.50000000000000000000e+03) (8, 1.50000000000000000000e+03) (9, 1.50000000000000000000e+03) (10, 1.50000000000000000000e+03) (11, 1.50000000000000000000e+03) (12, 1.50000000000000000000e+03) (13, 1.50000000000000000000e+03) (14, 1.50000000000000000000e+03) (15, 1.50000000000000000000e+03) (16, 1.50000000000000000000e+03) (17, 1.50000000000000000000e+03) (18, 1.50000000000000000000e+03) (19, 1.50000000000000000000e+03) (20, 1.50000000000000000000e+03) (21, 1.50000000000000000000e+03) (22, 4.81811507390138837881e-01) (23, 5.81866442010989581846e-01) (24, -5.11502189167784837576e-02) (25, 2.76612445625591174547e-01) (26, -9.05071452100292495047e-01) (27, -1.08431480663843227141e-01) (28, 8.51203944549189100988e-02) (29, 1.50000000000000000000e+03) (30, 1.50000000000000000000e+03) (31, -2.98954771530897445153e-01) (32, 1.07172372937217041944e-02) (33, -1.61331804902307307525e-01) (34, -3.03040025002568325085e-01) (35, -1.55729444675515554808e-01) (36, -5.06367525008989509405e-03) (37, -4.44389547246263338920e-01) (38, -4.26563274712738541017e-02) (39, 1.50000000000000000000e+03) (40, 1.50000000000000000000e+03) (41, -1.73727342967441966692e-01) (42, -1.25418772231467495759e-01) (43, -5.25557147226597617951e-02) (44, -1.39953266371932782963e-01) (45, -4.11944566717487026253e-01) (46, -1.96890740484524456866e-01) (47, -1.15388808483434992386e-02) (48, 5.51003091478607584519e-02) (49, 1.50000000000000000000e+03) (50, 1.50000000000000000000e+03) (51, -5.35761357322717471363e-02) (52, -5.84583069579625094758e-02) (53, -1.45914641079023188475e-01) (54, -3.81951830142562342996e-01) (55, -2.13595924497022249255e-01) (56, -1.71788987833040945885e-01) (57, 6.68511283895996955007e-02) (58, 3.18176101201528491180e-02) (59, 1.50000000000000000000e+03) (60, 1.50000000000000000000e+03) (61, -7.38341174476931511039e-02) (62, -5.10347297399895011294e-02) (63, -2.64854388359232924277e-04) (64, -6.09448061173827396186e-02) (65, -1.07542123614887449867e-01) (66, -4.02388411596071027265e-02) (67, 3.60036092992637888829e-03) (68, 7.60941236195276093923e-02) (69, 1.50000000000000000000e+03) (70, 1.50000000000000000000e+03) (71, -1.10941265542286435219e-01) (72, -5.29351721365779216699e-03) (73, -2.64025507003997739197e-01) (74, -2.83628765705426222343e-01) (75, -5.74364066200895306835e-01) (76, -1.11761372204594811031e-01) (77, 7.84601432384919722507e-02) (78, -9.94862962699286368373e-02) (79, 1.50000000000000000000e+03) (80, 1.50000000000000000000e+03) (81, -3.68551694913900551587e-01) (82, -3.97226777909151680668e-03) (83, -1.05541028034931969048e-01) (84, -1.30885989584767298277e-01) (85, -6.91307535300189957006e-01) (86, -5.71002957173020520010e-01) (87, -1.45601727729894013519e-02) (88, -1.54180291745142167281e-01) (89, 1.50000000000000000000e+03) (90, 1.50000000000000000000e+03) (91, -8.98764806631091872635e-02) (92, -3.42826551111579530540e-02) (93, 1.48736162488881558386e-03) (94, -1.01031452403112814720e-01) (95, -3.19568185873407295539e-01) (96, -5.07450886125830544215e-02) (97, 3.70062880372254293659e-02) (98, 3.49469802314704564017e-02) (99, 1.50000000000000000000e+03) (100, 1.50000000000000000000e+03) (101, -2.66524323748702392234e-02) (102, -6.49982822226912171359e-01) (103, -5.47785117003541599523e-01) (104, -1.02562776351990167512e-01) (105, -1.31321055305466255492e-01) (106, -5.16363793709292903666e-02) (107, -1.43231467405691648143e-01) (108, 1.45638441692332054091e-03) (109, 1.50000000000000000000e+03) (110, 1.50000000000000000000e+03) (111, 2.25208808366411696034e-02) (112, -6.36396211790505733630e-02) (113, -5.97568676572922327650e-02) (114, 4.90299885721436901065e-02) (115, -3.86529015623469140994e-01) (116, -7.22411266482300695735e-02) (117, -6.12406620542383373085e-02) (118, -1.73541542191934464873e-03) (119, 1.50000000000000000000e+03) (120, 1.50000000000000000000e+03) (121, -1.69357946456273500413e-01) (122, 7.45697321779337368719e-02) (123, 2.14319982729566198276e-02) (124, -1.50867803352644158643e-01) (125, -5.99050353692900716673e-01) (126, -7.36126848138983491676e-02) (127, -1.32361518057086791078e-01) (128, -4.01993184968915812094e-02) (129, 1.50000000000000000000e+03) (130, 1.50000000000000000000e+03) (131, 4.49938446163055505433e-01) (132, -5.87479881852459806524e-01) (133, -1.29664579688850123418e+00) (134, 2.70731134974187409581e-02) (135, -5.90421579302225163488e-01) (136, 4.80243496037114775410e-02) (137, 1.26832766765134719034e-01) (138, 4.58450353953969491627e-01) (139, 1.50000000000000000000e+03) (140, 1.50000000000000000000e+03) (141, 9.94169134035228080348e-02) (142, 1.64195356173277712264e-02) (143, 6.73286683404710883244e-03) (144, -1.37102588345168363571e-01) (145, -2.50542455211848862084e-02) (146, -9.51165028706789372759e-02) (147, -1.57361960459615563002e-01) (148, -6.31101451381733263846e-02) (149, 1.50000000000000000000e+03) (150, 1.50000000000000000000e+03) (151, 1.50000000000000000000e+03) (152, 1.50000000000000000000e+03) (153, 1.50000000000000000000e+03) (154, 1.50000000000000000000e+03) (155, 1.50000000000000000000e+03) (156, 1.50000000000000000000e+03) (157, 1.50000000000000000000e+03) (158, 1.50000000000000000000e+03) (159, 1.50000000000000000000e+03) (160, -6.69300805676166343794e-01) (0, 1.50000000000000000000e+03) (1, 1.50000000000000000000e+03) (2, 1.50000000000000000000e+03) (3, 1.50000000000000000000e+03) (4, 1.50000000000000000000e+03) (5, 1.50000000000000000000e+03) (6, 1.50000000000000000000e+03) (7, 1.50000000000000000000e+03) (8, 1.50000000000000000000e+03) (9, 1.50000000000000000000e+03) (10, 1.50000000000000000000e+03) (11, 1.50000000000000000000e+03) (12, 1.50000000000000000000e+03) (13, 1.50000000000000000000e+03) (14, 1.50000000000000000000e+03) (15, 1.50000000000000000000e+03) (16, 1.50000000000000000000e+03) (17, 1.50000000000000000000e+03) (18, 1.50000000000000000000e+03) (19, 1.50000000000000000000e+03) (20, 1.50000000000000000000e+03) (21, 1.50000000000000000000e+03) (22, 5.19553838198231338064e-02) (23, 5.00693960015824446330e-02) (24, 8.93525184051592591405e-02) (25, 1.07403195638342024987e-01) (26, -1.91966424722038897510e-01) (27, -3.24343699002208052384e-01) (28, 6.12746710194826404994e-01) (29, 1.50000000000000000000e+03) (30, 1.50000000000000000000e+03) (31, -3.94774445421179676075e-01) (32, 9.17304884860798558366e-03) (33, 2.49803568030467604277e-01) (34, 5.54204802269653018509e-02) (35, 5.47494199479776483264e-02) (36, 7.71795983133528734621e-02) (37, -6.74851046463695834754e-03) (38, -9.42778834725893494229e-02) (39, 1.50000000000000000000e+03) (40, 1.50000000000000000000e+03) (41, 1.00885098197385864038e-01) (42, 4.88649284717906397246e-03) (43, 7.60553065149415674639e-01) (44, 1.36084845099260526302e-01) (45, 9.72667229104133383710e-03) (46, 1.21031092483728716647e-01) (47, 4.84637015226501710607e-02) (48, -1.47912011884798202076e-03) (49, 1.50000000000000000000e+03) (50, 1.50000000000000000000e+03) (51, 6.73988309965236342958e-02) (52, 1.42429737970218739385e-01) (53, 1.96297136310256664649e-01) (54, 2.90567350283188363669e-01) (55, 1.08500423303985393808e+00) (56, 8.37584254693964136429e-01) (57, -1.34019935305283929838e-02) (58, 4.31919058034785433020e-02) (59, 1.50000000000000000000e+03) (60, 1.50000000000000000000e+03) (61, 4.73527944560366356730e-03) (62, 6.24932565269996562196e-02) (63, 1.84685594469600145029e-01) (64, 2.19084597520614127175e-01) (65, 1.96055934046015678529e-01) (66, -1.37356593632172618857e-01) (67, 3.49915626974302909624e-02) (68, -1.31888178065127995020e-02) (69, 1.50000000000000000000e+03) (70, 1.50000000000000000000e+03) (71, 4.00428969290281613902e-02) (72, 1.88148597148838303550e-01) (73, 7.54466801895939953582e-02) (74, 2.61173886024208545820e-01) (75, 1.97982472529072833778e-01) (76, -1.97604093820859319508e-02) (77, 2.81400124934007345168e-01) (78, 3.10206796236597928673e-02) (79, 1.50000000000000000000e+03) (80, 1.50000000000000000000e+03) (81, 4.88031464767697889529e-02) (82, 1.04719970389409819389e-01) (83, 3.23942239269553955427e-01) (84, 6.69458865053930485267e-01) (85, 1.59483104252235385889e-01) (86, 7.15313905588275088243e-03) (87, -4.02182066072147917368e-02) (88, 4.48740438421588606205e-03) (89, 1.50000000000000000000e+03) (90, 1.50000000000000000000e+03) (91, 1.58707419352013850977e-01) (92, 3.63482922860899226869e-01) (93, 9.19679921349546639076e-03) (94, 3.88729602678783425773e-02) (95, 1.50191156774483136616e-01) (96, 7.58116246440853625010e-02) (97, -8.45818870998819687113e-03) (98, 7.66783851542729953665e-03) (99, 1.50000000000000000000e+03) (100, 1.50000000000000000000e+03) (101, 1.20700335980437042926e-01) (102, -9.99854251738150900941e-02) (103, -1.64069928729999647832e-01) (104, 4.11049563489118086057e-01) (105, 4.68171571206798819986e+00) (106, 1.00177608075226159956e-01) (107, -1.22741393050386005115e-01) (108, -2.18178130446505975926e-02) (109, 1.50000000000000000000e+03) (110, 1.50000000000000000000e+03) (111, 6.42500738222751138773e-02) (112, 2.69334468278179320344e-02) (113, 4.85581870853626085260e-02) (114, 1.39441550558792426440e-01) (115, 1.49468676195590288724e-01) (116, 1.10942013857176793867e-01) (117, 1.96662769684307653373e-01) (118, -8.22728194256969191933e-01) (119, 1.50000000000000000000e+03) (120, 1.50000000000000000000e+03) (121, -7.96746535001012223809e-02) (122, 4.41700576884951415235e-02) (123, 7.63637942106240169560e-02) (124, 1.79827908118948748273e-01) (125, 3.35666993349895484422e-04) (126, 2.37225497021108580609e-02) (127, -8.78849507444588382010e-03) (128, -5.92574936021808662545e-01) (129, 1.50000000000000000000e+03) (130, 1.50000000000000000000e+03) (131, 5.46662255845489442052e-01) (132, 1.20116141218817681913e-01) (133, 3.41317797850491810863e+00) (134, -3.14400376581091892114e-02) (135, 4.11776442655049812469e-01) (136, 4.27871193927106596711e-01) (137, 3.23982064449240603210e-01) (138, 1.85302223493456236225e-01) (139, 1.50000000000000000000e+03) (140, 1.50000000000000000000e+03) (141, 2.37385754138352583764e-01) (142, -5.91672154323288068678e-02) (143, -1.41162073415753736016e-01) (144, -6.59423453631352157744e-02) (145, -5.69274557652425655663e-02) (146, -1.73626674515242301888e-01) (147, -1.54717526692263393495e-02) (148, -1.14808052450219813534e-01) (149, 1.50000000000000000000e+03) (150, 1.50000000000000000000e+03) (151, 1.50000000000000000000e+03) (152, 1.50000000000000000000e+03) (153, 1.50000000000000000000e+03) (154, 1.50000000000000000000e+03) (155, 1.50000000000000000000e+03) (156, 1.50000000000000000000e+03) (157, 1.50000000000000000000e+03) (158, 1.50000000000000000000e+03) (159, 1.50000000000000000000e+03) (160, 1.11140880852430248837e-01) (0, 1.50000000000000000000e+03) (1, 1.50000000000000000000e+03) (2, 1.50000000000000000000e+03) (3, 1.50000000000000000000e+03) (4, 1.50000000000000000000e+03) (5, 1.50000000000000000000e+03) (6, 1.50000000000000000000e+03) (7, 1.50000000000000000000e+03) (8, 1.50000000000000000000e+03) (9, 1.50000000000000000000e+03) (10, 1.50000000000000000000e+03) (11, 1.50000000000000000000e+03) (12, 1.50000000000000000000e+03) (13, 1.50000000000000000000e+03) (14, 1.50000000000000000000e+03) (15, 1.50000000000000000000e+03) (16, 1.50000000000000000000e+03) (17, 1.50000000000000000000e+03) (18, 1.50000000000000000000e+03) (19, 1.50000000000000000000e+03) (20, 1.50000000000000000000e+03) (21, 1.50000000000000000000e+03) (22, -4.49085736314362576893e-02) (23, -3.03700023929196066819e-02) (24, 1.58874629392463301292e-01) (25, 2.19707156498439498682e-01) (26, 3.31013961808886980620e-01) (27, 2.94991521870913431247e-01) (28, 5.55442021109674582968e-02) (29, 1.50000000000000000000e+03) (30, 1.50000000000000000000e+03) (31, -8.02259612589011628092e-02) (32, -2.02948464673998879571e-01) (33, -3.68979528631110803572e-02) (34, 2.06214678645010363045e-01) (35, -2.51651892279164228483e-02) (36, -6.57617138955799845901e-02) (37, -8.98413171892493110648e-03) (38, -4.49433517296468978963e-02) (39, 1.50000000000000000000e+03) (40, 1.50000000000000000000e+03) (41, -1.09620657449988181953e-01) (42, 7.84468512036458689995e-03) (43, 2.46765906117170745471e-02) (44, -1.01479270767434293088e-01) (45, 1.62461699908698992134e-01) (46, 1.62943440799571091782e-02) (47, -1.13903465854949467739e-01) (48, -3.04844049018513252314e-01) (49, 1.50000000000000000000e+03) (50, 1.50000000000000000000e+03) (51, -1.18964835154206707846e-01) (52, 1.03732421529315138597e-01) (53, 6.54811819653797339003e-02) (54, -1.62515569267691999122e-02) (55, 4.01615138053604617263e-02) (56, 4.26220694444703826487e-02) (57, -7.20652816026162851282e-02) (58, -4.74557417600697389881e-02) (59, 1.50000000000000000000e+03) (60, 1.50000000000000000000e+03) (61, -1.36158133344564696854e-01) (62, 9.81549064848763648528e-03) (63, -4.45445305325348761549e-02) (64, 1.38535425217644031504e-01) (65, 1.85762801223621626390e-01) (66, -2.70707580925324022003e-02) (67, -1.48888552730339768226e-01) (68, -8.54709115905473992836e-02) (69, 1.50000000000000000000e+03) (70, 1.50000000000000000000e+03) (71, 1.53121319123918318839e-02) (72, -3.90573276702492963586e-02) (73, 1.18714890379500639245e-02) (74, -1.01366239854450743141e-01) (75, -4.10523612142303304107e-02) (76, -5.45938493928555951262e-02) (77, 2.13209234118745365183e-02) (78, -1.50992783865669305543e-01) (79, 1.50000000000000000000e+03) (80, 1.50000000000000000000e+03) (81, -8.99987241870383175568e-02) (82, 1.50792654533312710761e-03) (83, 5.94450185241529246993e-02) (84, 5.07376861771652240551e-02) (85, 1.40832318609323929592e-02) (86, 5.22408702274793218523e-02) (87, 1.66181153632552654209e-02) (88, -2.33048593444975041256e-02) (89, 1.50000000000000000000e+03) (90, 1.50000000000000000000e+03) (91, -7.59892240627049325719e-02) (92, -4.55298921582850332768e-02) (93, 1.84140178071328479426e-02) (94, 2.79734348561451115489e-02) (95, 8.20456642355804482980e-02) (96, -6.54845573990257834307e-02) (97, 4.18116670167671608538e-02) (98, -7.61496772663094040334e-02) (99, 1.50000000000000000000e+03) (100, 1.50000000000000000000e+03) (101, -1.05872761360691611254e-01) (102, -3.88904985337714878546e-02) (103, -9.56341644867292201004e-02) (104, 9.23317043369212796244e-03) (105, 1.95052629841263147625e-01) (106, -2.05422029562340249798e-02) (107, 3.28179394886681449761e-02) (108, -4.95581254274468849252e-02) (109, 1.50000000000000000000e+03) (110, 1.50000000000000000000e+03) (111, -1.33259457868882519316e-01) (112, -6.69099098963921723460e-02) (113, -2.61461932825571174988e-01) (114, -8.16689374827230113452e-02) (115, -1.63816355302556816709e-02) (116, 6.07452184216774725839e-03) (117, 1.21645342798029951203e-01) (118, -9.11310602124844604255e-02) (119, 1.50000000000000000000e+03) (120, 1.50000000000000000000e+03) (121, -4.64819123176074822101e-02) (122, -2.84785264013212163769e-02) (123, -4.04405314139616445246e-02) (124, -1.34646198644788328558e-01) (125, -1.05458257115137191140e-01) (126, -6.80865532853128646584e-02) (127, -1.21963737176828235231e-01) (128, -1.56344728771184326988e-01) (129, 1.50000000000000000000e+03) (130, 1.50000000000000000000e+03) (131, -2.12374257559546086860e-01) (132, 1.19770422623468722478e-01) (133, 5.95917059126608084085e-01) (134, 7.05040338852916725898e-01) (135, 7.01805234815629785938e-02) (136, 1.27145394459089622341e-01) (137, 2.82042055618244927317e-02) (138, -3.45278280317169838920e-01) (139, 1.50000000000000000000e+03) (140, 1.50000000000000000000e+03) (141, 3.19871668416873533580e-01) (142, -4.26595157334989927289e-02) (143, 1.74063217168202583052e-01) (144, 1.03378396754616852515e-01) (145, 4.34296618155188274280e-02) (146, 1.83694552903522878573e-01) (147, 1.77451660982969827707e-01) (148, 3.53604647896312740407e-01) (149, 1.50000000000000000000e+03) (150, 1.50000000000000000000e+03) (151, 1.50000000000000000000e+03) (152, 1.50000000000000000000e+03) (153, 1.50000000000000000000e+03) (154, 1.50000000000000000000e+03) (155, 1.50000000000000000000e+03) (156, 1.50000000000000000000e+03) (157, 1.50000000000000000000e+03) (158, 1.50000000000000000000e+03) (159, 1.50000000000000000000e+03) (160, 9.73590296992305620494e-02) (0, 1.50000000000000000000e+03) (1, 1.50000000000000000000e+03) (2, 1.50000000000000000000e+03) (3, 1.50000000000000000000e+03) (4, 1.50000000000000000000e+03) (5, 1.50000000000000000000e+03) (6, 1.50000000000000000000e+03) (7, 1.50000000000000000000e+03) (8, 1.50000000000000000000e+03) (9, 1.50000000000000000000e+03) (10, 1.50000000000000000000e+03) (11, 1.50000000000000000000e+03) (12, 1.50000000000000000000e+03) (13, 1.50000000000000000000e+03) (14, 1.50000000000000000000e+03) (15, 1.50000000000000000000e+03) (16, 1.50000000000000000000e+03) (17, 1.50000000000000000000e+03) (18, 1.50000000000000000000e+03) (19, 1.50000000000000000000e+03) (20, 1.50000000000000000000e+03) (21, 1.50000000000000000000e+03) (22, 5.11976081754990208772e-01) (23, 5.55549073841397622608e-01) (24, -4.80252572105789310442e-02) (25, 2.95386850747394402728e-01) (26, -8.43938641090408614431e-01) (27, -1.71615473429297532570e-01) (28, 1.12757116185151440302e-01) (29, 1.50000000000000000000e+03) (30, 1.50000000000000000000e+03) (31, 3.86880920533334143885e-02) (32, 8.76450446881393702148e-02) (33, -1.42810843691293182234e-01) (34, -2.40283235305772224777e-01) (35, -3.27071880333836412236e-02) (36, 1.00087700055754499906e-02) (37, -1.46960562898470398219e-01) (38, -1.20474648813799489755e-01) (39, 1.50000000000000000000e+03) (40, 1.50000000000000000000e+03) (41, 9.29252751314034730612e-02) (42, -2.90469733311095712480e-01) (43, -1.52053130292593347006e-01) (44, 4.21526060767818261388e-02) (45, -2.15553365416515735342e-01) (46, -7.44850068711999831195e-03) (47, -9.03434903325723709377e-02) (48, -4.71959319437432120448e-02) (49, 1.50000000000000000000e+03) (50, 1.50000000000000000000e+03) (51, -6.70338162939707465915e-02) (52, -5.82381575768388254355e-02) (53, -8.40188378328332041711e-02) (54, -1.12279306335827544494e+00) (55, -1.13358849487260868183e-01) (56, 9.53480157079645146423e-02) (57, -1.74241799339258041091e-01) (58, -5.43154490620260874123e-02) (59, 1.50000000000000000000e+03) (60, 1.50000000000000000000e+03) (61, -1.91911598248724474258e-02) (62, 1.01417480367977888567e-01) (63, 2.56996215283035248089e-02) (64, -3.88629552074607365064e-01) (65, 1.79676765980011955703e-02) (66, 8.61732152932373658694e-03) (67, -3.66805914460293022716e-02) (68, 9.05125240278920190073e-02) (69, 1.50000000000000000000e+03) (70, 1.50000000000000000000e+03) (71, -2.28506513388667190090e-03) (72, -8.78110744179705013379e-03) (73, -2.72404047813867067340e-01) (74, 1.98569745843671686958e-02) (75, -2.76122929486264490073e-01) (76, -1.35733908996735763708e-01) (77, -8.82857148151817705539e-02) (78, -1.03501820878286771022e-01) (79, 1.50000000000000000000e+03) (80, 1.50000000000000000000e+03) (81, -6.94008560653529560369e-01) (82, -3.89157938383354259915e-02) (83, -4.06148832353730379618e-02) (84, 4.77222454337978413408e-02) (85, 3.48941779298039562313e-03) (86, -2.76695724852915159175e-01) (87, -7.22443053386223332790e-02) (88, 4.56124838781553465505e-01) (89, 1.50000000000000000000e+03) (90, 1.50000000000000000000e+03) (91, -7.37731658195234923925e-02) (92, 1.19410254301322252268e-01) (93, -2.39424108941946219009e-02) (94, -7.58280554362942005309e-02) (95, -3.83227295384132998768e-02) (96, 3.41372468708561185510e-03) (97, -5.51620783082657911711e-02) (98, 3.77931922695372360388e-02) (99, 1.50000000000000000000e+03) (100, 1.50000000000000000000e+03) (101, -3.03517067727611722372e-01) (102, -3.59961123799856730354e-01) (103, -5.54569318198196437031e-01) (104, -2.69141341475461648436e-01) (105, -7.64136144387116827970e-02) (106, -8.12119712484492273230e-02) (107, -1.53526766409764592325e-01) (108, -4.70400297979498074885e-02) (109, 1.50000000000000000000e+03) (110, 1.50000000000000000000e+03) (111, 1.58851977236036008556e-02) (112, -5.62157679583062536155e-02) (113, 3.28062983633634324548e-03) (114, 4.24122234377407800188e-02) (115, -1.72926853257979254441e-02) (116, -5.24764947904673012546e-02) (117, -1.18230982727119210418e-01) (118, -8.76125593785476164399e-02) (119, 1.50000000000000000000e+03) (120, 1.50000000000000000000e+03) (121, -1.29468276712457391886e-01) (122, 1.30511239171814275722e-02) (123, -8.10355901038623538390e-02) (124, -2.16095610022188938659e-01) (125, -2.30860386800273736929e-01) (126, -2.39161985620674547026e-02) (127, -5.25635414789056738816e-03) (128, 9.30031950041022847930e-02) (129, 1.50000000000000000000e+03) (130, 1.50000000000000000000e+03) (131, 3.83887541993775227578e-01) (132, -7.64451963542014528707e-02) (133, -2.01142553793147382812e-01) (134, -2.47131086941144550995e-01) (135, 2.10220278600708881944e-01) (136, 2.74300740297249767696e-01) (137, 2.99638623416141891553e-01) (138, 4.14499254071175826653e-01) (139, 1.50000000000000000000e+03) (140, 1.50000000000000000000e+03) (141, 8.25834217801211661891e-02) (142, 5.20021445827262979167e-02) (143, -7.35849490689804153210e-02) (144, -2.98558308954612267386e-03) (145, -7.76743045377304430765e-02) (146, -6.07553584801715854113e-02) (147, -1.33441194935941309652e-01) (148, -1.35119421736866224260e-01) (149, 1.50000000000000000000e+03) (150, 1.50000000000000000000e+03) (151, 1.50000000000000000000e+03) (152, 1.50000000000000000000e+03) (153, 1.50000000000000000000e+03) (154, 1.50000000000000000000e+03) (155, 1.50000000000000000000e+03) (156, 1.50000000000000000000e+03) (157, 1.50000000000000000000e+03) (158, 1.50000000000000000000e+03) (159, 1.50000000000000000000e+03) (160, -7.18354707308907491914e-01) (0, 1.50000000000000000000e+03) (1, 1.50000000000000000000e+03) (2, 1.50000000000000000000e+03) (3, 1.50000000000000000000e+03) (4, 1.50000000000000000000e+03) (5, 1.50000000000000000000e+03) (6, 1.50000000000000000000e+03) (7, 1.50000000000000000000e+03) (8, 1.50000000000000000000e+03) (9, 1.50000000000000000000e+03) (10, 1.50000000000000000000e+03) (11, 1.50000000000000000000e+03) (12, 1.50000000000000000000e+03) (13, 1.50000000000000000000e+03) (14, 1.50000000000000000000e+03) (15, 1.50000000000000000000e+03) (16, 1.50000000000000000000e+03) (17, 1.50000000000000000000e+03) (18, 1.50000000000000000000e+03) (19, 1.50000000000000000000e+03) (20, 1.50000000000000000000e+03) (21, 1.50000000000000000000e+03) (22, 6.54723822817262046669e-01) (23, 7.21636675044949882363e-01) (24, 1.10505401709363693108e+00) (25, 7.59272921506262132851e-01) (26, 5.38706903923336866136e-01) (27, 1.81003126415146931016e-01) (28, 1.77329671945716249581e+00) (29, 1.50000000000000000000e+03) (30, 1.50000000000000000000e+03) (31, 3.20569838532418993626e-01) (32, 5.44180259896604123782e-01) (33, 6.59288649845261143234e-01) (34, 5.77226889514884655696e-01) (35, 3.66835312144443204119e-01) (36, 5.98753827975536334627e-01) (37, 3.76218571223408682069e-01) (38, 3.88726139294751138475e-01) (39, 1.50000000000000000000e+03) (40, 1.50000000000000000000e+03) (41, 4.18681971054120805054e-01) (42, 3.02488131816026406540e-01) (43, 5.31895753992722930548e-01) (44, 4.57977939563673719370e-01) (45, 3.44346001174367866149e-01) (46, 5.18987315022959805333e-01) (47, 4.33275588585821214149e-01) (48, 5.24584197102126115198e-01) (49, 1.50000000000000000000e+03) (50, 1.50000000000000000000e+03) (51, 4.32156125206423769036e-01) (52, 5.93783856401666421121e-01) (53, 5.40769026133351204955e-01) (54, 5.36724370858440047449e-01) (55, 5.61336470451243352286e-01) (56, 5.77684001470226027308e-01) (57, 5.17974977663359092972e-01) (58, 6.77064679843942585080e-01) (59, 1.50000000000000000000e+03) (60, 1.50000000000000000000e+03) (61, 4.61104585212501250080e-01) (62, 4.01901761079221764295e-01) (63, 2.93816548364795593340e-01) (64, 3.86485753089573003116e-01) (65, 3.40131958796445310611e-01) (66, 4.48475621727928763782e-01) (67, 4.61418015345934628968e-01) (68, 4.66891995881143717639e-01) (69, 1.50000000000000000000e+03) (70, 1.50000000000000000000e+03) (71, 3.40692494199482054373e-01) (72, 4.41137263304149318532e-01) (73, 3.17066423016984288985e-01) (74, 6.41227337378336370577e-01) (75, 6.29689789001841915272e-01) (76, 7.87903503973967467289e-01) (77, 3.70530112290229751704e-01) (78, 5.82773299321796667272e-01) (79, 1.50000000000000000000e+03) (80, 1.50000000000000000000e+03) (81, 4.35612566670820544612e-01) (82, 3.26469725949886102612e-01) (83, 4.92878363286292697776e-01) (84, 1.08359267732353092839e+00) (85, 5.20044726265153411937e-01) (86, 5.94849801836745961658e-01) (87, 3.48916975932693329554e-01) (88, 1.64971088673286359061e-01) (89, 1.50000000000000000000e+03) (90, 1.50000000000000000000e+03) (91, 5.02181268464555352615e-01) (92, 5.33679804435845506205e-01) (93, 3.30796637699295015267e-01) (94, 4.12663598117617103078e-01) (95, 1.90691586019973935429e-01) (96, 2.74634073212000895392e-01) (97, 3.05473766229386489712e-01) (98, 3.18965827579648197876e-01) (99, 1.50000000000000000000e+03) (100, 1.50000000000000000000e+03) (101, 3.57182695025317409332e-01) (102, 3.39168591378131378811e-01) (103, 3.95933776219261179818e-01) (104, 6.48400149155158977976e-01) (105, 4.13701528005289920209e-01) (106, 4.70587099986722712242e-01) (107, 1.79505398331948423651e-01) (108, 3.76611445221087692836e-01) (109, 1.50000000000000000000e+03) (110, 1.50000000000000000000e+03) (111, 4.72193483944854552892e-01) (112, 3.22364145654372935557e-01) (113, 2.72945435315578910362e-01) (114, 2.27725676830007883744e-01) (115, 4.56914428062687505427e-01) (116, 2.91009610943308794084e-01) (117, 4.39024415521029831577e-01) (118, 5.15960268652523312838e-01) (119, 1.50000000000000000000e+03) (120, 1.50000000000000000000e+03) (121, 2.98985742383344854645e-01) (122, 4.41081750335760414128e-01) (123, 2.74217313973377341263e-01) (124, 3.00379397309675888472e-01) (125, 1.42727075066257591551e-01) (126, 3.15826518357372132417e-01) (127, 3.47153609719292433056e-01) (128, 7.60957755811651148647e-01) (129, 1.50000000000000000000e+03) (130, 1.50000000000000000000e+03) (131, 1.34457274624024258891e+00) (132, -2.16330770583927822770e+00) (133, 3.56978815411029604121e+00) (134, 4.66145819458311960748e-01) (135, 4.57959954095106869243e-01) (136, 1.04011916064578624486e+00) (137, 9.58885548253198494173e-01) (138, 1.03675600660304367828e+00) (139, 1.50000000000000000000e+03) (140, 1.50000000000000000000e+03) (141, 6.64959708289061590669e-01) (142, 3.00678122809931558379e-01) (143, 2.72105105451984852216e-01) (144, 1.43687129251393930218e-01) (145, 3.02628778151913135908e-01) (146, 1.79612420730027810833e-01) (147, 5.29324322500815611092e-02) (148, 1.16694431448088470349e-01) (149, 1.50000000000000000000e+03) (150, 1.50000000000000000000e+03) (151, 1.50000000000000000000e+03) (152, 1.50000000000000000000e+03) (153, 1.50000000000000000000e+03) (154, 1.50000000000000000000e+03) (155, 1.50000000000000000000e+03) (156, 1.50000000000000000000e+03) (157, 1.50000000000000000000e+03) (158, 1.50000000000000000000e+03) (159, 1.50000000000000000000e+03) (160, 3.49940219161860854857e-01) (0, 1.50000000000000000000e+03) (1, 1.50000000000000000000e+03) (2, 1.50000000000000000000e+03) (3, 1.50000000000000000000e+03) (4, 1.50000000000000000000e+03) (5, 1.50000000000000000000e+03) (6, 1.50000000000000000000e+03) (7, 1.50000000000000000000e+03) (8, 1.50000000000000000000e+03) (9, 1.50000000000000000000e+03) (10, 1.50000000000000000000e+03) (11, 1.50000000000000000000e+03) (12, 1.50000000000000000000e+03) (13, 1.50000000000000000000e+03) (14, 1.50000000000000000000e+03) (15, 1.50000000000000000000e+03) (16, 1.50000000000000000000e+03) (17, 1.50000000000000000000e+03) (18, 1.50000000000000000000e+03) (19, 1.50000000000000000000e+03) (20, 1.50000000000000000000e+03) (21, 1.50000000000000000000e+03) (22, 4.40241683540581962841e-01) (23, 4.42353498456715843457e-01) (24, 2.40418202898209143470e-01) (25, 3.66498631055964252390e-01) (26, 5.21365049028576166279e-01) (27, -1.70076434140441185017e-01) (28, 1.43525300274567246817e+00) (29, 1.50000000000000000000e+03) (30, 1.50000000000000000000e+03) (31, -3.04280873937572915455e-01) (32, 1.22866113470343249481e-01) (33, 4.93376431655272451593e-01) (34, 1.82269680139305584321e-01) (35, 2.21803233243495545590e-01) (36, 2.58907564665718181729e-01) (37, 1.45461988265524533315e-01) (38, 3.41736065870339583705e-02) (39, 1.50000000000000000000e+03) (40, 1.50000000000000000000e+03) (41, 3.51164208389795479137e-02) (42, 2.10999288527578404695e-01) (43, 2.52627875288916059482e-01) (44, -2.21314345833215436743e-01) (45, -1.35916046313225691300e+00) (46, 2.50765865928259779061e-01) (47, 1.99252797664282471635e-01) (48, 1.06987301841929546842e-01) (49, 1.50000000000000000000e+03) (50, 1.50000000000000000000e+03) (51, -5.01963699516016353952e-02) (52, 1.60838985627863334527e-01) (53, 5.86151826322857671947e-01) (54, 5.84809282389135209890e-01) (55, 2.78518923064503154396e-01) (56, 3.95842952465022213104e-01) (57, 6.94999147777470710485e-02) (58, -4.32865939101444663351e-01) (59, 1.50000000000000000000e+03) (60, 1.50000000000000000000e+03) (61, 4.20621802379918391379e-02) (62, 1.41368324848927889859e-01) (63, 5.29288368723318265047e-03) (64, -1.25579987175426954771e-01) (65, 1.45262198097227762661e-01) (66, 8.29621335497459921893e-02) (67, 6.14769640255736840584e-02) (68, 1.20638813576221679003e-01) (69, 1.50000000000000000000e+03) (70, 1.50000000000000000000e+03) (71, 3.48075812992301308890e-02) (72, 6.75214048945624173426e-02) (73, -3.13252441895799149663e-01) (74, 2.78826256228631552680e-01) (75, 1.32293592091832334923e-01) (76, 1.14196102389406139999e-01) (77, 1.82504024712652285212e-01) (78, -3.29483643323589314722e-01) (79, 1.50000000000000000000e+03) (80, 1.50000000000000000000e+03) (81, 1.07739551597185734266e-01) (82, 7.13886133842189657406e-02) (83, 1.70926364508664468955e-01) (84, 1.30003634758013686401e+00) (85, 3.24752193252391574418e-01) (86, 1.84846491433826642936e-01) (87, -1.19999622354559923321e-01) (88, -8.14347340215293286070e-02) (89, 1.50000000000000000000e+03) (90, 1.50000000000000000000e+03) (91, 7.73659839438756713470e-02) (92, 1.15766214283334223367e-01) (93, 2.85774060781421035404e-01) (94, 2.06864761168571470451e-01) (95, 1.44456959263172257657e-01) (96, -1.43648287279774487801e-02) (97, -2.56939666529557020347e-02) (98, -6.67958574914936931144e-02) (99, 1.50000000000000000000e+03) (100, 1.50000000000000000000e+03) (101, -1.18790704696067617174e-01) (102, -1.70493574654983381933e-01) (103, 1.51867237367616891852e+00) (104, 2.11140171991682068509e+00) (105, 2.13225222475335207672e-01) (106, 1.33351565926781268079e-01) (107, 6.23889965319038564129e-02) (108, -1.77474818488736862943e-01) (109, 1.50000000000000000000e+03) (110, 1.50000000000000000000e+03) (111, 1.17170481837814255410e-01) (112, 9.77959273929276673432e-02) (113, -8.30238531125673584476e-01) (114, 4.24743664283161681539e+00) (115, 2.93121800148485600612e-01) (116, -3.91098534919547338728e-03) (117, -6.01863798476065456344e-02) (118, 4.78377042096734123033e-02) (119, 1.50000000000000000000e+03) (120, 1.50000000000000000000e+03) (121, 9.01401455904173899703e-03) (122, 1.47700469394513977939e-01) (123, 4.70610060123871076776e-01) (124, 1.24848054249985476738e-01) (125, 8.49513025828094181513e-02) (126, 2.81208040220051025404e-01) (127, 5.71441101763485725940e-01) (128, -2.25312302031764583043e-01) (129, 1.50000000000000000000e+03) (130, 1.50000000000000000000e+03) (131, 1.18295862952605324026e+00) (132, 1.80141268325129555450e-01) (133, -7.46824129363035216222e-01) (134, 1.21484887331483459860e+00) (135, 2.81883119654885971883e+00) (136, 2.39847500392057294549e-01) (137, 1.79308205095698197651e-01) (138, 8.02405962102726022511e-02) (139, 1.50000000000000000000e+03) (140, 1.50000000000000000000e+03) (141, 4.57640371967803827324e-01) (142, 4.10946803427043802492e-02) (143, -4.47102909717342622553e-01) (144, -5.02687630984565703152e-01) (145, -4.57497199806949861323e-01) (146, -5.15602668556949694789e-01) (147, -1.37814207112665537691e-01) (148, -1.92193514349278032904e-01) (149, 1.50000000000000000000e+03) (150, 1.50000000000000000000e+03) (151, 1.50000000000000000000e+03) (152, 1.50000000000000000000e+03) (153, 1.50000000000000000000e+03) (154, 1.50000000000000000000e+03) (155, 1.50000000000000000000e+03) (156, 1.50000000000000000000e+03) (157, 1.50000000000000000000e+03) (158, 1.50000000000000000000e+03) (159, 1.50000000000000000000e+03) (160, -1.94674289855092975954e-02) (0, 1.50000000000000000000e+03) (1, 1.50000000000000000000e+03) (2, 1.50000000000000000000e+03) (3, 1.50000000000000000000e+03) (4, 1.50000000000000000000e+03) (5, 1.50000000000000000000e+03) (6, 1.50000000000000000000e+03) (7, 1.50000000000000000000e+03) (8, 1.50000000000000000000e+03) (9, 1.50000000000000000000e+03) (10, 1.50000000000000000000e+03) (11, 1.50000000000000000000e+03) (12, 1.50000000000000000000e+03) (13, 1.50000000000000000000e+03) (14, 1.50000000000000000000e+03) (15, 1.50000000000000000000e+03) (16, 1.50000000000000000000e+03) (17, 1.50000000000000000000e+03) (18, 1.50000000000000000000e+03) (19, 1.50000000000000000000e+03) (20, 1.50000000000000000000e+03) (21, 1.50000000000000000000e+03) (22, 6.04637591197348056582e-01) (23, 5.57841939880709736244e-01) (24, 6.24155521279954772496e-01) (25, 7.16553637716071278874e-01) (26, 1.75665416318258604811e-01) (27, 3.42151742111618695219e-01) (28, 6.86560617433507935914e-01) (29, 1.50000000000000000000e+03) (30, 1.50000000000000000000e+03) (31, 4.49055033625319233170e-01) (32, 6.27058895264324567265e-01) (33, 3.91713159185270942686e-01) (34, 2.46021790623678321408e-01) (35, 2.36725888655264060656e-01) (36, 3.73330082850443056852e-01) (37, 5.40627882211733856721e-01) (38, 5.95934048664635285242e-01) (39, 1.50000000000000000000e+03) (40, 1.50000000000000000000e+03) (41, 4.46966400290121246286e-01) (42, 5.45729866009769915003e-01) (43, 3.83228851408066450990e-01) (44, 4.48342992219710301249e-01) (45, 3.46157352680827479219e-01) (46, 3.79597120040753133186e-01) (47, 5.99225363926000120784e-01) (48, 5.17218190789489939974e-01) (49, 1.50000000000000000000e+03) (50, 1.50000000000000000000e+03) (51, 5.99253669148343770523e-01) (52, 3.27010616043235058381e-01) (53, 4.78012653734797676730e-01) (54, 3.85687180134041907031e-01) (55, 4.54525679160292350733e-01) (56, 4.76814757962336521757e-01) (57, 5.24511072417498946940e-01) (58, 5.45559327409924077479e-01) (59, 1.50000000000000000000e+03) (60, 1.50000000000000000000e+03) (61, 5.56742399507953789062e-01) (62, 4.72816851854351127837e-01) (63, 6.02281822112725073737e-01) (64, 4.26095251574742150957e-01) (65, 5.89504973769979900844e-01) (66, 5.99855511095493953988e-01) (67, 4.95111708404070927081e-01) (68, 5.12303688845225368986e-01) (69, 1.50000000000000000000e+03) (70, 1.50000000000000000000e+03) (71, 5.64769333289520614194e-01) (72, 4.95734653388831825183e-01) (73, 3.14187309983309126515e-01) (74, 4.71910440641264583572e-01) (75, 4.38906230570247690714e-01) (76, 5.73935766467681407477e-01) (77, 5.40153957590749578266e-01) (78, 5.75286447756263252806e-01) (79, 1.50000000000000000000e+03) (80, 1.50000000000000000000e+03) (81, 4.93209467566477932632e-01) (82, 4.69820457077324116213e-01) (83, 5.05001161771144402302e-01) (84, 5.23792820873619668909e-01) (85, 3.61319452790980544243e-01) (86, 4.48932134102193292069e-01) (87, 4.04834753095929644751e-01) (88, 3.93027014693303089476e-01) (89, 1.50000000000000000000e+03) (90, 1.50000000000000000000e+03) (91, 4.36504200800136354932e-01) (92, 5.41827975588914934058e-01) (93, 3.67259183447560921820e-01) (94, 5.67457477615414318528e-01) (95, 3.88611662103678368041e-01) (96, 3.18311200395273607988e-01) (97, 4.05547954215401740274e-01) (98, 5.35043311919723874048e-01) (99, 1.50000000000000000000e+03) (100, 1.50000000000000000000e+03) (101, 5.49302963952388201285e-01) (102, 4.15534512883548201589e-01) (103, 4.52382447793006847725e-01) (104, 6.77714769147853779430e-01) (105, 4.36076248554177703376e-01) (106, 5.87216567666797861769e-01) (107, 4.10890274029584612325e-01) (108, 3.85560022723304252068e-01) (109, 1.50000000000000000000e+03) (110, 1.50000000000000000000e+03) (111, 5.18168725631753313010e-01) (112, 5.60048962255941251698e-01) (113, 7.45840431645228063573e-01) (114, 6.98503769432639254333e-01) (115, 4.72489973476764746341e-01) (116, 4.51507409698088058025e-01) (117, 4.05287285113320849828e-01) (118, 5.38253367975830343539e-01) (119, 1.50000000000000000000e+03) (120, 1.50000000000000000000e+03) (121, 4.02876463179287047645e-01) (122, 5.46377156975836442143e-01) (123, 5.66119693368924981058e-01) (124, 5.03798596269060428021e-01) (125, 4.59268018634772623443e-01) (126, 4.94792568175130120789e-01) (127, 3.05728947483271396024e-01) (128, 6.97343482186272067835e-01) (129, 1.50000000000000000000e+03) (130, 1.50000000000000000000e+03) (131, 7.93068629652158962884e-01) (132, 6.69742034233535288301e-01) (133, 5.83174483464618753636e-01) (134, 2.19865849998317569591e-01) (135, 4.53142411898265484727e-02) (136, 6.26458621458191533549e-01) (137, 5.85875641370393607232e-01) (138, 7.97796994764807587686e-01) (139, 1.50000000000000000000e+03) (140, 1.50000000000000000000e+03) (141, 5.61855666322949365288e-01) (142, 4.89510193178158858895e-01) (143, 4.21097704888435619974e-01) (144, 2.97660203398319611612e-01) (145, 3.69938032449337261820e-01) (146, 4.96347943068596475502e-01) (147, 4.05556486577939245830e-01) (148, 4.41888421489337379633e-01) (149, 1.50000000000000000000e+03) (150, 1.50000000000000000000e+03) (151, 1.50000000000000000000e+03) (152, 1.50000000000000000000e+03) (153, 1.50000000000000000000e+03) (154, 1.50000000000000000000e+03) (155, 1.50000000000000000000e+03) (156, 1.50000000000000000000e+03) (157, 1.50000000000000000000e+03) (158, 1.50000000000000000000e+03) (159, 1.50000000000000000000e+03) (160, 4.60650022319174123897e-01) (0, 1.50000000000000000000e+03) (1, 1.50000000000000000000e+03) (2, 1.50000000000000000000e+03) (3, 1.50000000000000000000e+03) (4, 1.50000000000000000000e+03) (5, 1.50000000000000000000e+03) (6, 1.50000000000000000000e+03) (7, 1.50000000000000000000e+03) (8, 1.50000000000000000000e+03) (9, 1.50000000000000000000e+03) (10, 1.50000000000000000000e+03) (11, 1.50000000000000000000e+03) (12, 1.50000000000000000000e+03) (13, 1.50000000000000000000e+03) (14, 1.50000000000000000000e+03) (15, 1.50000000000000000000e+03) (16, 1.50000000000000000000e+03) (17, 1.50000000000000000000e+03) (18, 1.50000000000000000000e+03) (19, 1.50000000000000000000e+03) (20, 1.50000000000000000000e+03) (21, 1.50000000000000000000e+03) (22, 6.31847066833830184329e-01) (23, 4.98509665980200189495e-01) (24, 7.81297401479097319843e-01) (25, 6.80945726069705159489e-01) (26, 1.88855119544348082350e-01) (27, 2.75586794744899166165e-01) (28, 5.90961241768319878176e-01) (29, 1.50000000000000000000e+03) (30, 1.50000000000000000000e+03) (31, 5.05353855789854811142e-01) (32, 6.27431200776752850956e-01) (33, 4.16255397748570121763e-01) (34, 3.94923163771644603059e-01) (35, 3.23896295831287983624e-01) (36, 4.11506485722062387289e-01) (37, 5.74441358774231858320e-01) (38, 5.61290488016670918725e-01) (39, 1.50000000000000000000e+03) (40, 1.50000000000000000000e+03) (41, 5.78021092260469382396e-01) (42, 5.49770405274448870081e-01) (43, 3.90351658612789809144e-01) (44, 4.36715794954085301249e-01) (45, 2.77521767118384943274e-01) (46, 4.73695048524373774068e-01) (47, 5.91876722172803404476e-01) (48, 5.92401291787891914886e-01) (49, 1.50000000000000000000e+03) (50, 1.50000000000000000000e+03) (51, 5.86735367542165597854e-01) (52, 4.25911984720851177766e-01) (53, 4.79384352841586314220e-01) (54, 3.50528912847917484275e-01) (55, 4.39883351136381828272e-01) (56, 4.40663639385809879911e-01) (57, 5.09826007863284469401e-01) (58, 5.49129884050549077479e-01) (59, 1.50000000000000000000e+03) (60, 1.50000000000000000000e+03) (61, 5.36942585879756961731e-01) (62, 4.57741164535310829375e-01) (63, 5.67705406097099629648e-01) (64, 3.78939487620817971880e-01) (65, 4.54678306163149414942e-01) (66, 5.20271769371003500737e-01) (67, 4.25049451054579807696e-01) (68, 4.32048560401984360624e-01) (69, 1.50000000000000000000e+03) (70, 1.50000000000000000000e+03) (71, 5.94694873379125188428e-01) (72, 4.06025177752349697435e-01) (73, 3.88515926244791254263e-01) (74, 5.17265671211104116622e-01) (75, 5.46193831206729929484e-01) (76, 4.76987522790065177070e-01) (77, 5.91295309052159878682e-01) (78, 5.35784490160915449763e-01) (79, 1.50000000000000000000e+03) (80, 1.50000000000000000000e+03) (81, 5.70235842204558918134e-01) (82, 5.89858295893966544376e-01) (83, 4.49306581693019346790e-01) (84, 4.04505710008503494013e-01) (85, 3.97733025519614424859e-01) (86, 3.45709480832425586350e-01) (87, 4.71326457530086062597e-01) (88, 4.98361494055075626708e-01) (89, 1.50000000000000000000e+03) (90, 1.50000000000000000000e+03) (91, 5.04790336592868649213e-01) (92, 6.22022076326486872411e-01) (93, 3.75352443676194802435e-01) (94, 5.85743616388378796067e-01) (95, 3.40369476838852547118e-01) (96, 3.40393722906755735735e-01) (97, 5.15704214646214631479e-01) (98, 5.49844337310348874048e-01) (99, 1.50000000000000000000e+03) (100, 1.50000000000000000000e+03) (101, 5.12675760726298723746e-01) (102, 4.33314056879405440359e-01) (103, 4.68996218069314907417e-01) (104, 5.37047040068132086610e-01) (105, 4.73411458102651061530e-01) (106, 5.00607680948052746750e-01) (107, 4.80354391318167928127e-01) (108, 3.90699179899322013299e-01) (109, 1.50000000000000000000e+03) (110, 1.50000000000000000000e+03) (111, 6.01609886251012193625e-01) (112, 3.69375126680360710285e-01) (113, 7.20036836446913741661e-01) (114, 4.47966305727062141795e-01) (115, 3.30159387385394853531e-01) (116, 4.74459903744264943626e-01) (117, 4.13673517072186969212e-01) (118, 4.75612984136222161080e-01) (119, 1.50000000000000000000e+03) (120, 1.50000000000000000000e+03) (121, 4.00685299579795928260e-01) (122, 5.76607872846693680913e-01) (123, 4.01335932398574402047e-01) (124, 4.66840624831184158872e-01) (125, 4.83056309327143162946e-01) (126, 3.30395223318470099283e-01) (127, 3.93503604196280165617e-01) (128, 6.88072233011200351527e-01) (129, 1.50000000000000000000e+03) (130, 1.50000000000000000000e+03) (131, 7.35734524738234973995e-01) (132, 5.84433854485175929838e-01) (133, 7.23748050047243407512e-01) (134, -4.80575682242782131759e-01) (135, -2.78856250234534974730e-01) (136, 5.79177449047053927167e-01) (137, 5.85962356000814033052e-01) (138, 8.38827298422000655620e-01) (139, 1.50000000000000000000e+03) (140, 1.50000000000000000000e+03) (141, 6.79055381549837466792e-01) (142, 5.57771913418275144814e-01) (143, 3.47263475627752560282e-01) (144, 4.54746389509292858744e-01) (145, 4.06723925591560619974e-01) (146, 4.17643116534801739359e-01) (147, 3.79470051855992529521e-01) (148, 3.08654777421096038204e-01) (149, 1.50000000000000000000e+03) (150, 1.50000000000000000000e+03) (151, 1.50000000000000000000e+03) (152, 1.50000000000000000000e+03) (153, 1.50000000000000000000e+03) (154, 1.50000000000000000000e+03) (155, 1.50000000000000000000e+03) (156, 1.50000000000000000000e+03) (157, 1.50000000000000000000e+03) (158, 1.50000000000000000000e+03) (159, 1.50000000000000000000e+03) (160, 3.55079224580955588042e-01) (0, 1.50000000000000000000e+03) (1, 1.50000000000000000000e+03) (2, 1.50000000000000000000e+03) (3, 1.50000000000000000000e+03) (4, 1.50000000000000000000e+03) (5, 1.50000000000000000000e+03) (6, 1.50000000000000000000e+03) (7, 1.50000000000000000000e+03) (8, 1.50000000000000000000e+03) (9, 1.50000000000000000000e+03) (10, 1.50000000000000000000e+03) (11, 1.50000000000000000000e+03) (12, 1.50000000000000000000e+03) (13, 1.50000000000000000000e+03) (14, 1.50000000000000000000e+03) (15, 1.50000000000000000000e+03) (16, 1.50000000000000000000e+03) (17, 1.50000000000000000000e+03) (18, 1.50000000000000000000e+03) (19, 1.50000000000000000000e+03) (20, 1.50000000000000000000e+03) (21, 1.50000000000000000000e+03) (22, -1.81324498395040098475e-02) (23, -6.41590596775115928896e-02) (24, 1.95391962631778243198e-01) (25, 8.02723383200280027339e-02) (26, 3.12245651262011869598e-01) (27, 2.42806463277159739755e-01) (28, -3.23265335778253563165e-03) (29, 1.50000000000000000000e+03) (30, 1.50000000000000000000e+03) (31, -4.01912386147629807631e-02) (32, -1.92545428817267660904e-01) (33, -3.71054738844771858641e-02) (34, 8.21546215413819086448e-02) (35, 9.43828759699296693242e-02) (36, 6.08601512497320730477e-03) (37, 2.96985225232956236152e-02) (38, -6.98930163130644654945e-02) (39, 1.50000000000000000000e+03) (40, 1.50000000000000000000e+03) (41, -1.04815011284873860209e-01) (42, 8.69479349997410305706e-03) (43, 1.19232793270782587436e-02) (44, -1.56456183049376140737e-01) (45, 1.12583765750853520560e-01) (46, 5.40482353075532120923e-02) (47, 3.50413029360054154027e-02) (48, -5.49354035162518239410e-01) (49, 1.50000000000000000000e+03) (50, 1.50000000000000000000e+03) (51, -1.06254106950567889234e-01) (52, -4.64602765264572822868e-02) (53, -2.16754883326689823386e-02) (54, 9.90951262124562942679e-02) (55, -3.24392062738782177914e-03) (56, -2.77188580653499883066e-02) (57, 4.65561802101359459294e-02) (58, 4.61120109940691066952e-02) (59, 1.50000000000000000000e+03) (60, 1.50000000000000000000e+03) (61, -1.43517659094154325511e-02) (62, 5.00806418993266014295e-02) (63, -1.36162872987637462163e-01) (64, -1.51710984796012398473e-02) (65, -3.51095142285062569720e-02) (66, -1.48064392851072118562e-01) (67, -1.12028971391570031368e-01) (68, 2.90832566674683427876e-02) (69, 1.50000000000000000000e+03) (70, 1.50000000000000000000e+03) (71, -1.54457810907008136203e-01) (72, -1.08583780658253858942e-01) (73, -7.87834025640672258595e-02) (74, 7.44260972736755788137e-02) (75, -5.96124725951288417236e-02) (76, -1.26788123769986521561e-01) (77, -9.92388314514656005860e-02) (78, -1.10673563814538980510e-01) (79, 1.50000000000000000000e+03) (80, 1.50000000000000000000e+03) (81, -7.11787872844816815743e-02) (82, -6.56028797734987123569e-02) (83, -7.34848395881368549043e-02) (84, 6.88282809620896635083e-02) (85, -4.76464695281173591934e-02) (86, 1.31825280096767695828e-03) (87, 1.67959302852379754878e-01) (88, -7.28474295719505476887e-02) (89, 1.50000000000000000000e+03) (90, 1.50000000000000000000e+03) (91, 6.75932714740130891062e-03) (92, -2.89167724931806979782e-02) (93, 8.10805389700385986673e-02) (94, 1.13661449027632893705e-01) (95, 1.99890909816004269661e-01) (96, 1.54935110289775052062e-01) (97, -1.03293865311136337515e-01) (98, -8.80835575831412503911e-02) (99, 1.50000000000000000000e+03) (100, 1.50000000000000000000e+03) (101, -9.72948029443845979758e-02) (102, -7.11676060396694426524e-02) (103, 3.46209546959177771885e-02) (104, -6.59694697367698215662e-03) (105, 2.17009709126918734490e-02) (106, 1.48111061036365843080e-01) (107, 1.92729979469232377831e-02) (108, 4.04326446649037885006e-02) (109, 1.50000000000000000000e+03) (110, 1.50000000000000000000e+03) (111, -6.28579494936114674397e-02) (112, 4.90641088566864426446e-03) (113, -1.96468101738052125516e-01) (114, -1.72422112800959814738e-01) (115, -1.27111613018776270501e-01) (116, 6.49553638080112155651e-02) (117, 1.02958978859757303154e-02) (118, -1.26849776052105678303e-01) (119, 1.50000000000000000000e+03) (120, 1.50000000000000000000e+03) (121, -1.03490183751515252286e-01) (122, -1.17413035062114923246e-01) (123, -1.87056044624792972009e-01) (124, -1.33371687826218943140e-01) (125, 3.50544066655943467592e-02) (126, -1.52605082952531695417e-01) (127, -8.02734537781037427173e-02) (128, -2.50997947600460277751e-02) (129, 1.50000000000000000000e+03) (130, 1.50000000000000000000e+03) (131, -1.96012723100784214125e-01) (132, 1.95967592642615290321e-01) (133, 4.89778238219329198344e-01) (134, 6.64970758774791614876e-01) (135, 1.15996238574488236273e-01) (136, 1.64288321464791664539e-01) (137, 1.20193340977920205825e-02) (138, -3.21181601374727898612e-01) (139, 1.50000000000000000000e+03) (140, 1.50000000000000000000e+03) (141, 2.24748384851821109143e-01) (142, 5.63200544847218473321e-02) (143, 2.71070126957646470589e-02) (144, 1.82160725123376082690e-01) (145, 1.76215906865091032074e-01) (146, 3.34912885493985346130e-02) (147, 2.21214852949392470904e-01) (148, 2.31339022151246104242e-01) (149, 1.50000000000000000000e+03) (150, 1.50000000000000000000e+03) (151, 1.50000000000000000000e+03) (152, 1.50000000000000000000e+03) (153, 1.50000000000000000000e+03) (154, 1.50000000000000000000e+03) (155, 1.50000000000000000000e+03) (156, 1.50000000000000000000e+03) (157, 1.50000000000000000000e+03) (158, 1.50000000000000000000e+03) (159, 1.50000000000000000000e+03) (160, 7.44281207510476411349e-02) (0, 1.50000000000000000000e+03) (1, 1.50000000000000000000e+03) (2, 1.50000000000000000000e+03) (3, 1.50000000000000000000e+03) (4, 1.50000000000000000000e+03) (5, 1.50000000000000000000e+03) (6, 1.50000000000000000000e+03) (7, 1.50000000000000000000e+03) (8, 1.50000000000000000000e+03) (9, 1.50000000000000000000e+03) (10, 1.50000000000000000000e+03) (11, 1.50000000000000000000e+03) (12, 1.50000000000000000000e+03) (13, 1.50000000000000000000e+03) (14, 1.50000000000000000000e+03) (15, 1.50000000000000000000e+03) (16, 1.50000000000000000000e+03) (17, 1.50000000000000000000e+03) (18, 1.50000000000000000000e+03) (19, 1.50000000000000000000e+03) (20, 1.50000000000000000000e+03) (21, 1.50000000000000000000e+03) (22, 5.81139056041098056582e-01) (23, 5.91594381286955295352e-01) (24, 6.97721194363021712803e-01) (25, 6.77747482392089040104e-01) (26, 1.27337776619279335888e-01) (27, 3.38501836787636456449e-01) (28, 5.72009829477985176638e-01) (29, 1.50000000000000000000e+03) (30, 1.50000000000000000000e+03) (31, 4.71674661041453113786e-01) (32, 6.64857955609020834231e-01) (33, 5.08284213047842658995e-01) (34, 2.63858965373683029831e-01) (35, 3.92711690888489450835e-01) (36, 3.88356939064251116545e-01) (37, 5.42715281575251617951e-01) (38, 4.33818564188545918725e-01) (39, 1.50000000000000000000e+03) (40, 1.50000000000000000000e+03) (41, 5.73480067694772555065e-01) (42, 4.91225478929100456416e-01) (43, 3.60041597783865630067e-01) (44, 4.11361918861418651705e-01) (45, 2.72218346026885049671e-01) (46, 4.11811471039154775031e-01) (47, 6.13776139215535865290e-01) (48, 6.63885678708820980987e-01) (49, 1.50000000000000000000e+03) (50, 1.50000000000000000000e+03) (51, 5.47794930404085111952e-01) (52, 4.48891721048976177766e-01) (53, 3.91652311622586013495e-01) (54, 3.23223799737675843158e-01) (55, 4.42477345277006828272e-01) (56, 3.88325992901434879911e-01) (57, 4.32720291992427230632e-01) (58, 5.86129396514358136372e-01) (59, 1.50000000000000000000e+03) (60, 1.50000000000000000000e+03) (61, 5.40232389742328678039e-01) (62, 5.83375935375717080689e-01) (63, 4.77416089025661849465e-01) (64, 5.10421429410163329798e-01) (65, 5.16812095225649414942e-01) (66, 4.48677531089753445226e-01) (67, 4.41669327081687046466e-01) (68, 5.37761458477564846525e-01) (69, 1.50000000000000000000e+03) (70, 1.50000000000000000000e+03) (71, 4.34886520789520558683e-01) (72, 4.94428499554965705798e-01) (73, 3.41097711864050134878e-01) (74, 4.71934856193880702957e-01) (75, 4.47432838918140451945e-01) (76, 4.69876927086940177070e-01) (77, 5.45677639231374578266e-01) (78, 6.04937314741584408750e-01) (79, 1.50000000000000000000e+03) (80, 1.50000000000000000000e+03) (81, 4.93126207870153099311e-01) (82, 5.27967055547630570445e-01) (83, 3.79958436416711287098e-01) (84, 4.07674475148178228068e-01) (85, 3.61746698884730544243e-01) (86, 3.88464572863885138077e-01) (87, 4.88257611363952181982e-01) (88, 5.00434116109538584816e-01) (89, 1.50000000000000000000e+03) (90, 1.50000000000000000000e+03) (91, 4.69188526972011354932e-01) (92, 6.21344580131647394872e-01) (93, 5.35203525345482988840e-01) (94, 5.26692102716513343985e-01) (95, 3.74182949676062248656e-01) (96, 3.14447679474996966142e-01) (97, 4.30529646648758979044e-01) (98, 5.03988636340652829126e-01) (99, 1.50000000000000000000e+03) (100, 1.50000000000000000000e+03) (101, 6.11607639531457580873e-01) (102, 4.26020355707530440359e-01) (103, 4.96785523964881847725e-01) (104, 6.12681810163478446363e-01) (105, 4.39237872628159942145e-01) (106, 4.15774915786061627365e-01) (107, 3.24458387028785433248e-01) (108, 4.06958947014438021661e-01) (109, 1.50000000000000000000e+03) (110, 1.50000000000000000000e+03) (111, 5.11650167964021074241e-01) (112, 5.06173232814298490467e-01) (113, 7.80984477594210302343e-01) (114, 6.41954305179725626118e-01) (115, 3.49003640881416443698e-01) (116, 5.26110676712114755382e-01) (117, 3.80091969633088722080e-01) (118, 5.84914752379522728809e-01) (119, 1.50000000000000000000e+03) (120, 1.50000000000000000000e+03) (121, 4.50160399471219996315e-01) (122, 5.34298298063845322758e-01) (123, 5.57666324228299981058e-01) (124, 5.28527944023461815348e-01) (125, 4.83828559549308145904e-01) (126, 5.12755202738576221222e-01) (127, 4.91892276071253298220e-01) (128, 5.73905976970865649989e-01) (129, 1.50000000000000000000e+03) (130, 1.50000000000000000000e+03) (131, 7.32649629169213278956e-01) (132, 4.07404704211721480078e-01) (133, 6.93733764872785596545e-01) (134, 1.63620266767446204126e-01) (135, 2.76569054168582351139e-01) (136, 4.49717655297488860811e-01) (137, 5.91553135121778428385e-01) (138, 7.93756633306725745136e-01) (139, 1.50000000000000000000e+03) (140, 1.50000000000000000000e+03) (141, 7.21096385253908733759e-01) (142, 5.65175480851628497803e-01) (143, 3.80143115044685619974e-01) (144, 4.23825973392578381205e-01) (145, 3.97300095976444500590e-01) (146, 4.49546197177025097513e-01) (147, 3.81612384350251410137e-01) (148, 2.82281487895587324122e-01) (149, 1.50000000000000000000e+03) (150, 1.50000000000000000000e+03) (151, 1.50000000000000000000e+03) (152, 1.50000000000000000000e+03) (153, 1.50000000000000000000e+03) (154, 1.50000000000000000000e+03) (155, 1.50000000000000000000e+03) (156, 1.50000000000000000000e+03) (157, 1.50000000000000000000e+03) (158, 1.50000000000000000000e+03) (159, 1.50000000000000000000e+03) (160, 4.14574581375933004512e-01) (0, 1.50000000000000000000e+03) (1, 1.50000000000000000000e+03) (2, 1.50000000000000000000e+03) (3, 1.50000000000000000000e+03) (4, 1.50000000000000000000e+03) (5, 1.50000000000000000000e+03) (6, 1.50000000000000000000e+03) (7, 1.50000000000000000000e+03) (8, 1.50000000000000000000e+03) (9, 1.50000000000000000000e+03) (10, 1.50000000000000000000e+03) (11, 1.50000000000000000000e+03) (12, 1.50000000000000000000e+03) (13, 1.50000000000000000000e+03) (14, 1.50000000000000000000e+03) (15, 1.50000000000000000000e+03) (16, 1.50000000000000000000e+03) (17, 1.50000000000000000000e+03) (18, 1.50000000000000000000e+03) (19, 1.50000000000000000000e+03) (20, 1.50000000000000000000e+03) (21, 1.50000000000000000000e+03) (22, 5.61415444697922594308e-01) (23, 3.87245516862491423460e-01) (24, 5.05898662849769031880e-01) (25, 5.33697180767075285424e-01) (26, 1.57607952700821951630e+00) (27, 7.12253030514508833626e-01) (28, 5.26998834929668036331e-01) (29, 1.50000000000000000000e+03) (30, 1.50000000000000000000e+03) (31, 4.86771380893281035984e-01) (32, 2.71747894944976642329e-01) (33, 4.11908813548900354373e-01) (34, 4.25146949192920509120e-01) (35, 5.04097086126872095946e-01) (36, 4.25892970581761454163e-01) (37, 4.49626661249942605192e-01) (38, 3.37393014145427216910e-01) (39, 1.50000000000000000000e+03) (40, 1.50000000000000000000e+03) (41, 4.99598909868284313252e-01) (42, 4.43406444762918183766e-01) (43, 5.49347499555419283013e-01) (44, 4.44434433968145303773e-01) (45, 7.27965183756643319235e-01) (46, 6.42059674424727999664e-01) (47, 4.55447509531451633080e-01) (48, 4.23121271848494406864e-01) (49, 1.50000000000000000000e+03) (50, 1.50000000000000000000e+03) (51, 4.94201511731004849981e-01) (52, 5.18820969587733049622e-01) (53, 5.75043647173716032661e-01) (54, 3.83303739271039722869e-01) (55, 4.10318052435209523754e-01) (56, 4.43460784892917014854e-01) (57, 4.25095335535468188404e-01) (58, 3.96057446539612389991e-01) (59, 1.50000000000000000000e+03) (60, 1.50000000000000000000e+03) (61, 5.69930602065729763339e-01) (62, 4.01340245804637174576e-01) (63, 3.29935866203090399917e-01) (64, 5.13391748530890312807e-01) (65, 3.97834631570167851500e-01) (66, 3.92450503596407929141e-01) (67, 4.48292841476565451231e-01) (68, 4.14557934639963043821e-01) (69, 1.50000000000000000000e+03) (70, 1.50000000000000000000e+03) (71, 3.99779172763704504501e-01) (72, 4.97664190737598322034e-01) (73, 4.63617242979239896350e-01) (74, 4.93613694518764967167e-01) (75, 5.17984669244763717977e-01) (76, 4.54346684829979197140e-01) (77, 4.07678166441837186440e-01) (78, 4.47579326781473163521e-01) (79, 1.50000000000000000000e+03) (80, 